svm_type c_svc
kernel_type rbf
gamma 0.435275
nr_class 2
total_sv 2078
rho 0.3407
label 1 0
nr_sv 963 1115
SV
0.9076016398654497 1:1 2:1 3:1 7:1 8:1 9:1 13:1 14:1 15:1 16:1 17:1 22:1 24:1 26:1 27:1 29:1 30:1 31:1 35:1 36:1 
1.11625868643146 1:1 2:1 3:1 4:1 5:1 7:1 8:1 11:1 12:1 13:1 16:1 19:1 22:1 24:1 25:1 26:1 27:1 29:1 30:1 31:1 35:1 
1.086528729915789 4:1 5:1 7:1 8:1 9:1 10:1 11:1 12:1 13:1 14:1 15:1 16:1 22:1 26:1 27:1 29:1 30:1 31:1 34:1 
1.038211061006003 1:1 2:1 3:1 7:1 8:1 9:1 10:1 11:1 12:1 13:1 14:1 15:1 17:1 19:1 22:1 24:1 25:1 26:1 27:1 28:1 29:1 
1.080271397527243 1:1 4:1 8:1 9:1 10:1 11:1 12:1 13:1 14:1 15:1 16:1 19:1 27:1 28:1 29:1 31:1 34:1 35:1 36:1 
1.409719982949822 1:1 2:1 4:1 5:1 7:1 8:1 9:1 11:1 12:1 14:1 15:1 16:1 19:1 23:1 24:1 25:1 28:1 29:1 33:1 36:1 
0.8698157449452742 1:1 3:1 4:1 5:1 7:1 8:1 9:1 12:1 13:1 15:1 22:1 25:1 28:1 30:1 31:1 34:1 
1.32815536887831 2:1 3:1 4:1 5:1 7:1 8:1 9:1 10:1 15:1 16:1 17:1 18:1 19:1 22:1 24:1 25:1 26:1 28:1 30:1 31:1 
0.9471690109851998 1:1 2:1 3:1 4:1 6:1 7:1 8:1 9:1 10:1 11:1 13:1 14:1 15:1 16:1 17:1 19:1 22:1 24:1 26:1 28:1 30:1 31:1 32:1 33:1 34:1 36:1 
0.8629656760898712 1:1 4:1 7:1 8:1 9:1 10:1 11:1 12:1 13:1 14:1 15:1 16:1 19:1 20:1 22:1 26:1 27:1 28:1 29:1 34:1 35:1 
0.8197100784220229 1:1 2:1 4:1 7:1 8:1 9:1 13:1 14:1 15:1 16:1 17:1 19:1 27:1 29:1 34:1 35:1 
1.297365434114802 1:1 2:1 3:1 4:1 5:1 8:1 9:1 11:1 12:1 13:1 14:1 15:1 19:1 22:1 26:1 27:1 28:1 29:1 
1.16093831070849 1:1 2:1 3:1 4:1 6:1 7:1 8:1 9:1 10:1 12:1 14:1 16:1 18:1 21:1 22:1 26:1 27:1 29:1 31:1 32:1 35:1 
0.9362461874775621 1:1 2:1 4:1 7:1 8:1 9:1 10:1 11:1 12:1 14:1 15:1 19:1 21:1 22:1 25:1 26:1 28:1 30:1 31:1 34:1 
0.6281978503969038 2:1 3:1 4:1 7:1 8:1 9:1 12:1 13:1 14:1 15:1 22:1 26:1 27:1 28:1 30:1 32:1 34:1 
0.7827427479045431 2:1 3:1 4:1 7:1 8:1 9:1 11:1 12:1 15:1 19:1 22:1 25:1 26:1 27:1 29:1 32:1 34:1 
1.176079703439697 1:1 2:1 3:1 4:1 7:1 8:1 9:1 10:1 11:1 13:1 15:1 16:1 17:1 19:1 20:1 21:1 22:1 24:1 25:1 26:1 27:1 28:1 29:1 30:1 32:1 36:1 
0.9318986766383135 1:1 2:1 3:1 4:1 6:1 7:1 8:1 9:1 12:1 13:1 14:1 15:1 16:1 21:1 22:1 26:1 27:1 31:1 32:1 33:1 35:1 
1.030314039850073 1:1 2:1 3:1 4:1 8:1 9:1 10:1 11:1 12:1 14:1 15:1 19:1 23:1 25:1 28:1 29:1 30:1 31:1 34:1 
1.134023787836012 1:1 2:1 3:1 4:1 7:1 8:1 9:1 12:1 14:1 16:1 17:1 22:1 27:1 28:1 30:1 33:1 34:1 35:1 36:1 
1.232619348371471 1:1 2:1 3:1 4:1 7:1 9:1 10:1 12:1 13:1 14:1 15:1 16:1 19:1 22:1 24:1 25:1 26:1 27:1 28:1 29:1 30:1 34:1 36:1 
0.6226247687549941 1:1 2:1 3:1 7:1 8:1 9:1 14:1 15:1 19:1 25:1 26:1 27:1 29:1 31:1 35:1 
1.125193436529162 1:1 2:1 3:1 4:1 7:1 9:1 10:1 11:1 12:1 14:1 16:1 17:1 22:1 23:1 27:1 31:1 33:1 
1.243395691228335 1:1 4:1 7:1 8:1 9:1 12:1 13:1 14:1 15:1 19:1 23:1 24:1 25:1 26:1 29:1 30:1 31:1 32:1 34:1 35:1 
1.034477996566366 1:1 3:1 4:1 7:1 8:1 11:1 12:1 13:1 14:1 15:1 16:1 17:1 19:1 22:1 25:1 26:1 27:1 28:1 29:1 34:1 
1.199583692583644 1:1 2:1 3:1 4:1 9:1 10:1 11:1 12:1 13:1 14:1 15:1 17:1 19:1 20:1 21:1 22:1 23:1 24:1 25:1 26:1 27:1 28:1 29:1 30:1 31:1 32:1 34:1 35:1 
1.252457456548142 1:1 2:1 4:1 6:1 7:1 9:1 10:1 11:1 12:1 15:1 16:1 17:1 19:1 21:1 22:1 29:1 31:1 32:1 34:1 36:1 
1.183220270017681 1:1 2:1 3:1 7:1 9:1 10:1 11:1 12:1 13:1 14:1 16:1 17:1 18:1 19:1 22:1 28:1 29:1 30:1 32:1 34:1 35:1 36:1 
1.263920292640504 2:1 3:1 4:1 7:1 9:1 11:1 12:1 13:1 15:1 16:1 17:1 21:1 22:1 25:1 26:1 27:1 28:1 29:1 31:1 34:1 35:1 36:1 
1.633615819925286 1:1 2:1 3:1 4:1 7:1 8:1 9:1 11:1 12:1 13:1 15:1 22:1 23:1 25:1 26:1 27:1 32:1 34:1 
0.8619435426896895 1:1 2:1 7:1 8:1 12:1 13:1 14:1 15:1 16:1 19:1 20:1 21:1 22:1 25:1 26:1 27:1 28:1 29:1 30:1 31:1 32:1 34:1 35:1 36:1 
1.261856074578917 1:1 2:1 4:1 5:1 7:1 8:1 10:1 11:1 12:1 13:1 14:1 15:1 16:1 19:1 21:1 22:1 28:1 30:1 33:1 34:1 36:1 
0.6980569792009742 1:1 2:1 7:1 8:1 9:1 11:1 12:1 13:1 14:1 15:1 16:1 19:1 22:1 24:1 26:1 27:1 28:1 30:1 34:1 
0.6932793550434768 1:1 2:1 3:1 4:1 8:1 11:1 12:1 13:1 14:1 15:1 16:1 18:1 19:1 22:1 25:1 26:1 27:1 28:1 34:1 
1.234474600263759 1:1 2:1 6:1 7:1 9:1 10:1 11:1 12:1 14:1 15:1 16:1 20:1 22:1 23:1 27:1 28:1 29:1 32:1 34:1 35:1 
1.244306157597479 1:1 2:1 7:1 9:1 14:1 19:1 21:1 23:1 27:1 28:1 30:1 31:1 32:1 34:1 
0.9712294984364261 1:1 2:1 6:1 8:1 9:1 11:1 13:1 14:1 15:1 16:1 18:1 22:1 26:1 27:1 30:1 31:1 32:1 33:1 34:1 
1.234886184190294 1:1 2:1 3:1 4:1 7:1 8:1 10:1 11:1 13:1 18:1 19:1 20:1 21:1 22:1 24:1 25:1 27:1 28:1 30:1 32:1 33:1 34:1 
1.341440768827982 1:1 3:1 4:1 5:1 6:1 7:1 8:1 9:1 11:1 12:1 13:1 14:1 15:1 16:1 19:1 20:1 21:1 22:1 23:1 25:1 26:1 27:1 28:1 31:1 34:1 
1.141400291413126 2:1 3:1 8:1 10:1 11:1 12:1 13:1 14:1 15:1 22:1 25:1 26:1 27:1 28:1 31:1 34:1 
1.183862376272084 1:1 2:1 3:1 4:1 7:1 8:1 9:1 10:1 11:1 14:1 18:1 19:1 22:1 24:1 25:1 26:1 27:1 28:1 29:1 34:1 
1.682095483006895 1:1 2:1 3:1 7:1 8:1 9:1 10:1 11:1 12:1 14:1 15:1 19:1 20:1 21:1 23:1 24:1 26:1 27:1 30:1 31:1 
0.7592018349748743 1:1 2:1 3:1 4:1 7:1 8:1 9:1 12:1 14:1 15:1 16:1 17:1 19:1 23:1 26:1 27:1 28:1 31:1 34:1 
1.067054361212944 2:1 4:1 7:1 8:1 9:1 11:1 13:1 14:1 15:1 16:1 19:1 25:1 26:1 27:1 30:1 31:1 32:1 36:1 
1.3231372878729 1:1 2:1 8:1 9:1 12:1 13:1 14:1 19:1 21:1 22:1 25:1 29:1 34:1 
1.222057944557984 1:1 3:1 4:1 5:1 6:1 8:1 9:1 13:1 14:1 22:1 25:1 26:1 31:1 32:1 33:1 
1.117754516726498 2:1 3:1 4:1 7:1 9:1 10:1 11:1 12:1 13:1 14:1 15:1 19:1 20:1 21:1 22:1 24:1 26:1 29:1 30:1 31:1 34:1 35:1 
0.9297009166020251 1:1 2:1 3:1 4:1 7:1 8:1 9:1 11:1 12:1 15:1 16:1 19:1 22:1 26:1 27:1 28:1 29:1 
0.5576865504868939 1:1 2:1 4:1 7:1 8:1 9:1 10:1 11:1 12:1 13:1 14:1 15:1 19:1 22:1 25:1 26:1 27:1 28:1 31:1 32:1 34:1 
0.688782045354936 1:1 2:1 3:1 4:1 7:1 8:1 9:1 10:1 12:1 14:1 15:1 16:1 18:1 19:1 22:1 25:1 26:1 27:1 29:1 31:1 
0.09777240433518872 1:1 2:1 3:1 4:1 8:1 9:1 10:1 11:1 12:1 13:1 14:1 15:1 16:1 19:1 22:1 23:1 25:1 26:1 27:1 29:1 31:1 34:1 
1.222446078560883 1:1 2:1 3:1 7:1 8:1 9:1 12:1 13:1 14:1 15:1 19:1 20:1 22:1 24:1 29:1 30:1 31:1 35:1 
0.5617559621076168 1:1 2:1 4:1 7:1 8:1 9:1 11:1 12:1 13:1 14:1 15:1 16:1 19:1 22:1 23:1 26:1 27:1 28:1 29:1 30:1 31:1 34:1 36:1 
0.6744158479091661 1:1 2:1 3:1 4:1 5:1 6:1 7:1 8:1 9:1 13:1 15:1 16:1 18:1 19:1 22:1 26:1 27:1 31:1 34:1 
1.287773995791581 1:1 2:1 3:1 4:1 7:1 8:1 9:1 10:1 11:1 12:1 14:1 15:1 16:1 21:1 24:1 26:1 27:1 30:1 32:1 34:1 
1.074707425947306 1:1 2:1 3:1 4:1 5:1 6:1 7:1 8:1 9:1 10:1 11:1 12:1 13:1 14:1 19:1 22:1 23:1 24:1 25:1 29:1 31:1 34:1 
1.236155779496769 2:1 3:1 4:1 6:1 7:1 8:1 12:1 13:1 14:1 16:1 17:1 18:1 22:1 23:1 24:1 26:1 27:1 28:1 29:1 34:1 35:1 
0.03382992780009955 1:1 2:1 3:1 4:1 7:1 8:1 9:1 10:1 11:1 13:1 14:1 15:1 16:1 19:1 22:1 27:1 29:1 34:1 
0.4529890403867423 1:1 2:1 3:1 4:1 7:1 9:1 10:1 11:1 12:1 13:1 14:1 15:1 16:1 19:1 22:1 23:1 25:1 26:1 28:1 29:1 31:1 35:1 
0.6838935122602269 1:1 2:1 3:1 8:1 9:1 11:1 13:1 14:1 15:1 19:1 22:1 24:1 26:1 27:1 29:1 30:1 34:1 35:1 
0.8089424883297214 1:1 2:1 3:1 7:1 8:1 9:1 10:1 11:1 12:1 13:1 14:1 15:1 18:1 19:1 22:1 25:1 26:1 27:1 28:1 29:1 31:1 34:1 
1.346829663858518 1:1 2:1 4:1 6:1 7:1 8:1 9:1 10:1 11:1 12:1 13:1 15:1 16:1 22:1 24:1 25:1 26:1 27:1 28:1 29:1 30:1 31:1 34:1 35:1 
0.6694582239537316 1:1 2:1 3:1 4:1 5:1 8:1 10:1 11:1 12:1 13:1 15:1 16:1 22:1 25:1 26:1 27:1 28:1 29:1 34:1 
1.199427571458877 2:1 4:1 8:1 9:1 11:1 12:1 15:1 16:1 17:1 18:1 19:1 25:1 26:1 27:1 31:1 32:1 
1.324177460626761 1:1 2:1 3:1 4:1 5:1 7:1 8:1 9:1 12:1 14:1 15:1 17:1 19:1 22:1 24:1 25:1 26:1 27:1 29:1 30:1 
0.8308946709373152 1:1 2:1 4:1 6:1 7:1 9:1 11:1 13:1 14:1 15:1 16:1 25:1 26:1 27:1 29:1 30:1 34:1 
1.526758154618554 1:1 2:1 4:1 5:1 7:1 8:1 9:1 11:1 12:1 13:1 14:1 15:1 16:1 19:1 21:1 22:1 25:1 26:1 27:1 29:1 30:1 34:1 35:1 
1.121658706886615 1:1 2:1 4:1 7:1 9:1 12:1 14:1 16:1 19:1 20:1 21:1 22:1 24:1 26:1 27:1 30:1 34:1 
0.435751151661426 1:1 2:1 4:1 7:1 9:1 10:1 11:1 12:1 13:1 15:1 16:1 22:1 26:1 27:1 28:1 34:1 35:1 
1.587649202726535 1:1 3:1 4:1 7:1 8:1 10:1 11:1 12:1 13:1 14:1 15:1 17:1 19:1 22:1 29:1 
0.9656907008543014 1:1 2:1 3:1 7:1 8:1 11:1 12:1 13:1 15:1 16:1 17:1 19:1 20:1 21:1 22:1 25:1 26:1 27:1 28:1 29:1 31:1 34:1 
1.061983887061428 1:1 4:1 7:1 9:1 10:1 11:1 12:1 13:1 14:1 15:1 16:1 19:1 21:1 22:1 23:1 25:1 28:1 29:1 31:1 32:1 34:1 35:1 
1.584937556540821 2:1 3:1 4:1 5:1 6:1 7:1 8:1 9:1 10:1 11:1 12:1 13:1 14:1 15:1 16:1 20:1 21:1 24:1 25:1 26:1 27:1 30:1 31:1 34:1 
1.085447400917704 2:1 3:1 4:1 7:1 8:1 9:1 10:1 11:1 12:1 13:1 14:1 15:1 16:1 17:1 21:1 25:1 26:1 29:1 34:1 35:1 
1.374151549380865 1:1 3:1 8:1 9:1 11:1 12:1 15:1 19:1 25:1 26:1 27:1 29:1 
0.8987764113932006 1:1 2:1 3:1 4:1 6:1 7:1 8:1 9:1 11:1 12:1 13:1 14:1 15:1 16:1 17:1 19:1 22:1 25:1 26:1 27:1 31:1 32:1 34:1 
1.558464866432128 1:1 6:1 7:1 8:1 9:1 11:1 12:1 13:1 14:1 15:1 16:1 19:1 20:1 21:1 22:1 24:1 26:1 30:1 31:1 35:1 
0.03782700933473293 1:1 2:1 3:1 4:1 8:1 9:1 11:1 12:1 13:1 15:1 16:1 19:1 22:1 25:1 26:1 27:1 28:1 29:1 30:1 31:1 34:1 35:1 
1.020263310959182 1:1 2:1 4:1 6:1 7:1 8:1 9:1 10:1 11:1 14:1 16:1 17:1 19:1 22:1 24:1 30:1 31:1 34:1 
1.202472737024983 1:1 2:1 4:1 5:1 7:1 8:1 9:1 11:1 13:1 14:1 15:1 16:1 21:1 22:1 24:1 25:1 26:1 27:1 28:1 30:1 
0.592129643686289 1:1 2:1 3:1 4:1 7:1 8:1 9:1 10:1 11:1 12:1 13:1 14:1 16:1 19:1 26:1 27:1 28:1 31:1 32:1 34:1 
0.9806929660873794 1:1 2:1 3:1 4:1 8:1 9:1 10:1 11:1 12:1 13:1 14:1 15:1 16:1 17:1 19:1 22:1 24:1 27:1 29:1 30:1 35:1 
1.202802693805905 1:1 3:1 4:1 6:1 7:1 8:1 10:1 11:1 12:1 14:1 16:1 22:1 26:1 27:1 31:1 32:1 33:1 
0.6920139344374013 2:1 3:1 4:1 7:1 9:1 10:1 12:1 13:1 14:1 15:1 19:1 21:1 22:1 25:1 26:1 27:1 28:1 29:1 31:1 34:1 
0.9594410163098995 1:1 3:1 4:1 8:1 9:1 10:1 12:1 13:1 14:1 15:1 16:1 19:1 24:1 25:1 26:1 27:1 28:1 29:1 34:1 
1.31633054084371 1:1 3:1 6:1 7:1 8:1 9:1 10:1 11:1 12:1 13:1 14:1 20:1 22:1 23:1 25:1 26:1 27:1 34:1 
1.143417106094728 1:1 2:1 3:1 4:1 7:1 9:1 11:1 12:1 13:1 14:1 15:1 16:1 19:1 20:1 21:1 22:1 25:1 27:1 29:1 30:1 34:1 
1.509840343064065 1:1 2:1 3:1 8:1 9:1 10:1 11:1 12:1 13:1 14:1 19:1 22:1 25:1 26:1 27:1 28:1 30:1 
0.7334366570035568 1:1 2:1 3:1 4:1 7:1 8:1 9:1 11:1 13:1 14:1 15:1 16:1 21:1 22:1 25:1 27:1 28:1 34:1 35:1 
0.9107420790982786 2:1 3:1 4:1 7:1 8:1 9:1 10:1 11:1 12:1 13:1 15:1 16:1 17:1 22:1 27:1 32:1 33:1 34:1 
1.797869230603524 1:1 2:1 3:1 7:1 8:1 9:1 10:1 11:1 12:1 13:1 14:1 15:1 16:1 17:1 19:1 25:1 26:1 27:1 30:1 31:1 
1.216834861377079 1:1 2:1 3:1 5:1 6:1 7:1 8:1 9:1 10:1 12:1 14:1 16:1 19:1 22:1 24:1 25:1 26:1 27:1 28:1 29:1 32:1 33:1 34:1 
1.295483978287492 1:1 4:1 6:1 9:1 12:1 13:1 14:1 15:1 16:1 19:1 22:1 25:1 28:1 29:1 30:1 33:1 
0.734321820155262 2:1 3:1 4:1 7:1 9:1 10:1 11:1 12:1 14:1 15:1 16:1 19:1 22:1 24:1 26:1 28:1 29:1 31:1 
0.8918870239314045 1:1 3:1 4:1 7:1 8:1 10:1 11:1 12:1 13:1 14:1 15:1 16:1 20:1 21:1 22:1 23:1 25:1 26:1 27:1 28:1 31:1 34:1 
1.167325294662861 3:1 7:1 9:1 13:1 14:1 15:1 16:1 18:1 19:1 25:1 26:1 27:1 31:1 32:1 36:1 
0.627995268391949 1:1 2:1 3:1 4:1 7:1 9:1 11:1 12:1 13:1 14:1 15:1 16:1 17:1 19:1 23:1 27:1 28:1 29:1 30:1 31:1 34:1 35:1 
1.193851985617979 2:1 3:1 7:1 8:1 9:1 10:1 11:1 13:1 14:1 15:1 16:1 17:1 18:1 19:1 20:1 22:1 23:1 25:1 26:1 27:1 28:1 29:1 30:1 31:1 34:1 35:1 36:1 
1.44320242097418 1:1 2:1 5:1 7:1 8:1 9:1 10:1 11:1 12:1 13:1 14:1 19:1 20:1 21:1 22:1 27:1 28:1 30:1 32:1 
0.3691488222454767 1:1 2:1 4:1 7:1 8:1 9:1 10:1 11:1 12:1 13:1 14:1 15:1 16:1 17:1 22:1 26:1 28:1 29:1 31:1 32:1 34:1 
1.274614192754607 1:1 2:1 4:1 6:1 7:1 8:1 10:1 11:1 14:1 15:1 16:1 19:1 22:1 25:1 26:1 29:1 
0.8294438316760694 1:1 2:1 3:1 4:1 7:1 8:1 9:1 10:1 12:1 13:1 14:1 15:1 22:1 24:1 25:1 26:1 27:1 28:1 30:1 31:1 
0.8110253601186153 1:1 2:1 3:1 4:1 7:1 8:1 9:1 10:1 11:1 12:1 15:1 16:1 17:1 19:1 22:1 23:1 24:1 27:1 29:1 31:1 34:1 
0.8583748211519331 1:1 2:1 3:1 4:1 6:1 9:1 11:1 12:1 13:1 14:1 15:1 16:1 19:1 22:1 24:1 25:1 26:1 27:1 28:1 29:1 30:1 31:1 32:1 33:1 34:1 
1.431095054365723 2:1 4:1 7:1 8:1 12:1 13:1 14:1 15:1 16:1 22:1 23:1 24:1 26:1 27:1 29:1 30:1 34:1 35:1 36:1 
1.138314991670941 1:1 2:1 3:1 4:1 7:1 8:1 9:1 10:1 11:1 13:1 14:1 15:1 17:1 19:1 20:1 21:1 22:1 23:1 25:1 26:1 27:1 28:1 29:1 34:1 
1.673800095148081 1:1 2:1 3:1 4:1 7:1 8:1 9:1 11:1 12:1 13:1 17:1 22:1 24:1 25:1 26:1 27:1 29:1 30:1 36:1 
1.235869445401964 1:1 2:1 3:1 4:1 5:1 7:1 9:1 10:1 13:1 16:1 17:1 19:1 23:1 26:1 27:1 28:1 29:1 30:1 33:1 34:1 
1.328563360352102 1:1 2:1 3:1 4:1 8:1 9:1 12:1 13:1 15:1 16:1 20:1 21:1 22:1 24:1 25:1 26:1 27:1 28:1 29:1 30:1 34:1 35:1 
1.369600450015773 1:1 2:1 3:1 4:1 7:1 8:1 9:1 13:1 14:1 15:1 19:1 22:1 23:1 26:1 27:1 28:1 33:1 
0.8569405776743232 4:1 9:1 10:1 11:1 12:1 14:1 15:1 19:1 22:1 26:1 27:1 28:1 29:1 31:1 34:1 
1.109826812116271 1:1 2:1 3:1 4:1 5:1 7:1 8:1 10:1 12:1 13:1 14:1 19:1 21:1 22:1 24:1 25:1 26:1 27:1 28:1 29:1 30:1 31:1 32:1 34:1 
1.325199735037309 1:1 2:1 4:1 7:1 8:1 10:1 11:1 12:1 13:1 14:1 15:1 16:1 19:1 22:1 26:1 27:1 31:1 32:1 33:1 35:1 
1.089483703154124 1:1 2:1 3:1 4:1 5:1 7:1 8:1 10:1 11:1 12:1 13:1 17:1 19:1 22:1 25:1 26:1 27:1 29:1 31:1 34:1 
0.9723678813643698 1:1 2:1 3:1 4:1 7:1 8:1 9:1 11:1 12:1 13:1 14:1 15:1 16:1 17:1 19:1 24:1 27:1 29:1 30:1 31:1 32:1 33:1 34:1 
0.8865526706216057 1:1 2:1 3:1 4:1 6:1 7:1 8:1 9:1 13:1 14:1 19:1 22:1 23:1 26:1 27:1 29:1 30:1 31:1 32:1 33:1 34:1 
1.180941797049513 2:1 3:1 4:1 7:1 8:1 13:1 15:1 19:1 22:1 26:1 27:1 29:1 35:1 36:1 
0.7811406383679442 1:1 2:1 3:1 7:1 8:1 9:1 11:1 12:1 13:1 14:1 15:1 16:1 19:1 20:1 22:1 24:1 26:1 27:1 28:1 29:1 30:1 31:1 34:1 
1.394584481448896 1:1 2:1 4:1 7:1 8:1 9:1 10:1 11:1 13:1 15:1 19:1 23:1 25:1 27:1 28:1 29:1 30:1 
1.019300769917809 1:1 2:1 3:1 7:1 8:1 9:1 10:1 11:1 15:1 16:1 20:1 22:1 25:1 27:1 28:1 29:1 31:1 34:1 
0.7560496525342795 1:1 2:1 3:1 4:1 8:1 9:1 10:1 11:1 12:1 13:1 14:1 15:1 16:1 22:1 24:1 25:1 26:1 27:1 28:1 30:1 34:1 
0.5928026861755613 1:1 2:1 3:1 4:1 7:1 8:1 11:1 13:1 14:1 15:1 19:1 26:1 28:1 30:1 31:1 34:1 35:1 
0.786094040944387 2:1 3:1 4:1 7:1 8:1 12:1 13:1 15:1 19:1 22:1 26:1 27:1 28:1 34:1 
1.178646802244441 2:1 3:1 7:1 8:1 9:1 10:1 11:1 13:1 14:1 15:1 25:1 26:1 27:1 
1.75164256744396 1:1 2:1 3:1 4:1 7:1 8:1 9:1 10:1 11:1 12:1 14:1 15:1 22:1 23:1 25:1 26:1 27:1 28:1 29:1 30:1 34:1 35:1 36:1 
1.133111802491479 1:1 2:1 4:1 6:1 7:1 11:1 12:1 14:1 16:1 19:1 20:1 22:1 24:1 25:1 26:1 27:1 29:1 30:1 34:1 
1.063469310662492 1:1 2:1 3:1 7:1 8:1 11:1 13:1 16:1 22:1 24:1 25:1 27:1 30:1 31:1 33:1 34:1 36:1 
0.6044270420035937 1:1 2:1 4:1 7:1 8:1 9:1 10:1 11:1 12:1 13:1 15:1 16:1 19:1 22:1 25:1 26:1 28:1 31:1 32:1 33:1 
1.201359817320906 1:1 3:1 4:1 6:1 8:1 9:1 11:1 12:1 13:1 14:1 15:1 16:1 22:1 24:1 27:1 28:1 
1.302067133282676 2:1 3:1 4:1 7:1 8:1 11:1 12:1 14:1 15:1 22:1 23:1 26:1 27:1 29:1 31:1 
1.401416862851246 1:1 2:1 3:1 4:1 6:1 8:1 9:1 10:1 11:1 13:1 14:1 16:1 19:1 20:1 21:1 22:1 24:1 26:1 27:1 28:1 29:1 30:1 31:1 
1.086120972644889 1:1 2:1 3:1 4:1 8:1 9:1 12:1 14:1 19:1 20:1 22:1 25:1 26:1 28:1 30:1 31:1 34:1 
1.001329797129569 1:1 2:1 4:1 9:1 10:1 11:1 16:1 19:1 22:1 25:1 26:1 27:1 28:1 29:1 31:1 34:1 36:1 
1.159651848798332 1:1 2:1 7:1 8:1 9:1 10:1 12:1 13:1 14:1 15:1 16:1 21:1 22:1 23:1 25:1 26:1 27:1 30:1 31:1 32:1 34:1 
1.255697740770908 1:1 2:1 5:1 6:1 7:1 9:1 12:1 14:1 15:1 16:1 26:1 28:1 29:1 30:1 31:1 32:1 34:1 
0.8894443879964313 1:1 3:1 7:1 9:1 10:1 11:1 12:1 14:1 15:1 16:1 19:1 22:1 24:1 25:1 26:1 30:1 34:1 35:1 
0.09494458882906859 1:1 2:1 3:1 4:1 7:1 8:1 9:1 11:1 12:1 13:1 15:1 16:1 17:1 19:1 22:1 26:1 27:1 28:1 29:1 31:1 34:1 
1.137810527147159 1:1 2:1 3:1 7:1 8:1 9:1 10:1 12:1 13:1 14:1 15:1 16:1 19:1 23:1 29:1 30:1 31:1 33:1 34:1 
1.225992021606636 1:1 2:1 4:1 7:1 9:1 10:1 11:1 12:1 13:1 14:1 15:1 18:1 19:1 22:1 25:1 26:1 27:1 28:1 29:1 30:1 31:1 33:1 
0.9106071608405738 2:1 3:1 4:1 9:1 10:1 11:1 12:1 13:1 14:1 16:1 19:1 22:1 28:1 31:1 34:1 
0.7426075136571832 1:1 3:1 7:1 8:1 10:1 12:1 13:1 16:1 19:1 22:1 25:1 26:1 27:1 28:1 31:1 34:1 
0.8702791657364038 1:1 2:1 4:1 8:1 9:1 11:1 13:1 14:1 15:1 16:1 19:1 26:1 27:1 30:1 31:1 35:1 
0.7963959253291991 1:1 2:1 3:1 4:1 7:1 8:1 9:1 10:1 11:1 12:1 13:1 14:1 15:1 16:1 19:1 20:1 22:1 24:1 27:1 29:1 30:1 34:1 35:1 
1.00098632370237 1:1 3:1 4:1 7:1 9:1 11:1 12:1 14:1 15:1 16:1 17:1 18:1 19:1 22:1 25:1 26:1 27:1 29:1 30:1 31:1 34:1 35:1 
0.9324500730784046 1:1 3:1 4:1 8:1 9:1 10:1 12:1 13:1 14:1 15:1 16:1 22:1 26:1 27:1 28:1 34:1 36:1 
1.393088292640439 2:1 3:1 4:1 5:1 6:1 7:1 8:1 9:1 10:1 11:1 12:1 14:1 15:1 16:1 17:1 21:1 24:1 25:1 26:1 28:1 29:1 30:1 34:1 
0.9576622037666466 1:1 2:1 3:1 7:1 8:1 9:1 10:1 11:1 12:1 14:1 15:1 16:1 19:1 22:1 23:1 24:1 25:1 28:1 29:1 31:1 32:1 34:1 
1.445993367012223 1:1 3:1 6:1 7:1 11:1 12:1 13:1 14:1 15:1 21:1 22:1 25:1 26:1 27:1 28:1 34:1 35:1 
0.566405222135401 1:1 2:1 3:1 4:1 5:1 7:1 8:1 9:1 11:1 13:1 14:1 15:1 19:1 22:1 25:1 26:1 28:1 29:1 30:1 31:1 35:1 
1.282602734286727 2:1 3:1 4:1 7:1 8:1 11:1 12:1 13:1 14:1 15:1 16:1 17:1 18:1 20:1 21:1 22:1 25:1 27:1 29:1 30:1 31:1 34:1 36:1 
1.038063054112276 1:1 2:1 3:1 7:1 9:1 11:1 14:1 15:1 17:1 19:1 22:1 24:1 25:1 26:1 29:1 30:1 34:1 
1.195199678971752 1:1 2:1 3:1 7:1 8:1 9:1 10:1 11:1 16:1 21:1 30:1 
0.535792637655962 1:1 2:1 3:1 4:1 7:1 8:1 9:1 13:1 14:1 19:1 22:1 26:1 27:1 28:1 29:1 30:1 32:1 35:1 
1.144321176088246 1:1 2:1 3:1 4:1 8:1 9:1 11:1 12:1 13:1 14:1 15:1 16:1 17:1 18:1 19:1 22:1 25:1 26:1 27:1 28:1 30:1 31:1 34:1 
0.5541802376677939 1:1 2:1 3:1 4:1 5:1 6:1 7:1 8:1 9:1 11:1 12:1 13:1 14:1 15:1 16:1 19:1 22:1 25:1 26:1 27:1 28:1 29:1 30:1 31:1 34:1 
1.1258849445605 1:1 2:1 3:1 6:1 7:1 9:1 10:1 11:1 12:1 13:1 14:1 15:1 16:1 17:1 19:1 23:1 24:1 25:1 26:1 29:1 31:1 32:1 34:1 
1.346705867903611 1:1 2:1 3:1 6:1 9:1 10:1 11:1 12:1 13:1 14:1 18:1 23:1 29:1 30:1 34:1 
0.1207929610333728 2:1 3:1 4:1 7:1 8:1 9:1 10:1 11:1 12:1 14:1 15:1 19:1 22:1 25:1 26:1 28:1 29:1 31:1 34:1 35:1 
1.286970531180555 1:1 3:1 6:1 7:1 8:1 9:1 10:1 11:1 12:1 17:1 22:1 25:1 26:1 30:1 34:1 
0.9200737216636971 1:1 2:1 3:1 4:1 7:1 8:1 9:1 11:1 12:1 14:1 16:1 19:1 20:1 22:1 23:1 26:1 27:1 28:1 29:1 30:1 32:1 34:1 
0.8205427424612824 1:1 2:1 3:1 4:1 7:1 8:1 9:1 11:1 12:1 13:1 15:1 16:1 19:1 22:1 25:1 26:1 27:1 28:1 29:1 31:1 32:1 
1.56972148712743 2:1 3:1 4:1 6:1 7:1 8:1 9:1 10:1 11:1 12:1 13:1 14:1 15:1 19:1 22:1 24:1 25:1 26:1 27:1 28:1 30:1 34:1 
1.060739510143924 1:1 2:1 3:1 4:1 5:1 7:1 8:1 9:1 11:1 13:1 15:1 21:1 22:1 24:1 26:1 27:1 28:1 29:1 30:1 34:1 35:1 
0.9573948620022822 1:1 3:1 4:1 7:1 8:1 9:1 10:1 11:1 12:1 13:1 14:1 16:1 19:1 22:1 26:1 28:1 29:1 30:1 31:1 36:1 
1.074390258757207 1:1 2:1 3:1 7:1 9:1 10:1 11:1 12:1 13:1 15:1 16:1 18:1 22:1 24:1 25:1 26:1 27:1 28:1 29:1 31:1 35:1 
0.8403338214238533 1:1 2:1 3:1 4:1 7:1 10:1 11:1 12:1 14:1 16:1 19:1 23:1 26:1 27:1 29:1 34:1 35:1 
1.248960764134523 1:1 2:1 4:1 7:1 8:1 9:1 11:1 12:1 14:1 15:1 16:1 18:1 22:1 23:1 24:1 26:1 27:1 28:1 29:1 30:1 32:1 35:1 
1.531248343941887 1:1 2:1 3:1 4:1 5:1 8:1 9:1 12:1 14:1 16:1 19:1 20:1 23:1 24:1 25:1 26:1 27:1 29:1 30:1 35:1 
0.7371609663167317 1:1 2:1 3:1 4:1 6:1 7:1 13:1 14:1 15:1 16:1 22:1 25:1 26:1 27:1 28:1 29:1 30:1 34:1 
0.1639590286827522 1:1 2:1 3:1 4:1 5:1 6:1 7:1 8:1 9:1 11:1 12:1 13:1 14:1 15:1 16:1 19:1 22:1 24:1 25:1 26:1 27:1 28:1 29:1 31:1 34:1 
1.138623191067546 2:1 3:1 6:1 7:1 8:1 9:1 12:1 13:1 14:1 15:1 19:1 21:1 22:1 25:1 26:1 28:1 31:1 32:1 33:1 34:1 
1.418490077225421 3:1 7:1 8:1 10:1 11:1 13:1 14:1 15:1 17:1 19:1 21:1 22:1 23:1 24:1 25:1 26:1 27:1 36:1 
1.19128511379801 1:1 2:1 3:1 4:1 8:1 9:1 10:1 11:1 12:1 13:1 15:1 19:1 21:1 22:1 23:1 25:1 26:1 29:1 31:1 33:1 34:1 
1.371252847154031 1:1 2:1 3:1 4:1 6:1 7:1 8:1 9:1 10:1 13:1 14:1 15:1 16:1 19:1 22:1 24:1 27:1 30:1 31:1 32:1 35:1 
0.8572237243252803 1:1 2:1 3:1 4:1 7:1 9:1 10:1 11:1 12:1 13:1 14:1 15:1 22:1 24:1 26:1 27:1 28:1 29:1 30:1 31:1 34:1 35:1 
1.039849270558905 1:1 2:1 3:1 4:1 6:1 7:1 8:1 9:1 13:1 15:1 16:1 19:1 20:1 22:1 24:1 25:1 28:1 30:1 31:1 34:1 36:1 
0.92399209150636 1:1 3:1 7:1 8:1 9:1 10:1 13:1 14:1 15:1 17:1 19:1 21:1 22:1 24:1 25:1 26:1 27:1 29:1 30:1 34:1 
1.197062572452944 2:1 4:1 8:1 9:1 10:1 11:1 12:1 13:1 15:1 16:1 17:1 18:1 23:1 25:1 29:1 31:1 34:1 
1.351994775067329 1:1 3:1 8:1 12:1 14:1 15:1 17:1 19:1 24:1 25:1 27:1 28:1 29:1 30:1 34:1 35:1 36:1 
0.9442354822896752 2:1 4:1 5:1 7:1 9:1 11:1 12:1 13:1 14:1 15:1 16:1 19:1 22:1 24:1 25:1 26:1 27:1 28:1 30:1 31:1 34:1 
1.400509348806141 1:1 2:1 3:1 4:1 6:1 7:1 8:1 9:1 11:1 12:1 16:1 19:1 22:1 25:1 27:1 29:1 30:1 32:1 35:1 
1.33106823332888 1:1 3:1 4:1 7:1 9:1 10:1 11:1 12:1 13:1 15:1 16:1 19:1 22:1 25:1 27:1 30:1 31:1 32:1 
1.019084937095193 2:1 4:1 8:1 9:1 10:1 11:1 12:1 13:1 14:1 15:1 19:1 22:1 26:1 28:1 30:1 31:1 34:1 35:1 36:1 
1.173057610764701 2:1 3:1 9:1 10:1 11:1 13:1 14:1 16:1 17:1 22:1 25:1 26:1 27:1 28:1 29:1 31:1 32:1 35:1 
0.6653835285527994 1:1 2:1 3:1 7:1 8:1 11:1 12:1 13:1 14:1 15:1 16:1 19:1 20:1 22:1 26:1 27:1 29:1 30:1 34:1 35:1 
1.116307997718623 1:1 2:1 3:1 7:1 8:1 9:1 10:1 11:1 12:1 13:1 14:1 22:1 23:1 25:1 28:1 29:1 31:1 32:1 35:1 
1.135965206166835 1:1 2:1 4:1 10:1 11:1 12:1 14:1 16:1 17:1 19:1 22:1 23:1 24:1 25:1 26:1 28:1 29:1 30:1 31:1 34:1 
1.108793529465621 1:1 3:1 4:1 6:1 7:1 11:1 12:1 13:1 14:1 16:1 22:1 24:1 26:1 27:1 29:1 30:1 31:1 34:1 
0.8892481187748073 2:1 4:1 7:1 8:1 11:1 12:1 14:1 15:1 16:1 17:1 25:1 26:1 27:1 29:1 30:1 34:1 
0.7038362650791381 1:1 2:1 3:1 7:1 9:1 11:1 13:1 14:1 15:1 16:1 19:1 22:1 27:1 28:1 30:1 34:1 
1.377046170973858 1:1 2:1 3:1 4:1 8:1 9:1 10:1 13:1 15:1 19:1 20:1 25:1 26:1 27:1 29:1 34:1 
1.147398299492489 2:1 3:1 4:1 7:1 8:1 9:1 10:1 11:1 13:1 15:1 18:1 19:1 22:1 25:1 27:1 28:1 29:1 30:1 34:1 36:1 
1.033715362962131 2:1 3:1 4:1 6:1 7:1 10:1 11:1 12:1 14:1 15:1 16:1 17:1 19:1 22:1 23:1 25:1 26:1 27:1 29:1 30:1 31:1 33:1 34:1 
0.9701190146825125 1:1 2:1 3:1 4:1 9:1 10:1 11:1 13:1 15:1 16:1 22:1 28:1 29:1 34:1 35:1 
0.9237998230682334 1:1 2:1 3:1 4:1 7:1 8:1 9:1 11:1 12:1 15:1 16:1 22:1 23:1 24:1 26:1 27:1 29:1 30:1 31:1 34:1 
1.193842285429598 1:1 2:1 3:1 4:1 8:1 9:1 12:1 13:1 15:1 16:1 17:1 19:1 22:1 23:1 26:1 29:1 30:1 35:1 
1.436149611487992 1:1 2:1 3:1 4:1 5:1 8:1 9:1 10:1 11:1 12:1 14:1 15:1 19:1 21:1 25:1 26:1 27:1 29:1 31:1 35:1 
1.242953936366147 2:1 3:1 4:1 7:1 8:1 11:1 12:1 13:1 15:1 20:1 21:1 22:1 26:1 27:1 28:1 29:1 30:1 31:1 32:1 34:1 
1.411998139061714 3:1 4:1 6:1 7:1 8:1 9:1 10:1 11:1 12:1 14:1 15:1 16:1 21:1 22:1 23:1 25:1 26:1 28:1 30:1 34:1 
0.8235817832673199 1:1 2:1 3:1 4:1 9:1 10:1 12:1 13:1 14:1 15:1 19:1 23:1 26:1 27:1 29:1 31:1 34:1 35:1 
1.418276462418878 2:1 3:1 4:1 5:1 6:1 7:1 8:1 9:1 10:1 11:1 12:1 15:1 16:1 19:1 21:1 22:1 23:1 26:1 27:1 28:1 31:1 34:1 36:1 
0.7206869084666081 1:1 2:1 3:1 7:1 8:1 9:1 12:1 13:1 14:1 16:1 20:1 21:1 22:1 26:1 27:1 29:1 30:1 31:1 34:1 
1.024409883919281 1:1 2:1 4:1 5:1 6:1 7:1 8:1 9:1 10:1 11:1 12:1 13:1 16:1 17:1 22:1 25:1 26:1 27:1 28:1 29:1 31:1 33:1 34:1 
0.9227066392902423 1:1 2:1 3:1 4:1 8:1 9:1 13:1 14:1 15:1 16:1 17:1 19:1 22:1 24:1 25:1 26:1 28:1 30:1 31:1 34:1 35:1 
1.90537919618596 1:1 2:1 4:1 5:1 7:1 8:1 9:1 10:1 11:1 12:1 13:1 14:1 19:1 20:1 22:1 23:1 25:1 26:1 27:1 28:1 29:1 34:1 35:1 
1.183699109715418 1:1 2:1 3:1 5:1 6:1 7:1 8:1 9:1 13:1 14:1 15:1 16:1 19:1 21:1 22:1 23:1 27:1 29:1 31:1 
1.168432350674922 3:1 4:1 8:1 9:1 10:1 11:1 12:1 13:1 14:1 15:1 19:1 26:1 27:1 28:1 29:1 30:1 31:1 35:1 
0.9945088797065346 2:1 3:1 4:1 7:1 9:1 12:1 13:1 15:1 16:1 22:1 24:1 27:1 28:1 
0.656762446935805 1:1 2:1 3:1 4:1 7:1 8:1 9:1 10:1 11:1 12:1 15:1 16:1 19:1 25:1 26:1 27:1 29:1 30:1 
1.395967221513199 2:1 3:1 6:1 7:1 8:1 9:1 10:1 11:1 12:1 13:1 14:1 15:1 19:1 26:1 27:1 29:1 30:1 31:1 33:1 35:1 
0.7641238741187681 1:1 2:1 3:1 4:1 7:1 8:1 13:1 14:1 15:1 19:1 22:1 24:1 25:1 26:1 27:1 28:1 29:1 30:1 31:1 36:1 
0.8857632024313347 1:1 2:1 3:1 4:1 6:1 7:1 8:1 9:1 10:1 11:1 12:1 14:1 15:1 16:1 17:1 19:1 22:1 23:1 25:1 26:1 27:1 28:1 30:1 31:1 32:1 34:1 
0.9596529198148355 1:1 2:1 3:1 4:1 8:1 9:1 10:1 11:1 12:1 13:1 14:1 15:1 16:1 19:1 22:1 23:1 24:1 28:1 30:1 31:1 32:1 33:1 34:1 36:1 
0.4861074073614808 1:1 2:1 3:1 4:1 7:1 9:1 10:1 12:1 13:1 15:1 16:1 19:1 22:1 24:1 25:1 26:1 28:1 29:1 30:1 31:1 32:1 34:1 35:1 
0.9675784170322058 1:1 2:1 3:1 4:1 7:1 8:1 9:1 10:1 11:1 13:1 14:1 15:1 16:1 19:1 20:1 22:1 28:1 29:1 32:1 36:1 
1.187146029366709 2:1 3:1 4:1 7:1 8:1 11:1 12:1 13:1 14:1 17:1 18:1 23:1 26:1 27:1 29:1 34:1 35:1 
1.161658581675661 1:1 2:1 3:1 4:1 7:1 8:1 9:1 10:1 11:1 13:1 14:1 15:1 19:1 21:1 25:1 27:1 
1.135581245570229 1:1 2:1 3:1 4:1 8:1 9:1 13:1 14:1 15:1 21:1 22:1 23:1 26:1 27:1 29:1 31:1 32:1 36:1 
0.6718611413507136 1:1 2:1 4:1 6:1 8:1 9:1 10:1 11:1 12:1 13:1 14:1 15:1 16:1 22:1 23:1 26:1 27:1 28:1 31:1 32:1 34:1 
1.125946035901079 1:1 2:1 9:1 10:1 11:1 12:1 14:1 16:1 19:1 22:1 24:1 26:1 29:1 30:1 31:1 35:1 
0.8933769716533503 1:1 2:1 3:1 7:1 8:1 9:1 10:1 12:1 13:1 14:1 15:1 17:1 18:1 19:1 22:1 24:1 26:1 27:1 29:1 30:1 34:1 
0.2522547404786986 2:1 3:1 4:1 7:1 9:1 11:1 12:1 13:1 14:1 15:1 19:1 22:1 25:1 26:1 28:1 29:1 31:1 34:1 
1.069171777686691 1:1 2:1 3:1 4:1 6:1 7:1 8:1 9:1 10:1 11:1 12:1 13:1 14:1 15:1 16:1 17:1 19:1 21:1 22:1 24:1 25:1 26:1 27:1 28:1 29:1 31:1 34:1 
1.268158077335085 1:1 2:1 3:1 4:1 7:1 13:1 14:1 15:1 19:1 21:1 22:1 24:1 25:1 26:1 27:1 28:1 30:1 31:1 32:1 
1.272821412640987 1:1 2:1 3:1 4:1 5:1 6:1 7:1 9:1 13:1 14:1 15:1 21:1 22:1 26:1 27:1 28:1 29:1 30:1 32:1 
1.412961934503631 1:1 3:1 4:1 5:1 6:1 7:1 11:1 13:1 14:1 15:1 16:1 23:1 24:1 25:1 26:1 27:1 28:1 29:1 30:1 34:1 35:1 
1.236875576118711 1:1 2:1 3:1 4:1 7:1 8:1 9:1 10:1 11:1 12:1 14:1 15:1 16:1 17:1 18:1 19:1 21:1 22:1 24:1 30:1 35:1 36:1 
1.059418352723355 1:1 2:1 3:1 4:1 6:1 7:1 8:1 9:1 11:1 12:1 13:1 14:1 15:1 16:1 19:1 22:1 23:1 27:1 28:1 29:1 31:1 36:1 
1.049827492378063 1:1 2:1 3:1 4:1 6:1 7:1 9:1 11:1 12:1 14:1 15:1 16:1 21:1 25:1 26:1 29:1 30:1 32:1 34:1 
1.201244899673501 1:1 2:1 8:1 9:1 10:1 11:1 12:1 13:1 14:1 16:1 19:1 20:1 21:1 22:1 29:1 30:1 32:1 34:1 36:1 
1.335201894532839 1:1 2:1 3:1 5:1 7:1 8:1 9:1 10:1 11:1 13:1 14:1 15:1 19:1 21:1 22:1 32:1 33:1 35:1 
1.004650887521112 1:1 3:1 4:1 7:1 8:1 10:1 11:1 12:1 14:1 16:1 22:1 24:1 26:1 27:1 28:1 33:1 34:1 
1.282991988119457 2:1 4:1 7:1 8:1 9:1 10:1 11:1 12:1 13:1 14:1 22:1 24:1 25:1 26:1 27:1 30:1 31:1 
1.306956557364948 1:1 2:1 3:1 4:1 5:1 6:1 7:1 8:1 11:1 13:1 14:1 16:1 17:1 19:1 21:1 22:1 23:1 24:1 27:1 28:1 29:1 31:1 34:1 
0.7936246093109323 1:1 2:1 3:1 4:1 7:1 9:1 10:1 11:1 12:1 13:1 15:1 16:1 19:1 21:1 22:1 24:1 25:1 26:1 27:1 28:1 30:1 33:1 34:1 
0.8919394843778319 1:1 4:1 7:1 8:1 9:1 10:1 11:1 12:1 14:1 15:1 19:1 22:1 23:1 26:1 27:1 28:1 29:1 30:1 31:1 34:1 35:1 
1.103498839713394 1:1 3:1 4:1 7:1 9:1 12:1 13:1 14:1 15:1 22:1 25:1 26:1 28:1 34:1 
0.8642294919653912 1:1 3:1 9:1 14:1 15:1 16:1 19:1 25:1 26:1 27:1 29:1 31:1 35:1 
0.9863746927146099 1:1 3:1 4:1 7:1 9:1 12:1 13:1 14:1 16:1 22:1 27:1 28:1 30:1 33:1 
1.219253386178935 1:1 3:1 4:1 6:1 7:1 8:1 9:1 13:1 15:1 17:1 19:1 20:1 22:1 26:1 27:1 33:1 
0.7072066142512013 1:1 2:1 3:1 4:1 7:1 9:1 10:1 11:1 12:1 13:1 14:1 19:1 22:1 25:1 26:1 27:1 28:1 29:1 30:1 31:1 33:1 34:1 
0.695386692509781 1:1 3:1 4:1 7:1 9:1 12:1 13:1 14:1 15:1 16:1 19:1 22:1 24:1 25:1 28:1 29:1 30:1 31:1 
1.44794885584519 1:1 2:1 7:1 8:1 9:1 10:1 11:1 12:1 13:1 15:1 16:1 22:1 24:1 27:1 
1.21331436911953 1:1 2:1 3:1 9:1 11:1 12:1 13:1 14:1 15:1 16:1 19:1 21:1 25:1 26:1 27:1 29:1 30:1 31:1 36:1 
1.587710727241227 1:1 2:1 3:1 6:1 8:1 9:1 10:1 11:1 12:1 13:1 14:1 15:1 16:1 17:1 21:1 22:1 23:1 25:1 26:1 29:1 
0.8076090470632752 1:1 2:1 3:1 4:1 7:1 8:1 9:1 10:1 13:1 14:1 15:1 16:1 18:1 19:1 26:1 27:1 29:1 32:1 34:1 
1.495572660520408 1:1 2:1 3:1 4:1 6:1 7:1 8:1 9:1 10:1 11:1 12:1 13:1 14:1 19:1 22:1 24:1 25:1 26:1 27:1 29:1 30:1 31:1 36:1 
1.12439248222467 2:1 8:1 9:1 10:1 12:1 13:1 14:1 15:1 16:1 17:1 18:1 22:1 25:1 26:1 27:1 28:1 29:1 31:1 32:1 
1.034297445863486 1:1 3:1 4:1 7:1 8:1 9:1 10:1 11:1 12:1 14:1 16:1 21:1 22:1 26:1 27:1 28:1 35:1 
0.6282067156664317 1:1 2:1 3:1 4:1 7:1 8:1 9:1 10:1 13:1 14:1 15:1 16:1 19:1 20:1 22:1 25:1 26:1 27:1 30:1 34:1 
1.364289900292458 1:1 3:1 4:1 11:1 12:1 13:1 15:1 19:1 20:1 22:1 26:1 27:1 31:1 32:1 
0.7625743895819342 1:1 2:1 3:1 7:1 8:1 9:1 10:1 11:1 13:1 14:1 15:1 16:1 18:1 19:1 21:1 22:1 25:1 26:1 27:1 29:1 30:1 34:1 
1.211917655226791 1:1 2:1 3:1 7:1 9:1 10:1 11:1 13:1 15:1 19:1 24:1 26:1 27:1 29:1 30:1 32:1 34:1 35:1 
1.59433588729776 1:1 2:1 4:1 7:1 8:1 10:1 11:1 12:1 14:1 15:1 20:1 22:1 24:1 25:1 26:1 28:1 29:1 30:1 33:1 35:1 
1.341697272171723 1:1 2:1 3:1 4:1 6:1 7:1 8:1 9:1 10:1 11:1 15:1 16:1 17:1 18:1 22:1 23:1 25:1 26:1 27:1 30:1 
1.077910207481426 1:1 2:1 3:1 4:1 6:1 7:1 8:1 9:1 10:1 11:1 13:1 14:1 15:1 17:1 19:1 27:1 29:1 31:1 32:1 34:1 35:1 
0.86461683183486 1:1 2:1 3:1 4:1 7:1 10:1 11:1 12:1 13:1 14:1 15:1 16:1 17:1 22:1 24:1 25:1 27:1 28:1 29:1 30:1 31:1 33:1 34:1 35:1 
0.8631198329820212 2:1 3:1 7:1 8:1 9:1 11:1 12:1 14:1 15:1 16:1 17:1 19:1 25:1 26:1 27:1 29:1 30:1 
1.202127683960013 7:1 8:1 9:1 11:1 12:1 13:1 14:1 19:1 22:1 23:1 25:1 26:1 27:1 29:1 31:1 35:1 
1.030012754132922 1:1 2:1 3:1 4:1 7:1 8:1 9:1 10:1 11:1 14:1 15:1 16:1 19:1 20:1 22:1 23:1 24:1 26:1 28:1 29:1 31:1 33:1 34:1 
1.580796546116391 2:1 4:1 5:1 7:1 9:1 10:1 11:1 12:1 13:1 14:1 15:1 16:1 19:1 20:1 22:1 24:1 26:1 27:1 28:1 29:1 30:1 35:1 
0.8033919681644912 2:1 4:1 7:1 8:1 9:1 10:1 11:1 13:1 14:1 15:1 16:1 19:1 22:1 24:1 25:1 26:1 28:1 29:1 31:1 32:1 
1.021499049821801 2:1 3:1 5:1 7:1 9:1 10:1 11:1 12:1 13:1 14:1 15:1 16:1 19:1 22:1 23:1 25:1 26:1 27:1 29:1 31:1 33:1 34:1 
1.399603770125359 1:1 2:1 3:1 4:1 7:1 8:1 9:1 11:1 12:1 13:1 15:1 19:1 20:1 21:1 22:1 25:1 26:1 27:1 28:1 29:1 32:1 33:1 34:1 35:1 
0.9785819379655321 1:1 7:1 8:1 9:1 11:1 12:1 14:1 15:1 19:1 22:1 24:1 26:1 27:1 28:1 29:1 30:1 31:1 32:1 35:1 36:1 
0.8952873137701101 1:1 2:1 3:1 7:1 9:1 10:1 11:1 12:1 13:1 14:1 15:1 16:1 19:1 22:1 24:1 28:1 29:1 30:1 31:1 35:1 
1.355294842357412 2:1 4:1 5:1 6:1 7:1 10:1 11:1 12:1 13:1 14:1 16:1 19:1 20:1 23:1 25:1 26:1 27:1 31:1 35:1 
1.367159388531797 4:1 7:1 8:1 9:1 10:1 11:1 12:1 15:1 16:1 22:1 24:1 25:1 26:1 27:1 28:1 29:1 30:1 35:1 
0.4842597731877908 1:1 3:1 4:1 7:1 9:1 10:1 11:1 12:1 13:1 15:1 16:1 19:1 22:1 24:1 28:1 31:1 32:1 34:1 
1.063710325893382 1:1 2:1 3:1 4:1 7:1 8:1 9:1 11:1 12:1 13:1 19:1 22:1 23:1 24:1 27:1 28:1 29:1 30:1 31:1 32:1 34:1 36:1 
1.03713316446018 1:1 3:1 7:1 8:1 9:1 11:1 12:1 13:1 14:1 15:1 16:1 17:1 19:1 22:1 27:1 28:1 29:1 30:1 31:1 33:1 34:1 
1.332814488631066 1:1 3:1 4:1 5:1 8:1 9:1 10:1 14:1 15:1 16:1 17:1 19:1 22:1 24:1 25:1 27:1 30:1 31:1 32:1 
1.495827215110849 2:1 3:1 4:1 5:1 6:1 7:1 8:1 9:1 10:1 11:1 12:1 14:1 15:1 17:1 18:1 21:1 22:1 27:1 28:1 29:1 31:1 35:1 
1.483989233034786 2:1 3:1 4:1 7:1 8:1 9:1 11:1 12:1 13:1 15:1 19:1 21:1 22:1 25:1 26:1 28:1 29:1 35:1 
1.329168656425351 1:1 4:1 7:1 8:1 9:1 13:1 15:1 18:1 20:1 22:1 27:1 28:1 30:1 31:1 34:1 
1.02402013047645 1:1 2:1 3:1 6:1 7:1 9:1 10:1 11:1 12:1 14:1 15:1 16:1 19:1 21:1 22:1 25:1 26:1 27:1 29:1 31:1 32:1 34:1 35:1 
1.318458125393862 1:1 2:1 4:1 7:1 8:1 10:1 11:1 12:1 14:1 19:1 21:1 22:1 23:1 26:1 27:1 28:1 29:1 34:1 
1.250758196472645 2:1 3:1 4:1 7:1 8:1 9:1 10:1 11:1 12:1 13:1 14:1 15:1 16:1 19:1 22:1 24:1 25:1 26:1 27:1 28:1 30:1 31:1 33:1 34:1 35:1 36:1 
0.3773178470441185 1:1 2:1 3:1 4:1 7:1 8:1 9:1 10:1 12:1 13:1 14:1 15:1 19:1 22:1 23:1 25:1 26:1 27:1 28:1 29:1 31:1 34:1 
1.211458431394529 1:1 2:1 3:1 4:1 6:1 7:1 8:1 9:1 11:1 12:1 13:1 14:1 15:1 18:1 22:1 23:1 26:1 27:1 29:1 30:1 34:1 
1.504935561664945 1:1 3:1 4:1 6:1 7:1 8:1 9:1 11:1 13:1 14:1 15:1 20:1 21:1 23:1 25:1 26:1 27:1 28:1 29:1 34:1 
0.8196482411639864 1:1 2:1 3:1 4:1 8:1 10:1 11:1 13:1 14:1 15:1 19:1 22:1 25:1 26:1 27:1 29:1 30:1 34:1 
0.7957616200965109 1:1 2:1 3:1 5:1 7:1 8:1 9:1 10:1 11:1 12:1 13:1 14:1 15:1 16:1 19:1 22:1 24:1 25:1 26:1 27:1 30:1 31:1 34:1 
1.070956244411559 1:1 2:1 3:1 4:1 7:1 8:1 9:1 13:1 14:1 15:1 19:1 22:1 23:1 29:1 31:1 32:1 33:1 35:1 
1.582612030795414 2:1 3:1 4:1 5:1 6:1 7:1 10:1 12:1 14:1 15:1 22:1 23:1 25:1 26:1 27:1 29:1 30:1 35:1 
0.84148488999618 1:1 3:1 4:1 7:1 9:1 10:1 11:1 13:1 14:1 19:1 22:1 23:1 26:1 27:1 28:1 29:1 34:1 
1.457114336812314 1:1 3:1 7:1 8:1 9:1 10:1 11:1 13:1 14:1 15:1 24:1 26:1 27:1 29:1 30:1 31:1 32:1 
1.177889963293294 1:1 2:1 4:1 7:1 8:1 10:1 11:1 12:1 13:1 14:1 15:1 16:1 18:1 19:1 20:1 22:1 23:1 24:1 26:1 27:1 28:1 29:1 30:1 31:1 32:1 34:1 35:1 
1.129531697801238 2:1 3:1 7:1 8:1 9:1 12:1 13:1 14:1 15:1 17:1 19:1 20:1 22:1 23:1 25:1 26:1 27:1 28:1 29:1 31:1 34:1 35:1 
0.9518467939643486 2:1 3:1 4:1 8:1 9:1 10:1 11:1 12:1 13:1 14:1 15:1 16:1 17:1 18:1 19:1 20:1 22:1 26:1 27:1 29:1 31:1 34:1 35:1 36:1 
1.233074513591709 1:1 2:1 3:1 4:1 5:1 8:1 9:1 10:1 11:1 13:1 17:1 19:1 20:1 22:1 23:1 24:1 25:1 26:1 27:1 28:1 29:1 30:1 31:1 32:1 34:1 
1.22583113268526 1:1 2:1 4:1 5:1 9:1 11:1 12:1 13:1 14:1 15:1 16:1 19:1 24:1 25:1 28:1 30:1 31:1 32:1 34:1 
1.544382757017593 1:1 3:1 4:1 5:1 6:1 8:1 9:1 10:1 11:1 12:1 14:1 15:1 19:1 20:1 21:1 24:1 25:1 26:1 27:1 28:1 31:1 34:1 
1.355431649823735 1:1 2:1 3:1 4:1 6:1 7:1 10:1 11:1 12:1 15:1 16:1 19:1 24:1 25:1 27:1 30:1 34:1 36:1 
1.402597437217316 1:1 2:1 3:1 4:1 6:1 7:1 10:1 11:1 12:1 13:1 15:1 21:1 24:1 25:1 26:1 
0.4687943190931788 2:1 3:1 4:1 7:1 8:1 9:1 10:1 11:1 12:1 13:1 14:1 15:1 17:1 19:1 22:1 25:1 26:1 27:1 29:1 31:1 
1.190100924271265 1:1 2:1 3:1 6:1 7:1 8:1 9:1 11:1 12:1 13:1 14:1 15:1 16:1 17:1 22:1 28:1 30:1 31:1 34:1 
0.5435421150055741 1:1 2:1 3:1 4:1 7:1 8:1 9:1 11:1 12:1 13:1 15:1 16:1 17:1 22:1 27:1 30:1 31:1 34:1 
0.4460631139950676 1:1 2:1 3:1 4:1 7:1 9:1 10:1 11:1 12:1 13:1 14:1 15:1 16:1 17:1 18:1 19:1 22:1 26:1 28:1 29:1 31:1 32:1 34:1 
1.128319001886092 2:1 3:1 4:1 7:1 8:1 9:1 10:1 13:1 14:1 15:1 19:1 26:1 30:1 31:1 
0.7064993786418081 1:1 2:1 3:1 7:1 8:1 9:1 11:1 14:1 16:1 19:1 24:1 25:1 26:1 27:1 30:1 31:1 34:1 
0.7920915589429148 1:1 2:1 3:1 4:1 5:1 8:1 9:1 11:1 12:1 13:1 14:1 15:1 19:1 20:1 22:1 28:1 31:1 34:1 35:1 
1.42155545083322 2:1 3:1 4:1 5:1 6:1 7:1 8:1 10:1 11:1 12:1 13:1 14:1 15:1 16:1 17:1 21:1 22:1 23:1 24:1 26:1 27:1 28:1 29:1 30:1 32:1 34:1 35:1 
0.9562107045496435 1:1 2:1 3:1 7:1 8:1 9:1 10:1 11:1 12:1 14:1 15:1 16:1 19:1 22:1 25:1 26:1 27:1 30:1 34:1 
1.266259109893777 1:1 2:1 3:1 5:1 7:1 8:1 10:1 11:1 12:1 13:1 15:1 19:1 22:1 25:1 26:1 27:1 28:1 30:1 35:1 
1.076491444540534 3:1 4:1 7:1 8:1 10:1 13:1 14:1 15:1 25:1 26:1 27:1 28:1 32:1 34:1 
0.2325799659193523 1:1 2:1 3:1 7:1 8:1 9:1 12:1 13:1 14:1 15:1 16:1 17:1 19:1 22:1 24:1 25:1 26:1 27:1 28:1 30:1 31:1 34:1 
0.8285814400481215 1:1 2:1 3:1 4:1 5:1 7:1 8:1 9:1 14:1 15:1 19:1 22:1 26:1 27:1 28:1 29:1 30:1 
1.248545042586325 1:1 2:1 3:1 6:1 9:1 10:1 11:1 13:1 14:1 15:1 19:1 25:1 26:1 27:1 31:1 32:1 33:1 34:1 
0.8695815762113603 1:1 3:1 4:1 8:1 9:1 11:1 12:1 13:1 14:1 16:1 19:1 22:1 28:1 29:1 30:1 31:1 34:1 36:1 
0.9290451824751792 1:1 2:1 3:1 4:1 8:1 9:1 11:1 12:1 13:1 15:1 22:1 23:1 28:1 33:1 34:1 35:1 
0.9824400831620551 1:1 2:1 3:1 4:1 8:1 9:1 10:1 11:1 12:1 14:1 15:1 16:1 19:1 21:1 25:1 26:1 27:1 30:1 31:1 34:1 35:1 
1.126859376262875 1:1 2:1 3:1 7:1 8:1 10:1 11:1 12:1 13:1 14:1 15:1 16:1 18:1 19:1 20:1 22:1 25:1 26:1 28:1 31:1 
1.297182043315492 1:1 2:1 5:1 6:1 7:1 8:1 10:1 11:1 13:1 14:1 15:1 19:1 22:1 24:1 25:1 26:1 27:1 28:1 31:1 34:1 36:1 
1.007172718070102 1:1 2:1 3:1 7:1 8:1 9:1 11:1 12:1 13:1 14:1 19:1 22:1 24:1 26:1 27:1 29:1 30:1 31:1 32:1 33:1 34:1 35:1 
1.259243474189862 2:1 8:1 9:1 12:1 13:1 14:1 19:1 21:1 25:1 26:1 27:1 29:1 31:1 34:1 
0.7646340560833045 1:1 2:1 3:1 4:1 8:1 9:1 10:1 11:1 15:1 16:1 17:1 19:1 21:1 22:1 25:1 26:1 27:1 28:1 29:1 30:1 
1.439288083710881 2:1 3:1 4:1 6:1 7:1 8:1 9:1 10:1 11:1 12:1 13:1 14:1 15:1 16:1 17:1 19:1 22:1 24:1 27:1 29:1 35:1 
1.486171012969453 1:1 2:1 3:1 5:1 7:1 8:1 9:1 12:1 14:1 15:1 19:1 22:1 24:1 28:1 30:1 34:1 
1.090395571341965 1:1 3:1 7:1 8:1 9:1 10:1 11:1 12:1 13:1 14:1 16:1 19:1 20:1 21:1 22:1 25:1 26:1 27:1 31:1 32:1 34:1 
1.227705216263599 1:1 3:1 4:1 8:1 9:1 11:1 12:1 14:1 15:1 16:1 26:1 29:1 
0.6457951592398216 1:1 2:1 3:1 7:1 8:1 11:1 12:1 13:1 14:1 15:1 16:1 19:1 20:1 22:1 25:1 26:1 27:1 31:1 34:1 35:1 
0.8658149598084557 1:1 2:1 3:1 7:1 12:1 13:1 14:1 15:1 16:1 19:1 22:1 25:1 27:1 28:1 30:1 34:1 36:1 
0.8723533094936525 1:1 2:1 3:1 8:1 12:1 13:1 15:1 16:1 19:1 22:1 23:1 25:1 26:1 27:1 28:1 29:1 30:1 31:1 34:1 
0.475612432245143 1:1 2:1 3:1 4:1 7:1 8:1 9:1 10:1 11:1 13:1 15:1 16:1 19:1 22:1 25:1 26:1 27:1 29:1 33:1 34:1 
0.9796121442458335 2:1 3:1 4:1 7:1 8:1 9:1 10:1 11:1 13:1 14:1 15:1 16:1 17:1 19:1 21:1 22:1 25:1 27:1 28:1 30:1 31:1 
1.153272023374644 1:1 2:1 3:1 4:1 7:1 8:1 9:1 10:1 11:1 12:1 14:1 15:1 16:1 22:1 24:1 28:1 32:1 35:1 
1.335676891268899 1:1 2:1 3:1 4:1 5:1 6:1 7:1 8:1 9:1 10:1 11:1 14:1 15:1 16:1 19:1 22:1 23:1 24:1 25:1 26:1 28:1 29:1 30:1 35:1 36:1 
0.9600596518248895 3:1 4:1 5:1 8:1 9:1 13:1 15:1 19:1 22:1 25:1 27:1 28:1 34:1 
1.072972779906636 1:1 2:1 3:1 4:1 5:1 7:1 10:1 11:1 12:1 13:1 14:1 15:1 16:1 25:1 27:1 28:1 31:1 34:1 
0.4846062397098592 1:1 2:1 3:1 4:1 7:1 8:1 9:1 11:1 12:1 14:1 15:1 16:1 19:1 22:1 23:1 25:1 26:1 27:1 28:1 29:1 31:1 36:1 
0.872883904158731 1:1 2:1 3:1 4:1 7:1 8:1 10:1 11:1 12:1 13:1 14:1 15:1 16:1 17:1 22:1 26:1 28:1 30:1 31:1 32:1 35:1 36:1 
1.066744405642926 1:1 2:1 3:1 6:1 7:1 8:1 9:1 10:1 11:1 12:1 13:1 14:1 15:1 17:1 19:1 22:1 23:1 26:1 27:1 29:1 34:1 35:1 
1.479740997219532 1:1 2:1 4:1 5:1 8:1 9:1 11:1 12:1 14:1 15:1 17:1 19:1 22:1 24:1 26:1 27:1 28:1 30:1 31:1 33:1 34:1 
0.746665081247551 1:1 2:1 3:1 7:1 8:1 9:1 10:1 11:1 13:1 14:1 15:1 16:1 19:1 25:1 26:1 27:1 28:1 34:1 
1.145892546133345 1:1 2:1 3:1 4:1 7:1 8:1 9:1 10:1 11:1 12:1 13:1 14:1 15:1 19:1 22:1 24:1 25:1 26:1 27:1 29:1 30:1 34:1 35:1 36:1 
1.371003912430879 1:1 2:1 3:1 4:1 5:1 6:1 7:1 8:1 11:1 12:1 13:1 14:1 15:1 17:1 22:1 24:1 26:1 27:1 30:1 34:1 36:1 
0.992656680191372 1:1 4:1 5:1 6:1 7:1 8:1 9:1 11:1 12:1 13:1 15:1 22:1 25:1 26:1 27:1 28:1 29:1 31:1 34:1 
1.506819830797949 1:1 3:1 4:1 7:1 8:1 9:1 10:1 11:1 13:1 14:1 15:1 19:1 26:1 27:1 28:1 29:1 34:1 35:1 
1.246249174159311 1:1 2:1 3:1 8:1 9:1 11:1 12:1 14:1 15:1 16:1 17:1 22:1 25:1 26:1 27:1 28:1 30:1 31:1 34:1 36:1 
1.029967672836773 1:1 2:1 3:1 4:1 6:1 7:1 8:1 9:1 10:1 13:1 15:1 16:1 19:1 22:1 27:1 28:1 29:1 30:1 31:1 34:1 
1.41975267763462 1:1 3:1 4:1 5:1 6:1 7:1 9:1 10:1 11:1 12:1 13:1 15:1 22:1 23:1 24:1 27:1 28:1 29:1 30:1 31:1 32:1 34:1 35:1 36:1 
1.284168094298249 1:1 2:1 4:1 5:1 8:1 9:1 10:1 11:1 13:1 14:1 22:1 24:1 27:1 34:1 
1.247042986987354 1:1 2:1 3:1 4:1 7:1 8:1 12:1 13:1 14:1 15:1 16:1 17:1 19:1 21:1 22:1 23:1 24:1 25:1 28:1 29:1 30:1 31:1 35:1 
1.25699053635644 1:1 2:1 4:1 5:1 6:1 7:1 8:1 9:1 10:1 11:1 12:1 14:1 16:1 17:1 19:1 25:1 26:1 29:1 30:1 31:1 34:1 35:1 
0.8906640472226239 1:1 3:1 4:1 7:1 8:1 9:1 10:1 12:1 13:1 14:1 15:1 17:1 19:1 21:1 22:1 23:1 25:1 26:1 27:1 28:1 34:1 
1.135833042540152 1:1 2:1 3:1 7:1 8:1 9:1 10:1 11:1 12:1 13:1 14:1 18:1 20:1 22:1 24:1 25:1 27:1 28:1 29:1 30:1 31:1 32:1 35:1 
1.212834186515983 1:1 2:1 4:1 5:1 7:1 8:1 12:1 14:1 18:1 19:1 22:1 27:1 28:1 29:1 31:1 34:1 
0.8061663252903654 1:1 2:1 3:1 7:1 8:1 10:1 11:1 12:1 13:1 14:1 16:1 19:1 22:1 24:1 25:1 26:1 27:1 28:1 32:1 34:1 
0.4932841913648023 1:1 2:1 3:1 6:1 7:1 8:1 9:1 10:1 11:1 12:1 13:1 14:1 15:1 16:1 19:1 22:1 25:1 26:1 27:1 29:1 31:1 34:1 
1.493026141733542 2:1 3:1 4:1 5:1 7:1 9:1 11:1 13:1 14:1 15:1 19:1 20:1 22:1 23:1 24:1 26:1 27:1 29:1 30:1 31:1 35:1 36:1 
0.6403008939473152 1:1 2:1 3:1 4:1 7:1 8:1 9:1 11:1 12:1 14:1 15:1 16:1 17:1 22:1 26:1 27:1 28:1 30:1 31:1 32:1 33:1 34:1 
1.329922858818557 2:1 3:1 4:1 7:1 8:1 10:1 11:1 12:1 15:1 16:1 17:1 19:1 20:1 22:1 24:1 26:1 27:1 28:1 30:1 34:1 
0.6637488555193145 1:1 3:1 4:1 6:1 7:1 8:1 9:1 11:1 12:1 14:1 15:1 16:1 19:1 22:1 24:1 25:1 26:1 27:1 28:1 29:1 30:1 31:1 34:1 35:1 
1.109917912213821 1:1 3:1 4:1 7:1 8:1 9:1 10:1 11:1 12:1 13:1 14:1 15:1 17:1 19:1 20:1 22:1 26:1 27:1 28:1 31:1 
0.9415741490860213 1:1 2:1 3:1 4:1 5:1 7:1 8:1 11:1 12:1 14:1 15:1 16:1 19:1 22:1 25:1 26:1 28:1 31:1 32:1 33:1 34:1 
1.152090834130875 2:1 3:1 4:1 6:1 7:1 9:1 10:1 11:1 12:1 14:1 15:1 26:1 27:1 28:1 29:1 34:1 
1.417762947370542 2:1 3:1 4:1 5:1 6:1 7:1 8:1 9:1 10:1 11:1 13:1 14:1 15:1 16:1 22:1 25:1 26:1 28:1 29:1 33:1 35:1 36:1 
0.8165597270378843 1:1 2:1 7:1 8:1 9:1 12:1 13:1 14:1 15:1 16:1 17:1 19:1 21:1 22:1 27:1 28:1 30:1 31:1 34:1 35:1 36:1 
1.207854768711794 1:1 2:1 4:1 7:1 8:1 9:1 11:1 14:1 15:1 16:1 17:1 18:1 19:1 20:1 21:1 22:1 26:1 27:1 28:1 
1.225156595985987 1:1 3:1 4:1 7:1 8:1 9:1 11:1 12:1 14:1 15:1 16:1 18:1 19:1 20:1 22:1 26:1 27:1 28:1 30:1 31:1 
1.312697487125752 2:1 3:1 4:1 7:1 8:1 9:1 10:1 11:1 13:1 14:1 15:1 17:1 22:1 23:1 24:1 29:1 30:1 31:1 34:1 36:1 
1.391127461841787 1:1 2:1 3:1 4:1 5:1 7:1 8:1 9:1 10:1 11:1 12:1 13:1 14:1 15:1 16:1 18:1 19:1 24:1 26:1 30:1 35:1 
0.2475164854455164 1:1 2:1 3:1 4:1 8:1 9:1 11:1 12:1 13:1 15:1 22:1 26:1 27:1 31:1 34:1 35:1 
0.8087137968659869 1:1 2:1 3:1 4:1 7:1 8:1 9:1 10:1 11:1 12:1 13:1 15:1 19:1 22:1 26:1 27:1 29:1 30:1 34:1 35:1 36:1 
1.184376170991004 3:1 4:1 5:1 7:1 8:1 9:1 11:1 12:1 13:1 19:1 21:1 22:1 23:1 26:1 27:1 29:1 30:1 31:1 34:1 35:1 
1.15901487087519 1:1 3:1 4:1 5:1 7:1 8:1 9:1 10:1 12:1 13:1 14:1 19:1 22:1 25:1 26:1 27:1 28:1 29:1 31:1 32:1 34:1 35:1 
0.9859457253457813 1:1 2:1 3:1 4:1 7:1 8:1 9:1 10:1 11:1 12:1 13:1 14:1 15:1 19:1 20:1 22:1 25:1 26:1 27:1 30:1 31:1 34:1 
1.147304965183112 2:1 3:1 4:1 9:1 10:1 11:1 12:1 13:1 14:1 15:1 16:1 20:1 21:1 22:1 25:1 26:1 27:1 29:1 30:1 31:1 
0.572959530494037 1:1 2:1 3:1 4:1 7:1 8:1 9:1 10:1 11:1 13:1 14:1 19:1 22:1 26:1 27:1 28:1 29:1 30:1 31:1 32:1 33:1 34:1 35:1 
1.179532684372651 1:1 2:1 7:1 8:1 11:1 12:1 13:1 14:1 16:1 17:1 24:1 26:1 27:1 29:1 34:1 35:1 36:1 
0.9871905075095049 1:1 8:1 9:1 12:1 13:1 15:1 16:1 19:1 22:1 24:1 26:1 27:1 28:1 29:1 30:1 31:1 35:1 
0.9142355161641221 1:1 2:1 3:1 6:1 7:1 8:1 9:1 13:1 15:1 16:1 19:1 20:1 21:1 22:1 25:1 26:1 27:1 28:1 29:1 30:1 31:1 34:1 
0.85070327865074 1:1 2:1 3:1 4:1 6:1 7:1 8:1 9:1 14:1 15:1 17:1 19:1 22:1 27:1 28:1 29:1 34:1 
0.4472577886395332 1:1 2:1 3:1 4:1 7:1 8:1 9:1 10:1 11:1 13:1 14:1 15:1 16:1 17:1 19:1 21:1 22:1 24:1 25:1 26:1 27:1 28:1 31:1 
1.740274006985105 1:1 2:1 3:1 4:1 7:1 8:1 9:1 10:1 11:1 12:1 13:1 14:1 15:1 19:1 20:1 25:1 26:1 27:1 31:1 
0.9621599612307187 1:1 2:1 3:1 4:1 7:1 9:1 12:1 14:1 15:1 19:1 22:1 26:1 27:1 28:1 29:1 30:1 34:1 35:1 36:1 
1.448623454715141 1:1 2:1 4:1 5:1 6:1 7:1 8:1 9:1 12:1 13:1 14:1 16:1 18:1 19:1 25:1 26:1 27:1 29:1 30:1 
1.051184094985407 1:1 2:1 4:1 7:1 8:1 9:1 11:1 12:1 13:1 14:1 16:1 17:1 19:1 24:1 25:1 26:1 27:1 29:1 30:1 34:1 
0.994827004975336 1:1 2:1 3:1 4:1 5:1 8:1 9:1 10:1 11:1 14:1 15:1 16:1 19:1 20:1 25:1 26:1 27:1 28:1 29:1 30:1 34:1 35:1 
1.697904393216373 2:1 3:1 4:1 7:1 8:1 9:1 11:1 12:1 13:1 14:1 15:1 19:1 20:1 21:1 22:1 24:1 25:1 26:1 27:1 28:1 30:1 35:1 36:1 
1.239897919349432 1:1 2:1 3:1 4:1 7:1 8:1 9:1 10:1 11:1 12:1 13:1 14:1 15:1 16:1 17:1 19:1 20:1 21:1 22:1 23:1 25:1 26:1 27:1 28:1 29:1 30:1 31:1 
0.6699526613188651 1:1 3:1 4:1 8:1 9:1 10:1 12:1 13:1 14:1 15:1 19:1 22:1 24:1 25:1 26:1 27:1 28:1 30:1 32:1 34:1 
0.7709925478767076 1:1 2:1 3:1 4:1 5:1 8:1 12:1 13:1 14:1 16:1 19:1 22:1 23:1 26:1 27:1 28:1 29:1 31:1 34:1 
1.480867282865038 2:1 3:1 4:1 7:1 8:1 9:1 10:1 11:1 12:1 13:1 16:1 17:1 19:1 22:1 23:1 25:1 26:1 27:1 28:1 29:1 30:1 33:1 35:1 36:1 
0.6910373598583321 1:1 2:1 3:1 4:1 6:1 7:1 8:1 9:1 11:1 12:1 14:1 15:1 18:1 19:1 22:1 25:1 26:1 27:1 29:1 30:1 31:1 34:1 
1.380578376094189 1:1 3:1 4:1 5:1 6:1 7:1 9:1 10:1 11:1 12:1 14:1 16:1 21:1 22:1 24:1 27:1 28:1 30:1 34:1 
0.6635005010276993 1:1 2:1 4:1 8:1 9:1 11:1 12:1 13:1 14:1 16:1 19:1 22:1 23:1 28:1 30:1 31:1 32:1 34:1 
0.8076769278851159 1:1 2:1 3:1 4:1 7:1 8:1 9:1 11:1 12:1 14:1 15:1 16:1 19:1 24:1 25:1 26:1 29:1 30:1 34:1 
1.061768002570885 2:1 3:1 4:1 5:1 6:1 7:1 8:1 9:1 10:1 11:1 13:1 14:1 15:1 17:1 22:1 26:1 27:1 28:1 29:1 30:1 31:1 32:1 34:1 35:1 36:1 
0.5765686698060351 1:1 2:1 3:1 7:1 8:1 12:1 13:1 14:1 15:1 16:1 19:1 20:1 22:1 25:1 26:1 27:1 28:1 30:1 34:1 35:1 
0.5889232801072426 1:1 2:1 3:1 4:1 7:1 8:1 9:1 12:1 14:1 15:1 19:1 22:1 25:1 26:1 27:1 29:1 32:1 34:1 35:1 
1.173683060546989 2:1 3:1 6:1 7:1 8:1 12:1 14:1 15:1 16:1 19:1 25:1 26:1 27:1 31:1 32:1 33:1 34:1 
0.3580113609530652 1:1 2:1 3:1 4:1 7:1 8:1 9:1 10:1 11:1 12:1 13:1 14:1 15:1 19:1 22:1 25:1 26:1 27:1 28:1 30:1 31:1 34:1 35:1 36:1 
1.00984452701775 1:1 2:1 3:1 4:1 7:1 8:1 9:1 11:1 12:1 14:1 19:1 21:1 22:1 26:1 27:1 34:1 
1.092066347366555 1:1 2:1 3:1 4:1 6:1 7:1 8:1 9:1 13:1 14:1 15:1 21:1 22:1 24:1 26:1 27:1 28:1 29:1 31:1 32:1 33:1 34:1 
1.478614565547817 3:1 5:1 6:1 7:1 8:1 9:1 10:1 11:1 12:1 13:1 14:1 15:1 19:1 22:1 23:1 26:1 27:1 28:1 30:1 31:1 34:1 
0.9274221496899855 1:1 2:1 3:1 7:1 8:1 9:1 11:1 12:1 13:1 14:1 15:1 16:1 17:1 19:1 21:1 22:1 26:1 27:1 28:1 29:1 30:1 31:1 34:1 35:1 
1.212817928458104 1:1 2:1 3:1 4:1 6:1 7:1 8:1 9:1 10:1 11:1 12:1 13:1 14:1 16:1 18:1 21:1 22:1 24:1 25:1 26:1 27:1 28:1 29:1 30:1 34:1 
0.8949698111680678 1:1 3:1 4:1 5:1 6:1 7:1 8:1 13:1 15:1 18:1 19:1 22:1 25:1 26:1 27:1 28:1 34:1 
1.716353023711625 2:1 3:1 4:1 5:1 6:1 7:1 9:1 11:1 12:1 13:1 14:1 15:1 19:1 20:1 21:1 22:1 24:1 25:1 26:1 27:1 28:1 29:1 30:1 34:1 
1.177667023122969 1:1 3:1 5:1 7:1 8:1 9:1 10:1 11:1 12:1 13:1 14:1 15:1 19:1 22:1 24:1 25:1 27:1 28:1 30:1 33:1 34:1 
1.378114654989655 3:1 4:1 6:1 7:1 8:1 9:1 10:1 11:1 12:1 13:1 15:1 16:1 17:1 19:1 22:1 25:1 26:1 27:1 28:1 29:1 30:1 31:1 32:1 35:1 36:1 
0.8128232139624452 1:1 2:1 3:1 4:1 6:1 7:1 8:1 9:1 10:1 11:1 13:1 14:1 15:1 16:1 25:1 26:1 29:1 30:1 31:1 34:1 
0.4358587523757528 1:1 2:1 3:1 4:1 5:1 7:1 8:1 9:1 10:1 11:1 12:1 14:1 15:1 16:1 19:1 22:1 25:1 26:1 27:1 28:1 29:1 34:1 
1.406277567473156 1:1 2:1 3:1 5:1 7:1 8:1 9:1 10:1 11:1 12:1 14:1 20:1 22:1 25:1 26:1 27:1 28:1 29:1 34:1 
1.328561827199785 1:1 3:1 4:1 7:1 8:1 11:1 12:1 13:1 14:1 17:1 19:1 20:1 22:1 27:1 29:1 30:1 31:1 33:1 35:1 
1.327496719487116 1:1 2:1 3:1 4:1 7:1 8:1 9:1 12:1 13:1 14:1 15:1 16:1 19:1 20:1 23:1 24:1 25:1 26:1 27:1 28:1 29:1 30:1 32:1 33:1 34:1 
0.9484637179312955 1:1 2:1 3:1 4:1 5:1 8:1 9:1 11:1 12:1 13:1 14:1 15:1 19:1 22:1 24:1 25:1 26:1 28:1 30:1 31:1 34:1 35:1 
1.003212303002866 1:1 2:1 3:1 4:1 5:1 6:1 8:1 9:1 10:1 13:1 15:1 16:1 22:1 24:1 25:1 26:1 28:1 29:1 30:1 31:1 34:1 
1.536776790826176 1:1 2:1 3:1 4:1 5:1 6:1 7:1 8:1 9:1 10:1 11:1 12:1 13:1 14:1 15:1 16:1 19:1 20:1 23:1 24:1 26:1 27:1 29:1 30:1 31:1 32:1 35:1 36:1 
1.310875008413404 2:1 3:1 4:1 8:1 11:1 12:1 13:1 15:1 19:1 23:1 25:1 26:1 27:1 29:1 31:1 32:1 34:1 35:1 
1.31802545403848 1:1 2:1 3:1 8:1 9:1 10:1 11:1 12:1 14:1 15:1 22:1 24:1 26:1 27:1 29:1 
1.34363935187761 2:1 3:1 4:1 7:1 8:1 9:1 10:1 11:1 12:1 14:1 15:1 19:1 22:1 25:1 26:1 27:1 28:1 29:1 34:1 35:1 
1.173553425031572 1:1 2:1 3:1 7:1 8:1 9:1 10:1 12:1 13:1 14:1 19:1 20:1 21:1 22:1 25:1 26:1 27:1 28:1 30:1 31:1 
1.19671528401879 2:1 3:1 7:1 8:1 9:1 11:1 12:1 13:1 14:1 15:1 16:1 19:1 22:1 23:1 25:1 26:1 27:1 28:1 30:1 32:1 34:1 
0.4963866637524175 1:1 2:1 3:1 4:1 7:1 8:1 9:1 10:1 11:1 12:1 14:1 15:1 16:1 19:1 26:1 28:1 30:1 34:1 
0.5550461997465993 1:1 2:1 4:1 7:1 8:1 9:1 10:1 11:1 12:1 13:1 14:1 15:1 16:1 22:1 23:1 26:1 28:1 29:1 30:1 31:1 32:1 33:1 34:1 
1.066744773487232 1:1 3:1 4:1 7:1 8:1 9:1 10:1 11:1 12:1 13:1 16:1 22:1 25:1 26:1 27:1 28:1 29:1 30:1 34:1 35:1 
1.01502158254628 1:1 2:1 3:1 4:1 5:1 7:1 8:1 9:1 10:1 11:1 12:1 13:1 14:1 16:1 19:1 20:1 21:1 22:1 25:1 26:1 27:1 30:1 31:1 34:1 
1.202727116476233 2:1 3:1 4:1 7:1 9:1 11:1 12:1 13:1 14:1 18:1 19:1 20:1 22:1 24:1 25:1 26:1 27:1 28:1 29:1 30:1 31:1 32:1 34:1 35:1 
1.049862601907108 1:1 3:1 4:1 5:1 7:1 8:1 9:1 11:1 12:1 13:1 14:1 15:1 16:1 22:1 23:1 25:1 27:1 28:1 29:1 31:1 32:1 33:1 34:1 35:1 
0.8911767586264657 1:1 2:1 4:1 7:1 9:1 10:1 13:1 15:1 16:1 17:1 19:1 22:1 25:1 26:1 27:1 28:1 34:1 
1.473985334123609 1:1 3:1 7:1 8:1 9:1 11:1 12:1 13:1 14:1 15:1 16:1 19:1 20:1 22:1 26:1 29:1 31:1 
1.516798590726416 3:1 4:1 6:1 7:1 8:1 9:1 10:1 12:1 14:1 15:1 16:1 19:1 22:1 24:1 26:1 27:1 28:1 29:1 31:1 32:1 33:1 34:1 35:1 
0.9037561170714872 1:1 2:1 3:1 4:1 5:1 6:1 7:1 8:1 9:1 11:1 12:1 13:1 14:1 15:1 16:1 19:1 22:1 23:1 26:1 27:1 28:1 29:1 34:1 
1.288778783903919 1:1 2:1 3:1 7:1 8:1 10:1 11:1 12:1 13:1 16:1 19:1 20:1 24:1 26:1 27:1 29:1 30:1 35:1 
1.363537974946142 1:1 2:1 4:1 7:1 8:1 9:1 10:1 11:1 12:1 14:1 20:1 25:1 26:1 27:1 28:1 29:1 31:1 33:1 
0.6902432710757859 1:1 2:1 3:1 4:1 7:1 8:1 9:1 10:1 11:1 13:1 17:1 19:1 22:1 25:1 26:1 28:1 29:1 30:1 31:1 32:1 34:1 35:1 
0.8819468732678476 1:1 3:1 4:1 7:1 8:1 9:1 13:1 14:1 15:1 21:1 22:1 24:1 26:1 27:1 28:1 29:1 34:1 35:1 
0.7608659801149348 1:1 2:1 3:1 4:1 8:1 9:1 11:1 12:1 13:1 14:1 16:1 19:1 21:1 22:1 26:1 27:1 30:1 31:1 32:1 34:1 
1.260783781668656 1:1 3:1 4:1 6:1 7:1 10:1 11:1 12:1 13:1 14:1 15:1 16:1 17:1 19:1 22:1 25:1 29:1 30:1 34:1 35:1 
0.4907575513749765 1:1 2:1 3:1 4:1 7:1 8:1 9:1 13:1 15:1 16:1 19:1 22:1 24:1 25:1 26:1 27:1 30:1 34:1 
1.181564991110941 1:1 2:1 3:1 4:1 7:1 8:1 9:1 10:1 12:1 13:1 14:1 15:1 18:1 19:1 22:1 23:1 24:1 25:1 26:1 27:1 28:1 29:1 30:1 31:1 32:1 
1.36027810756184 2:1 4:1 5:1 6:1 7:1 9:1 12:1 13:1 15:1 16:1 17:1 18:1 19:1 23:1 25:1 26:1 29:1 30:1 31:1 35:1 
1.527605371533357 1:1 2:1 4:1 6:1 7:1 8:1 9:1 10:1 11:1 12:1 13:1 14:1 16:1 19:1 22:1 24:1 25:1 26:1 27:1 29:1 30:1 33:1 
1.403590645179193 1:1 2:1 3:1 7:1 8:1 9:1 10:1 11:1 12:1 13:1 14:1 15:1 16:1 19:1 21:1 22:1 26:1 27:1 28:1 31:1 34:1 35:1 
1.277794726796404 2:1 3:1 4:1 7:1 8:1 9:1 10:1 11:1 12:1 13:1 14:1 15:1 21:1 22:1 26:1 28:1 30:1 31:1 32:1 36:1 
0.9589998558081027 1:1 2:1 3:1 4:1 7:1 8:1 9:1 13:1 14:1 15:1 16:1 19:1 20:1 22:1 23:1 24:1 25:1 29:1 31:1 32:1 34:1 36:1 
1.266599194472252 1:1 2:1 7:1 8:1 11:1 12:1 13:1 15:1 19:1 20:1 22:1 25:1 26:1 27:1 29:1 30:1 31:1 32:1 35:1 
1.302844834330319 1:1 2:1 3:1 4:1 8:1 9:1 10:1 11:1 12:1 13:1 14:1 19:1 20:1 22:1 23:1 25:1 28:1 30:1 31:1 32:1 35:1 
1.351844009245281 1:1 2:1 4:1 7:1 8:1 10:1 12:1 14:1 15:1 19:1 25:1 26:1 27:1 31:1 
1.047813218837166 2:1 3:1 4:1 7:1 8:1 9:1 10:1 11:1 12:1 13:1 15:1 18:1 19:1 22:1 25:1 26:1 27:1 28:1 29:1 30:1 31:1 32:1 34:1 35:1 
0.7573174046952327 1:1 2:1 3:1 4:1 5:1 7:1 8:1 9:1 11:1 13:1 14:1 15:1 18:1 22:1 27:1 28:1 31:1 34:1 
0.6928122354628364 1:1 3:1 4:1 7:1 8:1 9:1 10:1 11:1 12:1 14:1 15:1 16:1 17:1 19:1 22:1 25:1 26:1 28:1 31:1 32:1 33:1 34:1 
1.10703114714828 1:1 2:1 3:1 4:1 7:1 8:1 12:1 13:1 14:1 15:1 16:1 17:1 19:1 23:1 25:1 26:1 27:1 29:1 34:1 35:1 
1.413531208211018 1:1 2:1 3:1 4:1 5:1 6:1 7:1 8:1 9:1 10:1 11:1 13:1 15:1 20:1 21:1 22:1 25:1 26:1 27:1 29:1 31:1 34:1 35:1 36:1 
1.155508683929881 1:1 2:1 3:1 7:1 8:1 9:1 11:1 12:1 13:1 14:1 16:1 17:1 19:1 20:1 22:1 23:1 24:1 25:1 26:1 27:1 29:1 30:1 31:1 34:1 35:1 
1.080622396633135 1:1 2:1 3:1 4:1 6:1 7:1 8:1 9:1 10:1 11:1 12:1 14:1 16:1 17:1 19:1 22:1 24:1 25:1 26:1 27:1 28:1 30:1 34:1 
1.240303844651937 1:1 2:1 3:1 4:1 6:1 8:1 13:1 15:1 19:1 21:1 22:1 24:1 26:1 27:1 28:1 29:1 30:1 31:1 
1.145636986237341 2:1 3:1 4:1 5:1 7:1 8:1 10:1 11:1 12:1 13:1 15:1 19:1 22:1 26:1 28:1 30:1 32:1 33:1 34:1 
1.228130186029298 1:1 3:1 4:1 7:1 8:1 9:1 11:1 12:1 14:1 16:1 19:1 22:1 25:1 26:1 27:1 29:1 31:1 35:1 36:1 
1.425527410073595 1:1 3:1 4:1 6:1 7:1 8:1 10:1 11:1 12:1 13:1 14:1 15:1 16:1 19:1 21:1 22:1 25:1 27:1 28:1 30:1 31:1 33:1 34:1 35:1 
1.083822910519138 2:1 3:1 4:1 6:1 7:1 8:1 9:1 11:1 12:1 13:1 15:1 26:1 28:1 29:1 30:1 34:1 35:1 
1.16077288641391 2:1 3:1 4:1 5:1 7:1 8:1 9:1 10:1 11:1 12:1 13:1 15:1 21:1 22:1 26:1 28:1 31:1 34:1 
1.378290260033038 2:1 3:1 4:1 5:1 7:1 8:1 9:1 11:1 13:1 14:1 19:1 21:1 26:1 27:1 28:1 30:1 31:1 33:1 
1.694074543431042 1:1 2:1 4:1 5:1 6:1 8:1 9:1 10:1 11:1 12:1 13:1 15:1 19:1 20:1 21:1 22:1 24:1 25:1 26:1 27:1 30:1 31:1 34:1 36:1 
0.2337226757463984 1:1 2:1 4:1 7:1 8:1 11:1 13:1 15:1 16:1 22:1 25:1 26:1 27:1 28:1 31:1 34:1 
1.071337746030157 1:1 2:1 3:1 4:1 7:1 8:1 9:1 10:1 11:1 12:1 13:1 14:1 15:1 18:1 19:1 25:1 26:1 28:1 29:1 31:1 32:1 33:1 34:1 35:1 
1.00296128990222 1:1 2:1 3:1 4:1 7:1 8:1 9:1 11:1 14:1 16:1 17:1 19:1 20:1 26:1 27:1 31:1 35:1 
1.278472968160664 1:1 2:1 3:1 4:1 5:1 6:1 8:1 9:1 10:1 11:1 12:1 13:1 19:1 22:1 24:1 28:1 29:1 32:1 34:1 
0.9442617257459025 1:1 2:1 8:1 9:1 12:1 13:1 15:1 16:1 19:1 20:1 21:1 22:1 25:1 26:1 27:1 28:1 32:1 34:1 
1.136545974984693 1:1 2:1 3:1 4:1 7:1 8:1 9:1 11:1 12:1 14:1 15:1 16:1 19:1 21:1 22:1 25:1 26:1 28:1 29:1 30:1 31:1 32:1 34:1 
1.313077912749954 1:1 2:1 3:1 8:1 10:1 11:1 12:1 13:1 15:1 18:1 19:1 22:1 24:1 27:1 29:1 30:1 31:1 34:1 
0.9518409596848633 1:1 2:1 3:1 7:1 8:1 11:1 13:1 14:1 16:1 19:1 20:1 21:1 22:1 26:1 27:1 28:1 34:1 35:1 36:1 
1.321827647727303 1:1 3:1 4:1 7:1 9:1 12:1 13:1 14:1 16:1 17:1 19:1 20:1 21:1 22:1 25:1 26:1 31:1 33:1 
1.324286615280896 2:1 3:1 6:1 7:1 8:1 13:1 14:1 15:1 16:1 17:1 19:1 22:1 24:1 25:1 26:1 27:1 28:1 30:1 
1.309986602866749 1:1 4:1 8:1 10:1 11:1 12:1 13:1 14:1 15:1 21:1 22:1 23:1 25:1 26:1 27:1 28:1 32:1 34:1 
1.163597622953129 1:1 2:1 3:1 4:1 6:1 7:1 9:1 11:1 12:1 13:1 14:1 15:1 16:1 17:1 19:1 20:1 23:1 25:1 26:1 27:1 28:1 29:1 30:1 31:1 32:1 35:1 
1.280894919505935 1:1 2:1 3:1 4:1 7:1 8:1 10:1 11:1 12:1 13:1 14:1 15:1 19:1 20:1 21:1 22:1 24:1 25:1 26:1 27:1 28:1 29:1 30:1 31:1 34:1 
1.025903028785154 1:1 3:1 4:1 9:1 10:1 11:1 13:1 15:1 16:1 19:1 22:1 23:1 25:1 26:1 27:1 28:1 29:1 30:1 31:1 32:1 34:1 35:1 36:1 
1.131882400485909 1:1 2:1 3:1 8:1 9:1 10:1 11:1 13:1 15:1 16:1 18:1 25:1 26:1 27:1 28:1 30:1 32:1 33:1 34:1 
1.347998312104922 2:1 3:1 4:1 5:1 7:1 8:1 11:1 12:1 13:1 14:1 15:1 21:1 22:1 26:1 30:1 33:1 
1.580532925386089 2:1 3:1 8:1 10:1 11:1 13:1 14:1 15:1 16:1 19:1 20:1 23:1 24:1 29:1 30:1 35:1 
0.8710391840487424 1:1 2:1 3:1 6:1 7:1 8:1 9:1 10:1 11:1 12:1 13:1 14:1 15:1 18:1 19:1 22:1 25:1 26:1 27:1 29:1 33:1 34:1 
0.6204046486016711 1:1 2:1 3:1 7:1 9:1 10:1 11:1 13:1 14:1 15:1 16:1 19:1 22:1 25:1 26:1 27:1 29:1 34:1 35:1 
0.9006984359726591 1:1 2:1 3:1 4:1 5:1 7:1 8:1 9:1 11:1 12:1 14:1 15:1 16:1 22:1 25:1 26:1 27:1 28:1 31:1 32:1 34:1 35:1 
1.007870015106949 1:1 4:1 7:1 8:1 9:1 10:1 11:1 12:1 13:1 14:1 15:1 19:1 22:1 28:1 30:1 31:1 
0.9628348619610365 1:1 2:1 4:1 7:1 8:1 9:1 13:1 14:1 15:1 17:1 18:1 22:1 25:1 26:1 31:1 33:1 34:1 
1.180519976574726 1:1 2:1 3:1 4:1 7:1 8:1 12:1 13:1 14:1 15:1 16:1 17:1 18:1 19:1 20:1 22:1 26:1 27:1 28:1 29:1 30:1 34:1 
1.019471022698106 1:1 4:1 5:1 8:1 11:1 13:1 16:1 18:1 19:1 22:1 25:1 26:1 27:1 28:1 30:1 34:1 
1.487263812766899 1:1 2:1 3:1 4:1 7:1 8:1 10:1 11:1 13:1 14:1 15:1 16:1 18:1 19:1 23:1 24:1 25:1 27:1 29:1 30:1 36:1 
1.369326236671026 1:1 4:1 6:1 11:1 12:1 15:1 17:1 19:1 22:1 25:1 26:1 28:1 31:1 
1.223870272901674 1:1 2:1 3:1 4:1 5:1 6:1 7:1 8:1 9:1 10:1 13:1 14:1 15:1 19:1 22:1 25:1 27:1 28:1 34:1 
1.050688128308759 1:1 2:1 3:1 4:1 6:1 8:1 9:1 11:1 12:1 13:1 14:1 15:1 16:1 21:1 22:1 24:1 26:1 27:1 28:1 29:1 30:1 31:1 32:1 34:1 35:1 36:1 
0.86153641088531 3:1 4:1 9:1 11:1 12:1 13:1 15:1 19:1 22:1 23:1 26:1 27:1 29:1 31:1 34:1 35:1 
1.290601951603156 1:1 2:1 3:1 4:1 5:1 6:1 7:1 8:1 9:1 13:1 14:1 16:1 19:1 21:1 23:1 24:1 25:1 26:1 27:1 28:1 29:1 30:1 31:1 32:1 34:1 36:1 
0.08847647434993994 1:1 2:1 3:1 7:1 8:1 9:1 13:1 14:1 15:1 16:1 22:1 26:1 27:1 28:1 29:1 30:1 31:1 32:1 34:1 35:1 
1.592401695440149 1:1 2:1 3:1 4:1 5:1 6:1 7:1 8:1 9:1 10:1 11:1 12:1 13:1 14:1 15:1 18:1 19:1 21:1 22:1 24:1 25:1 26:1 27:1 28:1 29:1 30:1 33:1 34:1 35:1 
1.237258716330674 1:1 4:1 6:1 7:1 8:1 10:1 11:1 12:1 13:1 14:1 15:1 16:1 19:1 22:1 26:1 27:1 34:1 
1.243929271248293 1:1 3:1 4:1 7:1 9:1 10:1 11:1 12:1 13:1 14:1 16:1 17:1 19:1 23:1 24:1 25:1 26:1 28:1 30:1 34:1 
1.262798401445969 1:1 2:1 3:1 4:1 7:1 8:1 12:1 14:1 15:1 19:1 21:1 22:1 25:1 26:1 29:1 30:1 31:1 35:1 36:1 
1.564705338411532 1:1 3:1 4:1 7:1 8:1 9:1 10:1 11:1 12:1 13:1 14:1 15:1 16:1 19:1 22:1 23:1 24:1 26:1 28:1 29:1 
0.9713330021323304 1:1 2:1 3:1 4:1 6:1 7:1 8:1 9:1 10:1 11:1 12:1 13:1 14:1 15:1 17:1 22:1 24:1 25:1 26:1 27:1 29:1 30:1 32:1 34:1 35:1 
0.7224766858529752 1:1 2:1 3:1 4:1 8:1 9:1 10:1 11:1 13:1 14:1 15:1 19:1 21:1 22:1 25:1 26:1 27:1 28:1 29:1 31:1 32:1 34:1 
1.270985600659432 3:1 5:1 8:1 9:1 12:1 13:1 14:1 15:1 18:1 19:1 25:1 26:1 27:1 28:1 29:1 31:1 33:1 34:1 35:1 
1.304098744718757 1:1 4:1 5:1 6:1 9:1 10:1 11:1 12:1 13:1 14:1 15:1 19:1 22:1 24:1 25:1 26:1 27:1 29:1 31:1 32:1 33:1 36:1 
1.01251432777451 1:1 2:1 3:1 4:1 7:1 8:1 9:1 10:1 11:1 12:1 13:1 16:1 19:1 22:1 23:1 24:1 26:1 27:1 29:1 30:1 34:1 35:1 
0.9097123340297512 2:1 4:1 7:1 8:1 9:1 13:1 14:1 18:1 19:1 22:1 26:1 27:1 31:1 34:1 
1.248776840050539 1:1 2:1 7:1 8:1 11:1 12:1 13:1 14:1 15:1 16:1 19:1 22:1 28:1 29:1 30:1 31:1 35:1 
1.252135080907146 1:1 3:1 7:1 9:1 10:1 11:1 12:1 13:1 14:1 15:1 17:1 19:1 20:1 22:1 23:1 24:1 26:1 27:1 28:1 29:1 30:1 31:1 32:1 34:1 
0.8952029175113709 1:1 2:1 3:1 4:1 7:1 8:1 9:1 10:1 11:1 12:1 13:1 14:1 15:1 16:1 17:1 21:1 22:1 23:1 28:1 30:1 31:1 36:1 
0.3789343978310902 1:1 2:1 3:1 4:1 7:1 8:1 9:1 10:1 11:1 12:1 15:1 16:1 19:1 22:1 26:1 27:1 28:1 29:1 31:1 34:1 
1.3940736886136 1:1 2:1 4:1 6:1 8:1 9:1 11:1 12:1 15:1 16:1 17:1 22:1 23:1 24:1 25:1 26:1 27:1 29:1 
1.381194741415474 1:1 3:1 4:1 6:1 7:1 8:1 9:1 12:1 13:1 14:1 16:1 19:1 20:1 21:1 22:1 23:1 24:1 27:1 28:1 29:1 33:1 34:1 
1.275035379391121 1:1 3:1 7:1 8:1 9:1 12:1 14:1 15:1 21:1 23:1 24:1 26:1 27:1 28:1 30:1 31:1 34:1 
0.3709050351466262 1:1 2:1 3:1 4:1 7:1 9:1 10:1 11:1 12:1 14:1 15:1 16:1 19:1 22:1 24:1 26:1 28:1 29:1 30:1 31:1 32:1 34:1 
1.206834938443427 1:1 2:1 3:1 4:1 7:1 9:1 10:1 11:1 12:1 13:1 16:1 17:1 19:1 21:1 22:1 23:1 24:1 27:1 28:1 29:1 30:1 34:1 36:1 
1.022112792052176 1:1 2:1 4:1 6:1 7:1 8:1 9:1 10:1 11:1 12:1 14:1 16:1 21:1 22:1 24:1 26:1 28:1 29:1 34:1 
1.248233316684729 1:1 2:1 3:1 4:1 5:1 7:1 10:1 11:1 12:1 13:1 14:1 15:1 16:1 19:1 22:1 24:1 25:1 26:1 27:1 29:1 30:1 31:1 
0.2787613192502159 1:1 2:1 3:1 4:1 7:1 8:1 9:1 11:1 12:1 13:1 14:1 15:1 17:1 19:1 22:1 28:1 30:1 31:1 
1.22728739595633 1:1 2:1 4:1 7:1 8:1 9:1 10:1 11:1 12:1 13:1 14:1 15:1 24:1 26:1 27:1 28:1 31:1 32:1 34:1 
0.7040089172945809 1:1 3:1 4:1 7:1 8:1 9:1 11:1 12:1 13:1 15:1 16:1 19:1 22:1 24:1 25:1 26:1 27:1 28:1 29:1 30:1 31:1 33:1 34:1 
1.27007283187151 1:1 2:1 3:1 4:1 5:1 8:1 13:1 14:1 15:1 18:1 19:1 22:1 24:1 25:1 26:1 27:1 28:1 29:1 30:1 33:1 34:1 
1.559940228848745 1:1 2:1 3:1 4:1 8:1 10:1 11:1 12:1 19:1 22:1 23:1 24:1 25:1 26:1 29:1 30:1 35:1 36:1 
0.6646901176569932 1:1 2:1 3:1 4:1 7:1 8:1 9:1 12:1 13:1 14:1 17:1 22:1 26:1 27:1 28:1 29:1 30:1 31:1 
1.141686017311181 1:1 2:1 7:1 8:1 10:1 12:1 13:1 14:1 15:1 19:1 22:1 24:1 26:1 27:1 28:1 31:1 34:1 
1.12173689405463 1:1 2:1 6:1 7:1 8:1 9:1 12:1 13:1 14:1 15:1 16:1 17:1 22:1 23:1 26:1 27:1 28:1 29:1 30:1 31:1 33:1 34:1 35:1 36:1 
1.248607529495958 2:1 3:1 4:1 7:1 9:1 13:1 14:1 16:1 19:1 20:1 21:1 22:1 23:1 25:1 26:1 27:1 29:1 30:1 34:1 
1.195454208845255 3:1 6:1 7:1 8:1 9:1 13:1 14:1 16:1 22:1 25:1 28:1 31:1 
0.8932460900779146 1:1 7:1 8:1 10:1 11:1 12:1 13:1 14:1 15:1 16:1 19:1 22:1 24:1 25:1 26:1 27:1 28:1 34:1 
1.323109054105778 2:1 7:1 10:1 11:1 12:1 13:1 14:1 15:1 19:1 26:1 27:1 34:1 
1.625432601680382 1:1 2:1 3:1 8:1 10:1 11:1 12:1 14:1 15:1 16:1 19:1 21:1 25:1 30:1 36:1 
0.9981754321704882 1:1 2:1 4:1 8:1 10:1 13:1 14:1 19:1 25:1 26:1 27:1 28:1 29:1 34:1 
1.339851070419511 1:1 2:1 4:1 7:1 9:1 10:1 11:1 12:1 13:1 19:1 20:1 21:1 22:1 26:1 27:1 28:1 29:1 32:1 34:1 
0.9591966612411028 2:1 3:1 4:1 7:1 8:1 9:1 13:1 14:1 15:1 16:1 17:1 19:1 20:1 21:1 22:1 26:1 27:1 29:1 34:1 35:1 
1.365463263695298 2:1 3:1 4:1 5:1 6:1 7:1 8:1 9:1 11:1 13:1 14:1 15:1 16:1 17:1 19:1 21:1 22:1 23:1 25:1 29:1 30:1 33:1 34:1 35:1 
0.9880865419013453 1:1 2:1 3:1 4:1 8:1 9:1 10:1 11:1 12:1 13:1 14:1 15:1 16:1 21:1 22:1 23:1 25:1 26:1 27:1 29:1 30:1 31:1 34:1 35:1 
1.274675048003058 1:1 2:1 3:1 5:1 6:1 7:1 8:1 9:1 10:1 11:1 12:1 13:1 14:1 15:1 19:1 21:1 22:1 25:1 26:1 27:1 29:1 
1.293332967770967 1:1 8:1 9:1 11:1 14:1 16:1 17:1 19:1 22:1 24:1 27:1 28:1 29:1 31:1 32:1 
1.274365493646138 1:1 3:1 4:1 7:1 8:1 9:1 10:1 11:1 12:1 13:1 14:1 21:1 22:1 23:1 24:1 25:1 26:1 29:1 31:1 
1.096603766443972 1:1 2:1 3:1 7:1 8:1 9:1 10:1 11:1 14:1 15:1 19:1 22:1 24:1 27:1 28:1 29:1 30:1 31:1 32:1 34:1 35:1 36:1 
1.938691065945246 1:1 3:1 4:1 5:1 6:1 7:1 8:1 9:1 11:1 12:1 13:1 14:1 15:1 19:1 20:1 27:1 29:1 30:1 31:1 
0.8057647916331758 2:1 3:1 4:1 7:1 8:1 9:1 10:1 11:1 12:1 13:1 14:1 15:1 19:1 22:1 24:1 26:1 29:1 30:1 34:1 
0.9855040097163305 2:1 3:1 4:1 8:1 12:1 13:1 14:1 15:1 16:1 17:1 19:1 22:1 24:1 25:1 26:1 27:1 28:1 29:1 30:1 31:1 35:1 36:1 
1.443661584735963 1:1 2:1 7:1 8:1 9:1 10:1 11:1 12:1 13:1 14:1 16:1 19:1 22:1 26:1 27:1 28:1 31:1 36:1 
0.8244809036715631 1:1 2:1 3:1 4:1 7:1 8:1 9:1 10:1 11:1 14:1 15:1 19:1 21:1 22:1 24:1 26:1 27:1 29:1 30:1 34:1 35:1 
1.550408084375534 2:1 3:1 4:1 10:1 11:1 13:1 15:1 19:1 21:1 22:1 23:1 25:1 26:1 27:1 28:1 29:1 30:1 34:1 
1.619026969483503 1:1 3:1 4:1 7:1 8:1 9:1 10:1 11:1 13:1 14:1 15:1 16:1 19:1 22:1 23:1 24:1 25:1 26:1 27:1 29:1 30:1 31:1 35:1 
1.063155933604262 1:1 2:1 3:1 7:1 9:1 10:1 12:1 14:1 15:1 16:1 17:1 19:1 21:1 22:1 24:1 30:1 31:1 34:1 35:1 
1.529574814401488 1:1 3:1 4:1 5:1 6:1 7:1 9:1 10:1 11:1 12:1 13:1 14:1 15:1 18:1 19:1 22:1 26:1 27:1 29:1 30:1 31:1 32:1 
1.384136271613317 3:1 4:1 7:1 9:1 11:1 12:1 13:1 15:1 16:1 19:1 20:1 22:1 24:1 26:1 27:1 28:1 29:1 30:1 31:1 
0.6441861904487202 1:1 3:1 4:1 7:1 8:1 9:1 12:1 13:1 14:1 15:1 19:1 22:1 23:1 24:1 25:1 26:1 27:1 28:1 29:1 30:1 31:1 32:1 34:1 
1.166128705636897 1:1 2:1 3:1 4:1 5:1 6:1 7:1 8:1 10:1 11:1 12:1 14:1 15:1 16:1 17:1 19:1 22:1 24:1 25:1 26:1 27:1 32:1 
0.9902104737732398 1:1 2:1 3:1 4:1 7:1 9:1 10:1 12:1 13:1 14:1 15:1 17:1 21:1 22:1 27:1 28:1 30:1 31:1 32:1 35:1 
1.189586276082 1:1 2:1 3:1 4:1 6:1 8:1 11:1 13:1 14:1 15:1 16:1 19:1 22:1 24:1 26:1 27:1 30:1 31:1 33:1 34:1 
1.179072045578858 1:1 2:1 3:1 4:1 7:1 8:1 9:1 10:1 11:1 14:1 15:1 18:1 19:1 22:1 24:1 25:1 26:1 27:1 30:1 31:1 33:1 34:1 35:1 
0.6978718612703589 1:1 2:1 3:1 4:1 7:1 8:1 11:1 12:1 13:1 14:1 15:1 19:1 22:1 26:1 28:1 30:1 31:1 32:1 34:1 36:1 
0.7900948657201079 1:1 2:1 4:1 7:1 8:1 9:1 11:1 13:1 14:1 15:1 19:1 22:1 27:1 31:1 32:1 34:1 
1.084919747524717 1:1 3:1 9:1 12:1 13:1 14:1 15:1 16:1 19:1 21:1 22:1 24:1 25:1 26:1 27:1 28:1 29:1 30:1 31:1 32:1 
1.030265664336379 1:1 3:1 4:1 6:1 7:1 8:1 9:1 11:1 12:1 13:1 14:1 15:1 16:1 19:1 22:1 24:1 25:1 26:1 28:1 29:1 30:1 34:1 35:1 
0.8181574277607671 1:1 2:1 3:1 4:1 8:1 9:1 13:1 14:1 15:1 19:1 21:1 22:1 25:1 27:1 28:1 29:1 30:1 35:1 
1.372342449877532 1:1 2:1 3:1 4:1 7:1 8:1 9:1 10:1 11:1 14:1 15:1 21:1 22:1 24:1 26:1 27:1 30:1 
1.408482042281727 1:1 2:1 3:1 4:1 5:1 6:1 9:1 11:1 12:1 13:1 14:1 16:1 20:1 22:1 26:1 27:1 28:1 29:1 34:1 36:1 
0.9717762065190872 1:1 2:1 3:1 4:1 7:1 9:1 10:1 11:1 12:1 14:1 16:1 19:1 21:1 22:1 23:1 24:1 26:1 27:1 28:1 29:1 30:1 31:1 34:1 
0.9980550816841841 1:1 3:1 4:1 5:1 6:1 9:1 10:1 11:1 12:1 13:1 14:1 15:1 16:1 22:1 25:1 26:1 27:1 28:1 29:1 30:1 31:1 32:1 
1.686362314997723 1:1 2:1 3:1 9:1 10:1 11:1 12:1 13:1 14:1 15:1 16:1 19:1 20:1 22:1 24:1 25:1 26:1 27:1 28:1 30:1 34:1 36:1 
1.362706574535843 1:1 2:1 3:1 4:1 7:1 8:1 10:1 11:1 12:1 13:1 14:1 15:1 17:1 19:1 20:1 21:1 22:1 24:1 26:1 29:1 30:1 31:1 32:1 35:1 
1.067300230280077 2:1 3:1 4:1 5:1 6:1 7:1 8:1 9:1 13:1 14:1 15:1 16:1 17:1 19:1 22:1 25:1 26:1 27:1 28:1 30:1 31:1 34:1 
0.8038962155262966 1:1 2:1 3:1 4:1 7:1 8:1 9:1 10:1 11:1 13:1 14:1 15:1 16:1 17:1 19:1 20:1 22:1 24:1 25:1 27:1 30:1 31:1 
1.380787364175146 1:1 2:1 4:1 5:1 7:1 8:1 9:1 10:1 11:1 12:1 13:1 14:1 15:1 16:1 19:1 21:1 22:1 25:1 26:1 27:1 28:1 34:1 
1.179742795459967 1:1 4:1 5:1 7:1 8:1 9:1 11:1 12:1 13:1 16:1 19:1 22:1 25:1 26:1 27:1 28:1 30:1 34:1 35:1 36:1 
1.323688766685287 1:1 2:1 3:1 4:1 8:1 9:1 10:1 11:1 12:1 13:1 14:1 15:1 16:1 17:1 19:1 20:1 21:1 22:1 24:1 25:1 26:1 27:1 29:1 30:1 34:1 
0.9891510141976915 1:1 2:1 3:1 4:1 7:1 9:1 10:1 11:1 12:1 13:1 14:1 15:1 16:1 21:1 28:1 30:1 33:1 34:1 
0.9306058058220822 1:1 2:1 4:1 7:1 9:1 12:1 14:1 15:1 19:1 20:1 22:1 26:1 27:1 28:1 30:1 34:1 35:1 
1.488971858758547 2:1 4:1 5:1 7:1 8:1 10:1 11:1 12:1 14:1 19:1 22:1 23:1 25:1 26:1 27:1 29:1 30:1 31:1 35:1 
1.206677158338167 1:1 2:1 3:1 7:1 8:1 9:1 10:1 11:1 13:1 14:1 15:1 19:1 20:1 21:1 22:1 24:1 25:1 26:1 27:1 28:1 29:1 30:1 34:1 35:1 36:1 
0.6873448004779709 1:1 2:1 3:1 7:1 8:1 9:1 11:1 13:1 14:1 15:1 16:1 19:1 23:1 25:1 27:1 28:1 29:1 30:1 31:1 34:1 35:1 
1.054972155876209 1:1 3:1 4:1 5:1 7:1 8:1 9:1 14:1 15:1 17:1 18:1 22:1 25:1 26:1 31:1 
1.189702875422111 1:1 2:1 4:1 7:1 9:1 10:1 11:1 13:1 14:1 16:1 21:1 22:1 23:1 24:1 25:1 26:1 28:1 30:1 31:1 
0.8271172840136934 1:1 2:1 3:1 4:1 5:1 6:1 7:1 8:1 9:1 11:1 14:1 15:1 16:1 17:1 22:1 25:1 26:1 27:1 28:1 31:1 32:1 34:1 
1.182477935939219 1:1 4:1 5:1 6:1 7:1 8:1 9:1 11:1 12:1 14:1 15:1 22:1 24:1 25:1 26:1 27:1 28:1 29:1 30:1 31:1 34:1 35:1 
1.519543954591436 1:1 3:1 7:1 8:1 12:1 14:1 15:1 22:1 23:1 25:1 26:1 27:1 
1.189798336423961 1:1 2:1 3:1 4:1 8:1 9:1 10:1 11:1 12:1 13:1 15:1 19:1 23:1 25:1 26:1 27:1 28:1 29:1 33:1 34:1 
1.021956873643985 1:1 2:1 3:1 4:1 7:1 8:1 9:1 10:1 11:1 12:1 13:1 15:1 16:1 17:1 18:1 19:1 21:1 22:1 24:1 25:1 26:1 28:1 30:1 31:1 32:1 34:1 
1.211739699681239 1:1 2:1 3:1 4:1 7:1 8:1 9:1 11:1 14:1 22:1 23:1 25:1 26:1 27:1 28:1 29:1 31:1 35:1 
1.042249721261549 1:1 2:1 3:1 7:1 10:1 11:1 12:1 13:1 16:1 18:1 19:1 22:1 23:1 26:1 27:1 29:1 30:1 31:1 35:1 
0.8716320222965205 1:1 2:1 4:1 7:1 8:1 9:1 11:1 12:1 14:1 16:1 19:1 20:1 22:1 26:1 27:1 29:1 35:1 
1.382281240811599 1:1 3:1 5:1 6:1 8:1 10:1 11:1 12:1 13:1 14:1 15:1 17:1 19:1 23:1 25:1 26:1 27:1 28:1 29:1 31:1 32:1 33:1 34:1 
1.510452253897781 1:1 2:1 3:1 4:1 5:1 6:1 7:1 9:1 10:1 11:1 12:1 13:1 14:1 16:1 19:1 22:1 25:1 26:1 27:1 28:1 30:1 31:1 33:1 34:1 
0.3667681662335177 1:1 2:1 3:1 4:1 7:1 8:1 9:1 11:1 13:1 14:1 15:1 16:1 18:1 19:1 22:1 25:1 26:1 29:1 31:1 34:1 35:1 
1.319344852033921 1:1 2:1 3:1 6:1 7:1 8:1 9:1 10:1 14:1 15:1 17:1 21:1 25:1 26:1 29:1 31:1 36:1 
1.212221566566726 1:1 3:1 4:1 7:1 8:1 10:1 11:1 12:1 14:1 15:1 16:1 17:1 19:1 22:1 23:1 25:1 26:1 27:1 29:1 30:1 34:1 35:1 36:1 
1.002468995877842 1:1 2:1 3:1 7:1 9:1 10:1 11:1 13:1 14:1 16:1 19:1 22:1 23:1 26:1 28:1 29:1 
1.716604813452872 1:1 2:1 3:1 4:1 7:1 8:1 9:1 11:1 12:1 13:1 14:1 15:1 19:1 21:1 22:1 23:1 26:1 27:1 29:1 30:1 31:1 
1.320937552713017 1:1 7:1 8:1 10:1 12:1 13:1 14:1 16:1 17:1 19:1 21:1 22:1 25:1 26:1 27:1 28:1 29:1 33:1 
1.128459622321478 2:1 3:1 4:1 7:1 8:1 9:1 10:1 14:1 15:1 16:1 19:1 21:1 22:1 24:1 25:1 27:1 30:1 34:1 35:1 
0.4245856492922384 2:1 3:1 4:1 7:1 8:1 9:1 10:1 11:1 12:1 13:1 14:1 15:1 16:1 19:1 22:1 25:1 26:1 28:1 29:1 31:1 32:1 
1.495791320564223 1:1 3:1 4:1 6:1 7:1 9:1 10:1 11:1 14:1 15:1 19:1 20:1 22:1 23:1 24:1 25:1 26:1 27:1 28:1 29:1 30:1 34:1 
0.5666609706343211 1:1 2:1 3:1 4:1 7:1 8:1 9:1 13:1 14:1 15:1 16:1 17:1 19:1 22:1 23:1 26:1 27:1 29:1 30:1 31:1 34:1 36:1 
0.9818360527618045 1:1 3:1 4:1 7:1 8:1 9:1 14:1 19:1 21:1 22:1 26:1 27:1 28:1 29:1 31:1 32:1 35:1 
1.399892608406056 1:1 2:1 3:1 4:1 5:1 6:1 8:1 9:1 10:1 11:1 12:1 13:1 15:1 16:1 17:1 21:1 22:1 25:1 26:1 27:1 28:1 29:1 30:1 33:1 
1.44403844640492 3:1 4:1 5:1 7:1 8:1 9:1 13:1 15:1 16:1 18:1 22:1 23:1 24:1 25:1 26:1 28:1 29:1 30:1 32:1 34:1 
1.130937979503349 1:1 4:1 7:1 8:1 9:1 11:1 12:1 13:1 14:1 15:1 22:1 26:1 27:1 28:1 29:1 30:1 34:1 36:1 
1.03195531650588 1:1 2:1 3:1 4:1 8:1 9:1 10:1 11:1 13:1 14:1 15:1 19:1 20:1 21:1 22:1 24:1 25:1 26:1 27:1 29:1 30:1 31:1 35:1 
1.080685215219338 1:1 3:1 7:1 8:1 9:1 10:1 11:1 13:1 14:1 15:1 16:1 22:1 25:1 26:1 28:1 32:1 34:1 
1.228248268169162 1:1 2:1 3:1 4:1 8:1 12:1 13:1 14:1 19:1 22:1 25:1 27:1 28:1 29:1 31:1 
1.566549552960246 1:1 3:1 4:1 5:1 6:1 9:1 10:1 11:1 12:1 13:1 14:1 15:1 19:1 22:1 25:1 26:1 27:1 
1.231502328686694 1:1 2:1 3:1 4:1 5:1 7:1 8:1 9:1 11:1 12:1 13:1 19:1 21:1 22:1 25:1 26:1 27:1 28:1 29:1 30:1 31:1 34:1 36:1 
0.759353370967539 1:1 2:1 3:1 4:1 5:1 7:1 9:1 10:1 11:1 12:1 13:1 14:1 15:1 16:1 22:1 25:1 26:1 27:1 28:1 30:1 31:1 34:1 
1.093985319315857 1:1 2:1 4:1 6:1 7:1 8:1 9:1 10:1 11:1 12:1 13:1 14:1 15:1 16:1 18:1 25:1 26:1 27:1 29:1 34:1 
1.134295376073242 1:1 2:1 3:1 6:1 7:1 8:1 9:1 11:1 12:1 13:1 14:1 15:1 16:1 17:1 19:1 20:1 22:1 25:1 27:1 28:1 30:1 31:1 32:1 33:1 34:1 36:1 
0.7845680432570812 1:1 2:1 7:1 8:1 9:1 12:1 13:1 15:1 22:1 26:1 27:1 28:1 29:1 31:1 34:1 
0.3770310568665771 1:1 2:1 3:1 4:1 7:1 8:1 9:1 12:1 13:1 14:1 15:1 16:1 19:1 20:1 22:1 25:1 26:1 27:1 28:1 29:1 30:1 31:1 34:1 35:1 
1.271838888167007 1:1 2:1 3:1 4:1 5:1 7:1 8:1 13:1 15:1 16:1 21:1 22:1 25:1 26:1 29:1 35:1 
0.7592777851726563 1:1 2:1 3:1 4:1 7:1 8:1 9:1 13:1 14:1 15:1 16:1 19:1 20:1 21:1 22:1 25:1 26:1 27:1 28:1 31:1 34:1 35:1 36:1 
1.06781949364536 1:1 2:1 3:1 4:1 8:1 9:1 11:1 12:1 13:1 14:1 20:1 21:1 22:1 25:1 26:1 27:1 28:1 31:1 34:1 
1.295660013523877 1:1 2:1 3:1 4:1 7:1 8:1 9:1 12:1 13:1 14:1 15:1 19:1 20:1 24:1 25:1 26:1 27:1 31:1 32:1 33:1 35:1 
0.9098462662166936 1:1 2:1 3:1 4:1 7:1 8:1 9:1 11:1 13:1 14:1 15:1 16:1 19:1 20:1 22:1 26:1 27:1 28:1 29:1 30:1 32:1 35:1 36:1 
0.9785498129354142 1:1 2:1 3:1 7:1 9:1 10:1 12:1 13:1 14:1 18:1 22:1 23:1 25:1 26:1 27:1 28:1 29:1 31:1 34:1 35:1 
1.04560240263832 1:1 2:1 3:1 7:1 9:1 11:1 12:1 14:1 15:1 16:1 20:1 21:1 26:1 27:1 28:1 30:1 31:1 32:1 34:1 
1.375861581322632 1:1 3:1 4:1 8:1 9:1 10:1 11:1 12:1 13:1 14:1 16:1 17:1 18:1 19:1 22:1 24:1 26:1 27:1 29:1 30:1 35:1 
0.6065258523107631 1:1 2:1 3:1 7:1 8:1 9:1 10:1 13:1 14:1 19:1 22:1 24:1 25:1 26:1 27:1 28:1 29:1 31:1 34:1 
1.478790848188932 2:1 4:1 7:1 8:1 9:1 12:1 13:1 14:1 15:1 19:1 22:1 23:1 25:1 26:1 27:1 28:1 29:1 30:1 31:1 32:1 33:1 34:1 
1.236756775313203 2:1 8:1 10:1 11:1 12:1 13:1 15:1 17:1 19:1 22:1 27:1 28:1 29:1 31:1 32:1 34:1 
1.199673288665596 1:1 2:1 3:1 5:1 7:1 8:1 9:1 10:1 11:1 12:1 13:1 14:1 15:1 16:1 17:1 22:1 24:1 25:1 28:1 29:1 30:1 31:1 32:1 34:1 35:1 
0.9114549694512349 1:1 2:1 3:1 4:1 7:1 8:1 9:1 10:1 11:1 12:1 14:1 15:1 16:1 17:1 19:1 21:1 22:1 24:1 25:1 26:1 27:1 29:1 30:1 35:1 
0.180244753505518 1:1 2:1 3:1 4:1 7:1 8:1 9:1 10:1 11:1 12:1 13:1 15:1 16:1 19:1 22:1 25:1 27:1 28:1 31:1 34:1 35:1 
1.213878177072722 1:1 3:1 4:1 7:1 8:1 9:1 10:1 11:1 12:1 13:1 14:1 15:1 16:1 19:1 22:1 25:1 26:1 27:1 31:1 33:1 34:1 
1.103588580700517 1:1 2:1 3:1 4:1 5:1 7:1 8:1 12:1 13:1 14:1 15:1 16:1 19:1 22:1 23:1 26:1 27:1 28:1 32:1 
1.518734861302145 1:1 2:1 3:1 4:1 5:1 7:1 8:1 9:1 10:1 11:1 12:1 13:1 14:1 15:1 16:1 22:1 23:1 27:1 29:1 36:1 
1.186352876736268 1:1 2:1 3:1 7:1 8:1 9:1 10:1 12:1 16:1 17:1 19:1 21:1 22:1 25:1 26:1 27:1 29:1 30:1 31:1 35:1 36:1 
1.081422941186656 1:1 2:1 4:1 7:1 9:1 10:1 11:1 12:1 14:1 15:1 19:1 25:1 26:1 28:1 30:1 31:1 35:1 36:1 
0.6715609850865965 3:1 8:1 9:1 11:1 12:1 13:1 15:1 22:1 26:1 27:1 28:1 29:1 31:1 34:1 35:1 
0.643043184892318 1:1 2:1 3:1 4:1 7:1 8:1 9:1 10:1 11:1 13:1 14:1 15:1 16:1 19:1 22:1 25:1 26:1 29:1 31:1 33:1 
0.5895378610867363 1:1 2:1 4:1 9:1 10:1 11:1 12:1 13:1 14:1 15:1 22:1 26:1 27:1 28:1 31:1 34:1 
1.35200815715201 6:1 9:1 10:1 11:1 12:1 13:1 14:1 15:1 19:1 22:1 25:1 26:1 27:1 29:1 30:1 32:1 36:1 
1.294448486064022 1:1 2:1 3:1 5:1 6:1 7:1 8:1 9:1 11:1 12:1 13:1 14:1 22:1 23:1 25:1 26:1 28:1 29:1 31:1 
0.7917702817746601 1:1 2:1 3:1 7:1 8:1 10:1 11:1 13:1 14:1 16:1 19:1 20:1 22:1 23:1 25:1 26:1 27:1 28:1 29:1 30:1 31:1 34:1 
1.040355423294994 1:1 2:1 3:1 4:1 7:1 8:1 9:1 10:1 11:1 12:1 13:1 15:1 20:1 22:1 25:1 26:1 27:1 28:1 31:1 
1.016645900766507 1:1 2:1 3:1 4:1 5:1 7:1 8:1 9:1 12:1 13:1 14:1 19:1 21:1 22:1 25:1 26:1 27:1 28:1 31:1 34:1 
2.724120926604566 1:1 2:1 3:1 4:1 7:1 8:1 9:1 10:1 11:1 13:1 14:1 22:1 25:1 26:1 27:1 28:1 29:1 30:1 34:1 
1.76209061141438 1:1 2:1 4:1 5:1 7:1 8:1 9:1 10:1 11:1 12:1 13:1 15:1 16:1 17:1 19:1 20:1 22:1 25:1 26:1 27:1 34:1 35:1 
1.252371535240626 2:1 3:1 4:1 6:1 7:1 9:1 12:1 13:1 15:1 19:1 22:1 24:1 25:1 26:1 27:1 29:1 30:1 31:1 32:1 33:1 
1.242043511164671 1:1 3:1 7:1 9:1 11:1 13:1 14:1 17:1 18:1 19:1 21:1 22:1 24:1 27:1 31:1 34:1 
0.879451474250003 3:1 4:1 7:1 8:1 10:1 13:1 14:1 15:1 16:1 17:1 19:1 22:1 24:1 25:1 26:1 27:1 28:1 29:1 30:1 34:1 
1.212019833382637 1:1 2:1 3:1 4:1 7:1 8:1 9:1 10:1 11:1 12:1 13:1 14:1 15:1 16:1 17:1 19:1 22:1 25:1 26:1 27:1 28:1 29:1 34:1 
0.7305973814782941 1:1 2:1 3:1 4:1 6:1 7:1 10:1 11:1 12:1 13:1 14:1 15:1 16:1 19:1 22:1 24:1 25:1 26:1 27:1 28:1 29:1 30:1 31:1 34:1 36:1 
1.084945440744519 1:1 2:1 3:1 4:1 5:1 8:1 9:1 11:1 12:1 13:1 14:1 15:1 18:1 22:1 23:1 28:1 29:1 33:1 34:1 35:1 
1.718653464085781 1:1 2:1 3:1 4:1 6:1 7:1 8:1 9:1 11:1 12:1 14:1 15:1 16:1 22:1 23:1 24:1 27:1 28:1 29:1 30:1 
0.9013344059458187 1:1 2:1 3:1 4:1 7:1 8:1 9:1 10:1 11:1 12:1 13:1 14:1 15:1 16:1 19:1 20:1 21:1 22:1 27:1 29:1 31:1 32:1 34:1 36:1 
1.053639506722482 2:1 3:1 6:1 7:1 8:1 9:1 11:1 12:1 14:1 15:1 16:1 19:1 22:1 24:1 25:1 26:1 27:1 28:1 29:1 30:1 31:1 34:1 
1.126906189633788 1:1 3:1 4:1 5:1 7:1 9:1 10:1 11:1 12:1 13:1 14:1 15:1 18:1 19:1 21:1 22:1 23:1 25:1 26:1 29:1 31:1 34:1 
1.200651314672904 1:1 2:1 3:1 4:1 5:1 8:1 9:1 10:1 12:1 13:1 14:1 15:1 16:1 22:1 23:1 25:1 26:1 28:1 29:1 30:1 31:1 33:1 34:1 
0.6583847970096129 1:1 3:1 4:1 7:1 9:1 10:1 11:1 12:1 13:1 14:1 16:1 19:1 21:1 22:1 26:1 34:1 
1.393985105641125 2:1 3:1 4:1 6:1 7:1 8:1 9:1 11:1 12:1 13:1 14:1 15:1 19:1 20:1 21:1 22:1 25:1 26:1 27:1 31:1 
1.34094356316669 1:1 2:1 3:1 4:1 7:1 9:1 14:1 15:1 18:1 19:1 21:1 22:1 24:1 27:1 28:1 30:1 36:1 
1.329470533499973 1:1 3:1 7:1 8:1 9:1 10:1 11:1 12:1 13:1 14:1 15:1 16:1 19:1 21:1 22:1 26:1 27:1 29:1 30:1 34:1 
0.3556993640903041 1:1 3:1 7:1 9:1 10:1 11:1 12:1 13:1 14:1 15:1 19:1 22:1 24:1 25:1 26:1 28:1 30:1 31:1 34:1 
1.329607625758804 1:1 2:1 6:1 7:1 9:1 11:1 12:1 13:1 14:1 15:1 22:1 24:1 26:1 28:1 29:1 30:1 34:1 
1.188716326979288 1:1 2:1 3:1 4:1 8:1 10:1 12:1 15:1 16:1 17:1 24:1 25:1 26:1 27:1 28:1 29:1 30:1 31:1 
1.010831738170815 1:1 2:1 3:1 4:1 6:1 7:1 8:1 9:1 11:1 12:1 13:1 15:1 16:1 19:1 21:1 22:1 25:1 26:1 27:1 28:1 29:1 34:1 
1.427678673165492 1:1 2:1 3:1 4:1 5:1 6:1 7:1 8:1 9:1 11:1 12:1 14:1 15:1 16:1 20:1 22:1 26:1 27:1 30:1 31:1 32:1 33:1 35:1 
0.9646293141188476 1:1 2:1 4:1 5:1 8:1 11:1 13:1 14:1 15:1 22:1 25:1 26:1 27:1 28:1 30:1 34:1 
0.9410141852970164 1:1 2:1 4:1 7:1 8:1 9:1 10:1 13:1 14:1 15:1 16:1 17:1 18:1 19:1 26:1 27:1 31:1 33:1 
0.3829542017948152 1:1 2:1 3:1 4:1 7:1 8:1 10:1 11:1 12:1 13:1 14:1 15:1 16:1 22:1 25:1 26:1 27:1 28:1 29:1 31:1 34:1 
0.9683791668997976 1:1 2:1 3:1 4:1 7:1 8:1 15:1 16:1 17:1 19:1 22:1 24:1 26:1 27:1 29:1 30:1 35:1 
1.213639994759027 1:1 2:1 3:1 4:1 8:1 10:1 11:1 12:1 13:1 14:1 16:1 18:1 21:1 22:1 25:1 26:1 27:1 28:1 
1.387991788359588 1:1 2:1 3:1 4:1 6:1 8:1 9:1 11:1 12:1 13:1 14:1 15:1 16:1 19:1 22:1 25:1 26:1 28:1 29:1 30:1 34:1 
1.265834692035823 1:1 2:1 3:1 4:1 7:1 8:1 9:1 11:1 12:1 13:1 14:1 15:1 16:1 19:1 22:1 23:1 25:1 26:1 28:1 29:1 30:1 32:1 36:1 
1.53473089060591 2:1 3:1 4:1 5:1 7:1 8:1 9:1 10:1 11:1 14:1 15:1 16:1 19:1 20:1 21:1 22:1 24:1 27:1 28:1 29:1 30:1 
1.2039873925609 1:1 2:1 3:1 7:1 8:1 10:1 11:1 13:1 14:1 19:1 20:1 21:1 23:1 26:1 27:1 28:1 29:1 30:1 34:1 35:1 36:1 
1.508458636243794 2:1 3:1 4:1 7:1 8:1 9:1 10:1 11:1 12:1 13:1 14:1 15:1 17:1 19:1 20:1 21:1 23:1 25:1 27:1 29:1 30:1 32:1 34:1 36:1 
1.044193920174006 1:1 2:1 3:1 6:1 7:1 8:1 9:1 11:1 12:1 13:1 14:1 15:1 17:1 19:1 22:1 25:1 26:1 27:1 28:1 29:1 31:1 
0.6330961192607462 1:1 2:1 3:1 4:1 9:1 10:1 13:1 14:1 15:1 19:1 22:1 25:1 27:1 28:1 29:1 30:1 34:1 35:1 
0.9707654104562664 1:1 2:1 3:1 4:1 7:1 8:1 9:1 14:1 15:1 19:1 20:1 27:1 28:1 32:1 34:1 35:1 
0.777510757953372 1:1 2:1 3:1 4:1 7:1 8:1 9:1 10:1 11:1 12:1 13:1 14:1 15:1 16:1 17:1 21:1 22:1 27:1 28:1 29:1 31:1 32:1 34:1 
0.6561778174274847 1:1 2:1 3:1 4:1 5:1 7:1 8:1 9:1 11:1 13:1 14:1 15:1 19:1 22:1 27:1 28:1 30:1 31:1 35:1 
0.9853498336627579 1:1 2:1 3:1 4:1 7:1 8:1 9:1 10:1 11:1 12:1 13:1 14:1 15:1 17:1 19:1 21:1 22:1 24:1 25:1 26:1 28:1 29:1 30:1 34:1 36:1 
1.374818615218429 1:1 2:1 3:1 4:1 6:1 7:1 8:1 9:1 12:1 14:1 16:1 17:1 19:1 22:1 25:1 26:1 27:1 29:1 
1.32046725351789 1:1 3:1 7:1 8:1 11:1 12:1 13:1 14:1 15:1 18:1 25:1 26:1 28:1 30:1 31:1 34:1 
0.8883020906445829 1:1 2:1 3:1 8:1 10:1 11:1 12:1 13:1 14:1 15:1 19:1 20:1 21:1 22:1 25:1 26:1 27:1 28:1 31:1 34:1 
1.29733785474043 1:1 2:1 6:1 7:1 8:1 9:1 13:1 14:1 15:1 19:1 20:1 22:1 24:1 25:1 26:1 27:1 28:1 31:1 34:1 35:1 
0.7945820944236804 1:1 3:1 8:1 9:1 13:1 15:1 22:1 26:1 27:1 29:1 34:1 35:1 
1.308545660017066 1:1 2:1 8:1 9:1 10:1 11:1 13:1 19:1 21:1 26:1 29:1 30:1 31:1 32:1 
1.022889119429857 1:1 2:1 3:1 4:1 7:1 8:1 9:1 14:1 15:1 16:1 19:1 22:1 24:1 25:1 26:1 27:1 28:1 29:1 30:1 34:1 
0.8606636632599745 1:1 3:1 4:1 5:1 8:1 9:1 10:1 11:1 12:1 13:1 14:1 15:1 16:1 19:1 22:1 24:1 25:1 26:1 27:1 28:1 30:1 31:1 34:1 35:1 36:1 
1.440341841473064 1:1 2:1 3:1 4:1 7:1 8:1 11:1 12:1 13:1 14:1 15:1 19:1 25:1 26:1 27:1 30:1 32:1 33:1 36:1 
0.9358585394148279 1:1 2:1 3:1 4:1 5:1 7:1 9:1 11:1 12:1 13:1 14:1 15:1 16:1 19:1 22:1 23:1 26:1 27:1 29:1 33:1 34:1 
1.05532279106224 1:1 2:1 3:1 4:1 7:1 8:1 10:1 11:1 13:1 15:1 18:1 19:1 20:1 22:1 25:1 27:1 28:1 31:1 33:1 34:1 
0.2248177170553156 1:1 2:1 3:1 4:1 5:1 7:1 8:1 9:1 10:1 11:1 13:1 14:1 15:1 16:1 22:1 26:1 27:1 28:1 29:1 31:1 34:1 35:1 
0.8951598150309664 1:1 4:1 7:1 8:1 9:1 10:1 11:1 12:1 14:1 15:1 16:1 22:1 26:1 28:1 29:1 30:1 33:1 34:1 
0.6922691671869966 1:1 2:1 3:1 4:1 5:1 7:1 8:1 9:1 10:1 11:1 12:1 14:1 15:1 16:1 19:1 25:1 26:1 29:1 31:1 35:1 
1.292112512523481 1:1 2:1 3:1 4:1 8:1 9:1 11:1 12:1 14:1 15:1 19:1 21:1 22:1 23:1 27:1 29:1 31:1 32:1 
1.255497519110175 1:1 3:1 4:1 6:1 7:1 9:1 10:1 11:1 19:1 22:1 26:1 27:1 29:1 
1.470478523609078 1:1 2:1 3:1 4:1 5:1 6:1 7:1 8:1 9:1 10:1 11:1 12:1 13:1 14:1 15:1 16:1 19:1 20:1 22:1 24:1 25:1 26:1 28:1 29:1 30:1 32:1 36:1 
0.6585387672716406 1:1 2:1 4:1 7:1 8:1 9:1 10:1 11:1 12:1 13:1 16:1 19:1 22:1 24:1 25:1 27:1 28:1 30:1 31:1 34:1 
1.198739653932797 1:1 2:1 3:1 4:1 7:1 8:1 9:1 10:1 11:1 12:1 14:1 15:1 19:1 20:1 21:1 22:1 27:1 28:1 31:1 
1.731825087555218 1:1 2:1 3:1 4:1 5:1 6:1 7:1 8:1 9:1 10:1 11:1 12:1 13:1 15:1 16:1 22:1 26:1 27:1 29:1 30:1 31:1 
0.9997490259193015 1:1 2:1 3:1 4:1 6:1 8:1 9:1 10:1 11:1 12:1 13:1 15:1 16:1 22:1 27:1 28:1 34:1 
0.8382870158378899 1:1 2:1 6:1 7:1 8:1 9:1 13:1 15:1 16:1 19:1 21:1 22:1 25:1 26:1 27:1 28:1 30:1 31:1 32:1 34:1 36:1 
1.447066069328278 2:1 3:1 6:1 7:1 8:1 9:1 10:1 11:1 12:1 14:1 15:1 19:1 22:1 23:1 24:1 25:1 26:1 27:1 29:1 30:1 31:1 32:1 35:1 
0.5375124440794234 1:1 2:1 3:1 4:1 7:1 8:1 9:1 10:1 11:1 12:1 13:1 14:1 15:1 18:1 19:1 22:1 25:1 28:1 29:1 31:1 33:1 34:1 
0.8925436254393313 2:1 3:1 4:1 5:1 6:1 7:1 8:1 9:1 12:1 13:1 14:1 15:1 16:1 19:1 21:1 22:1 26:1 31:1 34:1 
0.9173992166957957 1:1 2:1 3:1 7:1 8:1 10:1 11:1 12:1 13:1 14:1 15:1 16:1 19:1 22:1 27:1 28:1 30:1 31:1 34:1 36:1 
0.7727862876509011 1:1 2:1 4:1 7:1 8:1 10:1 11:1 12:1 13:1 15:1 16:1 21:1 22:1 25:1 26:1 27:1 28:1 29:1 31:1 34:1 35:1 
0.9670240142781552 1:1 2:1 3:1 4:1 5:1 6:1 7:1 8:1 9:1 10:1 11:1 12:1 15:1 16:1 19:1 22:1 26:1 28:1 31:1 32:1 34:1 
0.6952339716985794 1:1 2:1 3:1 4:1 6:1 7:1 9:1 12:1 13:1 14:1 15:1 19:1 22:1 26:1 27:1 28:1 29:1 30:1 34:1 
1.285016960771381 1:1 2:1 3:1 4:1 7:1 11:1 12:1 13:1 14:1 15:1 16:1 21:1 22:1 23:1 24:1 26:1 29:1 30:1 34:1 
0.4660840064153461 1:1 2:1 3:1 4:1 7:1 8:1 11:1 12:1 13:1 14:1 15:1 16:1 19:1 22:1 24:1 25:1 27:1 28:1 30:1 31:1 32:1 34:1 35:1 
0.727435167699197 1:1 2:1 3:1 7:1 8:1 9:1 10:1 11:1 16:1 22:1 27:1 29:1 30:1 34:1 35:1 
1.049179429081129 1:1 2:1 6:1 7:1 8:1 9:1 10:1 12:1 13:1 15:1 17:1 19:1 22:1 25:1 26:1 27:1 28:1 30:1 31:1 32:1 34:1 
0.9492250509175925 1:1 4:1 9:1 10:1 12:1 13:1 14:1 15:1 16:1 17:1 18:1 19:1 26:1 27:1 29:1 34:1 35:1 
0.5827683080131907 1:1 2:1 3:1 4:1 7:1 8:1 9:1 10:1 11:1 12:1 13:1 14:1 15:1 16:1 19:1 20:1 22:1 23:1 25:1 26:1 28:1 31:1 33:1 34:1 35:1 
1.609876424211653 1:1 2:1 3:1 5:1 6:1 7:1 8:1 9:1 10:1 11:1 12:1 14:1 15:1 19:1 20:1 21:1 22:1 26:1 27:1 29:1 31:1 32:1 35:1 
1.540596099912141 1:1 2:1 3:1 4:1 6:1 7:1 8:1 9:1 14:1 15:1 19:1 21:1 22:1 23:1 24:1 25:1 26:1 27:1 28:1 29:1 30:1 34:1 35:1 
1.285069356400682 1:1 2:1 5:1 8:1 14:1 15:1 16:1 27:1 28:1 29:1 30:1 31:1 32:1 34:1 36:1 
1.086659355192727 2:1 3:1 4:1 5:1 6:1 7:1 9:1 11:1 12:1 13:1 14:1 15:1 19:1 22:1 24:1 25:1 26:1 30:1 34:1 
0.977926669429856 1:1 2:1 3:1 4:1 6:1 7:1 9:1 12:1 13:1 14:1 22:1 23:1 26:1 27:1 29:1 30:1 31:1 
0.7879196819462626 1:1 4:1 8:1 9:1 12:1 13:1 15:1 19:1 22:1 26:1 27:1 28:1 30:1 34:1 
1.402573852244812 1:1 2:1 3:1 4:1 6:1 7:1 8:1 9:1 10:1 11:1 12:1 13:1 15:1 19:1 22:1 27:1 30:1 34:1 35:1 
1.084252132845355 1:1 3:1 7:1 8:1 9:1 10:1 11:1 12:1 13:1 14:1 15:1 16:1 19:1 22:1 24:1 25:1 26:1 27:1 28:1 30:1 
0.9793363133135741 1:1 2:1 4:1 8:1 9:1 10:1 11:1 13:1 14:1 15:1 16:1 22:1 23:1 27:1 28:1 29:1 30:1 31:1 32:1 33:1 34:1 
1.026046829704958 1:1 2:1 3:1 4:1 5:1 7:1 8:1 9:1 13:1 14:1 15:1 16:1 17:1 18:1 22:1 25:1 26:1 27:1 29:1 31:1 32:1 34:1 35:1 36:1 
1.203034459042255 1:1 2:1 3:1 4:1 7:1 8:1 9:1 12:1 13:1 14:1 15:1 17:1 24:1 25:1 27:1 29:1 30:1 34:1 35:1 
0.3689951595828104 1:1 2:1 3:1 4:1 7:1 8:1 9:1 10:1 11:1 12:1 14:1 19:1 22:1 25:1 26:1 28:1 31:1 34:1 35:1 
0.5973725374310104 1:1 3:1 4:1 7:1 9:1 12:1 13:1 14:1 15:1 19:1 22:1 26:1 27:1 28:1 31:1 35:1 
0.954497200619855 1:1 3:1 4:1 7:1 9:1 10:1 11:1 12:1 14:1 15:1 19:1 22:1 24:1 26:1 27:1 28:1 30:1 31:1 35:1 
1.376004061725154 1:1 2:1 3:1 5:1 7:1 8:1 9:1 10:1 11:1 12:1 13:1 14:1 15:1 16:1 17:1 19:1 22:1 27:1 34:1 36:1 
1.101579769778768 1:1 2:1 3:1 4:1 7:1 8:1 9:1 11:1 12:1 14:1 15:1 17:1 19:1 20:1 22:1 29:1 30:1 31:1 34:1 
1.517531029404518 1:1 2:1 7:1 8:1 9:1 13:1 14:1 15:1 22:1 25:1 26:1 27:1 30:1 
1.174568207849704 1:1 2:1 3:1 4:1 6:1 7:1 8:1 9:1 10:1 11:1 12:1 13:1 14:1 21:1 22:1 24:1 28:1 31:1 33:1 
0.3235204900650807 1:1 2:1 3:1 7:1 8:1 9:1 13:1 14:1 15:1 17:1 19:1 25:1 26:1 27:1 29:1 30:1 31:1 34:1 35:1 
0.9539347098617684 1:1 2:1 4:1 7:1 9:1 10:1 11:1 12:1 14:1 15:1 16:1 17:1 18:1 19:1 22:1 24:1 25:1 26:1 27:1 30:1 34:1 
0.3838547636476285 1:1 2:1 3:1 4:1 5:1 7:1 8:1 11:1 12:1 13:1 14:1 15:1 16:1 22:1 26:1 27:1 28:1 29:1 31:1 34:1 
1.38657946075323 3:1 4:1 7:1 8:1 9:1 11:1 12:1 13:1 15:1 17:1 22:1 24:1 25:1 26:1 27:1 28:1 30:1 34:1 
1.128918828772226 1:1 2:1 3:1 4:1 8:1 9:1 11:1 12:1 13:1 16:1 19:1 23:1 25:1 26:1 27:1 29:1 30:1 31:1 
1.060031285900466 1:1 3:1 7:1 8:1 9:1 12:1 13:1 15:1 19:1 24:1 25:1 26:1 27:1 28:1 34:1 
0.5389851439797733 1:1 2:1 3:1 4:1 6:1 7:1 8:1 9:1 11:1 12:1 13:1 14:1 15:1 16:1 18:1 22:1 26:1 27:1 28:1 29:1 30:1 34:1 
1.059272264891469 1:1 2:1 4:1 7:1 8:1 9:1 10:1 11:1 13:1 14:1 16:1 18:1 19:1 21:1 22:1 26:1 27:1 28:1 29:1 30:1 31:1 34:1 35:1 
1.07219832405999 1:1 2:1 3:1 4:1 7:1 9:1 10:1 11:1 12:1 13:1 14:1 15:1 16:1 17:1 18:1 19:1 20:1 21:1 22:1 24:1 25:1 26:1 27:1 28:1 30:1 31:1 32:1 34:1 36:1 
0.9248898749325248 1:1 3:1 4:1 7:1 8:1 10:1 12:1 13:1 14:1 15:1 16:1 19:1 20:1 22:1 24:1 25:1 26:1 27:1 28:1 29:1 30:1 31:1 32:1 33:1 34:1 
0.9285093102852777 1:1 2:1 3:1 6:1 7:1 8:1 9:1 10:1 13:1 14:1 15:1 16:1 17:1 19:1 22:1 24:1 25:1 26:1 27:1 29:1 30:1 31:1 36:1 
1.116682399408283 1:1 2:1 3:1 4:1 6:1 7:1 8:1 9:1 12:1 13:1 15:1 19:1 22:1 23:1 24:1 27:1 28:1 34:1 
1.364232691617198 2:1 3:1 4:1 6:1 8:1 9:1 10:1 11:1 12:1 13:1 14:1 15:1 18:1 19:1 21:1 22:1 25:1 28:1 29:1 30:1 34:1 
1.304379869550061 2:1 3:1 6:1 7:1 8:1 9:1 13:1 14:1 15:1 17:1 18:1 19:1 21:1 22:1 24:1 25:1 26:1 27:1 28:1 30:1 31:1 32:1 33:1 34:1 
1.28495619326446 1:1 2:1 3:1 7:1 8:1 9:1 11:1 12:1 13:1 15:1 19:1 20:1 22:1 23:1 26:1 27:1 28:1 31:1 34:1 36:1 
0.9991561640456854 1:1 2:1 4:1 7:1 8:1 9:1 11:1 12:1 13:1 21:1 22:1 24:1 26:1 27:1 28:1 30:1 31:1 
0.569546060207952 1:1 2:1 3:1 5:1 6:1 7:1 8:1 9:1 10:1 11:1 13:1 14:1 15:1 16:1 19:1 22:1 23:1 25:1 26:1 27:1 29:1 31:1 34:1 
1.091034770412178 1:1 3:1 4:1 6:1 9:1 12:1 13:1 14:1 15:1 25:1 26:1 27:1 29:1 31:1 
1.323148092901367 4:1 5:1 7:1 8:1 9:1 11:1 12:1 13:1 15:1 16:1 28:1 29:1 34:1 36:1 
1.002569320866891 2:1 3:1 7:1 8:1 9:1 10:1 12:1 13:1 14:1 15:1 16:1 19:1 22:1 25:1 26:1 27:1 29:1 34:1 35:1 
1.114911324679957 1:1 2:1 3:1 4:1 8:1 10:1 11:1 13:1 14:1 15:1 16:1 21:1 22:1 24:1 27:1 28:1 30:1 31:1 
0.6177536687289404 1:1 2:1 3:1 4:1 7:1 8:1 9:1 10:1 11:1 12:1 13:1 15:1 16:1 19:1 20:1 22:1 23:1 26:1 27:1 28:1 29:1 31:1 32:1 33:1 34:1 
1.317682716983471 1:1 2:1 4:1 7:1 8:1 9:1 11:1 12:1 13:1 14:1 16:1 21:1 24:1 25:1 26:1 27:1 29:1 30:1 31:1 32:1 35:1 36:1 
1.068307238163893 1:1 2:1 3:1 7:1 8:1 10:1 11:1 12:1 13:1 14:1 16:1 19:1 22:1 24:1 25:1 28:1 29:1 30:1 32:1 34:1 35:1 
1.250892610382338 1:1 2:1 3:1 4:1 5:1 6:1 7:1 9:1 10:1 11:1 13:1 14:1 15:1 16:1 19:1 22:1 26:1 27:1 29:1 34:1 
1.046884612365471 1:1 7:1 8:1 9:1 11:1 12:1 13:1 15:1 19:1 22:1 26:1 27:1 30:1 31:1 32:1 35:1 36:1 
1.035619299245952 1:1 2:1 4:1 8:1 9:1 11:1 12:1 14:1 15:1 19:1 20:1 22:1 26:1 28:1 34:1 
1.190105976500507 1:1 2:1 3:1 4:1 7:1 8:1 9:1 10:1 11:1 12:1 13:1 14:1 15:1 16:1 18:1 19:1 21:1 23:1 24:1 29:1 30:1 31:1 34:1 35:1 
0.9391454270133672 1:1 2:1 4:1 7:1 8:1 9:1 10:1 11:1 12:1 15:1 16:1 18:1 19:1 21:1 22:1 24:1 25:1 26:1 27:1 28:1 33:1 34:1 
0.8942614166732916 1:1 2:1 3:1 4:1 7:1 8:1 9:1 10:1 11:1 12:1 13:1 15:1 16:1 19:1 22:1 24:1 25:1 26:1 27:1 28:1 30:1 33:1 36:1 
1.469782314458008 1:1 2:1 4:1 5:1 6:1 8:1 9:1 11:1 12:1 13:1 14:1 15:1 16:1 17:1 19:1 20:1 22:1 27:1 30:1 31:1 36:1 
0.4797385229583531 1:1 2:1 3:1 4:1 7:1 8:1 9:1 10:1 11:1 12:1 13:1 14:1 15:1 19:1 22:1 24:1 25:1 26:1 27:1 28:1 29:1 30:1 34:1 35:1 
0.6831891704184673 1:1 2:1 3:1 7:1 8:1 9:1 10:1 11:1 12:1 13:1 14:1 15:1 16:1 19:1 22:1 28:1 29:1 31:1 32:1 34:1 
0.8858165855581006 1:1 2:1 3:1 4:1 7:1 8:1 9:1 10:1 12:1 13:1 15:1 16:1 17:1 19:1 20:1 22:1 26:1 27:1 30:1 31:1 33:1 34:1 
1.174250054170128 1:1 4:1 8:1 11:1 14:1 15:1 23:1 25:1 26:1 28:1 29:1 30:1 34:1 
1.102568609117441 1:1 2:1 3:1 4:1 7:1 9:1 10:1 11:1 12:1 13:1 14:1 15:1 16:1 17:1 22:1 24:1 25:1 26:1 27:1 29:1 30:1 32:1 33:1 35:1 
1.011241890766788 1:1 3:1 7:1 8:1 9:1 10:1 12:1 13:1 14:1 16:1 18:1 22:1 25:1 27:1 28:1 29:1 30:1 31:1 35:1 
0.6312144526997556 2:1 3:1 4:1 6:1 7:1 8:1 9:1 13:1 14:1 15:1 16:1 19:1 22:1 24:1 26:1 27:1 30:1 31:1 34:1 
0.9361256652642937 1:1 2:1 3:1 7:1 8:1 9:1 13:1 14:1 15:1 16:1 17:1 21:1 25:1 26:1 27:1 28:1 30:1 31:1 32:1 34:1 
1.280117266943805 1:1 2:1 3:1 4:1 7:1 10:1 11:1 12:1 13:1 14:1 19:1 22:1 24:1 25:1 30:1 34:1 35:1 
1.084903475853774 1:1 2:1 3:1 4:1 7:1 8:1 10:1 11:1 12:1 13:1 14:1 15:1 16:1 19:1 20:1 24:1 27:1 30:1 32:1 34:1 
1.076776086911519 1:1 2:1 3:1 4:1 7:1 8:1 9:1 10:1 11:1 12:1 14:1 15:1 19:1 22:1 23:1 25:1 27:1 31:1 34:1 35:1 
0.7684752130490787 1:1 2:1 3:1 7:1 8:1 9:1 10:1 12:1 13:1 19:1 22:1 24:1 25:1 26:1 30:1 31:1 34:1 
1.262734439124048 2:1 3:1 4:1 5:1 7:1 8:1 9:1 10:1 11:1 13:1 14:1 15:1 25:1 26:1 27:1 28:1 29:1 30:1 31:1 32:1 33:1 34:1 36:1 
1.469598686110196 1:1 2:1 3:1 6:1 7:1 8:1 9:1 10:1 11:1 12:1 13:1 14:1 15:1 16:1 19:1 22:1 23:1 25:1 26:1 27:1 28:1 29:1 30:1 34:1 35:1 
1.203816025068474 1:1 2:1 3:1 6:1 7:1 8:1 9:1 12:1 13:1 15:1 16:1 17:1 26:1 28:1 30:1 31:1 32:1 33:1 35:1 
1.510289558896948 1:1 2:1 4:1 7:1 9:1 10:1 11:1 12:1 13:1 15:1 20:1 21:1 24:1 25:1 27:1 30:1 33:1 34:1 
0.3954750654610121 1:1 2:1 3:1 4:1 7:1 9:1 11:1 12:1 13:1 14:1 15:1 16:1 17:1 19:1 22:1 24:1 28:1 30:1 31:1 34:1 
0.9409474237904472 1:1 2:1 3:1 4:1 7:1 9:1 10:1 11:1 12:1 13:1 15:1 16:1 19:1 20:1 21:1 22:1 27:1 28:1 30:1 31:1 34:1 35:1 
0.7160460493438046 1:1 2:1 3:1 7:1 8:1 11:1 13:1 14:1 15:1 16:1 17:1 19:1 22:1 24:1 25:1 26:1 27:1 29:1 30:1 31:1 34:1 36:1 
1.07100794103114 3:1 4:1 7:1 8:1 11:1 12:1 13:1 14:1 15:1 19:1 21:1 22:1 23:1 26:1 27:1 29:1 30:1 31:1 34:1 
1.319440269176386 1:1 2:1 3:1 4:1 5:1 7:1 8:1 9:1 11:1 12:1 13:1 16:1 19:1 21:1 24:1 25:1 26:1 30:1 34:1 
1.008012737286155 2:1 3:1 4:1 8:1 9:1 11:1 12:1 13:1 14:1 15:1 16:1 19:1 20:1 21:1 22:1 25:1 27:1 28:1 31:1 34:1 
0.4644715910673449 1:1 2:1 3:1 4:1 5:1 6:1 7:1 8:1 9:1 10:1 11:1 12:1 13:1 14:1 15:1 16:1 19:1 22:1 26:1 27:1 29:1 34:1 
1.728220918364946 2:1 3:1 4:1 5:1 6:1 7:1 8:1 9:1 10:1 11:1 12:1 13:1 14:1 15:1 22:1 23:1 24:1 26:1 27:1 30:1 34:1 
1.303632667064482 1:1 3:1 4:1 6:1 7:1 8:1 9:1 11:1 12:1 13:1 14:1 15:1 16:1 22:1 25:1 26:1 27:1 30:1 32:1 
0.9951224463770658 4:1 7:1 8:1 9:1 10:1 11:1 12:1 13:1 14:1 16:1 19:1 23:1 25:1 26:1 27:1 29:1 31:1 35:1 
1.325765295372513 1:1 2:1 3:1 4:1 7:1 8:1 9:1 11:1 12:1 13:1 14:1 15:1 24:1 25:1 26:1 27:1 28:1 29:1 30:1 31:1 33:1 35:1 
1.043564707138095 1:1 2:1 3:1 4:1 6:1 9:1 13:1 14:1 15:1 16:1 17:1 19:1 20:1 22:1 26:1 27:1 28:1 29:1 30:1 31:1 32:1 34:1 35:1 36:1 
1.143272409298667 1:1 2:1 3:1 7:1 8:1 11:1 12:1 13:1 14:1 15:1 16:1 21:1 22:1 25:1 26:1 27:1 29:1 30:1 31:1 32:1 
1.448875994053996 1:1 2:1 3:1 6:1 7:1 8:1 9:1 11:1 12:1 13:1 15:1 19:1 20:1 22:1 23:1 24:1 26:1 27:1 29:1 30:1 31:1 
1.408100359228878 1:1 2:1 3:1 4:1 7:1 9:1 12:1 18:1 19:1 20:1 21:1 22:1 25:1 26:1 27:1 28:1 29:1 30:1 31:1 34:1 
0.6271638310150812 1:1 2:1 3:1 7:1 8:1 9:1 11:1 12:1 13:1 14:1 15:1 19:1 22:1 25:1 26:1 27:1 28:1 29:1 30:1 31:1 34:1 
0.6105880288952888 1:1 2:1 3:1 4:1 7:1 8:1 9:1 10:1 13:1 16:1 19:1 22:1 23:1 25:1 26:1 28:1 30:1 31:1 34:1 
0.5995877018771428 1:1 2:1 3:1 4:1 8:1 9:1 11:1 12:1 14:1 15:1 16:1 17:1 19:1 22:1 25:1 26:1 27:1 34:1 
0.9214541840346362 1:1 2:1 3:1 4:1 5:1 7:1 9:1 11:1 12:1 14:1 15:1 16:1 22:1 23:1 25:1 26:1 27:1 28:1 29:1 31:1 
1.360592167590397 1:1 2:1 3:1 4:1 7:1 8:1 10:1 12:1 15:1 19:1 20:1 21:1 24:1 25:1 26:1 27:1 29:1 30:1 31:1 32:1 34:1 35:1 
1.301480634523504 2:1 3:1 8:1 9:1 12:1 13:1 15:1 16:1 19:1 20:1 21:1 22:1 26:1 27:1 28:1 
1.201901719214052 1:1 3:1 4:1 7:1 8:1 9:1 10:1 13:1 14:1 15:1 16:1 17:1 22:1 23:1 24:1 25:1 26:1 27:1 28:1 30:1 31:1 32:1 33:1 34:1 
0.3310484717629509 1:1 2:1 3:1 7:1 8:1 9:1 11:1 14:1 15:1 16:1 22:1 26:1 27:1 29:1 30:1 34:1 
0.9321373589217286 1:1 4:1 5:1 7:1 9:1 12:1 13:1 15:1 16:1 19:1 22:1 23:1 25:1 26:1 28:1 30:1 31:1 34:1 
1.276172075859763 1:1 2:1 3:1 4:1 5:1 6:1 8:1 11:1 12:1 13:1 14:1 15:1 16:1 17:1 18:1 19:1 20:1 22:1 27:1 30:1 31:1 33:1 34:1 35:1 
0.04012060967378262 2:1 3:1 4:1 7:1 8:1 9:1 11:1 12:1 13:1 14:1 15:1 16:1 17:1 19:1 22:1 25:1 26:1 27:1 28:1 31:1 34:1 
0.8957738180809423 1:1 2:1 3:1 4:1 6:1 7:1 8:1 9:1 13:1 14:1 15:1 23:1 29:1 30:1 31:1 34:1 
1.274645417874888 1:1 3:1 4:1 7:1 8:1 9:1 10:1 11:1 12:1 13:1 14:1 15:1 16:1 19:1 20:1 22:1 23:1 25:1 26:1 27:1 28:1 29:1 30:1 
1.033587711406892 2:1 3:1 4:1 7:1 8:1 9:1 11:1 12:1 13:1 14:1 15:1 16:1 19:1 22:1 24:1 25:1 26:1 27:1 30:1 33:1 34:1 
0.7118213692090166 1:1 2:1 3:1 4:1 8:1 9:1 12:1 13:1 14:1 15:1 16:1 19:1 22:1 23:1 24:1 26:1 27:1 28:1 29:1 30:1 31:1 35:1 
1.434890383225333 1:1 2:1 3:1 4:1 5:1 7:1 8:1 11:1 12:1 13:1 14:1 15:1 22:1 24:1 25:1 27:1 30:1 31:1 36:1 
0.9952846232826249 1:1 2:1 3:1 4:1 7:1 9:1 11:1 12:1 13:1 14:1 15:1 19:1 22:1 24:1 26:1 27:1 28:1 30:1 31:1 34:1 
1.339146358288888 1:1 2:1 3:1 4:1 6:1 7:1 9:1 10:1 11:1 12:1 13:1 15:1 23:1 25:1 26:1 28:1 29:1 31:1 34:1 36:1 
1.164473265399951 1:1 3:1 4:1 5:1 6:1 7:1 8:1 9:1 13:1 14:1 15:1 19:1 22:1 24:1 29:1 30:1 31:1 34:1 
0.9605007221360723 1:1 2:1 3:1 4:1 7:1 9:1 10:1 11:1 12:1 13:1 14:1 16:1 17:1 18:1 19:1 21:1 22:1 23:1 28:1 29:1 32:1 34:1 
0.09765673523181387 1:1 2:1 3:1 4:1 7:1 8:1 9:1 10:1 11:1 12:1 14:1 15:1 16:1 17:1 19:1 22:1 23:1 25:1 26:1 27:1 28:1 29:1 30:1 31:1 32:1 34:1 
1.150948780088715 2:1 3:1 4:1 7:1 8:1 9:1 10:1 11:1 13:1 14:1 15:1 19:1 22:1 24:1 25:1 26:1 29:1 30:1 31:1 32:1 33:1 35:1 
1.183516103842723 1:1 2:1 3:1 4:1 9:1 10:1 11:1 13:1 14:1 15:1 16:1 19:1 20:1 24:1 25:1 27:1 28:1 30:1 31:1 
1.377444686572027 1:1 2:1 3:1 6:1 7:1 8:1 9:1 10:1 11:1 12:1 14:1 15:1 17:1 19:1 22:1 25:1 26:1 27:1 28:1 30:1 31:1 34:1 
0.7837254916492309 1:1 2:1 3:1 7:1 8:1 11:1 12:1 13:1 14:1 15:1 16:1 19:1 21:1 22:1 24:1 25:1 26:1 27:1 28:1 29:1 30:1 31:1 32:1 34:1 35:1 
1.359282772735684 2:1 3:1 4:1 6:1 7:1 8:1 9:1 10:1 11:1 12:1 13:1 14:1 15:1 19:1 21:1 22:1 26:1 27:1 29:1 31:1 32:1 33:1 
1.388074761146228 2:1 4:1 7:1 9:1 12:1 13:1 14:1 15:1 19:1 20:1 26:1 27:1 29:1 30:1 
1.222285031325882 1:1 2:1 3:1 4:1 7:1 8:1 9:1 13:1 14:1 15:1 16:1 17:1 18:1 22:1 24:1 25:1 26:1 27:1 28:1 36:1 
1.071918349101521 1:1 2:1 3:1 7:1 8:1 10:1 11:1 12:1 13:1 15:1 19:1 22:1 24:1 26:1 27:1 28:1 29:1 30:1 31:1 34:1 36:1 
1.365694350127148 1:1 2:1 3:1 4:1 6:1 7:1 8:1 9:1 11:1 12:1 13:1 14:1 15:1 17:1 22:1 26:1 27:1 28:1 
0.6915020371105424 2:1 3:1 4:1 7:1 8:1 9:1 11:1 13:1 17:1 19:1 22:1 26:1 27:1 31:1 34:1 
1.725577304166596 1:1 2:1 3:1 4:1 7:1 8:1 10:1 11:1 12:1 13:1 14:1 15:1 19:1 20:1 23:1 26:1 27:1 29:1 30:1 34:1 
1.352651774231797 1:1 3:1 4:1 5:1 7:1 8:1 11:1 12:1 14:1 15:1 17:1 18:1 19:1 22:1 23:1 29:1 32:1 34:1 35:1 
0.984327873344405 1:1 2:1 4:1 7:1 8:1 11:1 12:1 13:1 14:1 15:1 16:1 19:1 22:1 28:1 34:1 
0.7326564331477919 1:1 2:1 3:1 4:1 7:1 8:1 9:1 10:1 11:1 15:1 16:1 22:1 25:1 34:1 
1.286160365261289 1:1 2:1 3:1 4:1 7:1 8:1 9:1 10:1 11:1 12:1 13:1 14:1 16:1 17:1 19:1 20:1 24:1 25:1 26:1 27:1 30:1 31:1 32:1 33:1 36:1 
1.086110242285372 1:1 2:1 4:1 7:1 8:1 9:1 10:1 12:1 13:1 14:1 15:1 17:1 19:1 22:1 24:1 25:1 26:1 27:1 28:1 29:1 31:1 33:1 34:1 35:1 
1.187961244698281 1:1 4:1 5:1 7:1 8:1 9:1 10:1 11:1 14:1 15:1 19:1 22:1 26:1 28:1 29:1 30:1 31:1 36:1 
0.985591779261812 1:1 2:1 4:1 8:1 9:1 10:1 11:1 12:1 14:1 15:1 16:1 17:1 19:1 22:1 25:1 26:1 27:1 28:1 29:1 33:1 34:1 
1.519756036912214 1:1 3:1 4:1 5:1 7:1 8:1 9:1 11:1 12:1 13:1 14:1 15:1 16:1 18:1 19:1 21:1 22:1 24:1 25:1 26:1 27:1 28:1 29:1 34:1 35:1 36:1 
1.219122530166693 1:1 3:1 4:1 5:1 7:1 8:1 10:1 11:1 13:1 14:1 15:1 19:1 25:1 26:1 27:1 28:1 29:1 30:1 
0.9943383332391149 1:1 2:1 3:1 4:1 7:1 9:1 10:1 11:1 12:1 13:1 14:1 15:1 16:1 22:1 25:1 26:1 27:1 29:1 
0.9293078858764681 1:1 3:1 4:1 7:1 8:1 9:1 14:1 15:1 17:1 18:1 19:1 22:1 23:1 25:1 26:1 27:1 29:1 31:1 34:1 
1.205642101741064 3:1 4:1 8:1 12:1 13:1 14:1 15:1 17:1 18:1 19:1 20:1 22:1 27:1 29:1 35:1 
1.481937863956415 1:1 3:1 8:1 11:1 12:1 13:1 14:1 19:1 20:1 21:1 22:1 23:1 26:1 27:1 28:1 29:1 30:1 33:1 34:1 36:1 
1.343796115695207 2:1 3:1 6:1 7:1 8:1 9:1 10:1 11:1 12:1 13:1 14:1 15:1 17:1 19:1 20:1 26:1 27:1 28:1 31:1 35:1 
0.7719897816919639 2:1 3:1 7:1 8:1 9:1 10:1 14:1 15:1 16:1 19:1 22:1 26:1 29:1 30:1 34:1 35:1 
1.357048754419014 1:1 2:1 3:1 8:1 9:1 10:1 11:1 12:1 13:1 14:1 17:1 19:1 22:1 25:1 26:1 35:1 
1.128945549766279 1:1 2:1 3:1 4:1 9:1 12:1 13:1 14:1 15:1 19:1 24:1 25:1 26:1 27:1 30:1 31:1 35:1 
1.218555849434098 1:1 2:1 4:1 7:1 8:1 9:1 11:1 12:1 14:1 15:1 16:1 19:1 20:1 21:1 22:1 25:1 26:1 27:1 29:1 31:1 32:1 33:1 34:1 
1.349727016202273 1:1 2:1 3:1 7:1 8:1 9:1 10:1 11:1 12:1 13:1 14:1 19:1 23:1 24:1 26:1 27:1 29:1 30:1 31:1 34:1 35:1 
1.259556468196364 1:1 2:1 3:1 4:1 6:1 7:1 9:1 10:1 11:1 13:1 14:1 15:1 16:1 20:1 21:1 22:1 30:1 31:1 34:1 36:1 
1.249203698644149 1:1 2:1 3:1 4:1 8:1 9:1 11:1 12:1 13:1 15:1 16:1 22:1 29:1 30:1 31:1 32:1 
1.215293923502683 1:1 2:1 4:1 5:1 6:1 7:1 8:1 9:1 11:1 13:1 16:1 19:1 22:1 26:1 28:1 30:1 34:1 
1.337184474210517 1:1 2:1 3:1 4:1 6:1 7:1 8:1 9:1 11:1 13:1 15:1 19:1 20:1 21:1 22:1 25:1 26:1 27:1 28:1 29:1 34:1 
0.8399370994061757 1:1 2:1 4:1 7:1 8:1 9:1 11:1 12:1 14:1 15:1 16:1 17:1 18:1 22:1 25:1 26:1 27:1 28:1 30:1 31:1 32:1 34:1 
1.266697518345309 1:1 3:1 4:1 5:1 6:1 7:1 8:1 9:1 10:1 11:1 15:1 16:1 19:1 20:1 22:1 26:1 27:1 28:1 29:1 32:1 33:1 34:1 
0.7814920807422541 1:1 2:1 3:1 4:1 7:1 8:1 9:1 10:1 11:1 12:1 13:1 14:1 15:1 16:1 19:1 22:1 24:1 26:1 27:1 29:1 30:1 31:1 32:1 33:1 34:1 36:1 
1.207340442864387 1:1 2:1 3:1 8:1 9:1 13:1 14:1 15:1 16:1 19:1 28:1 29:1 31:1 
1.207281564672999 1:1 3:1 4:1 5:1 6:1 8:1 9:1 13:1 15:1 16:1 19:1 21:1 22:1 28:1 31:1 34:1 36:1 
1.0917744947269 1:1 2:1 3:1 4:1 8:1 9:1 10:1 11:1 12:1 14:1 15:1 16:1 19:1 21:1 22:1 23:1 26:1 27:1 28:1 29:1 
1.123240505913087 1:1 3:1 4:1 5:1 7:1 8:1 9:1 11:1 12:1 14:1 15:1 22:1 26:1 27:1 29:1 31:1 32:1 33:1 34:1 
1.054501556746788 1:1 2:1 3:1 5:1 6:1 7:1 8:1 9:1 10:1 11:1 12:1 14:1 15:1 16:1 17:1 19:1 25:1 26:1 27:1 32:1 
1.463155626149199 1:1 2:1 3:1 4:1 7:1 9:1 12:1 14:1 15:1 16:1 19:1 20:1 21:1 22:1 28:1 29:1 30:1 35:1 
1.096905672494981 1:1 2:1 4:1 7:1 9:1 11:1 13:1 15:1 22:1 25:1 26:1 27:1 30:1 31:1 34:1 36:1 
0.9231772346943191 1:1 2:1 3:1 4:1 5:1 6:1 8:1 9:1 11:1 12:1 13:1 14:1 15:1 18:1 19:1 22:1 26:1 27:1 28:1 29:1 30:1 31:1 34:1 
1.22994613615909 2:1 3:1 6:1 9:1 11:1 12:1 13:1 16:1 22:1 23:1 24:1 26:1 27:1 29:1 30:1 31:1 
0.6817269560760171 1:1 2:1 4:1 7:1 8:1 9:1 10:1 11:1 12:1 14:1 16:1 22:1 24:1 25:1 26:1 27:1 29:1 30:1 31:1 
1.280768066778336 1:1 2:1 4:1 7:1 8:1 9:1 11:1 12:1 13:1 14:1 19:1 20:1 21:1 22:1 24:1 28:1 30:1 34:1 36:1 
0.5546287034915063 1:1 2:1 3:1 4:1 7:1 8:1 11:1 12:1 13:1 15:1 16:1 19:1 22:1 26:1 27:1 28:1 31:1 32:1 33:1 34:1 35:1 36:1 
1.391851677081809 1:1 2:1 4:1 5:1 7:1 8:1 9:1 11:1 12:1 13:1 14:1 15:1 17:1 19:1 21:1 22:1 23:1 28:1 30:1 31:1 
1.413509409844619 1:1 2:1 7:1 8:1 9:1 10:1 11:1 12:1 13:1 14:1 15:1 16:1 19:1 21:1 22:1 23:1 25:1 26:1 29:1 34:1 35:1 
1.539968068607379 4:1 7:1 8:1 9:1 11:1 12:1 13:1 14:1 15:1 17:1 19:1 20:1 21:1 24:1 26:1 27:1 28:1 29:1 30:1 34:1 36:1 
1.016926288721116 1:1 2:1 3:1 4:1 5:1 6:1 7:1 8:1 9:1 10:1 11:1 13:1 14:1 15:1 16:1 19:1 22:1 26:1 28:1 32:1 34:1 36:1 
1.438592785331267 1:1 2:1 3:1 4:1 5:1 8:1 9:1 11:1 12:1 13:1 14:1 16:1 17:1 18:1 19:1 25:1 26:1 28:1 29:1 34:1 
1.254036347158081 1:1 2:1 3:1 4:1 8:1 9:1 10:1 13:1 14:1 17:1 19:1 20:1 22:1 23:1 25:1 28:1 29:1 34:1 36:1 
0.4562929893639679 1:1 2:1 3:1 7:1 8:1 9:1 10:1 11:1 13:1 14:1 15:1 22:1 25:1 26:1 27:1 28:1 31:1 
1.58557303052498 3:1 4:1 7:1 8:1 9:1 11:1 12:1 13:1 14:1 15:1 19:1 23:1 25:1 26:1 27:1 29:1 30:1 32:1 
1.000483451386758 1:1 3:1 4:1 7:1 8:1 9:1 10:1 14:1 15:1 16:1 19:1 21:1 25:1 26:1 27:1 28:1 30:1 31:1 32:1 34:1 
1.056485267741352 1:1 2:1 4:1 8:1 9:1 10:1 11:1 13:1 14:1 15:1 17:1 19:1 22:1 24:1 25:1 26:1 27:1 29:1 30:1 34:1 35:1 36:1 
1.402601472298885 4:1 8:1 10:1 11:1 12:1 13:1 14:1 16:1 17:1 21:1 25:1 30:1 31:1 
0.996857114820946 1:1 2:1 3:1 4:1 7:1 8:1 9:1 13:1 14:1 15:1 16:1 22:1 24:1 25:1 26:1 27:1 29:1 32:1 34:1 
1.311106955399727 1:1 2:1 4:1 5:1 6:1 7:1 9:1 11:1 13:1 14:1 15:1 16:1 17:1 21:1 22:1 23:1 25:1 26:1 27:1 28:1 29:1 30:1 31:1 34:1 35:1 
1.211612861130371 1:1 8:1 9:1 10:1 11:1 12:1 13:1 15:1 16:1 17:1 19:1 25:1 27:1 28:1 29:1 33:1 34:1 35:1 
1.145007232489862 1:1 4:1 5:1 8:1 9:1 10:1 11:1 12:1 14:1 15:1 16:1 17:1 19:1 23:1 29:1 31:1 34:1 
1.544712655425907 1:1 2:1 3:1 7:1 8:1 11:1 12:1 13:1 14:1 15:1 21:1 22:1 24:1 25:1 26:1 27:1 28:1 29:1 30:1 34:1 36:1 
0.9823866767186049 1:1 2:1 3:1 4:1 8:1 9:1 11:1 12:1 13:1 15:1 16:1 22:1 24:1 25:1 26:1 27:1 30:1 31:1 32:1 35:1 36:1 
0.8018136338739121 1:1 2:1 3:1 4:1 7:1 8:1 10:1 11:1 12:1 13:1 14:1 15:1 16:1 17:1 19:1 20:1 22:1 23:1 25:1 26:1 27:1 28:1 29:1 31:1 32:1 34:1 35:1 
1.252469181815392 1:1 2:1 3:1 4:1 6:1 7:1 8:1 9:1 11:1 12:1 14:1 15:1 19:1 26:1 28:1 29:1 31:1 34:1 35:1 
1.390493377160706 2:1 5:1 7:1 8:1 9:1 11:1 12:1 13:1 14:1 15:1 16:1 19:1 25:1 26:1 27:1 29:1 30:1 34:1 36:1 
1.167836794739501 1:1 2:1 3:1 4:1 5:1 8:1 9:1 14:1 15:1 20:1 22:1 25:1 26:1 27:1 28:1 29:1 31:1 34:1 
0.4001660416845064 1:1 3:1 4:1 7:1 8:1 9:1 10:1 11:1 12:1 13:1 14:1 15:1 16:1 17:1 19:1 22:1 23:1 29:1 31:1 34:1 
1.167875820890331 1:1 2:1 3:1 4:1 8:1 9:1 10:1 11:1 13:1 14:1 15:1 16:1 19:1 20:1 21:1 22:1 23:1 24:1 25:1 26:1 28:1 30:1 31:1 34:1 
1.382695192562414 1:1 2:1 3:1 4:1 7:1 8:1 9:1 11:1 12:1 13:1 14:1 17:1 19:1 22:1 24:1 25:1 26:1 27:1 28:1 30:1 31:1 32:1 
1.496966232178472 2:1 3:1 4:1 7:1 9:1 11:1 12:1 14:1 19:1 20:1 21:1 22:1 24:1 25:1 26:1 27:1 28:1 29:1 
0.7160300131697731 1:1 2:1 3:1 4:1 8:1 9:1 10:1 11:1 12:1 13:1 14:1 15:1 19:1 25:1 28:1 31:1 33:1 34:1 
1.296090860732154 1:1 2:1 3:1 4:1 5:1 6:1 7:1 8:1 9:1 10:1 13:1 14:1 15:1 16:1 19:1 21:1 22:1 23:1 24:1 25:1 29:1 30:1 31:1 36:1 
0.9937959132629712 2:1 4:1 5:1 7:1 9:1 10:1 11:1 12:1 13:1 14:1 15:1 16:1 19:1 22:1 23:1 26:1 28:1 30:1 31:1 34:1 
0.1803321328880397 1:1 2:1 3:1 4:1 7:1 8:1 9:1 13:1 14:1 15:1 16:1 19:1 22:1 23:1 27:1 28:1 29:1 30:1 31:1 34:1 
1.227485328385834 1:1 2:1 3:1 4:1 7:1 8:1 11:1 14:1 19:1 24:1 25:1 27:1 30:1 31:1 33:1 34:1 
0.2711929233770768 1:1 2:1 3:1 4:1 7:1 8:1 9:1 11:1 12:1 13:1 14:1 15:1 16:1 26:1 27:1 28:1 30:1 31:1 34:1 
1.146209333430833 1:1 2:1 3:1 4:1 6:1 7:1 9:1 10:1 11:1 12:1 13:1 14:1 15:1 16:1 17:1 18:1 19:1 21:1 22:1 23:1 25:1 27:1 28:1 30:1 31:1 32:1 34:1 36:1 
