svm_type c_svc
kernel_type rbf
gamma 1
nr_class 2
total_sv 26501
rho 0.547136
label 1 0
nr_sv 6927 19574
SV
1.459517273805776 1:1 2:1 3:1 4:1 6:1 7:1 8:1 9:1 10:1 13:1 16:1 17:1 19:1 22:1 25:1 26:1 27:1 28:1 29:1 
1.349453648092877 1:1 2:1 3:1 4:1 5:1 7:1 8:1 9:1 10:1 13:1 14:1 19:1 21:1 22:1 25:1 26:1 27:1 28:1 29:1 31:1 34:1 35:1 
1.487231516370388 2:1 3:1 4:1 6:1 8:1 10:1 13:1 14:1 15:1 16:1 19:1 25:1 26:1 27:1 28:1 31:1 34:1 35:1 
1.516972100784537 1:1 3:1 4:1 8:1 10:1 11:1 12:1 15:1 19:1 20:1 21:1 22:1 24:1 25:1 26:1 27:1 28:1 29:1 30:1 31:1 34:1 35:1 
1.440460975578514 1:1 3:1 4:1 7:1 8:1 9:1 12:1 13:1 15:1 19:1 22:1 23:1 25:1 26:1 28:1 29:1 32:1 34:1 35:1 
1.554430840770848 1:1 2:1 4:1 6:1 7:1 8:1 9:1 12:1 13:1 14:1 15:1 17:1 18:1 19:1 23:1 26:1 27:1 34:1 
1.106078748249487 1:1 2:1 4:1 7:1 8:1 9:1 11:1 12:1 13:1 14:1 16:1 19:1 22:1 25:1 26:1 27:1 28:1 30:1 34:1 
1.528738046823979 1:1 2:1 3:1 4:1 6:1 7:1 8:1 10:1 13:1 14:1 22:1 24:1 25:1 26:1 27:1 31:1 32:1 33:1 34:1 35:1 
1.328299148906043 1:1 3:1 4:1 7:1 8:1 9:1 12:1 16:1 17:1 19:1 22:1 26:1 27:1 28:1 30:1 31:1 34:1 36:1 
1.532590940397671 3:1 6:1 7:1 8:1 9:1 10:1 12:1 13:1 14:1 16:1 17:1 19:1 26:1 27:1 28:1 30:1 31:1 35:1 
1.382217727497075 1:1 2:1 3:1 4:1 7:1 8:1 9:1 12:1 14:1 16:1 19:1 22:1 25:1 26:1 28:1 29:1 30:1 31:1 32:1 
1.481236319219123 1:1 3:1 6:1 8:1 9:1 10:1 11:1 15:1 16:1 17:1 19:1 22:1 25:1 26:1 27:1 28:1 29:1 34:1 
1.513414094103382 2:1 3:1 4:1 5:1 7:1 8:1 11:1 12:1 13:1 14:1 15:1 17:1 22:1 29:1 30:1 34:1 36:1 
1.523975590071829 1:1 2:1 3:1 4:1 5:1 6:1 7:1 8:1 9:1 10:1 11:1 12:1 19:1 22:1 24:1 25:1 26:1 27:1 28:1 29:1 30:1 31:1 34:1 
1.49291905545078 1:1 2:1 3:1 7:1 10:1 11:1 13:1 14:1 15:1 16:1 19:1 22:1 24:1 25:1 26:1 27:1 28:1 30:1 32:1 33:1 34:1 
1.465974292529845 1:1 2:1 3:1 4:1 7:1 9:1 12:1 13:1 14:1 15:1 26:1 27:1 28:1 29:1 31:1 32:1 34:1 36:1 
1.466466141104666 1:1 2:1 3:1 4:1 5:1 7:1 8:1 9:1 10:1 11:1 12:1 15:1 16:1 19:1 20:1 22:1 23:1 26:1 27:1 28:1 29:1 31:1 34:1 
1.504996330115284 1:1 2:1 3:1 6:1 7:1 8:1 9:1 10:1 11:1 12:1 13:1 14:1 16:1 17:1 19:1 25:1 26:1 27:1 28:1 29:1 30:1 33:1 
1.592791676494407 2:1 3:1 7:1 8:1 9:1 10:1 11:1 12:1 13:1 14:1 19:1 20:1 24:1 25:1 26:1 27:1 30:1 31:1 34:1 
1.55062425681757 1:1 2:1 3:1 8:1 11:1 12:1 13:1 14:1 15:1 16:1 18:1 20:1 21:1 22:1 25:1 26:1 28:1 29:1 
1.556266979185565 2:1 3:1 4:1 5:1 6:1 7:1 8:1 9:1 10:1 11:1 12:1 14:1 19:1 22:1 24:1 25:1 26:1 27:1 28:1 29:1 30:1 31:1 33:1 34:1 36:1 
1.547465488949487 2:1 3:1 5:1 7:1 8:1 10:1 11:1 12:1 14:1 15:1 16:1 18:1 24:1 25:1 30:1 33:1 34:1 36:1 
1.278592572883485 1:1 2:1 3:1 4:1 7:1 10:1 11:1 12:1 13:1 15:1 19:1 22:1 26:1 27:1 28:1 30:1 31:1 32:1 34:1 
1.284430714660204 1:1 3:1 4:1 7:1 8:1 9:1 10:1 11:1 12:1 13:1 14:1 15:1 17:1 19:1 22:1 24:1 26:1 27:1 28:1 30:1 31:1 34:1 35:1 
1.45893003222652 2:1 3:1 7:1 8:1 11:1 12:1 13:1 14:1 15:1 16:1 17:1 19:1 22:1 27:1 28:1 29:1 30:1 34:1 35:1 36:1 
1.247222120556143 3:1 4:1 7:1 8:1 9:1 10:1 11:1 12:1 13:1 14:1 19:1 22:1 26:1 27:1 29:1 
1.620289306832907 1:1 2:1 3:1 4:1 5:1 6:1 7:1 8:1 10:1 11:1 12:1 13:1 14:1 15:1 22:1 23:1 24:1 26:1 27:1 29:1 30:1 35:1 
1.474268743006591 1:1 2:1 7:1 8:1 9:1 12:1 13:1 14:1 15:1 17:1 19:1 22:1 23:1 25:1 26:1 27:1 28:1 29:1 31:1 36:1 
1.343071672917016 1:1 2:1 4:1 7:1 8:1 9:1 11:1 12:1 13:1 14:1 15:1 17:1 19:1 25:1 26:1 27:1 28:1 34:1 36:1 
1.434864936112681 1:1 3:1 6:1 7:1 8:1 9:1 11:1 12:1 13:1 14:1 15:1 19:1 22:1 25:1 26:1 28:1 29:1 31:1 32:1 
0.8170523991027817 1:1 2:1 3:1 7:1 8:1 9:1 10:1 11:1 12:1 13:1 15:1 16:1 17:1 19:1 22:1 25:1 26:1 27:1 28:1 29:1 35:1 
1.480632216405761 1:1 2:1 3:1 4:1 5:1 6:1 7:1 8:1 9:1 11:1 12:1 13:1 15:1 22:1 26:1 27:1 28:1 31:1 34:1 
1.556968693907155 1:1 2:1 4:1 5:1 7:1 9:1 10:1 14:1 15:1 16:1 18:1 20:1 21:1 22:1 24:1 26:1 27:1 28:1 30:1 34:1 
1.42225294345577 1:1 2:1 3:1 4:1 8:1 9:1 10:1 11:1 13:1 15:1 16:1 19:1 20:1 22:1 25:1 26:1 27:1 28:1 29:1 30:1 31:1 32:1 33:1 34:1 35:1 
1.545215020237543 1:1 2:1 3:1 6:1 8:1 9:1 10:1 11:1 12:1 14:1 15:1 21:1 25:1 27:1 28:1 29:1 34:1 35:1 36:1 
1.370078417791383 2:1 3:1 4:1 7:1 8:1 9:1 10:1 11:1 12:1 13:1 14:1 15:1 16:1 17:1 19:1 22:1 26:1 27:1 32:1 33:1 34:1 36:1 
1.554182616391843 1:1 2:1 3:1 4:1 5:1 7:1 8:1 9:1 10:1 11:1 14:1 15:1 16:1 19:1 21:1 22:1 27:1 29:1 30:1 36:1 
1.523078260708137 1:1 3:1 4:1 7:1 8:1 9:1 10:1 13:1 14:1 15:1 16:1 19:1 23:1 24:1 28:1 29:1 30:1 31:1 34:1 35:1 36:1 
1.463723252044068 1:1 2:1 3:1 7:1 9:1 11:1 12:1 13:1 14:1 15:1 16:1 18:1 19:1 22:1 24:1 26:1 27:1 30:1 31:1 32:1 35:1 
1.519901188875157 1:1 2:1 3:1 7:1 8:1 9:1 11:1 13:1 14:1 16:1 17:1 27:1 30:1 34:1 35:1 36:1 
1.401779253448962 1:1 2:1 3:1 4:1 7:1 8:1 10:1 13:1 14:1 15:1 19:1 22:1 23:1 25:1 26:1 27:1 29:1 30:1 31:1 34:1 36:1 
1.145077256318427 1:1 2:1 3:1 4:1 8:1 9:1 10:1 11:1 12:1 13:1 14:1 15:1 16:1 19:1 21:1 22:1 25:1 26:1 27:1 28:1 29:1 30:1 31:1 36:1 
1.461515764904 1:1 2:1 3:1 4:1 6:1 8:1 9:1 12:1 14:1 15:1 16:1 19:1 22:1 25:1 26:1 27:1 28:1 29:1 35:1 36:1 
1.554635130569701 1:1 2:1 4:1 5:1 6:1 7:1 8:1 9:1 11:1 12:1 13:1 15:1 16:1 21:1 22:1 24:1 25:1 26:1 27:1 30:1 31:1 32:1 33:1 34:1 36:1 
1.526345330213629 1:1 3:1 6:1 7:1 9:1 10:1 11:1 13:1 14:1 15:1 16:1 19:1 22:1 23:1 25:1 26:1 28:1 30:1 31:1 32:1 33:1 34:1 35:1 
1.361735050046382 1:1 3:1 4:1 5:1 8:1 10:1 11:1 12:1 13:1 14:1 15:1 16:1 19:1 22:1 26:1 27:1 29:1 31:1 32:1 
1.483606167094536 1:1 2:1 3:1 7:1 8:1 10:1 11:1 12:1 13:1 14:1 15:1 16:1 19:1 22:1 23:1 28:1 29:1 32:1 33:1 34:1 
1.511774792574466 1:1 2:1 3:1 6:1 7:1 8:1 9:1 11:1 13:1 14:1 16:1 18:1 19:1 22:1 24:1 26:1 27:1 28:1 30:1 34:1 
1.523579514408506 1:1 2:1 4:1 7:1 8:1 9:1 10:1 11:1 12:1 13:1 14:1 16:1 17:1 18:1 21:1 22:1 25:1 26:1 27:1 28:1 30:1 31:1 33:1 34:1 
1.499334289011395 1:1 2:1 3:1 4:1 7:1 9:1 10:1 11:1 13:1 16:1 19:1 22:1 23:1 26:1 28:1 29:1 30:1 31:1 35:1 
1.360647971368597 1:1 3:1 4:1 7:1 8:1 10:1 11:1 12:1 14:1 15:1 16:1 17:1 22:1 26:1 27:1 28:1 29:1 30:1 31:1 34:1 36:1 
1.538149310257183 1:1 2:1 3:1 7:1 12:1 14:1 15:1 22:1 26:1 29:1 31:1 
1.37029245911122 1:1 2:1 3:1 4:1 7:1 8:1 9:1 11:1 12:1 13:1 14:1 15:1 16:1 19:1 20:1 21:1 22:1 23:1 25:1 26:1 28:1 31:1 32:1 34:1 
1.427577887157558 1:1 2:1 3:1 4:1 7:1 9:1 11:1 13:1 14:1 15:1 16:1 17:1 18:1 19:1 20:1 22:1 26:1 27:1 28:1 29:1 31:1 34:1 
1.565030151791691 2:1 3:1 5:1 6:1 8:1 9:1 10:1 11:1 12:1 13:1 14:1 15:1 16:1 19:1 21:1 22:1 24:1 26:1 27:1 30:1 31:1 32:1 36:1 
1.506802504130936 1:1 3:1 7:1 9:1 10:1 11:1 12:1 13:1 16:1 19:1 22:1 26:1 29:1 31:1 36:1 
1.546996177466402 1:1 2:1 3:1 4:1 5:1 9:1 10:1 11:1 12:1 13:1 14:1 15:1 22:1 25:1 26:1 27:1 29:1 31:1 35:1 
1.500445759676815 2:1 3:1 8:1 12:1 15:1 16:1 17:1 19:1 22:1 26:1 27:1 28:1 31:1 34:1 35:1 
1.475501558077847 2:1 3:1 4:1 5:1 6:1 7:1 8:1 9:1 11:1 12:1 13:1 15:1 16:1 17:1 26:1 27:1 28:1 29:1 31:1 34:1 35:1 
1.491264603417841 1:1 3:1 4:1 9:1 10:1 13:1 14:1 15:1 16:1 17:1 19:1 22:1 24:1 25:1 26:1 27:1 30:1 31:1 
1.291833363931979 1:1 2:1 3:1 4:1 8:1 10:1 11:1 12:1 13:1 14:1 16:1 22:1 25:1 26:1 28:1 29:1 30:1 31:1 34:1 
1.328052858367539 1:1 2:1 3:1 7:1 9:1 10:1 12:1 13:1 14:1 16:1 19:1 22:1 25:1 26:1 27:1 28:1 30:1 31:1 34:1 
1.541260185233451 1:1 2:1 3:1 5:1 7:1 8:1 10:1 13:1 14:1 15:1 23:1 27:1 29:1 30:1 31:1 
1.491037805361264 1:1 2:1 3:1 7:1 8:1 12:1 13:1 14:1 15:1 17:1 19:1 22:1 24:1 25:1 26:1 27:1 28:1 32:1 34:1 35:1 
1.549988858191173 1:1 2:1 3:1 4:1 5:1 6:1 7:1 8:1 10:1 11:1 12:1 13:1 14:1 15:1 22:1 24:1 28:1 29:1 30:1 31:1 32:1 34:1 36:1 
1.308019517151313 1:1 2:1 3:1 9:1 10:1 11:1 12:1 13:1 14:1 15:1 19:1 22:1 24:1 27:1 28:1 29:1 30:1 34:1 
1.375687765638052 1:1 2:1 3:1 7:1 8:1 9:1 11:1 12:1 13:1 15:1 19:1 22:1 25:1 26:1 28:1 29:1 30:1 34:1 
1.536906368703376 1:1 2:1 3:1 4:1 8:1 9:1 11:1 13:1 14:1 16:1 22:1 23:1 24:1 26:1 28:1 29:1 30:1 31:1 32:1 34:1 35:1 36:1 
1.545383352418144 2:1 3:1 6:1 7:1 8:1 9:1 10:1 11:1 12:1 13:1 15:1 16:1 17:1 18:1 19:1 22:1 23:1 24:1 26:1 28:1 29:1 34:1 
1.535352386519131 1:1 2:1 4:1 5:1 7:1 8:1 9:1 11:1 12:1 14:1 15:1 19:1 22:1 24:1 26:1 27:1 28:1 31:1 32:1 36:1 
1.509409152242638 3:1 4:1 6:1 8:1 9:1 10:1 11:1 12:1 13:1 14:1 15:1 16:1 17:1 22:1 25:1 26:1 27:1 31:1 34:1 36:1 
1.482097431177893 1:1 2:1 3:1 4:1 6:1 7:1 8:1 9:1 12:1 13:1 14:1 15:1 16:1 25:1 26:1 27:1 29:1 30:1 31:1 32:1 
1.438395767884712 1:1 2:1 3:1 4:1 7:1 12:1 13:1 14:1 16:1 19:1 22:1 25:1 26:1 27:1 29:1 31:1 33:1 35:1 
1.516874685964261 1:1 2:1 3:1 4:1 8:1 10:1 11:1 12:1 14:1 16:1 17:1 19:1 20:1 21:1 22:1 26:1 27:1 28:1 30:1 31:1 35:1 
1.519663466532413 1:1 3:1 8:1 10:1 11:1 13:1 14:1 15:1 16:1 19:1 24:1 26:1 29:1 30:1 31:1 34:1 35:1 
1.387340142485043 1:1 2:1 3:1 4:1 6:1 8:1 11:1 12:1 13:1 14:1 15:1 17:1 19:1 22:1 26:1 27:1 30:1 31:1 32:1 34:1 
1.534955579045351 1:1 2:1 4:1 5:1 6:1 9:1 10:1 14:1 15:1 16:1 19:1 24:1 25:1 26:1 27:1 31:1 34:1 35:1 
1.271907614724772 1:1 2:1 3:1 7:1 9:1 11:1 12:1 13:1 14:1 15:1 16:1 22:1 26:1 27:1 28:1 29:1 30:1 31:1 32:1 34:1 36:1 
1.4850148256135 1:1 2:1 3:1 6:1 7:1 8:1 9:1 10:1 11:1 12:1 14:1 16:1 17:1 18:1 19:1 22:1 24:1 27:1 28:1 30:1 31:1 34:1 
1.593606907467267 1:1 2:1 3:1 4:1 5:1 6:1 7:1 8:1 9:1 11:1 12:1 14:1 16:1 19:1 20:1 21:1 22:1 24:1 25:1 26:1 27:1 28:1 29:1 30:1 31:1 34:1 
0.623685821938977 1:1 2:1 3:1 4:1 6:1 7:1 8:1 9:1 10:1 11:1 12:1 14:1 15:1 19:1 22:1 25:1 26:1 27:1 28:1 29:1 31:1 34:1 
1.522818842017202 1:1 2:1 3:1 4:1 5:1 7:1 8:1 9:1 11:1 12:1 13:1 14:1 18:1 20:1 21:1 22:1 25:1 26:1 27:1 28:1 29:1 30:1 31:1 32:1 34:1 35:1 
1.514229669216735 1:1 2:1 6:1 7:1 8:1 10:1 11:1 12:1 13:1 15:1 16:1 17:1 19:1 22:1 27:1 28:1 34:1 
1.414338855291813 1:1 2:1 3:1 5:1 7:1 8:1 9:1 10:1 11:1 12:1 13:1 15:1 16:1 19:1 21:1 22:1 25:1 26:1 27:1 28:1 29:1 30:1 32:1 34:1 35:1 
1.402786119737008 2:1 3:1 5:1 6:1 7:1 8:1 9:1 11:1 12:1 13:1 14:1 15:1 16:1 19:1 22:1 25:1 26:1 27:1 29:1 34:1 35:1 
1.52262274658522 1:1 4:1 7:1 8:1 9:1 10:1 11:1 12:1 14:1 16:1 19:1 22:1 24:1 27:1 28:1 29:1 30:1 34:1 36:1 
1.344124284749801 1:1 2:1 3:1 8:1 9:1 10:1 11:1 12:1 14:1 15:1 16:1 19:1 22:1 23:1 24:1 26:1 27:1 28:1 29:1 30:1 31:1 32:1 34:1 35:1 36:1 
1.30425985492415 1:1 3:1 4:1 7:1 8:1 10:1 11:1 14:1 15:1 16:1 19:1 22:1 23:1 25:1 26:1 27:1 28:1 30:1 34:1 
1.454278782214647 1:1 2:1 3:1 4:1 8:1 9:1 10:1 11:1 12:1 19:1 22:1 25:1 26:1 27:1 28:1 29:1 30:1 31:1 
1.521277246098686 1:1 3:1 4:1 7:1 8:1 10:1 11:1 13:1 14:1 17:1 19:1 26:1 31:1 32:1 33:1 34:1 
0.7267487843582653 1:1 2:1 3:1 8:1 9:1 10:1 11:1 12:1 13:1 14:1 15:1 16:1 19:1 22:1 26:1 27:1 29:1 30:1 31:1 34:1 
1.511284812425889 1:1 2:1 4:1 7:1 9:1 10:1 13:1 14:1 15:1 16:1 22:1 24:1 25:1 26:1 27:1 28:1 29:1 30:1 32:1 33:1 34:1 
1.472385093546229 2:1 3:1 4:1 7:1 8:1 9:1 10:1 11:1 12:1 13:1 14:1 15:1 16:1 19:1 21:1 22:1 25:1 28:1 29:1 30:1 31:1 32:1 35:1 36:1 
1.376665148846168 2:1 3:1 4:1 7:1 8:1 9:1 10:1 11:1 12:1 13:1 14:1 15:1 16:1 19:1 22:1 23:1 27:1 28:1 29:1 34:1 35:1 36:1 
1.56687854644423 1:1 2:1 3:1 4:1 7:1 8:1 12:1 13:1 14:1 19:1 22:1 23:1 28:1 29:1 31:1 34:1 
1.308233307028623 1:1 2:1 4:1 7:1 8:1 9:1 10:1 11:1 12:1 13:1 14:1 15:1 22:1 24:1 29:1 30:1 31:1 
1.521353324666829 1:1 2:1 3:1 4:1 7:1 8:1 11:1 12:1 15:1 19:1 22:1 23:1 25:1 27:1 28:1 29:1 35:1 
0.4724755416557377 1:1 2:1 3:1 7:1 8:1 9:1 11:1 12:1 13:1 14:1 15:1 16:1 19:1 22:1 25:1 26:1 27:1 28:1 29:1 30:1 31:1 34:1 35:1 
1.433479787967486 1:1 2:1 3:1 7:1 9:1 10:1 11:1 13:1 14:1 15:1 19:1 22:1 23:1 25:1 26:1 27:1 30:1 31:1 34:1 35:1 
1.364933391440425 1:1 2:1 3:1 5:1 7:1 8:1 9:1 11:1 12:1 13:1 14:1 15:1 19:1 22:1 24:1 27:1 28:1 30:1 34:1 
0.8182337725645391 1:1 2:1 3:1 7:1 8:1 9:1 10:1 12:1 13:1 14:1 15:1 16:1 19:1 21:1 22:1 25:1 26:1 27:1 28:1 30:1 31:1 34:1 
1.460805344741519 2:1 4:1 5:1 7:1 9:1 10:1 11:1 13:1 14:1 15:1 16:1 17:1 19:1 22:1 25:1 27:1 28:1 30:1 31:1 34:1 
1.510413390978607 1:1 2:1 4:1 8:1 9:1 10:1 11:1 12:1 13:1 14:1 15:1 16:1 17:1 18:1 19:1 22:1 28:1 30:1 31:1 32:1 33:1 34:1 36:1 
1.509603526136711 1:1 2:1 3:1 9:1 13:1 14:1 15:1 16:1 17:1 22:1 25:1 29:1 30:1 31:1 34:1 35:1 
1.388718342138682 1:1 2:1 3:1 7:1 8:1 13:1 14:1 15:1 16:1 19:1 21:1 22:1 27:1 28:1 30:1 34:1 
1.531514948659075 1:1 2:1 7:1 8:1 10:1 11:1 12:1 13:1 14:1 15:1 16:1 21:1 22:1 23:1 24:1 25:1 27:1 28:1 31:1 32:1 34:1 
1.546334274709356 1:1 2:1 3:1 4:1 7:1 10:1 11:1 12:1 13:1 14:1 15:1 16:1 17:1 18:1 21:1 23:1 24:1 25:1 28:1 29:1 30:1 31:1 32:1 34:1 
1.532915260045054 1:1 2:1 3:1 4:1 11:1 12:1 13:1 14:1 15:1 16:1 19:1 21:1 22:1 24:1 25:1 26:1 27:1 29:1 30:1 
1.502626424829983 1:1 2:1 3:1 4:1 9:1 10:1 12:1 14:1 15:1 18:1 19:1 21:1 22:1 25:1 27:1 28:1 29:1 34:1 
1.526358595631723 2:1 4:1 6:1 8:1 9:1 10:1 11:1 12:1 13:1 14:1 15:1 16:1 17:1 19:1 22:1 24:1 25:1 26:1 27:1 28:1 29:1 30:1 31:1 32:1 35:1 36:1 
0.7548892288192739 1:1 2:1 3:1 4:1 7:1 8:1 9:1 10:1 11:1 12:1 13:1 14:1 15:1 16:1 17:1 19:1 20:1 22:1 27:1 28:1 31:1 34:1 
1.560108266886095 1:1 2:1 4:1 7:1 9:1 10:1 11:1 12:1 13:1 15:1 23:1 24:1 27:1 29:1 32:1 
1.475787604657324 2:1 4:1 7:1 8:1 9:1 10:1 11:1 14:1 15:1 16:1 22:1 24:1 26:1 27:1 28:1 30:1 31:1 34:1 35:1 36:1 
1.537032469363155 1:1 2:1 3:1 4:1 5:1 8:1 9:1 11:1 13:1 15:1 19:1 22:1 24:1 25:1 26:1 29:1 30:1 31:1 32:1 35:1 36:1 
1.511035242991174 1:1 3:1 4:1 7:1 8:1 9:1 10:1 11:1 12:1 13:1 14:1 16:1 19:1 21:1 22:1 23:1 24:1 26:1 27:1 29:1 30:1 31:1 32:1 34:1 
1.511314080494577 1:1 2:1 4:1 6:1 7:1 8:1 9:1 10:1 11:1 13:1 15:1 16:1 17:1 19:1 21:1 22:1 24:1 25:1 26:1 28:1 29:1 31:1 34:1 
1.408044029469874 1:1 2:1 3:1 10:1 11:1 12:1 13:1 14:1 15:1 19:1 21:1 22:1 25:1 26:1 27:1 28:1 29:1 34:1 
1.548976159356932 2:1 3:1 4:1 5:1 7:1 8:1 9:1 13:1 16:1 17:1 19:1 22:1 24:1 25:1 29:1 30:1 34:1 36:1 
1.518533273415383 1:1 4:1 7:1 8:1 9:1 12:1 13:1 14:1 19:1 22:1 24:1 28:1 29:1 30:1 31:1 32:1 34:1 35:1 
1.50918737214392 1:1 2:1 3:1 7:1 8:1 9:1 11:1 12:1 13:1 15:1 18:1 19:1 20:1 22:1 24:1 25:1 26:1 27:1 29:1 30:1 34:1 35:1 
0.8714740623465699 1:1 2:1 3:1 4:1 8:1 9:1 10:1 11:1 12:1 13:1 14:1 15:1 16:1 19:1 22:1 27:1 28:1 29:1 31:1 34:1 
1.548346535973562 2:1 3:1 6:1 7:1 8:1 9:1 10:1 11:1 12:1 14:1 15:1 19:1 20:1 22:1 26:1 27:1 30:1 34:1 
1.502971593246129 1:1 3:1 4:1 5:1 6:1 7:1 8:1 9:1 10:1 11:1 12:1 13:1 14:1 16:1 19:1 20:1 22:1 23:1 25:1 26:1 28:1 29:1 30:1 31:1 32:1 34:1 35:1 
1.433367408094947 1:1 2:1 3:1 4:1 5:1 7:1 9:1 10:1 11:1 12:1 13:1 14:1 15:1 19:1 23:1 25:1 26:1 27:1 28:1 30:1 32:1 34:1 35:1 
1.337876893684392 1:1 2:1 3:1 4:1 8:1 9:1 11:1 12:1 13:1 14:1 15:1 16:1 17:1 18:1 22:1 24:1 25:1 26:1 27:1 28:1 29:1 31:1 
1.466237126363259 1:1 2:1 3:1 4:1 8:1 9:1 10:1 12:1 13:1 14:1 15:1 16:1 17:1 19:1 20:1 21:1 22:1 25:1 27:1 28:1 34:1 
1.563103964066929 1:1 2:1 3:1 6:1 7:1 8:1 9:1 12:1 13:1 14:1 19:1 20:1 22:1 26:1 27:1 28:1 
1.403772762570953 1:1 2:1 3:1 4:1 7:1 9:1 11:1 12:1 13:1 14:1 15:1 16:1 17:1 18:1 19:1 20:1 22:1 23:1 27:1 28:1 30:1 31:1 34:1 
1.677982283961736 1:1 2:1 3:1 4:1 5:1 6:1 7:1 8:1 9:1 11:1 12:1 13:1 15:1 19:1 20:1 21:1 22:1 24:1 25:1 26:1 27:1 28:1 29:1 30:1 34:1 
1.38739947816548 1:1 2:1 3:1 4:1 9:1 11:1 12:1 13:1 14:1 15:1 19:1 22:1 24:1 25:1 26:1 27:1 28:1 34:1 
1.490964723664221 1:1 2:1 3:1 4:1 5:1 6:1 7:1 8:1 10:1 11:1 12:1 13:1 15:1 16:1 18:1 19:1 22:1 26:1 27:1 28:1 29:1 30:1 34:1 
1.318411642866589 1:1 2:1 3:1 4:1 5:1 7:1 8:1 9:1 11:1 12:1 13:1 14:1 16:1 17:1 19:1 22:1 24:1 26:1 27:1 28:1 29:1 30:1 31:1 32:1 34:1 
1.359101785080569 1:1 2:1 3:1 7:1 8:1 9:1 11:1 12:1 13:1 14:1 15:1 16:1 18:1 19:1 22:1 25:1 26:1 27:1 28:1 29:1 34:1 36:1 
1.574240705995775 1:1 2:1 3:1 4:1 7:1 9:1 10:1 11:1 12:1 13:1 14:1 15:1 16:1 19:1 22:1 24:1 27:1 28:1 29:1 30:1 34:1 36:1 
1.022855571367798 1:1 2:1 3:1 7:1 8:1 9:1 10:1 12:1 13:1 14:1 15:1 16:1 17:1 19:1 22:1 24:1 25:1 26:1 27:1 28:1 30:1 31:1 34:1 35:1 
1.486293345142252 1:1 2:1 7:1 8:1 9:1 10:1 13:1 14:1 15:1 16:1 17:1 18:1 22:1 25:1 27:1 28:1 29:1 30:1 34:1 
1.03947202462857 2:1 3:1 4:1 7:1 8:1 9:1 10:1 11:1 12:1 13:1 14:1 15:1 16:1 19:1 25:1 27:1 28:1 29:1 34:1 35:1 
1.534396831001684 1:1 3:1 4:1 6:1 8:1 13:1 14:1 16:1 17:1 19:1 22:1 26:1 27:1 28:1 29:1 34:1 35:1 36:1 
1.543834513016578 1:1 2:1 4:1 6:1 7:1 8:1 12:1 14:1 15:1 19:1 21:1 22:1 25:1 26:1 29:1 30:1 31:1 33:1 34:1 
1.499006146678375 2:1 3:1 4:1 8:1 9:1 10:1 11:1 12:1 13:1 14:1 15:1 18:1 19:1 22:1 23:1 25:1 26:1 27:1 28:1 29:1 30:1 31:1 35:1 
1.668586620114563 1:1 2:1 7:1 8:1 9:1 12:1 13:1 14:1 15:1 16:1 19:1 20:1 22:1 24:1 26:1 27:1 28:1 30:1 
1.485819237478821 1:1 2:1 3:1 7:1 9:1 11:1 12:1 13:1 14:1 19:1 20:1 22:1 26:1 27:1 29:1 30:1 31:1 
1.011071802084124 1:1 2:1 3:1 4:1 7:1 8:1 9:1 11:1 12:1 13:1 14:1 15:1 16:1 19:1 22:1 23:1 24:1 25:1 26:1 27:1 29:1 31:1 34:1 
1.241491129755369 1:1 2:1 3:1 4:1 8:1 9:1 10:1 11:1 12:1 13:1 14:1 15:1 16:1 17:1 22:1 25:1 26:1 28:1 34:1 
1.55839262984245 1:1 2:1 3:1 4:1 6:1 7:1 10:1 11:1 12:1 14:1 15:1 16:1 19:1 20:1 25:1 26:1 27:1 29:1 31:1 33:1 
1.242883012178587 2:1 3:1 4:1 7:1 8:1 9:1 10:1 11:1 12:1 13:1 14:1 15:1 16:1 19:1 24:1 25:1 26:1 27:1 28:1 31:1 32:1 
1.496828170798053 1:1 2:1 4:1 9:1 10:1 11:1 13:1 14:1 15:1 16:1 17:1 19:1 21:1 22:1 27:1 28:1 29:1 31:1 32:1 34:1 35:1 
1.428924193280266 1:1 2:1 4:1 8:1 9:1 11:1 12:1 14:1 16:1 22:1 25:1 26:1 27:1 30:1 31:1 
1.557666308769393 1:1 3:1 4:1 7:1 8:1 9:1 11:1 12:1 14:1 15:1 21:1 22:1 24:1 25:1 26:1 27:1 29:1 31:1 35:1 
1.329438768361357 1:1 2:1 3:1 4:1 7:1 8:1 10:1 11:1 12:1 13:1 14:1 15:1 19:1 24:1 26:1 28:1 29:1 34:1 35:1 
1.457600753439606 1:1 2:1 3:1 4:1 8:1 9:1 13:1 14:1 15:1 19:1 21:1 22:1 25:1 28:1 29:1 30:1 31:1 33:1 34:1 
1.442895979986615 1:1 3:1 4:1 7:1 8:1 9:1 10:1 11:1 12:1 14:1 15:1 16:1 22:1 24:1 27:1 30:1 31:1 
1.311458465393406 1:1 2:1 3:1 7:1 8:1 9:1 11:1 12:1 14:1 15:1 19:1 22:1 25:1 26:1 27:1 28:1 30:1 31:1 33:1 34:1 
1.505415476707152 1:1 3:1 4:1 6:1 7:1 8:1 9:1 10:1 13:1 15:1 16:1 22:1 24:1 25:1 26:1 27:1 28:1 29:1 34:1 35:1 
1.519083711814387 1:1 3:1 4:1 8:1 10:1 11:1 12:1 14:1 15:1 16:1 17:1 19:1 22:1 23:1 25:1 28:1 31:1 32:1 
1.637589656844174 1:1 2:1 3:1 4:1 5:1 6:1 7:1 9:1 10:1 11:1 13:1 14:1 15:1 16:1 19:1 20:1 22:1 23:1 24:1 25:1 26:1 27:1 28:1 29:1 30:1 34:1 
1.448682360447318 1:1 2:1 3:1 4:1 8:1 9:1 10:1 11:1 12:1 13:1 14:1 16:1 17:1 22:1 26:1 28:1 30:1 
1.495236717853398 1:1 2:1 3:1 6:1 7:1 8:1 9:1 10:1 11:1 12:1 13:1 14:1 15:1 16:1 19:1 21:1 23:1 25:1 26:1 27:1 28:1 30:1 31:1 
1.448379048959571 1:1 4:1 7:1 8:1 9:1 11:1 13:1 14:1 15:1 16:1 19:1 25:1 28:1 31:1 
1.446169706450269 1:1 2:1 3:1 4:1 8:1 9:1 10:1 12:1 13:1 14:1 15:1 16:1 17:1 19:1 23:1 25:1 27:1 28:1 29:1 34:1 
1.431433689911751 1:1 2:1 4:1 5:1 11:1 12:1 13:1 14:1 15:1 16:1 19:1 22:1 25:1 26:1 27:1 28:1 29:1 30:1 31:1 34:1 
1.137804756728781 1:1 3:1 4:1 7:1 8:1 9:1 10:1 12:1 13:1 14:1 15:1 16:1 22:1 25:1 26:1 27:1 28:1 29:1 30:1 31:1 32:1 34:1 35:1 
1.432742175793863 1:1 3:1 4:1 8:1 9:1 10:1 11:1 12:1 13:1 14:1 19:1 20:1 22:1 28:1 31:1 34:1 
1.54596543678762 2:1 3:1 4:1 6:1 7:1 8:1 11:1 13:1 14:1 15:1 16:1 19:1 21:1 22:1 23:1 25:1 26:1 27:1 29:1 30:1 31:1 32:1 35:1 36:1 
1.493218681948886 1:1 2:1 4:1 8:1 15:1 19:1 22:1 26:1 27:1 28:1 31:1 34:1 
1.26892122841618 1:1 2:1 3:1 4:1 7:1 8:1 9:1 13:1 14:1 22:1 24:1 25:1 26:1 27:1 28:1 29:1 34:1 35:1 
1.563266849338304 1:1 2:1 3:1 4:1 7:1 8:1 9:1 10:1 11:1 12:1 13:1 14:1 15:1 18:1 19:1 20:1 21:1 23:1 24:1 25:1 27:1 29:1 30:1 
1.465655495768343 1:1 2:1 3:1 4:1 7:1 8:1 9:1 13:1 14:1 15:1 16:1 19:1 24:1 26:1 27:1 28:1 30:1 
1.409843104107961 1:1 2:1 3:1 4:1 7:1 8:1 9:1 10:1 11:1 12:1 13:1 14:1 17:1 18:1 19:1 21:1 22:1 23:1 26:1 27:1 28:1 29:1 30:1 34:1 
1.506622442795489 1:1 3:1 4:1 5:1 7:1 8:1 9:1 10:1 11:1 12:1 13:1 14:1 15:1 17:1 18:1 19:1 21:1 22:1 25:1 27:1 28:1 29:1 34:1 
1.220992392276596 1:1 2:1 4:1 7:1 9:1 11:1 12:1 13:1 14:1 15:1 19:1 22:1 25:1 26:1 28:1 29:1 31:1 
1.271803742846997 1:1 2:1 3:1 6:1 7:1 8:1 9:1 10:1 11:1 12:1 13:1 14:1 15:1 16:1 17:1 19:1 22:1 25:1 27:1 28:1 29:1 31:1 35:1 
1.574153229323588 1:1 3:1 7:1 8:1 9:1 10:1 11:1 13:1 15:1 16:1 17:1 19:1 20:1 21:1 24:1 25:1 26:1 27:1 30:1 34:1 36:1 
1.511160110495931 1:1 2:1 3:1 4:1 8:1 9:1 12:1 13:1 14:1 15:1 16:1 17:1 18:1 19:1 21:1 22:1 24:1 26:1 27:1 28:1 29:1 30:1 31:1 35:1 
1.551146375533399 1:1 2:1 3:1 7:1 9:1 13:1 14:1 15:1 18:1 19:1 21:1 22:1 23:1 24:1 26:1 27:1 28:1 29:1 31:1 34:1 35:1 
1.210292319799452 1:1 2:1 4:1 7:1 8:1 9:1 10:1 11:1 12:1 13:1 14:1 15:1 19:1 24:1 25:1 26:1 27:1 28:1 31:1 32:1 34:1 35:1 
1.370293594050947 1:1 2:1 3:1 4:1 6:1 7:1 8:1 9:1 10:1 11:1 12:1 13:1 14:1 15:1 16:1 17:1 19:1 21:1 22:1 27:1 29:1 30:1 32:1 35:1 
1.541862316811961 1:1 2:1 3:1 7:1 11:1 14:1 15:1 17:1 20:1 24:1 25:1 26:1 30:1 31:1 34:1 
1.546732907488996 1:1 2:1 3:1 4:1 5:1 7:1 8:1 9:1 10:1 13:1 14:1 19:1 20:1 21:1 26:1 27:1 31:1 36:1 
1.387219057520966 1:1 2:1 3:1 4:1 7:1 8:1 9:1 10:1 11:1 12:1 13:1 14:1 15:1 19:1 22:1 24:1 27:1 28:1 30:1 31:1 34:1 
1.289285724746549 1:1 2:1 3:1 4:1 8:1 9:1 10:1 11:1 12:1 13:1 14:1 16:1 19:1 20:1 22:1 25:1 26:1 27:1 31:1 32:1 
1.417958389119355 2:1 3:1 4:1 6:1 7:1 8:1 9:1 11:1 12:1 13:1 14:1 15:1 19:1 22:1 26:1 27:1 28:1 30:1 35:1 
1.523318304633505 2:1 3:1 4:1 6:1 7:1 8:1 9:1 12:1 13:1 14:1 15:1 16:1 19:1 21:1 22:1 23:1 24:1 25:1 26:1 28:1 29:1 30:1 31:1 34:1 
1.055036836236023 1:1 2:1 3:1 4:1 5:1 6:1 7:1 8:1 9:1 10:1 11:1 12:1 13:1 14:1 15:1 16:1 19:1 25:1 26:1 27:1 29:1 31:1 34:1 35:1 
1.627578622618095 1:1 2:1 3:1 4:1 5:1 7:1 8:1 9:1 10:1 11:1 12:1 14:1 15:1 18:1 19:1 20:1 22:1 27:1 28:1 29:1 34:1 
1.510987993155798 1:1 4:1 7:1 8:1 10:1 11:1 12:1 14:1 15:1 16:1 22:1 24:1 25:1 27:1 28:1 29:1 30:1 34:1 35:1 
1.539279177646606 2:1 6:1 7:1 9:1 11:1 12:1 13:1 15:1 22:1 25:1 26:1 27:1 30:1 31:1 33:1 34:1 
1.532722089105219 1:1 2:1 3:1 4:1 5:1 6:1 7:1 9:1 11:1 12:1 13:1 14:1 15:1 17:1 18:1 22:1 25:1 26:1 27:1 29:1 30:1 31:1 32:1 35:1 
1.390820501611271 1:1 2:1 3:1 4:1 7:1 8:1 12:1 13:1 14:1 15:1 16:1 17:1 22:1 24:1 26:1 27:1 29:1 30:1 31:1 
0.8567768974895671 1:1 2:1 3:1 4:1 7:1 8:1 9:1 11:1 12:1 13:1 14:1 19:1 22:1 26:1 27:1 28:1 30:1 31:1 34:1 36:1 
1.563113979417567 2:1 3:1 4:1 7:1 8:1 11:1 12:1 14:1 15:1 21:1 22:1 26:1 28:1 29:1 
1.563288431183273 1:1 2:1 4:1 5:1 6:1 7:1 9:1 12:1 13:1 14:1 15:1 20:1 22:1 23:1 25:1 26:1 27:1 28:1 29:1 31:1 34:1 36:1 
1.443908147760657 1:1 3:1 7:1 8:1 9:1 12:1 13:1 14:1 15:1 16:1 17:1 20:1 21:1 22:1 25:1 26:1 27:1 28:1 31:1 
1.565629424131449 2:1 3:1 7:1 8:1 9:1 10:1 11:1 12:1 13:1 14:1 16:1 19:1 21:1 22:1 24:1 27:1 30:1 31:1 
0.784793292352411 1:1 2:1 3:1 4:1 7:1 8:1 9:1 11:1 12:1 13:1 14:1 15:1 17:1 19:1 21:1 22:1 25:1 26:1 27:1 28:1 29:1 30:1 31:1 34:1 
1.249420097640213 1:1 2:1 3:1 7:1 8:1 9:1 10:1 11:1 14:1 15:1 16:1 17:1 22:1 25:1 27:1 28:1 31:1 34:1 
1.504769450623813 2:1 3:1 4:1 6:1 7:1 8:1 10:1 11:1 12:1 13:1 15:1 19:1 22:1 26:1 29:1 32:1 34:1 35:1 
1.596664389666866 1:1 2:1 4:1 5:1 7:1 9:1 11:1 12:1 13:1 14:1 15:1 16:1 19:1 27:1 29:1 30:1 35:1 
1.53681892353655 1:1 2:1 3:1 4:1 8:1 9:1 11:1 12:1 14:1 15:1 16:1 18:1 19:1 22:1 23:1 25:1 29:1 30:1 31:1 33:1 36:1 
1.5314341486884 1:1 2:1 3:1 4:1 5:1 7:1 8:1 9:1 10:1 11:1 12:1 13:1 14:1 15:1 19:1 21:1 22:1 23:1 28:1 29:1 31:1 35:1 
1.558625640793683 1:1 3:1 4:1 8:1 9:1 10:1 11:1 12:1 14:1 15:1 16:1 20:1 23:1 26:1 27:1 28:1 29:1 34:1 
1.474986685544386 2:1 4:1 7:1 9:1 10:1 11:1 12:1 14:1 15:1 22:1 25:1 27:1 28:1 31:1 34:1 
1.363412953071215 1:1 3:1 4:1 7:1 8:1 9:1 10:1 11:1 13:1 14:1 15:1 19:1 20:1 21:1 22:1 26:1 27:1 28:1 29:1 30:1 31:1 34:1 35:1 
1.559116450885711 2:1 8:1 9:1 10:1 11:1 13:1 15:1 16:1 19:1 21:1 22:1 24:1 25:1 26:1 27:1 30:1 35:1 
0.6466121572969097 1:1 2:1 3:1 4:1 7:1 8:1 9:1 10:1 11:1 12:1 13:1 14:1 15:1 19:1 22:1 25:1 26:1 27:1 28:1 29:1 34:1 
1.573432557867619 1:1 2:1 3:1 4:1 7:1 8:1 10:1 11:1 12:1 13:1 14:1 15:1 19:1 22:1 27:1 
1.565174145502498 1:1 3:1 7:1 9:1 10:1 11:1 12:1 13:1 14:1 15:1 16:1 17:1 18:1 19:1 22:1 23:1 25:1 26:1 29:1 34:1 35:1 
1.495755885006884 1:1 2:1 3:1 4:1 6:1 7:1 8:1 9:1 10:1 12:1 13:1 15:1 17:1 18:1 19:1 21:1 22:1 25:1 26:1 27:1 28:1 31:1 34:1 35:1 
1.42579763068581 1:1 2:1 3:1 4:1 8:1 9:1 10:1 11:1 12:1 13:1 14:1 15:1 19:1 22:1 24:1 25:1 26:1 28:1 32:1 
1.493750519669243 1:1 2:1 3:1 4:1 7:1 9:1 13:1 14:1 16:1 17:1 19:1 22:1 26:1 29:1 30:1 31:1 32:1 33:1 34:1 
1.495411905932533 1:1 2:1 3:1 4:1 6:1 8:1 10:1 11:1 13:1 15:1 16:1 17:1 29:1 31:1 34:1 
1.539310684605423 4:1 7:1 9:1 11:1 12:1 13:1 16:1 17:1 18:1 19:1 20:1 22:1 25:1 26:1 27:1 29:1 31:1 
1.559882982736444 1:1 2:1 3:1 4:1 5:1 6:1 7:1 9:1 11:1 12:1 14:1 15:1 19:1 25:1 26:1 27:1 28:1 30:1 31:1 36:1 
0.9324939463099552 1:1 2:1 7:1 8:1 9:1 11:1 12:1 13:1 14:1 15:1 16:1 17:1 19:1 22:1 26:1 27:1 31:1 34:1 
1.450557185758898 3:1 7:1 8:1 9:1 11:1 12:1 13:1 14:1 15:1 16:1 17:1 22:1 25:1 26:1 27:1 28:1 29:1 31:1 35:1 
1.411933374670086 1:1 2:1 3:1 6:1 8:1 9:1 10:1 13:1 15:1 16:1 19:1 22:1 24:1 25:1 26:1 27:1 28:1 30:1 31:1 34:1 36:1 
1.519680339338227 1:1 2:1 3:1 4:1 5:1 6:1 7:1 8:1 9:1 10:1 11:1 12:1 13:1 15:1 16:1 17:1 19:1 21:1 22:1 23:1 28:1 29:1 33:1 34:1 
1.466871922463389 1:1 3:1 6:1 8:1 9:1 11:1 13:1 14:1 15:1 16:1 19:1 23:1 25:1 26:1 27:1 29:1 30:1 31:1 34:1 
1.550744589058357 2:1 4:1 7:1 8:1 9:1 10:1 11:1 12:1 13:1 14:1 15:1 19:1 20:1 21:1 22:1 25:1 26:1 27:1 29:1 31:1 36:1 
1.510370823129296 1:1 2:1 4:1 7:1 8:1 9:1 11:1 13:1 15:1 19:1 21:1 23:1 26:1 27:1 29:1 34:1 35:1 
1.540784205830653 1:1 2:1 3:1 7:1 8:1 10:1 11:1 12:1 13:1 14:1 17:1 18:1 20:1 22:1 25:1 26:1 27:1 28:1 29:1 31:1 34:1 35:1 36:1 
1.543255019526133 3:1 6:1 7:1 8:1 9:1 10:1 11:1 12:1 13:1 16:1 19:1 20:1 22:1 28:1 29:1 31:1 35:1 
1.520854500769618 1:1 2:1 3:1 6:1 7:1 8:1 9:1 11:1 13:1 15:1 16:1 19:1 20:1 21:1 22:1 23:1 25:1 27:1 29:1 31:1 32:1 35:1 
1.532481462604569 1:1 2:1 3:1 4:1 5:1 6:1 8:1 9:1 10:1 11:1 14:1 16:1 19:1 22:1 23:1 25:1 26:1 28:1 29:1 31:1 34:1 
1.558773318155613 1:1 2:1 3:1 6:1 7:1 8:1 9:1 13:1 14:1 15:1 17:1 21:1 22:1 23:1 24:1 25:1 26:1 27:1 36:1 
1.531833772480472 1:1 3:1 4:1 7:1 8:1 11:1 14:1 17:1 18:1 19:1 22:1 23:1 27:1 29:1 31:1 34:1 35:1 
1.531130495240891 1:1 3:1 4:1 6:1 7:1 8:1 11:1 12:1 15:1 19:1 22:1 25:1 26:1 27:1 28:1 29:1 31:1 32:1 35:1 
1.517392767134676 1:1 2:1 3:1 4:1 7:1 10:1 12:1 13:1 14:1 15:1 16:1 17:1 18:1 19:1 25:1 26:1 27:1 29:1 31:1 32:1 35:1 
1.473179304861438 1:1 3:1 4:1 7:1 8:1 9:1 13:1 14:1 15:1 16:1 22:1 24:1 25:1 26:1 27:1 28:1 30:1 34:1 36:1 
1.514668651557712 1:1 4:1 7:1 8:1 9:1 10:1 11:1 13:1 15:1 16:1 19:1 21:1 26:1 27:1 29:1 32:1 33:1 35:1 
1.499082568031891 1:1 2:1 3:1 4:1 7:1 8:1 10:1 11:1 12:1 15:1 19:1 20:1 22:1 24:1 25:1 26:1 27:1 28:1 30:1 31:1 
1.550861919864282 2:1 3:1 4:1 7:1 11:1 12:1 13:1 14:1 15:1 16:1 19:1 21:1 22:1 24:1 25:1 28:1 29:1 33:1 34:1 35:1 
1.509460813236786 1:1 2:1 3:1 4:1 8:1 10:1 11:1 12:1 15:1 19:1 20:1 22:1 25:1 26:1 27:1 28:1 31:1 33:1 34:1 
1.404429599291642 1:1 2:1 3:1 4:1 7:1 9:1 11:1 12:1 13:1 14:1 15:1 16:1 19:1 22:1 28:1 29:1 30:1 34:1 36:1 
1.526470847686898 2:1 3:1 7:1 8:1 9:1 10:1 11:1 13:1 14:1 15:1 16:1 17:1 18:1 22:1 23:1 24:1 25:1 26:1 27:1 30:1 
1.464144886816326 2:1 3:1 7:1 8:1 9:1 11:1 12:1 13:1 14:1 15:1 19:1 21:1 22:1 25:1 29:1 30:1 31:1 34:1 35:1 36:1 
1.531024981695068 1:1 4:1 5:1 6:1 7:1 8:1 9:1 10:1 11:1 12:1 13:1 16:1 17:1 19:1 22:1 25:1 26:1 28:1 31:1 34:1 
1.328518833362549 1:1 2:1 3:1 7:1 8:1 9:1 11:1 12:1 13:1 15:1 16:1 17:1 22:1 25:1 26:1 27:1 34:1 35:1 
1.54169438521249 1:1 2:1 3:1 4:1 7:1 8:1 12:1 14:1 15:1 16:1 20:1 21:1 22:1 24:1 25:1 28:1 29:1 30:1 34:1 
1.469580423985314 1:1 2:1 3:1 7:1 8:1 11:1 12:1 14:1 15:1 16:1 17:1 18:1 19:1 22:1 26:1 27:1 28:1 29:1 30:1 34:1 
1.490443434745951 1:1 2:1 3:1 4:1 6:1 7:1 8:1 11:1 13:1 14:1 15:1 16:1 22:1 24:1 25:1 26:1 27:1 28:1 34:1 
1.466574001249962 1:1 3:1 4:1 8:1 9:1 11:1 12:1 14:1 15:1 16:1 20:1 22:1 27:1 31:1 32:1 
1.494348169420606 1:1 2:1 3:1 4:1 5:1 6:1 8:1 9:1 10:1 11:1 12:1 13:1 14:1 15:1 16:1 18:1 19:1 22:1 24:1 25:1 26:1 27:1 28:1 29:1 32:1 34:1 36:1 
1.399566490768571 2:1 3:1 4:1 5:1 7:1 9:1 10:1 11:1 12:1 15:1 16:1 19:1 22:1 25:1 26:1 27:1 34:1 
1.513797490443895 1:1 2:1 3:1 7:1 8:1 9:1 13:1 14:1 19:1 22:1 23:1 26:1 27:1 29:1 30:1 34:1 35:1 36:1 
1.563321399329237 1:1 3:1 4:1 5:1 7:1 9:1 10:1 11:1 12:1 13:1 14:1 15:1 18:1 19:1 20:1 21:1 22:1 23:1 27:1 29:1 30:1 32:1 34:1 35:1 
1.486876101040153 1:1 2:1 3:1 5:1 6:1 7:1 8:1 9:1 11:1 12:1 13:1 14:1 15:1 17:1 22:1 24:1 25:1 26:1 27:1 29:1 30:1 31:1 32:1 35:1 
1.474821678202915 1:1 2:1 3:1 9:1 10:1 11:1 12:1 13:1 14:1 15:1 16:1 17:1 18:1 19:1 22:1 24:1 26:1 27:1 28:1 30:1 31:1 32:1 
1.187244562860547 1:1 2:1 3:1 4:1 5:1 6:1 7:1 8:1 9:1 10:1 11:1 12:1 13:1 14:1 15:1 16:1 19:1 22:1 25:1 27:1 28:1 30:1 31:1 34:1 
1.430731984354473 1:1 2:1 3:1 4:1 5:1 7:1 9:1 10:1 11:1 12:1 13:1 15:1 16:1 17:1 19:1 22:1 24:1 26:1 27:1 31:1 32:1 
1.823425060458909 1:1 2:1 3:1 4:1 7:1 8:1 10:1 11:1 12:1 13:1 14:1 15:1 16:1 17:1 22:1 26:1 27:1 28:1 31:1 32:1 34:1 35:1 
1.552323869558211 1:1 2:1 3:1 7:1 8:1 9:1 11:1 12:1 14:1 19:1 20:1 22:1 25:1 26:1 30:1 31:1 34:1 
1.285204050531953 1:1 2:1 3:1 4:1 7:1 8:1 9:1 11:1 12:1 13:1 15:1 19:1 22:1 25:1 26:1 28:1 29:1 
1.497162761895843 1:1 2:1 3:1 4:1 6:1 7:1 8:1 10:1 11:1 12:1 14:1 15:1 16:1 19:1 20:1 26:1 27:1 28:1 29:1 30:1 34:1 
1.306012157728328 2:1 3:1 4:1 7:1 8:1 9:1 10:1 11:1 12:1 13:1 14:1 15:1 16:1 19:1 22:1 23:1 24:1 27:1 28:1 29:1 31:1 34:1 
1.529546201316958 1:1 2:1 3:1 4:1 5:1 6:1 7:1 8:1 9:1 10:1 11:1 13:1 14:1 15:1 16:1 17:1 18:1 19:1 24:1 25:1 26:1 27:1 28:1 29:1 30:1 31:1 33:1 34:1 35:1 
1.489384221201291 1:1 2:1 3:1 4:1 6:1 7:1 8:1 10:1 11:1 13:1 14:1 15:1 16:1 19:1 22:1 23:1 26:1 27:1 28:1 29:1 33:1 34:1 
1.28475471967734 1:1 2:1 4:1 7:1 11:1 12:1 14:1 15:1 19:1 22:1 25:1 26:1 28:1 31:1 34:1 
1.21453493847575 1:1 3:1 7:1 8:1 9:1 10:1 11:1 12:1 13:1 14:1 15:1 16:1 19:1 22:1 25:1 27:1 28:1 34:1 
1.539368859701094 3:1 4:1 5:1 6:1 8:1 9:1 10:1 11:1 13:1 15:1 16:1 19:1 22:1 27:1 28:1 29:1 30:1 31:1 35:1 
1.444663127405303 1:1 3:1 4:1 7:1 8:1 9:1 10:1 11:1 12:1 13:1 14:1 19:1 20:1 22:1 25:1 26:1 27:1 29:1 34:1 35:1 
1.524383673071644 1:1 2:1 4:1 5:1 8:1 9:1 10:1 11:1 13:1 15:1 16:1 21:1 22:1 26:1 27:1 28:1 34:1 35:1 
1.508430656208368 3:1 4:1 7:1 8:1 9:1 10:1 13:1 14:1 15:1 16:1 19:1 21:1 25:1 27:1 30:1 31:1 35:1 
1.593421323080575 1:1 2:1 4:1 6:1 7:1 8:1 9:1 10:1 11:1 12:1 14:1 19:1 22:1 23:1 25:1 26:1 27:1 28:1 34:1 35:1 36:1 
1.202413500919528 1:1 2:1 3:1 4:1 7:1 8:1 9:1 11:1 12:1 13:1 14:1 15:1 16:1 19:1 21:1 22:1 24:1 26:1 28:1 29:1 31:1 34:1 
1.447832267467835 1:1 2:1 3:1 4:1 6:1 7:1 8:1 9:1 11:1 12:1 13:1 14:1 15:1 16:1 17:1 19:1 20:1 21:1 25:1 26:1 27:1 34:1 35:1 
1.109515907281112 1:1 2:1 3:1 7:1 8:1 9:1 13:1 14:1 15:1 17:1 19:1 22:1 25:1 26:1 27:1 28:1 30:1 31:1 34:1 35:1 
1.168664137397972 1:1 3:1 4:1 7:1 8:1 9:1 11:1 12:1 13:1 14:1 15:1 16:1 19:1 28:1 30:1 31:1 34:1 
1.457279343408025 1:1 2:1 3:1 4:1 7:1 8:1 9:1 10:1 11:1 12:1 13:1 15:1 16:1 18:1 19:1 24:1 29:1 30:1 35:1 
1.549038512188808 1:1 4:1 5:1 7:1 11:1 12:1 13:1 14:1 15:1 16:1 17:1 18:1 19:1 20:1 25:1 29:1 34:1 
1.15322563360068 1:1 2:1 3:1 4:1 7:1 8:1 9:1 10:1 13:1 14:1 15:1 16:1 19:1 22:1 26:1 28:1 31:1 32:1 34:1 35:1 
1.082629322788829 1:1 2:1 3:1 6:1 7:1 8:1 9:1 10:1 11:1 12:1 13:1 14:1 15:1 16:1 22:1 25:1 26:1 28:1 29:1 31:1 34:1 35:1 
1.477379683477671 2:1 3:1 4:1 6:1 7:1 8:1 9:1 10:1 11:1 12:1 13:1 14:1 16:1 17:1 19:1 21:1 22:1 24:1 25:1 26:1 28:1 29:1 30:1 31:1 32:1 34:1 
1.478633838764127 2:1 4:1 7:1 8:1 9:1 10:1 12:1 13:1 16:1 19:1 22:1 24:1 26:1 27:1 28:1 29:1 30:1 31:1 33:1 35:1 
1.324305158256463 1:1 3:1 6:1 7:1 8:1 9:1 10:1 11:1 12:1 14:1 15:1 16:1 17:1 19:1 22:1 24:1 26:1 27:1 28:1 31:1 34:1 
1.390967985866296 1:1 2:1 4:1 6:1 7:1 8:1 9:1 12:1 13:1 15:1 16:1 19:1 22:1 24:1 25:1 26:1 27:1 28:1 31:1 32:1 34:1 
1.553180253801594 1:1 2:1 3:1 4:1 7:1 8:1 10:1 11:1 12:1 14:1 19:1 21:1 24:1 26:1 27:1 29:1 34:1 35:1 
1.498652053439059 1:1 2:1 4:1 6:1 7:1 8:1 10:1 11:1 12:1 13:1 16:1 17:1 22:1 26:1 28:1 29:1 31:1 32:1 34:1 
1.373527913867279 1:1 2:1 3:1 4:1 7:1 11:1 13:1 14:1 15:1 16:1 19:1 20:1 25:1 26:1 27:1 28:1 31:1 34:1 35:1 
1.557437547934592 1:1 3:1 4:1 6:1 7:1 8:1 9:1 11:1 12:1 13:1 14:1 19:1 22:1 25:1 26:1 28:1 29:1 30:1 34:1 36:1 
0.2219948068371419 1:1 2:1 3:1 4:1 7:1 8:1 9:1 10:1 11:1 13:1 14:1 15:1 16:1 19:1 22:1 25:1 26:1 27:1 28:1 34:1 
0.8211723756841494 1:1 2:1 3:1 4:1 8:1 9:1 13:1 14:1 15:1 19:1 22:1 25:1 26:1 27:1 28:1 30:1 31:1 34:1 
1.54558192239787 3:1 4:1 6:1 7:1 8:1 9:1 10:1 13:1 14:1 15:1 19:1 20:1 27:1 29:1 36:1 
1.490036165190211 2:1 3:1 4:1 7:1 8:1 10:1 12:1 13:1 14:1 15:1 16:1 17:1 19:1 22:1 23:1 24:1 26:1 27:1 28:1 29:1 34:1 35:1 
1.589490408137536 1:1 2:1 3:1 6:1 7:1 9:1 11:1 12:1 13:1 14:1 15:1 16:1 22:1 25:1 26:1 27:1 28:1 29:1 30:1 34:1 35:1 
1.647444782036473 1:1 3:1 4:1 6:1 7:1 8:1 9:1 11:1 12:1 14:1 15:1 22:1 24:1 26:1 27:1 28:1 30:1 34:1 
1.548363295310491 1:1 3:1 7:1 8:1 9:1 11:1 12:1 13:1 16:1 18:1 19:1 20:1 21:1 22:1 23:1 25:1 29:1 31:1 
1.47443894982151 1:1 2:1 3:1 7:1 8:1 9:1 11:1 12:1 13:1 15:1 25:1 26:1 28:1 29:1 30:1 31:1 32:1 34:1 35:1 
1.390185574714052 1:1 3:1 7:1 8:1 9:1 12:1 13:1 14:1 15:1 16:1 17:1 19:1 20:1 22:1 24:1 25:1 26:1 27:1 28:1 30:1 31:1 34:1 
1.589832485056468 2:1 4:1 5:1 6:1 7:1 8:1 9:1 10:1 11:1 12:1 13:1 14:1 15:1 16:1 22:1 23:1 24:1 25:1 27:1 28:1 29:1 30:1 31:1 34:1 35:1 
1.477610636853012 1:1 2:1 3:1 4:1 7:1 8:1 9:1 10:1 13:1 14:1 15:1 17:1 18:1 22:1 25:1 28:1 29:1 31:1 
1.519330581817968 1:1 2:1 3:1 4:1 7:1 8:1 9:1 10:1 11:1 12:1 13:1 14:1 15:1 16:1 17:1 19:1 22:1 23:1 24:1 26:1 28:1 29:1 30:1 36:1 
1.536552981269228 1:1 3:1 4:1 7:1 9:1 10:1 11:1 12:1 13:1 15:1 16:1 19:1 20:1 22:1 26:1 29:1 30:1 31:1 33:1 34:1 36:1 
0.7149083701603431 1:1 2:1 3:1 4:1 7:1 8:1 9:1 10:1 11:1 12:1 13:1 14:1 15:1 16:1 19:1 25:1 26:1 27:1 28:1 29:1 31:1 
1.547516224914747 1:1 2:1 3:1 4:1 7:1 10:1 11:1 12:1 13:1 14:1 18:1 19:1 22:1 24:1 25:1 28:1 29:1 30:1 31:1 34:1 35:1 36:1 
1.501564634039852 1:1 2:1 3:1 7:1 8:1 9:1 10:1 11:1 13:1 14:1 16:1 19:1 22:1 24:1 25:1 26:1 27:1 28:1 29:1 31:1 32:1 34:1 
1.29073476816642 1:1 2:1 3:1 4:1 5:1 8:1 9:1 10:1 12:1 13:1 14:1 15:1 16:1 17:1 19:1 22:1 25:1 26:1 27:1 28:1 31:1 32:1 34:1 35:1 
0.917771874163416 1:1 2:1 3:1 4:1 7:1 8:1 9:1 11:1 12:1 13:1 14:1 15:1 16:1 22:1 23:1 26:1 28:1 29:1 30:1 31:1 34:1 35:1 
1.43596837467475 1:1 2:1 3:1 4:1 6:1 7:1 8:1 9:1 10:1 11:1 12:1 14:1 15:1 16:1 18:1 19:1 22:1 28:1 29:1 31:1 32:1 34:1 35:1 
1.446094841369031 1:1 3:1 4:1 7:1 8:1 9:1 12:1 13:1 14:1 15:1 16:1 17:1 18:1 19:1 22:1 25:1 28:1 30:1 31:1 
1.541916162627084 1:1 2:1 4:1 5:1 6:1 10:1 11:1 12:1 14:1 15:1 16:1 25:1 27:1 28:1 29:1 31:1 34:1 35:1 
1.491523787087484 1:1 2:1 3:1 8:1 9:1 10:1 11:1 12:1 13:1 14:1 15:1 19:1 20:1 22:1 24:1 26:1 27:1 28:1 29:1 30:1 34:1 
1.5591593191244 1:1 2:1 3:1 7:1 8:1 10:1 13:1 14:1 17:1 19:1 20:1 21:1 23:1 25:1 26:1 27:1 28:1 29:1 34:1 35:1 
1.423387316294343 1:1 2:1 3:1 4:1 5:1 7:1 9:1 10:1 11:1 12:1 13:1 14:1 15:1 16:1 22:1 24:1 26:1 28:1 31:1 34:1 36:1 
1.503415861590191 1:1 2:1 3:1 7:1 8:1 9:1 10:1 11:1 12:1 13:1 15:1 17:1 18:1 19:1 26:1 27:1 31:1 32:1 
1.538208274771026 1:1 8:1 9:1 11:1 12:1 13:1 14:1 15:1 19:1 23:1 25:1 26:1 27:1 28:1 29:1 30:1 31:1 35:1 
0.9621395277362053 1:1 2:1 3:1 4:1 7:1 8:1 10:1 11:1 12:1 14:1 16:1 19:1 22:1 25:1 26:1 27:1 28:1 31:1 34:1 
1.36743430786625 1:1 2:1 3:1 4:1 6:1 7:1 8:1 9:1 10:1 11:1 12:1 13:1 14:1 15:1 16:1 20:1 21:1 22:1 24:1 25:1 26:1 27:1 28:1 29:1 31:1 34:1 
1.565847103405051 1:1 3:1 7:1 8:1 10:1 11:1 12:1 13:1 14:1 15:1 16:1 19:1 22:1 26:1 27:1 28:1 30:1 34:1 
1.555992270671598 1:1 3:1 5:1 6:1 7:1 8:1 11:1 12:1 15:1 17:1 19:1 20:1 22:1 24:1 25:1 26:1 29:1 31:1 35:1 
1.044029182193107 1:1 2:1 3:1 4:1 7:1 8:1 9:1 11:1 12:1 13:1 14:1 16:1 19:1 22:1 24:1 25:1 26:1 29:1 31:1 34:1 
0.8314944254846685 1:1 2:1 3:1 4:1 7:1 8:1 9:1 10:1 11:1 12:1 13:1 15:1 19:1 22:1 24:1 25:1 26:1 27:1 28:1 29:1 34:1 
1.551841849003353 2:1 3:1 4:1 7:1 10:1 11:1 12:1 13:1 14:1 15:1 18:1 19:1 22:1 23:1 25:1 26:1 27:1 30:1 32:1 35:1 
1.402804346398984 1:1 3:1 4:1 7:1 8:1 9:1 12:1 13:1 14:1 15:1 16:1 18:1 19:1 22:1 29:1 31:1 
1.499040019615459 2:1 3:1 4:1 6:1 7:1 8:1 10:1 11:1 13:1 15:1 19:1 22:1 26:1 27:1 28:1 29:1 30:1 31:1 
1.020308004033041 1:1 3:1 4:1 7:1 8:1 9:1 10:1 11:1 12:1 13:1 14:1 15:1 16:1 17:1 19:1 20:1 22:1 26:1 27:1 28:1 31:1 32:1 34:1 
1.520841853776485 1:1 2:1 3:1 8:1 9:1 10:1 11:1 14:1 15:1 17:1 18:1 19:1 22:1 26:1 27:1 29:1 
1.529307462499186 1:1 2:1 4:1 6:1 7:1 8:1 9:1 10:1 12:1 15:1 17:1 19:1 22:1 25:1 26:1 30:1 31:1 32:1 33:1 34:1 
1.462615505061854 1:1 2:1 3:1 4:1 7:1 8:1 9:1 11:1 12:1 14:1 15:1 16:1 17:1 19:1 20:1 22:1 24:1 25:1 26:1 30:1 31:1 33:1 
1.41415052278088 1:1 2:1 3:1 7:1 8:1 9:1 10:1 11:1 12:1 13:1 14:1 15:1 16:1 21:1 22:1 23:1 26:1 27:1 28:1 30:1 34:1 36:1 
1.547114996640595 2:1 3:1 11:1 13:1 14:1 15:1 16:1 17:1 18:1 19:1 22:1 23:1 24:1 26:1 27:1 28:1 29:1 30:1 34:1 35:1 
1.571794381981192 1:1 2:1 3:1 4:1 5:1 6:1 7:1 8:1 10:1 11:1 12:1 13:1 17:1 19:1 22:1 24:1 25:1 26:1 27:1 29:1 31:1 32:1 35:1 
1.064933381803866 1:1 2:1 3:1 4:1 7:1 8:1 9:1 10:1 11:1 12:1 13:1 14:1 15:1 16:1 17:1 19:1 24:1 26:1 27:1 31:1 34:1 
1.36436498339753 1:1 2:1 3:1 4:1 7:1 9:1 10:1 11:1 13:1 15:1 19:1 21:1 22:1 25:1 27:1 28:1 29:1 31:1 34:1 35:1 
1.275319118186874 2:1 3:1 7:1 8:1 9:1 11:1 12:1 14:1 15:1 19:1 22:1 25:1 26:1 27:1 31:1 
1.485640865392075 1:1 3:1 4:1 7:1 8:1 9:1 10:1 11:1 12:1 13:1 14:1 15:1 16:1 18:1 21:1 22:1 26:1 27:1 28:1 29:1 30:1 31:1 32:1 33:1 34:1 35:1 
1.235259158570904 1:1 2:1 3:1 4:1 5:1 7:1 8:1 11:1 12:1 13:1 15:1 16:1 17:1 19:1 22:1 25:1 26:1 27:1 28:1 30:1 31:1 32:1 34:1 
1.542764986557205 1:1 2:1 3:1 4:1 5:1 6:1 7:1 8:1 9:1 10:1 12:1 13:1 19:1 22:1 24:1 26:1 30:1 31:1 34:1 35:1 36:1 
1.547528839904229 1:1 2:1 3:1 4:1 5:1 6:1 7:1 9:1 12:1 13:1 14:1 15:1 16:1 17:1 18:1 19:1 20:1 22:1 24:1 26:1 27:1 30:1 31:1 34:1 
1.362835367487518 1:1 2:1 3:1 4:1 7:1 8:1 9:1 14:1 15:1 19:1 20:1 21:1 22:1 25:1 26:1 27:1 28:1 29:1 31:1 34:1 
1.487572748360862 2:1 3:1 4:1 8:1 9:1 10:1 11:1 12:1 13:1 14:1 15:1 16:1 18:1 19:1 22:1 25:1 26:1 27:1 28:1 29:1 32:1 35:1 36:1 
1.484553546012072 1:1 2:1 3:1 4:1 5:1 6:1 7:1 8:1 9:1 12:1 13:1 14:1 15:1 16:1 19:1 21:1 22:1 29:1 30:1 31:1 
1.905127514169958 1:1 2:1 3:1 4:1 8:1 9:1 10:1 11:1 12:1 13:1 14:1 15:1 22:1 23:1 24:1 25:1 26:1 27:1 28:1 29:1 30:1 31:1 34:1 
1.552288165055204 1:1 4:1 10:1 11:1 12:1 13:1 14:1 15:1 22:1 23:1 24:1 28:1 29:1 30:1 34:1 35:1 
1.471139838477041 1:1 2:1 3:1 6:1 7:1 8:1 9:1 11:1 12:1 13:1 15:1 19:1 27:1 29:1 31:1 34:1 
1.53240288720519 1:1 3:1 4:1 5:1 6:1 7:1 8:1 9:1 10:1 11:1 12:1 13:1 19:1 21:1 22:1 25:1 26:1 28:1 30:1 31:1 32:1 34:1 35:1 
1.481981872869985 1:1 2:1 3:1 4:1 5:1 7:1 8:1 9:1 13:1 14:1 15:1 19:1 20:1 22:1 28:1 30:1 32:1 34:1 35:1 
1.473017056613621 2:1 3:1 5:1 6:1 7:1 8:1 9:1 10:1 11:1 13:1 15:1 16:1 19:1 22:1 27:1 28:1 30:1 31:1 34:1 
1.656986681099522 1:1 2:1 3:1 7:1 8:1 9:1 10:1 11:1 12:1 13:1 14:1 15:1 19:1 20:1 21:1 22:1 26:1 27:1 28:1 29:1 31:1 32:1 
1.529004384792431 1:1 2:1 3:1 9:1 11:1 13:1 14:1 15:1 16:1 19:1 22:1 24:1 28:1 30:1 31:1 35:1 36:1 
1.437578303882169 2:1 3:1 4:1 5:1 6:1 7:1 8:1 10:1 11:1 12:1 13:1 14:1 15:1 19:1 20:1 22:1 25:1 26:1 27:1 28:1 29:1 31:1 34:1 35:1 
1.410646314768585 1:1 2:1 3:1 6:1 7:1 8:1 9:1 10:1 11:1 12:1 13:1 15:1 16:1 19:1 22:1 26:1 28:1 29:1 30:1 31:1 32:1 33:1 34:1 
1.463167931450175 1:1 2:1 3:1 7:1 8:1 11:1 12:1 13:1 14:1 15:1 19:1 22:1 24:1 28:1 29:1 30:1 32:1 34:1 
1.545860583909197 1:1 2:1 3:1 7:1 8:1 9:1 11:1 12:1 13:1 14:1 17:1 18:1 19:1 22:1 24:1 27:1 28:1 36:1 
1.473725455087927 1:1 2:1 3:1 4:1 7:1 8:1 9:1 10:1 13:1 14:1 15:1 17:1 19:1 20:1 25:1 26:1 34:1 35:1 
1.469480134402201 1:1 2:1 3:1 5:1 7:1 8:1 10:1 11:1 12:1 13:1 15:1 16:1 19:1 20:1 22:1 24:1 25:1 26:1 28:1 29:1 30:1 31:1 32:1 34:1 35:1 
1.254995517123856 1:1 7:1 8:1 9:1 11:1 12:1 13:1 14:1 15:1 19:1 22:1 25:1 27:1 28:1 31:1 34:1 
1.47072462851405 2:1 3:1 4:1 8:1 9:1 10:1 12:1 13:1 15:1 16:1 22:1 24:1 25:1 26:1 27:1 34:1 
1.448164991562127 1:1 3:1 4:1 7:1 8:1 11:1 13:1 14:1 15:1 16:1 19:1 25:1 29:1 30:1 34:1 36:1 
1.231225739960666 1:1 2:1 3:1 4:1 5:1 7:1 8:1 9:1 10:1 11:1 12:1 13:1 14:1 15:1 16:1 22:1 27:1 28:1 29:1 30:1 34:1 
1.563412933730347 1:1 2:1 3:1 4:1 6:1 12:1 13:1 15:1 16:1 19:1 22:1 23:1 24:1 25:1 26:1 27:1 28:1 29:1 30:1 35:1 
1.41239651435204 2:1 3:1 4:1 7:1 8:1 9:1 13:1 14:1 16:1 17:1 19:1 22:1 26:1 27:1 28:1 29:1 30:1 32:1 34:1 
1.534180760092039 1:1 2:1 3:1 4:1 5:1 6:1 7:1 8:1 9:1 10:1 11:1 12:1 13:1 14:1 15:1 16:1 17:1 22:1 23:1 24:1 25:1 26:1 27:1 28:1 29:1 30:1 31:1 33:1 35:1 
1.542171139882949 2:1 3:1 4:1 5:1 7:1 8:1 9:1 10:1 11:1 12:1 13:1 14:1 16:1 22:1 26:1 27:1 31:1 33:1 
1.318184586571398 2:1 3:1 4:1 7:1 8:1 9:1 10:1 11:1 13:1 14:1 15:1 19:1 22:1 24:1 25:1 26:1 27:1 31:1 35:1 
1.438318317562782 1:1 2:1 7:1 8:1 9:1 10:1 12:1 14:1 16:1 19:1 22:1 24:1 25:1 26:1 27:1 28:1 31:1 32:1 34:1 
1.554901327202479 1:1 2:1 4:1 7:1 8:1 9:1 10:1 11:1 13:1 14:1 15:1 17:1 18:1 19:1 24:1 25:1 26:1 27:1 28:1 29:1 30:1 36:1 
1.346149262993718 1:1 2:1 3:1 4:1 5:1 7:1 8:1 13:1 14:1 15:1 16:1 19:1 22:1 24:1 26:1 27:1 28:1 30:1 31:1 34:1 
1.465979735302195 1:1 2:1 3:1 4:1 8:1 10:1 11:1 12:1 13:1 14:1 15:1 22:1 25:1 26:1 27:1 29:1 32:1 33:1 34:1 35:1 
1.558559927950187 3:1 4:1 7:1 8:1 9:1 11:1 12:1 13:1 14:1 19:1 20:1 21:1 22:1 23:1 26:1 27:1 28:1 29:1 32:1 34:1 35:1 
1.527207193133905 2:1 3:1 4:1 7:1 8:1 10:1 11:1 12:1 13:1 14:1 15:1 16:1 17:1 19:1 21:1 25:1 26:1 30:1 31:1 35:1 
1.439990569660991 2:1 3:1 4:1 8:1 9:1 10:1 11:1 12:1 13:1 14:1 15:1 16:1 22:1 26:1 27:1 30:1 34:1 
1.595585688621554 2:1 3:1 7:1 8:1 9:1 10:1 11:1 12:1 13:1 14:1 15:1 19:1 22:1 24:1 25:1 26:1 27:1 29:1 30:1 36:1 
1.440615979657194 1:1 2:1 3:1 4:1 7:1 8:1 9:1 10:1 11:1 12:1 13:1 15:1 19:1 22:1 23:1 26:1 29:1 33:1 34:1 
1.41048786452083 1:1 2:1 3:1 4:1 7:1 8:1 9:1 10:1 11:1 12:1 13:1 14:1 15:1 18:1 21:1 22:1 25:1 26:1 27:1 28:1 29:1 34:1 
0.8180686112157557 1:1 2:1 3:1 4:1 7:1 8:1 9:1 10:1 11:1 13:1 14:1 16:1 17:1 19:1 22:1 26:1 27:1 28:1 29:1 34:1 
1.49134477682115 1:1 3:1 4:1 5:1 7:1 8:1 9:1 12:1 13:1 14:1 16:1 17:1 19:1 21:1 22:1 24:1 26:1 27:1 29:1 30:1 31:1 34:1 
1.424931558488643 1:1 2:1 3:1 4:1 5:1 8:1 9:1 10:1 11:1 12:1 13:1 15:1 16:1 17:1 22:1 24:1 25:1 26:1 27:1 29:1 31:1 34:1 
1.549827693961746 2:1 3:1 4:1 6:1 7:1 13:1 14:1 19:1 22:1 23:1 24:1 25:1 26:1 28:1 30:1 32:1 33:1 34:1 
1.492650990051977 2:1 3:1 4:1 8:1 11:1 13:1 14:1 15:1 16:1 19:1 21:1 22:1 24:1 25:1 26:1 28:1 29:1 30:1 31:1 34:1 35:1 
1.485216181018497 1:1 3:1 6:1 8:1 9:1 11:1 12:1 13:1 16:1 17:1 19:1 22:1 25:1 26:1 27:1 28:1 29:1 34:1 
1.429789303731435 1:1 3:1 7:1 8:1 13:1 14:1 15:1 16:1 22:1 23:1 25:1 26:1 27:1 28:1 30:1 31:1 34:1 
1.535012667606839 1:1 2:1 3:1 4:1 7:1 8:1 11:1 12:1 13:1 14:1 15:1 16:1 19:1 20:1 21:1 25:1 26:1 27:1 33:1 34:1 
1.105142099243421 1:1 2:1 3:1 5:1 7:1 8:1 9:1 11:1 12:1 13:1 14:1 15:1 22:1 25:1 26:1 28:1 30:1 31:1 34:1 
1.524532124156317 1:1 3:1 4:1 9:1 10:1 11:1 12:1 13:1 14:1 15:1 16:1 17:1 18:1 21:1 22:1 23:1 24:1 25:1 26:1 27:1 30:1 34:1 
1.469909832849954 1:1 2:1 3:1 7:1 9:1 10:1 12:1 13:1 14:1 15:1 17:1 19:1 22:1 27:1 28:1 34:1 
1.466015461854518 1:1 2:1 3:1 4:1 7:1 8:1 9:1 11:1 12:1 13:1 14:1 15:1 22:1 24:1 25:1 26:1 29:1 30:1 36:1 
1.487575204547959 1:1 2:1 3:1 4:1 5:1 7:1 8:1 9:1 10:1 12:1 13:1 15:1 16:1 17:1 18:1 19:1 20:1 21:1 22:1 25:1 26:1 27:1 28:1 29:1 30:1 31:1 34:1 35:1 
1.4714645089727 1:1 3:1 4:1 7:1 8:1 9:1 11:1 12:1 13:1 14:1 15:1 22:1 25:1 26:1 27:1 29:1 30:1 31:1 35:1 36:1 
1.473177373931321 1:1 2:1 3:1 6:1 8:1 9:1 11:1 13:1 14:1 15:1 16:1 17:1 18:1 19:1 20:1 22:1 25:1 26:1 27:1 28:1 30:1 31:1 34:1 
1.475209853349944 1:1 2:1 3:1 4:1 5:1 6:1 7:1 8:1 9:1 11:1 12:1 13:1 14:1 15:1 16:1 17:1 18:1 19:1 22:1 27:1 28:1 30:1 31:1 34:1 36:1 
1.466518230883848 1:1 2:1 3:1 4:1 6:1 9:1 10:1 11:1 12:1 13:1 14:1 19:1 22:1 25:1 26:1 27:1 28:1 29:1 31:1 34:1 
1.555847984149291 1:1 2:1 3:1 5:1 7:1 8:1 12:1 13:1 15:1 19:1 22:1 23:1 25:1 26:1 28:1 29:1 33:1 34:1 
1.445941663098582 1:1 2:1 3:1 4:1 5:1 7:1 8:1 11:1 12:1 13:1 14:1 15:1 17:1 22:1 24:1 26:1 27:1 28:1 31:1 32:1 34:1 
1.596007721172498 1:1 2:1 3:1 4:1 7:1 8:1 9:1 11:1 12:1 13:1 14:1 15:1 19:1 21:1 22:1 23:1 25:1 26:1 27:1 28:1 29:1 30:1 
1.538116616930156 1:1 2:1 6:1 7:1 10:1 11:1 12:1 14:1 15:1 19:1 22:1 25:1 26:1 27:1 28:1 29:1 30:1 34:1 
1.296684276044319 1:1 2:1 3:1 7:1 8:1 9:1 10:1 11:1 12:1 13:1 14:1 15:1 16:1 19:1 22:1 24:1 25:1 26:1 28:1 29:1 32:1 34:1 
1.27400126567666 1:1 2:1 3:1 4:1 7:1 8:1 9:1 12:1 13:1 14:1 15:1 18:1 19:1 22:1 27:1 28:1 30:1 31:1 32:1 33:1 34:1 
1.27562888569604 1:1 2:1 3:1 4:1 7:1 8:1 11:1 12:1 13:1 14:1 15:1 16:1 17:1 22:1 24:1 25:1 27:1 28:1 30:1 31:1 34:1 35:1 
1.57819225026495 1:1 2:1 3:1 4:1 7:1 8:1 9:1 11:1 12:1 13:1 14:1 15:1 19:1 20:1 21:1 22:1 28:1 34:1 36:1 
1.198502541510521 2:1 3:1 4:1 7:1 8:1 9:1 11:1 12:1 13:1 14:1 15:1 18:1 19:1 22:1 26:1 27:1 28:1 30:1 34:1 
1.494491161292119 1:1 2:1 3:1 4:1 7:1 8:1 9:1 10:1 11:1 12:1 13:1 16:1 17:1 18:1 19:1 22:1 29:1 30:1 31:1 34:1 35:1 36:1 
1.426649912384978 1:1 4:1 7:1 9:1 10:1 11:1 12:1 13:1 14:1 15:1 16:1 17:1 19:1 22:1 25:1 26:1 27:1 29:1 30:1 31:1 33:1 35:1 
1.471626836182323 1:1 2:1 7:1 8:1 10:1 11:1 12:1 13:1 15:1 16:1 17:1 19:1 22:1 24:1 25:1 26:1 28:1 30:1 34:1 
1.2104142893886 2:1 3:1 4:1 7:1 8:1 10:1 11:1 12:1 13:1 14:1 15:1 16:1 22:1 25:1 26:1 27:1 28:1 34:1 35:1 
1.284140868221329 2:1 3:1 4:1 7:1 8:1 9:1 11:1 12:1 13:1 14:1 16:1 19:1 21:1 22:1 25:1 26:1 27:1 29:1 30:1 31:1 
1.416743684212455 1:1 2:1 3:1 4:1 8:1 9:1 10:1 11:1 12:1 14:1 15:1 16:1 18:1 22:1 26:1 27:1 28:1 29:1 30:1 35:1 36:1 
1.546645275325867 1:1 2:1 3:1 10:1 11:1 12:1 14:1 18:1 19:1 20:1 22:1 23:1 27:1 29:1 30:1 31:1 32:1 33:1 34:1 35:1 36:1 
1.430325909173832 1:1 2:1 7:1 8:1 9:1 11:1 12:1 13:1 15:1 16:1 19:1 24:1 26:1 27:1 29:1 30:1 
1.365474359260713 2:1 3:1 8:1 9:1 10:1 11:1 12:1 13:1 14:1 16:1 19:1 22:1 23:1 25:1 26:1 27:1 29:1 30:1 31:1 34:1 
1.532325576265126 1:1 2:1 7:1 8:1 9:1 13:1 14:1 15:1 17:1 18:1 19:1 22:1 23:1 26:1 27:1 29:1 30:1 33:1 35:1 
1.486153821931654 1:1 3:1 7:1 8:1 9:1 11:1 12:1 13:1 14:1 15:1 16:1 19:1 20:1 21:1 26:1 27:1 29:1 
1.528872777644742 1:1 2:1 3:1 4:1 5:1 7:1 9:1 10:1 11:1 12:1 13:1 16:1 17:1 27:1 30:1 34:1 
1.519048872601191 1:1 2:1 3:1 4:1 7:1 10:1 12:1 13:1 14:1 15:1 16:1 19:1 22:1 24:1 26:1 27:1 28:1 30:1 31:1 32:1 33:1 
1.52879128338119 1:1 3:1 5:1 7:1 11:1 12:1 14:1 15:1 16:1 25:1 26:1 27:1 28:1 29:1 34:1 
1.429056708430499 1:1 2:1 3:1 4:1 6:1 7:1 8:1 9:1 10:1 11:1 13:1 14:1 15:1 16:1 22:1 24:1 25:1 26:1 27:1 28:1 29:1 30:1 31:1 32:1 36:1 
1.577971936319207 1:1 2:1 4:1 5:1 6:1 7:1 8:1 11:1 12:1 13:1 14:1 16:1 19:1 20:1 21:1 24:1 27:1 29:1 30:1 36:1 
1.048606116120162 1:1 2:1 3:1 4:1 8:1 9:1 11:1 12:1 13:1 15:1 16:1 19:1 22:1 24:1 26:1 27:1 28:1 30:1 31:1 34:1 
1.353928675522703 1:1 2:1 4:1 7:1 8:1 10:1 11:1 12:1 13:1 14:1 16:1 17:1 19:1 22:1 26:1 27:1 28:1 29:1 30:1 31:1 
1.515051761194684 2:1 4:1 7:1 8:1 9:1 12:1 13:1 14:1 15:1 19:1 24:1 25:1 26:1 28:1 29:1 31:1 34:1 
1.549596923559191 7:1 9:1 10:1 12:1 13:1 14:1 15:1 22:1 26:1 27:1 30:1 33:1 34:1 35:1 36:1 
1.148595151876443 1:1 3:1 4:1 7:1 8:1 9:1 11:1 12:1 13:1 14:1 15:1 16:1 25:1 27:1 28:1 29:1 32:1 34:1 
0.5283957898322408 2:1 3:1 4:1 7:1 8:1 9:1 10:1 11:1 12:1 13:1 14:1 15:1 16:1 19:1 22:1 23:1 25:1 26:1 27:1 28:1 29:1 34:1 35:1 
1.381498940362017 1:1 2:1 3:1 7:1 9:1 10:1 13:1 14:1 15:1 16:1 19:1 22:1 24:1 25:1 26:1 27:1 29:1 30:1 31:1 36:1 
1.559133017551588 1:1 2:1 3:1 4:1 5:1 6:1 8:1 9:1 11:1 12:1 13:1 14:1 15:1 16:1 22:1 23:1 24:1 25:1 26:1 28:1 29:1 30:1 33:1 35:1 
1.729522005066233 1:1 2:1 3:1 4:1 7:1 8:1 9:1 11:1 12:1 13:1 14:1 15:1 16:1 19:1 20:1 21:1 22:1 25:1 26:1 27:1 28:1 29:1 30:1 31:1 32:1 34:1 
1.436284620305808 1:1 2:1 3:1 4:1 5:1 7:1 8:1 9:1 10:1 13:1 14:1 16:1 17:1 19:1 22:1 26:1 27:1 28:1 29:1 31:1 32:1 35:1 
1.416767628267413 1:1 2:1 3:1 4:1 7:1 8:1 9:1 10:1 11:1 12:1 13:1 14:1 15:1 16:1 17:1 18:1 19:1 21:1 22:1 26:1 27:1 28:1 
1.544766466985369 1:1 2:1 3:1 4:1 5:1 6:1 7:1 9:1 10:1 11:1 12:1 13:1 14:1 15:1 16:1 23:1 28:1 29:1 31:1 32:1 34:1 36:1 
1.486776062725492 1:1 3:1 4:1 6:1 7:1 8:1 9:1 13:1 14:1 15:1 16:1 19:1 22:1 24:1 28:1 31:1 32:1 
1.466438391663132 1:1 2:1 3:1 5:1 8:1 9:1 11:1 12:1 13:1 15:1 16:1 17:1 19:1 22:1 25:1 26:1 27:1 29:1 30:1 31:1 32:1 34:1 35:1 
1.339942218201497 1:1 2:1 3:1 4:1 8:1 9:1 11:1 13:1 14:1 15:1 18:1 19:1 22:1 25:1 26:1 27:1 28:1 29:1 30:1 34:1 
1.551106119906864 1:1 3:1 4:1 5:1 6:1 7:1 8:1 9:1 10:1 11:1 13:1 14:1 15:1 17:1 22:1 24:1 25:1 26:1 27:1 30:1 34:1 35:1 
1.548882913125868 1:1 2:1 4:1 7:1 8:1 9:1 13:1 14:1 19:1 21:1 22:1 23:1 24:1 25:1 26:1 28:1 29:1 33:1 34:1 35:1 36:1 
1.526401410996064 1:1 3:1 7:1 8:1 11:1 13:1 14:1 15:1 20:1 22:1 27:1 28:1 30:1 
1.29177629421098 1:1 2:1 3:1 4:1 6:1 8:1 11:1 12:1 13:1 14:1 15:1 22:1 26:1 27:1 30:1 31:1 34:1 
1.602431229944035 1:1 2:1 4:1 7:1 8:1 9:1 10:1 11:1 12:1 13:1 15:1 19:1 21:1 24:1 25:1 26:1 27:1 30:1 35:1 
1.129635537526149 2:1 3:1 4:1 6:1 7:1 8:1 9:1 10:1 11:1 13:1 14:1 15:1 16:1 19:1 22:1 25:1 26:1 27:1 29:1 30:1 34:1 
1.520757577008686 1:1 3:1 8:1 9:1 11:1 12:1 13:1 14:1 15:1 18:1 19:1 22:1 23:1 24:1 27:1 29:1 30:1 34:1 
1.26980016366143 1:1 2:1 3:1 4:1 7:1 8:1 9:1 12:1 13:1 14:1 15:1 19:1 22:1 26:1 27:1 28:1 29:1 34:1 35:1 
1.528352213984166 1:1 3:1 4:1 5:1 7:1 8:1 13:1 14:1 15:1 19:1 22:1 24:1 26:1 27:1 28:1 29:1 30:1 
1.344840413303847 1:1 2:1 3:1 4:1 7:1 8:1 9:1 11:1 12:1 15:1 16:1 17:1 22:1 24:1 26:1 27:1 30:1 31:1 34:1 
1.416434917591347 1:1 2:1 3:1 4:1 7:1 8:1 13:1 14:1 15:1 16:1 21:1 22:1 23:1 25:1 26:1 27:1 28:1 29:1 31:1 32:1 34:1 36:1 
1.430011908419452 1:1 2:1 3:1 4:1 5:1 7:1 8:1 9:1 10:1 11:1 13:1 14:1 15:1 16:1 22:1 24:1 26:1 27:1 31:1 32:1 34:1 
1.216731712356818 1:1 2:1 3:1 4:1 7:1 8:1 9:1 10:1 11:1 12:1 14:1 15:1 19:1 22:1 23:1 25:1 26:1 27:1 28:1 29:1 31:1 34:1 35:1 
1.571242863157588 2:1 3:1 7:1 8:1 9:1 10:1 11:1 12:1 14:1 15:1 16:1 20:1 22:1 23:1 24:1 25:1 26:1 27:1 28:1 29:1 30:1 
1.144112625156884 1:1 2:1 3:1 4:1 7:1 8:1 9:1 10:1 11:1 12:1 13:1 14:1 15:1 16:1 17:1 19:1 22:1 23:1 24:1 26:1 28:1 29:1 30:1 34:1 
1.406271777135931 1:1 2:1 3:1 4:1 5:1 6:1 7:1 8:1 9:1 10:1 11:1 12:1 13:1 14:1 15:1 16:1 19:1 22:1 24:1 25:1 26:1 27:1 30:1 31:1 34:1 35:1 36:1 
1.103758186775423 1:1 2:1 3:1 4:1 5:1 7:1 8:1 9:1 10:1 12:1 13:1 14:1 15:1 16:1 22:1 26:1 27:1 28:1 29:1 34:1 35:1 
1.560774821900286 1:1 3:1 4:1 5:1 6:1 7:1 8:1 10:1 12:1 13:1 15:1 20:1 21:1 22:1 25:1 26:1 27:1 28:1 29:1 30:1 35:1 36:1 
1.099525790443648 1:1 2:1 4:1 5:1 7:1 8:1 9:1 10:1 11:1 12:1 13:1 14:1 15:1 16:1 19:1 22:1 26:1 27:1 29:1 30:1 31:1 34:1 
1.338937650809244 1:1 2:1 3:1 4:1 7:1 9:1 10:1 11:1 12:1 13:1 15:1 16:1 19:1 22:1 23:1 27:1 28:1 29:1 31:1 34:1 
1.339956026342721 1:1 2:1 3:1 4:1 7:1 8:1 9:1 10:1 11:1 12:1 14:1 15:1 19:1 22:1 27:1 28:1 34:1 
1.52375757558306 1:1 2:1 3:1 4:1 8:1 10:1 11:1 12:1 15:1 16:1 19:1 20:1 21:1 22:1 25:1 26:1 27:1 29:1 30:1 
1.570442546620795 1:1 2:1 3:1 4:1 8:1 9:1 10:1 11:1 12:1 13:1 15:1 19:1 22:1 23:1 25:1 26:1 27:1 28:1 34:1 
1.380612407496729 1:1 2:1 6:1 7:1 8:1 9:1 11:1 13:1 14:1 15:1 19:1 22:1 26:1 27:1 28:1 29:1 34:1 35:1 
1.452564575900622 2:1 4:1 7:1 8:1 9:1 10:1 13:1 14:1 19:1 26:1 27:1 30:1 31:1 32:1 34:1 
1.525935791341461 1:1 2:1 3:1 6:1 7:1 9:1 11:1 12:1 14:1 15:1 16:1 17:1 19:1 23:1 27:1 30:1 31:1 34:1 
1.429247041693793 1:1 2:1 3:1 4:1 7:1 8:1 9:1 10:1 11:1 12:1 13:1 15:1 18:1 19:1 22:1 26:1 27:1 30:1 31:1 32:1 34:1 
1.396773282083185 1:1 2:1 3:1 4:1 7:1 9:1 11:1 12:1 13:1 14:1 16:1 18:1 19:1 21:1 22:1 23:1 25:1 26:1 28:1 29:1 31:1 34:1 
1.50959351711471 1:1 2:1 3:1 7:1 8:1 9:1 11:1 12:1 13:1 15:1 16:1 19:1 22:1 23:1 24:1 25:1 26:1 27:1 28:1 29:1 30:1 34:1 35:1 
1.60953554888742 1:1 2:1 3:1 4:1 7:1 8:1 9:1 11:1 12:1 13:1 14:1 15:1 19:1 22:1 24:1 25:1 26:1 27:1 28:1 29:1 31:1 34:1 35:1 
1.387425297121115 1:1 2:1 3:1 4:1 7:1 9:1 12:1 13:1 14:1 15:1 22:1 25:1 26:1 27:1 29:1 
1.447390118401467 1:1 2:1 3:1 4:1 5:1 7:1 8:1 9:1 10:1 11:1 12:1 13:1 14:1 15:1 16:1 17:1 19:1 22:1 24:1 30:1 31:1 33:1 34:1 
1.407338692668044 1:1 2:1 3:1 7:1 8:1 9:1 12:1 13:1 14:1 16:1 19:1 23:1 25:1 26:1 27:1 29:1 30:1 31:1 32:1 34:1 35:1 
1.476934138246031 1:1 4:1 8:1 9:1 10:1 11:1 12:1 13:1 14:1 15:1 16:1 25:1 26:1 27:1 29:1 31:1 35:1 36:1 
1.558225429286026 2:1 4:1 5:1 7:1 8:1 9:1 10:1 11:1 12:1 16:1 19:1 24:1 25:1 26:1 27:1 29:1 30:1 31:1 
1.517163344677045 1:1 2:1 4:1 7:1 9:1 11:1 12:1 14:1 15:1 16:1 19:1 21:1 25:1 26:1 27:1 28:1 29:1 30:1 31:1 32:1 
1.475884188686787 1:1 2:1 3:1 4:1 6:1 7:1 8:1 9:1 12:1 14:1 15:1 26:1 27:1 31:1 32:1 
1.477329293968176 2:1 3:1 4:1 5:1 6:1 7:1 8:1 9:1 11:1 12:1 13:1 15:1 16:1 19:1 22:1 24:1 26:1 27:1 28:1 30:1 31:1 
1.467243259321932 1:1 3:1 4:1 7:1 8:1 9:1 11:1 12:1 13:1 14:1 15:1 17:1 22:1 24:1 25:1 26:1 29:1 30:1 31:1 32:1 34:1 36:1 
1.548351718620699 1:1 4:1 5:1 6:1 9:1 13:1 14:1 15:1 16:1 19:1 20:1 22:1 27:1 29:1 30:1 32:1 33:1 35:1 36:1 
1.457824484771711 1:1 2:1 3:1 4:1 5:1 7:1 8:1 10:1 11:1 13:1 14:1 15:1 16:1 17:1 19:1 23:1 26:1 27:1 29:1 31:1 32:1 
1.37082802785803 1:1 3:1 4:1 8:1 9:1 10:1 11:1 12:1 14:1 15:1 16:1 17:1 19:1 22:1 23:1 25:1 26:1 27:1 28:1 29:1 30:1 34:1 
1.500289656990765 1:1 2:1 3:1 6:1 7:1 8:1 9:1 11:1 13:1 15:1 16:1 18:1 19:1 20:1 22:1 23:1 26:1 27:1 28:1 29:1 31:1 34:1 
1.556157415095267 1:1 2:1 8:1 9:1 10:1 11:1 12:1 14:1 15:1 19:1 21:1 23:1 25:1 26:1 27:1 28:1 29:1 30:1 33:1 34:1 
1.584025897706842 1:1 2:1 6:1 7:1 8:1 9:1 10:1 13:1 14:1 15:1 16:1 19:1 21:1 22:1 26:1 27:1 28:1 29:1 30:1 31:1 34:1 36:1 
1.522642051064828 1:1 2:1 3:1 4:1 7:1 8:1 9:1 11:1 12:1 14:1 15:1 16:1 19:1 22:1 24:1 31:1 32:1 33:1 34:1 35:1 
1.539717930945235 2:1 3:1 4:1 5:1 6:1 7:1 11:1 12:1 13:1 15:1 16:1 18:1 19:1 21:1 22:1 24:1 26:1 27:1 28:1 30:1 31:1 
1.532906577693609 1:1 2:1 3:1 6:1 7:1 8:1 9:1 11:1 12:1 13:1 14:1 15:1 18:1 19:1 24:1 25:1 26:1 27:1 28:1 30:1 31:1 33:1 34:1 36:1 
1.490402525605513 1:1 2:1 3:1 4:1 5:1 6:1 7:1 9:1 10:1 11:1 12:1 14:1 15:1 16:1 19:1 22:1 24:1 25:1 26:1 27:1 34:1 35:1 36:1 
1.499610881780477 1:1 3:1 4:1 5:1 7:1 9:1 11:1 12:1 13:1 14:1 15:1 19:1 24:1 25:1 26:1 28:1 30:1 31:1 34:1 36:1 
1.429875071012896 2:1 3:1 7:1 8:1 9:1 10:1 11:1 12:1 14:1 16:1 22:1 26:1 27:1 28:1 30:1 34:1 35:1 
1.542231395735696 1:1 6:1 7:1 9:1 11:1 12:1 13:1 14:1 15:1 20:1 25:1 26:1 27:1 30:1 31:1 34:1 
1.552249646312922 1:1 2:1 3:1 4:1 7:1 8:1 10:1 11:1 12:1 13:1 14:1 15:1 19:1 22:1 23:1 25:1 26:1 27:1 29:1 
2.031438436235661 1:1 2:1 3:1 4:1 7:1 8:1 9:1 10:1 11:1 12:1 13:1 14:1 15:1 19:1 20:1 21:1 22:1 23:1 26:1 27:1 28:1 29:1 31:1 34:1 
1.54188107283983 2:1 3:1 4:1 8:1 10:1 11:1 12:1 14:1 15:1 19:1 22:1 26:1 27:1 28:1 33:1 
1.481789778922202 1:1 2:1 3:1 6:1 7:1 8:1 9:1 10:1 11:1 12:1 13:1 14:1 15:1 16:1 17:1 19:1 20:1 21:1 22:1 25:1 27:1 28:1 29:1 34:1 
1.563068715269325 2:1 3:1 4:1 11:1 12:1 13:1 14:1 15:1 16:1 19:1 20:1 21:1 24:1 25:1 26:1 27:1 28:1 29:1 30:1 31:1 34:1 35:1 36:1 
1.575670137871342 1:1 3:1 4:1 5:1 8:1 9:1 13:1 14:1 15:1 19:1 23:1 24:1 25:1 26:1 27:1 30:1 
1.536836413362556 1:1 2:1 3:1 7:1 10:1 11:1 13:1 14:1 15:1 16:1 17:1 18:1 21:1 22:1 23:1 26:1 27:1 28:1 29:1 30:1 31:1 32:1 35:1 
1.268385946283121 1:1 3:1 4:1 7:1 8:1 13:1 14:1 15:1 16:1 17:1 22:1 25:1 26:1 27:1 28:1 29:1 31:1 32:1 34:1 
1.48839647966164 1:1 2:1 4:1 7:1 8:1 9:1 12:1 13:1 14:1 16:1 19:1 22:1 23:1 29:1 31:1 32:1 
1.309583819865888 1:1 2:1 3:1 4:1 7:1 8:1 11:1 12:1 13:1 14:1 15:1 22:1 24:1 25:1 26:1 27:1 28:1 30:1 
1.473515590746374 1:1 2:1 3:1 4:1 7:1 8:1 9:1 11:1 12:1 14:1 15:1 16:1 17:1 19:1 21:1 27:1 28:1 29:1 30:1 31:1 32:1 33:1 34:1 35:1 36:1 
1.495190046594822 2:1 3:1 4:1 7:1 9:1 10:1 11:1 13:1 14:1 15:1 16:1 20:1 22:1 30:1 34:1 
1.434731969690089 1:1 2:1 3:1 4:1 5:1 8:1 9:1 10:1 11:1 13:1 14:1 15:1 16:1 19:1 24:1 25:1 26:1 27:1 29:1 30:1 31:1 32:1 36:1 
1.278394044456048 1:1 2:1 3:1 4:1 7:1 8:1 13:1 14:1 19:1 22:1 27:1 31:1 34:1 
1.180078288998027 1:1 2:1 3:1 4:1 7:1 8:1 9:1 10:1 13:1 14:1 15:1 19:1 20:1 22:1 26:1 28:1 31:1 32:1 33:1 34:1 
1.246356407675432 1:1 2:1 3:1 4:1 7:1 8:1 12:1 13:1 14:1 15:1 16:1 17:1 19:1 22:1 23:1 25:1 26:1 27:1 30:1 31:1 34:1 
1.455141113382211 1:1 2:1 3:1 6:1 7:1 8:1 9:1 10:1 11:1 12:1 13:1 14:1 15:1 16:1 17:1 21:1 22:1 24:1 25:1 26:1 27:1 30:1 34:1 
1.492010295632053 1:1 3:1 4:1 7:1 9:1 11:1 12:1 14:1 15:1 19:1 22:1 26:1 27:1 28:1 29:1 34:1 36:1 
1.316108541375394 1:1 2:1 3:1 4:1 7:1 9:1 10:1 11:1 13:1 14:1 15:1 16:1 22:1 24:1 25:1 26:1 27:1 28:1 29:1 31:1 35:1 
1.208662845298796 1:1 2:1 6:1 7:1 8:1 9:1 12:1 13:1 14:1 15:1 16:1 19:1 22:1 26:1 27:1 28:1 29:1 
1.198719351788297 1:1 2:1 3:1 4:1 5:1 7:1 8:1 9:1 10:1 11:1 12:1 13:1 14:1 15:1 16:1 17:1 19:1 21:1 22:1 25:1 26:1 27:1 28:1 30:1 34:1 
1.498136180801723 1:1 2:1 3:1 4:1 7:1 8:1 9:1 12:1 13:1 14:1 16:1 19:1 20:1 22:1 23:1 24:1 26:1 27:1 29:1 34:1 
1.517573929587976 1:1 2:1 7:1 8:1 10:1 11:1 13:1 15:1 16:1 17:1 19:1 21:1 22:1 25:1 26:1 28:1 29:1 31:1 32:1 33:1 34:1 35:1 
1.411568951147287 1:1 2:1 3:1 7:1 8:1 9:1 10:1 13:1 14:1 15:1 16:1 21:1 22:1 23:1 26:1 27:1 29:1 30:1 31:1 34:1 35:1 
1.55087339947511 2:1 3:1 4:1 6:1 7:1 8:1 9:1 11:1 13:1 14:1 18:1 19:1 21:1 22:1 23:1 24:1 25:1 26:1 27:1 28:1 29:1 30:1 31:1 34:1 35:1 36:1 
1.484306651019995 1:1 2:1 3:1 4:1 6:1 7:1 8:1 9:1 10:1 11:1 15:1 19:1 22:1 25:1 26:1 27:1 28:1 29:1 33:1 35:1 
1.287827732939448 2:1 3:1 4:1 7:1 8:1 9:1 11:1 12:1 13:1 14:1 15:1 16:1 19:1 20:1 24:1 26:1 27:1 29:1 30:1 31:1 35:1 
1.551606018292353 3:1 5:1 6:1 7:1 8:1 9:1 11:1 12:1 13:1 15:1 16:1 17:1 19:1 22:1 28:1 29:1 32:1 34:1 35:1 
1.425696132963586 1:1 2:1 4:1 8:1 9:1 11:1 14:1 15:1 16:1 19:1 22:1 26:1 28:1 29:1 31:1 32:1 34:1 
1.557646047274827 2:1 4:1 5:1 8:1 11:1 13:1 14:1 15:1 16:1 19:1 20:1 21:1 22:1 27:1 28:1 30:1 34:1 
1.514809561371422 1:1 2:1 4:1 5:1 7:1 9:1 10:1 12:1 13:1 14:1 16:1 21:1 22:1 26:1 27:1 28:1 29:1 30:1 34:1 
1.544959453395215 1:1 2:1 3:1 4:1 7:1 8:1 12:1 13:1 14:1 16:1 17:1 21:1 23:1 25:1 26:1 30:1 34:1 35:1 36:1 
1.445691272002866 1:1 3:1 4:1 8:1 11:1 12:1 13:1 14:1 15:1 19:1 20:1 22:1 27:1 28:1 30:1 31:1 32:1 34:1 
1.098901962528386 2:1 3:1 7:1 9:1 10:1 11:1 12:1 13:1 14:1 15:1 16:1 19:1 22:1 25:1 26:1 27:1 28:1 30:1 34:1 
1.524290675008262 1:1 2:1 4:1 12:1 13:1 14:1 15:1 19:1 22:1 24:1 25:1 26:1 28:1 29:1 30:1 34:1 
1.5549326407259 3:1 4:1 7:1 8:1 10:1 11:1 12:1 13:1 14:1 15:1 16:1 17:1 19:1 21:1 22:1 23:1 26:1 27:1 29:1 30:1 31:1 32:1 33:1 36:1 
1.273242502564489 2:1 3:1 4:1 7:1 8:1 9:1 10:1 11:1 12:1 13:1 14:1 15:1 16:1 26:1 28:1 29:1 31:1 34:1 
1.530406470984751 2:1 3:1 4:1 7:1 9:1 12:1 13:1 14:1 15:1 16:1 17:1 19:1 20:1 21:1 22:1 24:1 25:1 26:1 27:1 30:1 31:1 33:1 34:1 35:1 
1.441522878820625 1:1 2:1 3:1 5:1 6:1 8:1 9:1 13:1 14:1 15:1 16:1 19:1 22:1 26:1 27:1 28:1 29:1 34:1 
1.511502547028531 1:1 2:1 3:1 4:1 6:1 7:1 8:1 10:1 11:1 12:1 14:1 15:1 16:1 17:1 19:1 21:1 25:1 26:1 27:1 28:1 34:1 35:1 
1.473411963380031 1:1 2:1 3:1 4:1 5:1 6:1 8:1 11:1 12:1 13:1 14:1 15:1 19:1 22:1 26:1 27:1 29:1 30:1 34:1 35:1 
1.528121112414116 2:1 7:1 8:1 9:1 13:1 14:1 15:1 19:1 22:1 23:1 24:1 25:1 27:1 28:1 29:1 30:1 31:1 33:1 34:1 
1.549596317242842 1:1 6:1 7:1 9:1 13:1 14:1 15:1 16:1 19:1 20:1 22:1 24:1 25:1 28:1 29:1 30:1 34:1 
1.497066146367109 2:1 3:1 4:1 7:1 8:1 9:1 11:1 12:1 15:1 24:1 25:1 26:1 27:1 28:1 30:1 34:1 
1.421451966842745 1:1 2:1 4:1 5:1 7:1 8:1 9:1 11:1 12:1 13:1 14:1 15:1 16:1 19:1 22:1 24:1 26:1 27:1 28:1 29:1 30:1 34:1 
1.549079865093083 1:1 3:1 4:1 5:1 7:1 8:1 11:1 12:1 13:1 14:1 15:1 19:1 22:1 24:1 25:1 27:1 30:1 31:1 32:1 33:1 
1.413720783151701 1:1 2:1 3:1 7:1 8:1 10:1 11:1 12:1 13:1 15:1 19:1 20:1 21:1 22:1 23:1 25:1 26:1 27:1 28:1 29:1 30:1 31:1 34:1 
1.556014136857756 2:1 4:1 6:1 7:1 8:1 9:1 10:1 11:1 13:1 15:1 19:1 21:1 22:1 24:1 27:1 28:1 29:1 30:1 31:1 32:1 34:1 
1.250342843515571 1:1 2:1 3:1 4:1 7:1 8:1 9:1 12:1 13:1 15:1 16:1 19:1 22:1 26:1 28:1 29:1 30:1 31:1 33:1 34:1 
1.635589664150306 1:1 2:1 4:1 6:1 7:1 9:1 11:1 12:1 13:1 14:1 15:1 19:1 22:1 23:1 25:1 26:1 27:1 29:1 31:1 35:1 
1.468993386003384 7:1 8:1 9:1 10:1 11:1 12:1 13:1 14:1 15:1 19:1 20:1 22:1 25:1 26:1 27:1 28:1 31:1 34:1 
1.50113635514123 1:1 4:1 7:1 9:1 11:1 12:1 13:1 14:1 15:1 16:1 19:1 22:1 23:1 24:1 26:1 27:1 28:1 29:1 34:1 
1.385986620659618 1:1 2:1 3:1 4:1 8:1 9:1 11:1 13:1 16:1 19:1 22:1 26:1 30:1 31:1 34:1 
1.44009597950279 1:1 2:1 3:1 4:1 7:1 8:1 9:1 10:1 12:1 13:1 15:1 19:1 22:1 24:1 25:1 27:1 29:1 30:1 31:1 36:1 
1.022497073165887 1:1 2:1 3:1 7:1 8:1 9:1 10:1 12:1 13:1 14:1 15:1 16:1 17:1 19:1 21:1 22:1 25:1 26:1 27:1 28:1 29:1 30:1 31:1 34:1 
1.454386780322714 1:1 2:1 3:1 8:1 9:1 10:1 12:1 14:1 15:1 16:1 19:1 25:1 26:1 27:1 30:1 31:1 32:1 34:1 35:1 
1.5562748549736 1:1 2:1 3:1 4:1 7:1 8:1 9:1 11:1 13:1 15:1 19:1 20:1 21:1 26:1 27:1 29:1 30:1 33:1 35:1 
1.369783697415764 1:1 2:1 3:1 4:1 7:1 8:1 9:1 10:1 11:1 12:1 14:1 15:1 16:1 19:1 22:1 26:1 27:1 29:1 30:1 31:1 32:1 33:1 
1.317556381563351 1:1 2:1 4:1 7:1 8:1 9:1 10:1 13:1 14:1 15:1 19:1 22:1 23:1 26:1 27:1 28:1 30:1 31:1 
1.412592791075772 1:1 2:1 4:1 7:1 9:1 10:1 11:1 12:1 13:1 16:1 22:1 25:1 26:1 27:1 31:1 34:1 35:1 
1.314121837567136 1:1 2:1 3:1 4:1 7:1 8:1 13:1 14:1 15:1 19:1 22:1 24:1 25:1 26:1 27:1 28:1 29:1 30:1 31:1 34:1 36:1 
1.531304115170445 1:1 2:1 3:1 10:1 11:1 12:1 14:1 15:1 19:1 24:1 25:1 26:1 28:1 29:1 31:1 34:1 35:1 
1.49568178486178 1:1 2:1 3:1 4:1 7:1 8:1 13:1 14:1 15:1 16:1 19:1 22:1 23:1 24:1 25:1 26:1 27:1 29:1 30:1 35:1 
1.497297864659177 1:1 2:1 7:1 8:1 9:1 11:1 12:1 14:1 15:1 16:1 19:1 21:1 22:1 27:1 28:1 29:1 30:1 32:1 33:1 34:1 35:1 
1.549318531531821 1:1 3:1 4:1 5:1 7:1 8:1 9:1 10:1 11:1 12:1 14:1 15:1 19:1 25:1 26:1 28:1 29:1 
1.069574407739875 1:1 2:1 3:1 4:1 7:1 8:1 9:1 11:1 12:1 13:1 14:1 15:1 16:1 19:1 22:1 24:1 29:1 
1.182392640756138 1:1 2:1 3:1 4:1 7:1 8:1 12:1 13:1 14:1 15:1 22:1 25:1 26:1 27:1 29:1 30:1 34:1 
1.786501647856508 1:1 2:1 3:1 4:1 7:1 8:1 9:1 10:1 11:1 12:1 13:1 14:1 15:1 16:1 22:1 24:1 25:1 26:1 27:1 28:1 29:1 30:1 31:1 34:1 36:1 
1.466427298358867 1:1 2:1 3:1 4:1 7:1 8:1 9:1 10:1 11:1 12:1 13:1 14:1 15:1 17:1 18:1 19:1 21:1 22:1 23:1 29:1 31:1 32:1 34:1 35:1 
1.484150291072371 1:1 2:1 4:1 7:1 9:1 10:1 11:1 12:1 13:1 14:1 16:1 17:1 19:1 20:1 21:1 22:1 25:1 26:1 27:1 29:1 30:1 31:1 
1.684830550291107 1:1 3:1 4:1 7:1 8:1 9:1 11:1 12:1 13:1 14:1 16:1 17:1 22:1 23:1 24:1 25:1 26:1 27:1 28:1 29:1 30:1 36:1 
1.525359203535745 1:1 2:1 3:1 7:1 9:1 10:1 11:1 12:1 13:1 14:1 15:1 19:1 20:1 22:1 23:1 25:1 26:1 27:1 28:1 30:1 31:1 
1.378707642806668 2:1 7:1 9:1 10:1 11:1 12:1 13:1 14:1 15:1 19:1 25:1 26:1 27:1 28:1 31:1 34:1 35:1 
1.547256049539553 2:1 7:1 8:1 10:1 13:1 14:1 15:1 16:1 17:1 19:1 21:1 22:1 24:1 25:1 26:1 29:1 30:1 31:1 32:1 33:1 36:1 
1.541081999940003 1:1 3:1 4:1 6:1 7:1 8:1 10:1 11:1 13:1 15:1 18:1 19:1 21:1 22:1 24:1 25:1 26:1 27:1 28:1 30:1 31:1 34:1 35:1 
1.538555211371477 2:1 3:1 8:1 14:1 16:1 19:1 20:1 22:1 24:1 25:1 26:1 27:1 28:1 32:1 33:1 34:1 
1.58627962179621 1:1 2:1 4:1 5:1 6:1 7:1 9:1 10:1 11:1 12:1 13:1 14:1 15:1 16:1 17:1 19:1 20:1 21:1 23:1 24:1 25:1 26:1 29:1 30:1 31:1 34:1 
1.277243390280857 1:1 2:1 3:1 4:1 7:1 8:1 9:1 10:1 13:1 14:1 19:1 22:1 23:1 25:1 26:1 27:1 28:1 31:1 32:1 34:1 
1.521512258278717 1:1 2:1 3:1 4:1 8:1 12:1 14:1 15:1 19:1 20:1 25:1 26:1 29:1 34:1 35:1 
1.337065399771632 2:1 3:1 4:1 7:1 8:1 9:1 10:1 11:1 12:1 13:1 14:1 15:1 22:1 29:1 34:1 35:1 
1.514006454845108 1:1 2:1 3:1 4:1 8:1 10:1 11:1 13:1 15:1 16:1 19:1 20:1 22:1 27:1 
1.331344488260647 1:1 2:1 3:1 7:1 9:1 12:1 13:1 14:1 16:1 19:1 22:1 25:1 26:1 27:1 31:1 35:1 
1.38007034106116 1:1 2:1 3:1 6:1 7:1 9:1 10:1 11:1 12:1 13:1 14:1 19:1 22:1 25:1 27:1 29:1 32:1 34:1 35:1 
1.417130893146281 1:1 2:1 3:1 9:1 10:1 11:1 12:1 13:1 14:1 15:1 16:1 19:1 20:1 21:1 22:1 25:1 26:1 27:1 28:1 29:1 34:1 35:1 
1.604711599135766 1:1 2:1 3:1 4:1 5:1 6:1 7:1 8:1 10:1 11:1 12:1 13:1 14:1 15:1 17:1 19:1 20:1 21:1 25:1 26:1 27:1 29:1 34:1 
1.520534525293439 2:1 3:1 4:1 5:1 6:1 7:1 8:1 9:1 11:1 12:1 13:1 14:1 15:1 19:1 21:1 22:1 25:1 26:1 27:1 28:1 29:1 31:1 32:1 34:1 35:1 
1.271988927135441 1:1 2:1 3:1 4:1 6:1 7:1 8:1 11:1 13:1 14:1 15:1 19:1 22:1 23:1 25:1 26:1 27:1 28:1 29:1 31:1 34:1 35:1 
1.410780816118691 1:1 2:1 3:1 4:1 8:1 9:1 12:1 13:1 14:1 19:1 21:1 22:1 25:1 26:1 30:1 31:1 34:1 
1.628534685248225 1:1 3:1 4:1 5:1 6:1 7:1 8:1 9:1 10:1 11:1 14:1 15:1 16:1 19:1 22:1 23:1 24:1 25:1 26:1 27:1 28:1 29:1 30:1 34:1 
1.341603504963278 2:1 3:1 4:1 8:1 9:1 11:1 12:1 13:1 14:1 15:1 22:1 24:1 25:1 26:1 27:1 29:1 31:1 34:1 
1.469577081845537 2:1 3:1 7:1 8:1 9:1 10:1 11:1 13:1 15:1 16:1 22:1 24:1 26:1 27:1 30:1 31:1 34:1 35:1 
1.462446741127255 1:1 2:1 3:1 4:1 7:1 8:1 10:1 11:1 14:1 15:1 22:1 23:1 24:1 25:1 26:1 27:1 28:1 29:1 31:1 34:1 35:1 
1.502419607145675 1:1 2:1 3:1 7:1 8:1 9:1 11:1 12:1 13:1 14:1 16:1 20:1 21:1 22:1 24:1 27:1 28:1 31:1 32:1 34:1 35:1 
1.516464973225218 1:1 4:1 6:1 7:1 8:1 9:1 13:1 14:1 16:1 19:1 21:1 22:1 25:1 26:1 29:1 31:1 
1.56569547247226 1:1 2:1 3:1 7:1 9:1 12:1 15:1 19:1 22:1 25:1 26:1 27:1 29:1 31:1 32:1 
1.435268988589749 1:1 2:1 3:1 6:1 7:1 8:1 9:1 10:1 11:1 13:1 14:1 15:1 22:1 27:1 28:1 29:1 31:1 32:1 34:1 35:1 
1.591867693885076 1:1 2:1 3:1 4:1 5:1 7:1 8:1 9:1 11:1 13:1 14:1 15:1 16:1 17:1 18:1 22:1 25:1 26:1 27:1 28:1 29:1 30:1 35:1 
1.564217723405613 2:1 3:1 4:1 6:1 10:1 11:1 12:1 13:1 15:1 19:1 22:1 23:1 25:1 26:1 27:1 29:1 
1.46617193869787 1:1 2:1 3:1 6:1 7:1 8:1 9:1 10:1 11:1 12:1 14:1 15:1 17:1 19:1 22:1 23:1 26:1 27:1 28:1 30:1 34:1 
1.398738829168809 1:1 2:1 3:1 7:1 8:1 9:1 10:1 11:1 12:1 13:1 15:1 17:1 19:1 22:1 23:1 26:1 27:1 29:1 30:1 
1.407917370943511 1:1 2:1 3:1 4:1 5:1 7:1 8:1 9:1 12:1 13:1 14:1 22:1 23:1 26:1 27:1 31:1 35:1 
1.54663814280043 1:1 3:1 4:1 7:1 9:1 11:1 12:1 14:1 15:1 16:1 19:1 21:1 22:1 23:1 28:1 29:1 30:1 34:1 35:1 
1.515466695354894 2:1 3:1 4:1 6:1 7:1 8:1 10:1 11:1 12:1 13:1 14:1 16:1 19:1 22:1 23:1 29:1 30:1 34:1 
1.520209235932795 1:1 3:1 4:1 5:1 7:1 8:1 9:1 10:1 11:1 12:1 14:1 15:1 22:1 25:1 27:1 28:1 29:1 30:1 31:1 32:1 33:1 34:1 36:1 
1.551776816829379 1:1 2:1 7:1 8:1 9:1 10:1 11:1 12:1 13:1 14:1 16:1 17:1 21:1 24:1 25:1 26:1 27:1 28:1 30:1 31:1 34:1 35:1 
1.452339245799338 1:1 2:1 3:1 7:1 8:1 10:1 12:1 13:1 14:1 15:1 18:1 22:1 25:1 27:1 28:1 29:1 30:1 31:1 34:1 35:1 
1.443901531358968 1:1 2:1 3:1 7:1 9:1 10:1 11:1 12:1 13:1 14:1 15:1 16:1 17:1 19:1 22:1 25:1 27:1 29:1 30:1 31:1 36:1 
1.526974697868613 1:1 2:1 4:1 6:1 8:1 9:1 11:1 12:1 14:1 15:1 16:1 17:1 18:1 19:1 21:1 23:1 25:1 26:1 27:1 29:1 31:1 34:1 
1.531019469489002 1:1 3:1 4:1 5:1 6:1 7:1 8:1 10:1 11:1 12:1 13:1 14:1 15:1 19:1 22:1 24:1 26:1 27:1 29:1 32:1 35:1 
1.55147979416983 2:1 3:1 4:1 7:1 9:1 11:1 12:1 13:1 14:1 19:1 22:1 24:1 25:1 27:1 28:1 30:1 31:1 33:1 34:1 36:1 
1.546162021481365 2:1 4:1 7:1 8:1 9:1 10:1 11:1 12:1 13:1 15:1 16:1 21:1 23:1 25:1 26:1 28:1 30:1 31:1 32:1 36:1 
1.455778471079809 2:1 3:1 4:1 7:1 8:1 9:1 11:1 12:1 13:1 14:1 15:1 16:1 17:1 19:1 25:1 27:1 28:1 30:1 33:1 34:1 
1.485975829879201 1:1 2:1 3:1 4:1 7:1 9:1 10:1 13:1 14:1 15:1 19:1 21:1 22:1 24:1 26:1 27:1 28:1 29:1 31:1 35:1 
1.400660629072312 2:1 3:1 4:1 8:1 9:1 11:1 12:1 13:1 15:1 16:1 22:1 25:1 26:1 27:1 28:1 30:1 31:1 32:1 34:1 36:1 
1.50731244882559 1:1 2:1 3:1 4:1 5:1 6:1 7:1 8:1 10:1 11:1 12:1 13:1 14:1 15:1 16:1 22:1 25:1 26:1 27:1 29:1 30:1 34:1 35:1 36:1 
1.533336817575142 1:1 2:1 4:1 6:1 8:1 10:1 11:1 13:1 22:1 26:1 27:1 29:1 31:1 34:1 35:1 
1.483478494052066 1:1 7:1 8:1 9:1 11:1 12:1 13:1 14:1 15:1 16:1 22:1 24:1 27:1 28:1 30:1 34:1 
1.547927835372907 1:1 2:1 6:1 7:1 9:1 10:1 11:1 12:1 13:1 15:1 19:1 22:1 23:1 26:1 27:1 28:1 29:1 32:1 35:1 
1.548014422377511 1:1 2:1 3:1 4:1 5:1 8:1 12:1 13:1 14:1 15:1 21:1 22:1 23:1 26:1 27:1 28:1 34:1 
1.54485897615905 3:1 4:1 6:1 7:1 9:1 12:1 13:1 14:1 19:1 20:1 23:1 25:1 26:1 27:1 29:1 33:1 34:1 
1.35722718286262 1:1 2:1 3:1 4:1 7:1 8:1 9:1 10:1 11:1 12:1 13:1 15:1 16:1 22:1 27:1 29:1 31:1 32:1 
1.513087102722909 1:1 2:1 3:1 4:1 6:1 7:1 8:1 10:1 11:1 12:1 13:1 14:1 15:1 19:1 22:1 24:1 26:1 29:1 30:1 31:1 35:1 
1.266345812112868 1:1 2:1 3:1 4:1 7:1 8:1 9:1 12:1 13:1 14:1 15:1 18:1 22:1 25:1 26:1 28:1 34:1 
1.477815839845346 1:1 2:1 3:1 4:1 5:1 7:1 8:1 9:1 11:1 12:1 13:1 15:1 16:1 19:1 23:1 26:1 28:1 29:1 31:1 32:1 34:1 35:1 
1.317401530503141 1:1 2:1 4:1 7:1 8:1 9:1 10:1 11:1 12:1 14:1 15:1 16:1 19:1 22:1 25:1 27:1 29:1 30:1 35:1 
1.553040168294115 1:1 2:1 3:1 7:1 8:1 9:1 10:1 11:1 12:1 13:1 14:1 22:1 24:1 28:1 29:1 30:1 31:1 34:1 
1.405378361553132 1:1 3:1 4:1 8:1 9:1 11:1 12:1 14:1 15:1 19:1 25:1 26:1 27:1 29:1 34:1 35:1 
1.25708938818806 1:1 2:1 3:1 4:1 9:1 11:1 12:1 13:1 14:1 15:1 19:1 25:1 26:1 27:1 29:1 31:1 34:1 
1.524744995944771 1:1 2:1 3:1 4:1 7:1 8:1 13:1 19:1 20:1 22:1 25:1 27:1 29:1 30:1 31:1 32:1 33:1 34:1 
1.472271838834989 1:1 2:1 3:1 4:1 5:1 6:1 7:1 8:1 9:1 10:1 11:1 12:1 13:1 14:1 15:1 16:1 17:1 19:1 20:1 21:1 22:1 24:1 25:1 26:1 27:1 34:1 35:1 
1.291517084595759 1:1 2:1 3:1 4:1 5:1 7:1 8:1 9:1 11:1 12:1 13:1 14:1 15:1 22:1 24:1 25:1 26:1 27:1 30:1 31:1 34:1 36:1 
1.544140302156835 1:1 2:1 4:1 5:1 6:1 7:1 9:1 10:1 11:1 12:1 13:1 16:1 23:1 25:1 26:1 27:1 29:1 31:1 32:1 35:1 
1.446509360422501 1:1 4:1 7:1 8:1 9:1 11:1 12:1 13:1 15:1 19:1 25:1 26:1 27:1 30:1 31:1 
1.540924696717412 1:1 2:1 3:1 6:1 7:1 8:1 9:1 10:1 11:1 13:1 15:1 17:1 19:1 20:1 22:1 24:1 25:1 26:1 27:1 28:1 29:1 34:1 
1.404899952870333 1:1 6:1 7:1 8:1 12:1 13:1 14:1 15:1 16:1 17:1 19:1 22:1 26:1 27:1 28:1 29:1 31:1 34:1 35:1 
0.8696230713577365 1:1 2:1 7:1 8:1 9:1 10:1 11:1 12:1 13:1 14:1 15:1 22:1 24:1 25:1 26:1 27:1 28:1 29:1 31:1 34:1 
1.273294142569995 1:1 2:1 7:1 8:1 9:1 11:1 12:1 13:1 15:1 19:1 22:1 26:1 27:1 28:1 29:1 31:1 34:1 35:1 
1.700767149861143 1:1 4:1 7:1 8:1 9:1 11:1 12:1 13:1 14:1 15:1 16:1 19:1 20:1 21:1 22:1 23:1 24:1 25:1 26:1 30:1 
1.527389533396156 1:1 2:1 3:1 4:1 7:1 8:1 11:1 13:1 14:1 16:1 18:1 19:1 21:1 30:1 31:1 36:1 
1.435201465418978 2:1 3:1 4:1 6:1 7:1 8:1 9:1 13:1 15:1 18:1 19:1 22:1 25:1 26:1 27:1 28:1 30:1 31:1 32:1 34:1 
1.560759783424013 1:1 2:1 3:1 6:1 7:1 8:1 9:1 10:1 11:1 12:1 13:1 14:1 16:1 19:1 22:1 23:1 24:1 25:1 26:1 27:1 28:1 29:1 30:1 31:1 34:1 35:1 36:1 
1.648597657670976 1:1 2:1 3:1 4:1 5:1 6:1 7:1 8:1 9:1 11:1 12:1 13:1 14:1 19:1 22:1 23:1 25:1 26:1 27:1 28:1 31:1 
1.598092526724507 1:1 2:1 3:1 4:1 5:1 7:1 8:1 9:1 10:1 11:1 12:1 14:1 15:1 19:1 21:1 22:1 24:1 25:1 26:1 27:1 28:1 30:1 32:1 34:1 
1.51749644153862 2:1 3:1 6:1 7:1 8:1 9:1 10:1 11:1 12:1 13:1 15:1 16:1 19:1 25:1 26:1 29:1 32:1 34:1 35:1 36:1 
1.319748485704715 1:1 2:1 3:1 4:1 8:1 9:1 13:1 14:1 15:1 16:1 19:1 26:1 27:1 29:1 31:1 
1.501000575426564 1:1 2:1 3:1 4:1 7:1 8:1 9:1 11:1 13:1 14:1 16:1 17:1 18:1 21:1 22:1 26:1 27:1 29:1 30:1 31:1 
1.440462695901382 2:1 3:1 4:1 7:1 9:1 11:1 12:1 13:1 14:1 15:1 19:1 23:1 25:1 26:1 27:1 29:1 34:1 35:1 
1.460358360876265 1:1 2:1 3:1 4:1 6:1 7:1 8:1 9:1 12:1 13:1 14:1 16:1 19:1 21:1 22:1 26:1 27:1 28:1 30:1 34:1 
1.540215189742282 1:1 2:1 3:1 4:1 6:1 7:1 8:1 10:1 11:1 12:1 15:1 18:1 22:1 23:1 26:1 27:1 29:1 31:1 
1.549291429785169 1:1 3:1 4:1 7:1 8:1 10:1 11:1 12:1 13:1 14:1 15:1 17:1 19:1 21:1 22:1 26:1 29:1 30:1 34:1 36:1 
1.38608754558215 1:1 2:1 3:1 4:1 7:1 9:1 11:1 12:1 13:1 14:1 15:1 16:1 19:1 20:1 21:1 22:1 27:1 29:1 30:1 31:1 35:1 
1.531604062202622 1:1 4:1 5:1 7:1 8:1 9:1 12:1 13:1 15:1 16:1 19:1 21:1 22:1 23:1 26:1 27:1 28:1 29:1 30:1 31:1 34:1 35:1 
1.522403950567796 2:1 3:1 7:1 13:1 14:1 15:1 16:1 19:1 22:1 24:1 25:1 26:1 27:1 28:1 29:1 
0.5229154796047574 1:1 3:1 4:1 7:1 8:1 9:1 10:1 11:1 12:1 13:1 14:1 15:1 19:1 22:1 25:1 26:1 28:1 29:1 30:1 34:1 
1.242163809837502 1:1 2:1 4:1 7:1 8:1 9:1 10:1 13:1 14:1 15:1 16:1 19:1 26:1 27:1 28:1 34:1 
1.417258798868936 1:1 2:1 3:1 4:1 7:1 8:1 9:1 12:1 14:1 15:1 16:1 17:1 19:1 20:1 21:1 22:1 25:1 26:1 28:1 31:1 32:1 34:1 35:1 
1.35705043470934 1:1 2:1 3:1 7:1 8:1 9:1 13:1 14:1 15:1 16:1 19:1 22:1 23:1 29:1 31:1 34:1 
1.428770746862464 1:1 2:1 3:1 4:1 8:1 9:1 11:1 12:1 13:1 14:1 15:1 19:1 21:1 22:1 25:1 26:1 28:1 29:1 31:1 32:1 33:1 34:1 35:1 
1.535184875801253 1:1 2:1 3:1 4:1 7:1 9:1 11:1 12:1 13:1 14:1 21:1 22:1 24:1 25:1 26:1 27:1 28:1 32:1 34:1 
1.492715994079039 1:1 3:1 5:1 7:1 8:1 9:1 11:1 12:1 13:1 14:1 15:1 16:1 19:1 24:1 25:1 26:1 29:1 30:1 31:1 32:1 
1.412855886894807 1:1 3:1 4:1 5:1 7:1 9:1 10:1 12:1 13:1 14:1 15:1 16:1 19:1 22:1 24:1 25:1 26:1 27:1 28:1 34:1 
1.550858550891114 1:1 2:1 3:1 4:1 6:1 7:1 8:1 9:1 10:1 11:1 15:1 18:1 19:1 20:1 26:1 27:1 30:1 34:1 
1.376050056704913 1:1 3:1 4:1 7:1 8:1 9:1 10:1 13:1 14:1 15:1 16:1 17:1 19:1 22:1 23:1 26:1 27:1 28:1 31:1 32:1 34:1 
1.55187517277186 1:1 2:1 3:1 4:1 5:1 7:1 8:1 9:1 12:1 13:1 15:1 16:1 25:1 26:1 27:1 34:1 36:1 
1.383173290339249 1:1 2:1 4:1 7:1 8:1 9:1 11:1 13:1 14:1 15:1 25:1 26:1 27:1 29:1 34:1 35:1 
1.266691648124001 1:1 2:1 3:1 4:1 8:1 9:1 11:1 12:1 13:1 15:1 16:1 17:1 19:1 22:1 26:1 27:1 34:1 
1.572155112860844 1:1 2:1 3:1 4:1 8:1 9:1 12:1 13:1 14:1 15:1 17:1 18:1 22:1 23:1 24:1 26:1 27:1 28:1 29:1 34:1 35:1 
1.504378927852238 1:1 3:1 5:1 6:1 7:1 8:1 9:1 10:1 12:1 13:1 14:1 16:1 19:1 22:1 24:1 25:1 27:1 28:1 30:1 31:1 32:1 34:1 
1.133999520226129 1:1 2:1 3:1 4:1 7:1 8:1 9:1 11:1 12:1 13:1 14:1 15:1 19:1 24:1 26:1 29:1 31:1 34:1 
1.460875200120678 1:1 2:1 7:1 8:1 9:1 11:1 12:1 13:1 15:1 19:1 22:1 27:1 28:1 30:1 
1.548918494547928 2:1 3:1 4:1 10:1 11:1 12:1 14:1 15:1 16:1 18:1 19:1 20:1 21:1 22:1 24:1 26:1 27:1 28:1 30:1 32:1 
1.554249598201295 2:1 4:1 5:1 6:1 7:1 10:1 11:1 12:1 13:1 14:1 15:1 16:1 22:1 23:1 25:1 26:1 27:1 28:1 29:1 34:1 
1.435087008137349 2:1 3:1 7:1 8:1 9:1 10:1 11:1 12:1 13:1 15:1 16:1 17:1 19:1 20:1 22:1 24:1 25:1 26:1 27:1 28:1 29:1 30:1 31:1 
1.54726734220642 2:1 3:1 7:1 8:1 9:1 11:1 12:1 16:1 22:1 24:1 26:1 27:1 28:1 29:1 33:1 35:1 
1.52259331505314 2:1 3:1 7:1 8:1 9:1 11:1 12:1 13:1 14:1 15:1 16:1 17:1 22:1 23:1 24:1 25:1 26:1 27:1 28:1 29:1 30:1 31:1 32:1 33:1 34:1 
1.578260005029 2:1 3:1 6:1 7:1 10:1 11:1 12:1 13:1 14:1 22:1 26:1 27:1 28:1 29:1 
1.324469047641004 1:1 2:1 3:1 4:1 5:1 7:1 8:1 10:1 11:1 12:1 13:1 14:1 15:1 19:1 22:1 23:1 25:1 26:1 27:1 29:1 30:1 34:1 
1.530693758866433 1:1 2:1 3:1 4:1 6:1 7:1 8:1 11:1 12:1 13:1 15:1 16:1 19:1 22:1 24:1 27:1 29:1 30:1 31:1 32:1 35:1 36:1 
1.515582263254031 1:1 2:1 3:1 4:1 7:1 8:1 9:1 12:1 13:1 14:1 15:1 16:1 17:1 18:1 22:1 23:1 24:1 25:1 27:1 28:1 29:1 30:1 31:1 33:1 34:1 36:1 
1.568903330647061 2:1 4:1 6:1 7:1 9:1 12:1 13:1 14:1 15:1 19:1 22:1 24:1 25:1 26:1 27:1 28:1 30:1 31:1 33:1 34:1 
1.149928753841247 1:1 2:1 3:1 4:1 7:1 8:1 9:1 10:1 11:1 12:1 14:1 15:1 18:1 19:1 22:1 25:1 26:1 27:1 28:1 30:1 31:1 34:1 
1.436302379967252 1:1 2:1 4:1 5:1 7:1 8:1 9:1 10:1 11:1 12:1 13:1 15:1 16:1 19:1 22:1 27:1 34:1 
1.533867528636112 1:1 2:1 4:1 7:1 8:1 9:1 10:1 11:1 13:1 14:1 17:1 21:1 22:1 23:1 25:1 26:1 27:1 28:1 29:1 31:1 35:1 
1.393810799977133 1:1 2:1 4:1 5:1 7:1 8:1 9:1 10:1 11:1 12:1 13:1 14:1 15:1 16:1 19:1 20:1 22:1 23:1 24:1 26:1 27:1 28:1 29:1 30:1 31:1 34:1 
1.524140668595941 3:1 4:1 7:1 8:1 11:1 12:1 15:1 19:1 22:1 29:1 30:1 31:1 34:1 
1.435947803282012 2:1 3:1 8:1 9:1 11:1 12:1 13:1 14:1 15:1 16:1 17:1 18:1 19:1 22:1 26:1 27:1 28:1 30:1 31:1 
1.49599608252202 3:1 4:1 6:1 7:1 8:1 9:1 11:1 13:1 14:1 15:1 16:1 19:1 24:1 26:1 27:1 28:1 29:1 30:1 34:1 35:1 
1.370364330670371 1:1 2:1 3:1 4:1 5:1 7:1 8:1 9:1 10:1 11:1 14:1 15:1 16:1 19:1 21:1 22:1 26:1 27:1 29:1 31:1 32:1 34:1 35:1 
1.550948336933952 1:1 2:1 3:1 6:1 7:1 8:1 11:1 12:1 13:1 14:1 15:1 16:1 22:1 23:1 25:1 29:1 33:1 35:1 
1.526980310658219 1:1 3:1 4:1 7:1 8:1 10:1 11:1 12:1 13:1 14:1 16:1 22:1 23:1 24:1 25:1 27:1 29:1 30:1 31:1 33:1 35:1 
1.561148977126793 2:1 3:1 4:1 11:1 12:1 14:1 15:1 22:1 24:1 26:1 27:1 30:1 32:1 33:1 34:1 36:1 
1.522617393956507 1:1 2:1 3:1 7:1 10:1 11:1 12:1 13:1 14:1 15:1 21:1 22:1 25:1 26:1 27:1 28:1 29:1 30:1 31:1 34:1 
1.592876763133901 1:1 2:1 4:1 7:1 8:1 9:1 10:1 11:1 12:1 13:1 15:1 20:1 21:1 23:1 24:1 26:1 27:1 28:1 29:1 30:1 31:1 34:1 
1.427413591339319 1:1 3:1 4:1 7:1 8:1 9:1 11:1 12:1 14:1 15:1 19:1 22:1 23:1 24:1 27:1 29:1 31:1 34:1 35:1 
1.551416427147176 1:1 2:1 4:1 6:1 8:1 9:1 10:1 11:1 12:1 13:1 15:1 17:1 19:1 27:1 31:1 32:1 33:1 
0.890029433313702 1:1 2:1 3:1 4:1 7:1 8:1 9:1 11:1 12:1 13:1 14:1 15:1 16:1 19:1 20:1 21:1 22:1 25:1 26:1 27:1 28:1 31:1 34:1 
1.470057894501724 1:1 3:1 4:1 5:1 7:1 8:1 9:1 11:1 12:1 13:1 14:1 15:1 16:1 22:1 27:1 31:1 34:1 36:1 
1.528040108186578 1:1 2:1 3:1 4:1 5:1 6:1 7:1 8:1 10:1 11:1 14:1 16:1 19:1 22:1 24:1 27:1 28:1 29:1 30:1 31:1 32:1 34:1 
1.504514530714115 1:1 2:1 3:1 5:1 7:1 9:1 10:1 11:1 12:1 13:1 14:1 15:1 16:1 17:1 19:1 24:1 26:1 28:1 30:1 34:1 
1.501918040024094 3:1 8:1 12:1 13:1 14:1 15:1 19:1 22:1 23:1 26:1 27:1 28:1 29:1 30:1 31:1 
1.506360381368756 1:1 2:1 3:1 4:1 6:1 7:1 8:1 9:1 12:1 13:1 14:1 15:1 18:1 19:1 20:1 26:1 27:1 28:1 29:1 30:1 31:1 34:1 
1.238172327210254 1:1 2:1 3:1 4:1 7:1 8:1 9:1 11:1 12:1 13:1 19:1 22:1 25:1 26:1 27:1 31:1 34:1 35:1 
1.552261330128062 2:1 3:1 4:1 8:1 10:1 11:1 12:1 13:1 14:1 16:1 17:1 23:1 24:1 25:1 26:1 28:1 29:1 30:1 33:1 34:1 
1.464191511438176 1:1 2:1 7:1 8:1 9:1 11:1 13:1 14:1 15:1 21:1 22:1 25:1 26:1 27:1 28:1 29:1 30:1 31:1 34:1 
1.42861834118265 1:1 2:1 3:1 5:1 8:1 10:1 11:1 12:1 13:1 14:1 19:1 21:1 22:1 25:1 26:1 27:1 28:1 30:1 31:1 34:1 
1.476150579373171 1:1 3:1 4:1 7:1 8:1 9:1 11:1 12:1 14:1 16:1 19:1 20:1 21:1 26:1 27:1 28:1 29:1 31:1 34:1 
1.53372898171003 1:1 2:1 3:1 4:1 6:1 7:1 9:1 11:1 12:1 13:1 14:1 15:1 16:1 17:1 19:1 20:1 21:1 22:1 27:1 31:1 32:1 33:1 34:1 
1.458498717440806 2:1 3:1 4:1 7:1 8:1 9:1 14:1 15:1 18:1 19:1 22:1 25:1 26:1 27:1 30:1 31:1 35:1 
1.482057055018825 1:1 2:1 3:1 4:1 5:1 6:1 7:1 8:1 9:1 11:1 12:1 13:1 14:1 16:1 19:1 22:1 26:1 27:1 28:1 29:1 30:1 33:1 34:1 
1.456622071999199 1:1 2:1 3:1 4:1 7:1 8:1 10:1 11:1 13:1 14:1 15:1 18:1 19:1 23:1 25:1 26:1 27:1 28:1 29:1 31:1 32:1 34:1 35:1 
1.129392184970026 1:1 2:1 4:1 7:1 8:1 9:1 11:1 13:1 14:1 15:1 19:1 26:1 27:1 28:1 34:1 35:1 
1.399093332291947 1:1 2:1 4:1 7:1 8:1 9:1 12:1 13:1 15:1 22:1 23:1 25:1 26:1 27:1 29:1 30:1 31:1 35:1 
1.024602620701925 1:1 2:1 3:1 4:1 7:1 8:1 9:1 10:1 11:1 13:1 14:1 15:1 19:1 22:1 25:1 26:1 27:1 28:1 29:1 30:1 31:1 32:1 34:1 
1.452773926313397 1:1 2:1 7:1 8:1 9:1 10:1 11:1 12:1 13:1 14:1 16:1 19:1 23:1 25:1 26:1 27:1 31:1 34:1 35:1 
1.471860409525033 1:1 2:1 3:1 4:1 6:1 7:1 8:1 9:1 10:1 12:1 13:1 14:1 15:1 24:1 26:1 27:1 28:1 31:1 34:1 
1.574493456937182 1:1 2:1 6:1 8:1 9:1 10:1 11:1 12:1 13:1 14:1 15:1 16:1 19:1 20:1 21:1 22:1 25:1 26:1 27:1 30:1 34:1 
1.401284645219915 1:1 2:1 3:1 4:1 7:1 8:1 9:1 10:1 11:1 13:1 15:1 17:1 19:1 22:1 23:1 26:1 27:1 28:1 29:1 34:1 
0.7658653858425403 1:1 3:1 4:1 7:1 8:1 9:1 10:1 11:1 12:1 13:1 14:1 15:1 16:1 19:1 22:1 23:1 25:1 26:1 27:1 29:1 30:1 34:1 
1.557769069071476 1:1 3:1 4:1 5:1 6:1 8:1 9:1 11:1 12:1 19:1 20:1 22:1 24:1 28:1 29:1 31:1 34:1 36:1 
1.397368715389091 1:1 2:1 4:1 7:1 8:1 12:1 13:1 14:1 16:1 17:1 19:1 22:1 24:1 26:1 27:1 29:1 30:1 31:1 34:1 
1.480109329215793 1:1 2:1 3:1 4:1 7:1 9:1 10:1 11:1 13:1 14:1 15:1 16:1 22:1 24:1 25:1 30:1 35:1 
1.535251052365626 3:1 7:1 9:1 10:1 13:1 14:1 15:1 16:1 17:1 24:1 25:1 26:1 30:1 34:1 
1.497440931405146 1:1 2:1 3:1 7:1 8:1 9:1 11:1 12:1 13:1 14:1 15:1 19:1 20:1 22:1 26:1 27:1 29:1 33:1 34:1 35:1 
1.383164566019513 1:1 2:1 3:1 6:1 7:1 8:1 9:1 10:1 11:1 12:1 13:1 14:1 15:1 19:1 22:1 25:1 26:1 27:1 28:1 29:1 30:1 31:1 34:1 35:1 36:1 
1.540755122845221 1:1 2:1 4:1 8:1 9:1 12:1 13:1 14:1 15:1 16:1 18:1 19:1 23:1 25:1 27:1 29:1 31:1 32:1 36:1 
1.523703448213337 1:1 2:1 3:1 4:1 7:1 8:1 13:1 14:1 15:1 16:1 19:1 20:1 21:1 22:1 23:1 25:1 27:1 28:1 29:1 31:1 33:1 34:1 36:1 
1.171182173392708 1:1 2:1 3:1 7:1 8:1 9:1 10:1 11:1 12:1 13:1 15:1 16:1 19:1 22:1 24:1 26:1 27:1 28:1 29:1 31:1 32:1 33:1 34:1 
1.365464012534607 1:1 2:1 3:1 4:1 7:1 8:1 10:1 11:1 12:1 14:1 16:1 19:1 20:1 22:1 26:1 27:1 28:1 29:1 30:1 31:1 34:1 36:1 
1.265801328472033 2:1 4:1 7:1 8:1 9:1 10:1 11:1 12:1 13:1 15:1 16:1 17:1 19:1 22:1 25:1 28:1 29:1 30:1 31:1 34:1 
1.450639419926941 1:1 3:1 4:1 7:1 8:1 9:1 10:1 11:1 12:1 13:1 14:1 15:1 17:1 22:1 23:1 27:1 29:1 31:1 34:1 35:1 
1.190722188021069 1:1 2:1 3:1 7:1 8:1 9:1 13:1 14:1 15:1 16:1 22:1 25:1 28:1 30:1 31:1 34:1 
1.136973943448495 1:1 4:1 7:1 8:1 9:1 11:1 12:1 13:1 14:1 15:1 16:1 17:1 19:1 22:1 25:1 26:1 27:1 28:1 29:1 30:1 34:1 35:1 
1.369436575611319 1:1 3:1 7:1 8:1 9:1 10:1 11:1 12:1 13:1 14:1 16:1 19:1 22:1 24:1 26:1 27:1 29:1 31:1 
1.444873874453386 1:1 2:1 3:1 6:1 7:1 8:1 9:1 10:1 11:1 12:1 13:1 14:1 15:1 18:1 19:1 22:1 24:1 25:1 27:1 28:1 30:1 31:1 32:1 34:1 
1.478509389086746 1:1 2:1 4:1 6:1 7:1 8:1 9:1 11:1 12:1 13:1 14:1 19:1 22:1 28:1 29:1 32:1 34:1 35:1 
1.530578009924137 1:1 2:1 3:1 4:1 6:1 7:1 8:1 9:1 10:1 14:1 15:1 16:1 22:1 23:1 25:1 26:1 27:1 28:1 30:1 34:1 36:1 
1.521326378827635 1:1 3:1 7:1 8:1 10:1 11:1 12:1 13:1 14:1 16:1 17:1 21:1 22:1 25:1 26:1 28:1 31:1 32:1 34:1 35:1 
1.43185739882993 3:1 4:1 6:1 7:1 9:1 10:1 11:1 12:1 13:1 14:1 15:1 19:1 22:1 25:1 26:1 27:1 29:1 30:1 31:1 34:1 36:1 
1.515538468311729 1:1 2:1 3:1 5:1 9:1 10:1 11:1 12:1 13:1 15:1 16:1 19:1 22:1 23:1 24:1 25:1 26:1 27:1 28:1 29:1 30:1 31:1 32:1 34:1 36:1 
1.547236176392766 1:1 3:1 7:1 8:1 9:1 11:1 12:1 13:1 14:1 15:1 19:1 21:1 22:1 23:1 24:1 25:1 26:1 28:1 29:1 32:1 33:1 34:1 
1.369305220405889 1:1 3:1 4:1 7:1 8:1 9:1 10:1 11:1 12:1 13:1 14:1 15:1 18:1 19:1 26:1 27:1 29:1 30:1 34:1 
1.482655631493095 1:1 2:1 4:1 7:1 8:1 9:1 10:1 11:1 12:1 13:1 14:1 15:1 16:1 19:1 23:1 24:1 27:1 28:1 29:1 35:1 
1.163477130969425 1:1 2:1 4:1 7:1 8:1 9:1 10:1 11:1 12:1 13:1 14:1 15:1 16:1 19:1 21:1 24:1 26:1 27:1 30:1 31:1 32:1 34:1 
1.550514792631319 2:1 3:1 4:1 7:1 8:1 9:1 10:1 12:1 13:1 14:1 15:1 16:1 17:1 19:1 20:1 21:1 22:1 24:1 26:1 27:1 28:1 30:1 31:1 36:1 
1.552894975879255 1:1 2:1 3:1 7:1 11:1 12:1 13:1 15:1 18:1 19:1 20:1 21:1 23:1 26:1 27:1 31:1 32:1 
1.192942408170751 2:1 3:1 4:1 6:1 7:1 8:1 10:1 11:1 12:1 13:1 14:1 15:1 19:1 22:1 25:1 26:1 27:1 28:1 29:1 34:1 35:1 
1.437931091605059 2:1 4:1 8:1 9:1 11:1 13:1 14:1 15:1 16:1 17:1 19:1 22:1 25:1 26:1 28:1 29:1 34:1 35:1 
1.516930675958519 2:1 3:1 7:1 9:1 10:1 12:1 13:1 14:1 15:1 16:1 17:1 19:1 26:1 29:1 31:1 32:1 34:1 35:1 36:1 
0.7414264726588183 1:1 2:1 3:1 7:1 8:1 9:1 12:1 13:1 14:1 15:1 16:1 22:1 25:1 26:1 27:1 28:1 29:1 30:1 31:1 34:1 35:1 
1.501916311154193 1:1 3:1 4:1 7:1 8:1 9:1 10:1 11:1 12:1 13:1 14:1 16:1 19:1 24:1 27:1 29:1 30:1 31:1 33:1 35:1 
1.544930152012016 2:1 3:1 7:1 8:1 9:1 11:1 12:1 13:1 14:1 15:1 19:1 20:1 21:1 26:1 27:1 28:1 29:1 31:1 33:1 34:1 
1.509532806573022 2:1 4:1 8:1 9:1 13:1 14:1 16:1 21:1 22:1 23:1 25:1 26:1 27:1 30:1 31:1 
1.532061179979782 1:1 2:1 3:1 4:1 5:1 7:1 8:1 9:1 11:1 12:1 13:1 14:1 15:1 16:1 19:1 23:1 25:1 27:1 29:1 30:1 31:1 32:1 
1.56050983989811 2:1 3:1 4:1 8:1 9:1 11:1 12:1 14:1 15:1 17:1 19:1 22:1 24:1 25:1 26:1 27:1 30:1 34:1 36:1 
1.399164521917782 1:1 2:1 4:1 5:1 6:1 7:1 8:1 10:1 11:1 12:1 13:1 14:1 15:1 16:1 19:1 22:1 25:1 26:1 28:1 29:1 34:1 35:1 
1.545934174180981 4:1 8:1 9:1 10:1 13:1 15:1 16:1 21:1 22:1 24:1 25:1 26:1 29:1 31:1 32:1 35:1 
1.547679559652491 1:1 3:1 4:1 8:1 10:1 11:1 12:1 13:1 15:1 16:1 19:1 21:1 22:1 27:1 28:1 29:1 32:1 34:1 
1.520846966947625 1:1 2:1 3:1 4:1 6:1 7:1 8:1 9:1 13:1 14:1 19:1 20:1 24:1 26:1 27:1 28:1 29:1 30:1 34:1 
1.324683317843187 1:1 2:1 3:1 4:1 5:1 7:1 8:1 9:1 10:1 11:1 12:1 13:1 14:1 15:1 19:1 22:1 25:1 26:1 27:1 28:1 29:1 32:1 34:1 35:1 
1.333582520580062 1:1 2:1 3:1 4:1 8:1 9:1 11:1 12:1 13:1 14:1 15:1 16:1 19:1 20:1 21:1 22:1 24:1 26:1 27:1 28:1 29:1 31:1 34:1 
1.434859879175326 1:1 2:1 3:1 8:1 10:1 11:1 12:1 13:1 15:1 16:1 19:1 22:1 25:1 27:1 28:1 29:1 30:1 31:1 32:1 33:1 34:1 35:1 
1.320277653180277 1:1 6:1 7:1 8:1 9:1 11:1 12:1 13:1 14:1 16:1 19:1 22:1 25:1 26:1 27:1 28:1 29:1 30:1 31:1 34:1 
0.9449451752499499 1:1 2:1 3:1 4:1 7:1 8:1 11:1 13:1 14:1 16:1 22:1 25:1 26:1 27:1 28:1 31:1 34:1 
1.491364220151188 1:1 2:1 3:1 4:1 8:1 9:1 10:1 11:1 13:1 14:1 15:1 17:1 19:1 20:1 25:1 26:1 27:1 29:1 32:1 34:1 
1.323907679341568 1:1 2:1 3:1 4:1 7:1 9:1 10:1 12:1 14:1 15:1 16:1 17:1 19:1 25:1 26:1 27:1 29:1 31:1 34:1 35:1 
1.473007175696253 1:1 2:1 3:1 4:1 7:1 9:1 10:1 11:1 12:1 13:1 14:1 18:1 22:1 26:1 27:1 28:1 30:1 31:1 32:1 
1.306345541042829 2:1 3:1 4:1 7:1 8:1 9:1 10:1 11:1 12:1 13:1 14:1 15:1 19:1 23:1 25:1 26:1 27:1 28:1 29:1 30:1 31:1 34:1 35:1 
0.8998956299140763 1:1 2:1 3:1 4:1 5:1 7:1 8:1 9:1 10:1 11:1 12:1 13:1 14:1 15:1 16:1 19:1 22:1 23:1 26:1 27:1 29:1 31:1 34:1 
1.266138893130671 1:1 2:1 3:1 4:1 6:1 7:1 8:1 9:1 11:1 12:1 13:1 14:1 19:1 22:1 25:1 26:1 27:1 29:1 30:1 31:1 35:1 
1.561548203629399 1:1 2:1 3:1 4:1 6:1 11:1 12:1 13:1 14:1 20:1 21:1 22:1 27:1 28:1 30:1 31:1 
1.540744215142088 1:1 2:1 3:1 4:1 5:1 7:1 10:1 12:1 13:1 14:1 15:1 22:1 25:1 29:1 31:1 33:1 34:1 35:1 
1.506149394274996 1:1 3:1 4:1 5:1 7:1 8:1 10:1 11:1 12:1 13:1 15:1 22:1 26:1 27:1 29:1 30:1 35:1 
1.43364947655054 1:1 3:1 4:1 5:1 8:1 9:1 10:1 11:1 12:1 13:1 14:1 15:1 22:1 26:1 27:1 30:1 31:1 
1.424802807702639 1:1 2:1 3:1 4:1 7:1 8:1 9:1 10:1 13:1 14:1 15:1 16:1 17:1 18:1 19:1 22:1 25:1 26:1 29:1 30:1 34:1 36:1 
1.541991557540449 1:1 2:1 6:1 8:1 10:1 11:1 13:1 14:1 16:1 17:1 19:1 22:1 24:1 25:1 26:1 27:1 28:1 29:1 30:1 31:1 32:1 33:1 
1.384658672711445 1:1 4:1 7:1 8:1 9:1 10:1 11:1 12:1 13:1 14:1 15:1 16:1 19:1 25:1 26:1 27:1 29:1 30:1 34:1 35:1 
1.542939510794638 1:1 3:1 4:1 5:1 7:1 8:1 9:1 14:1 15:1 16:1 19:1 24:1 25:1 29:1 30:1 31:1 32:1 33:1 
1.482363880505262 2:1 3:1 7:1 8:1 10:1 11:1 12:1 13:1 14:1 15:1 19:1 22:1 26:1 27:1 28:1 31:1 32:1 34:1 
1.512177569938903 1:1 2:1 3:1 4:1 6:1 8:1 11:1 12:1 14:1 15:1 16:1 19:1 25:1 26:1 27:1 34:1 35:1 36:1 
1.547647078861857 1:1 2:1 4:1 6:1 7:1 9:1 13:1 14:1 15:1 21:1 22:1 27:1 28:1 30:1 31:1 32:1 34:1 
1.403167284450168 1:1 2:1 3:1 4:1 7:1 8:1 9:1 10:1 11:1 15:1 16:1 19:1 20:1 25:1 26:1 27:1 28:1 29:1 30:1 31:1 32:1 34:1 
1.157582034175003 1:1 2:1 3:1 4:1 7:1 8:1 9:1 10:1 11:1 12:1 13:1 14:1 19:1 21:1 22:1 26:1 27:1 28:1 30:1 31:1 34:1 36:1 
1.360369954150433 1:1 2:1 3:1 7:1 9:1 10:1 11:1 13:1 14:1 15:1 22:1 25:1 26:1 28:1 34:1 
1.368860250352985 1:1 2:1 4:1 6:1 7:1 8:1 9:1 10:1 11:1 13:1 14:1 15:1 22:1 26:1 27:1 28:1 29:1 30:1 31:1 34:1 36:1 
1.480739776710939 1:1 2:1 6:1 7:1 8:1 9:1 10:1 11:1 13:1 14:1 15:1 22:1 25:1 26:1 27:1 30:1 35:1 
1.463315391245166 1:1 3:1 7:1 8:1 10:1 12:1 13:1 14:1 15:1 16:1 19:1 21:1 22:1 24:1 26:1 28:1 30:1 34:1 
1.081813360683133 1:1 2:1 3:1 4:1 7:1 8:1 9:1 10:1 12:1 13:1 14:1 15:1 16:1 19:1 21:1 22:1 26:1 27:1 28:1 30:1 34:1 35:1 
1.489932953372409 1:1 2:1 3:1 4:1 9:1 10:1 11:1 12:1 13:1 14:1 15:1 16:1 17:1 18:1 22:1 24:1 26:1 27:1 29:1 30:1 31:1 32:1 36:1 
1.506233830405114 1:1 2:1 3:1 4:1 6:1 7:1 8:1 10:1 11:1 13:1 14:1 15:1 19:1 22:1 24:1 26:1 27:1 28:1 29:1 31:1 
1.242431061183898 2:1 3:1 4:1 7:1 8:1 9:1 10:1 11:1 12:1 13:1 14:1 15:1 16:1 17:1 19:1 22:1 25:1 26:1 27:1 28:1 29:1 31:1 32:1 33:1 34:1 36:1 
1.508997443060299 1:1 2:1 3:1 4:1 5:1 6:1 8:1 10:1 11:1 12:1 13:1 14:1 15:1 16:1 22:1 23:1 27:1 29:1 34:1 
1.337957060643267 1:1 3:1 4:1 5:1 7:1 8:1 9:1 10:1 11:1 12:1 14:1 15:1 19:1 22:1 25:1 26:1 27:1 28:1 29:1 30:1 31:1 34:1 35:1 
1.600012717063016 1:1 2:1 5:1 7:1 8:1 9:1 10:1 11:1 12:1 13:1 14:1 15:1 16:1 19:1 22:1 23:1 24:1 26:1 27:1 29:1 30:1 31:1 35:1 
1.534782479222574 2:1 3:1 4:1 7:1 9:1 11:1 12:1 13:1 14:1 19:1 22:1 23:1 25:1 26:1 27:1 28:1 30:1 32:1 34:1 36:1 
1.545818490231905 1:1 3:1 8:1 9:1 10:1 11:1 12:1 19:1 21:1 26:1 27:1 28:1 31:1 34:1 36:1 
1.549521733570546 4:1 6:1 7:1 8:1 9:1 10:1 12:1 13:1 14:1 15:1 16:1 20:1 21:1 22:1 23:1 25:1 27:1 28:1 30:1 32:1 33:1 34:1 
1.317965647404059 1:1 3:1 4:1 7:1 8:1 9:1 10:1 12:1 13:1 14:1 15:1 19:1 22:1 25:1 27:1 28:1 29:1 31:1 32:1 35:1 
1.466768485863492 2:1 3:1 4:1 7:1 9:1 10:1 11:1 12:1 13:1 14:1 16:1 19:1 24:1 25:1 26:1 27:1 33:1 34:1 
1.513897887880884 1:1 4:1 7:1 8:1 10:1 11:1 12:1 13:1 14:1 15:1 19:1 21:1 22:1 24:1 27:1 28:1 29:1 30:1 31:1 34:1 
1.518860801116322 1:1 2:1 3:1 4:1 7:1 9:1 10:1 11:1 13:1 14:1 15:1 18:1 19:1 22:1 25:1 26:1 28:1 31:1 32:1 34:1 
1.536419433943803 2:1 3:1 7:1 8:1 9:1 10:1 12:1 13:1 14:1 15:1 20:1 21:1 22:1 24:1 27:1 28:1 30:1 31:1 34:1 35:1 
1.538975108557378 1:1 3:1 4:1 7:1 8:1 9:1 11:1 12:1 13:1 22:1 23:1 28:1 29:1 31:1 32:1 33:1 34:1 
1.321351283909559 3:1 4:1 7:1 8:1 10:1 11:1 12:1 13:1 14:1 15:1 16:1 19:1 22:1 26:1 27:1 30:1 31:1 32:1 34:1 
0.8269898554918627 1:1 2:1 3:1 4:1 7:1 8:1 9:1 11:1 12:1 13:1 14:1 15:1 16:1 19:1 20:1 22:1 24:1 26:1 27:1 28:1 30:1 34:1 
1.495696385224065 1:1 2:1 3:1 5:1 7:1 8:1 9:1 10:1 11:1 12:1 13:1 19:1 20:1 22:1 23:1 26:1 27:1 28:1 29:1 30:1 
1.502052215853756 1:1 2:1 3:1 5:1 9:1 12:1 13:1 14:1 15:1 22:1 25:1 26:1 27:1 28:1 29:1 30:1 31:1 33:1 34:1 
1.54514132681938 1:1 2:1 4:1 5:1 7:1 8:1 9:1 10:1 15:1 22:1 23:1 24:1 26:1 27:1 28:1 29:1 30:1 31:1 33:1 34:1 36:1 
1.527312297449781 1:1 2:1 3:1 4:1 5:1 8:1 9:1 10:1 11:1 12:1 13:1 14:1 15:1 16:1 19:1 22:1 24:1 27:1 28:1 30:1 33:1 34:1 
1.542282945363861 1:1 3:1 4:1 6:1 7:1 10:1 11:1 12:1 13:1 14:1 15:1 16:1 19:1 20:1 23:1 24:1 25:1 26:1 27:1 28:1 29:1 30:1 31:1 32:1 33:1 34:1 35:1 
1.450020640873598 1:1 2:1 3:1 4:1 6:1 7:1 8:1 9:1 10:1 12:1 13:1 15:1 17:1 22:1 25:1 26:1 28:1 31:1 33:1 34:1 
1.398076639363355 1:1 3:1 4:1 6:1 7:1 8:1 9:1 10:1 11:1 13:1 14:1 15:1 16:1 18:1 19:1 22:1 26:1 27:1 28:1 30:1 31:1 34:1 35:1 
1.52942014206437 2:1 3:1 4:1 6:1 7:1 8:1 10:1 11:1 12:1 14:1 15:1 16:1 17:1 18:1 19:1 22:1 24:1 28:1 30:1 34:1 
1.495683127387503 1:1 2:1 3:1 4:1 5:1 6:1 7:1 8:1 9:1 10:1 12:1 13:1 14:1 15:1 19:1 22:1 23:1 25:1 26:1 27:1 29:1 31:1 32:1 34:1 36:1 
1.45947365119064 2:1 3:1 4:1 9:1 10:1 11:1 12:1 14:1 15:1 16:1 22:1 25:1 26:1 27:1 28:1 29:1 30:1 31:1 33:1 34:1 
1.52669881804226 1:1 2:1 6:1 9:1 10:1 11:1 13:1 14:1 15:1 16:1 17:1 19:1 24:1 27:1 28:1 30:1 31:1 34:1 
1.446973215401518 1:1 2:1 3:1 4:1 7:1 9:1 10:1 13:1 15:1 16:1 18:1 19:1 22:1 25:1 28:1 30:1 31:1 34:1 
1.35581201958957 1:1 2:1 3:1 4:1 7:1 9:1 11:1 13:1 14:1 15:1 16:1 17:1 19:1 22:1 23:1 25:1 26:1 29:1 31:1 34:1 35:1 
1.376053684215284 1:1 2:1 4:1 7:1 8:1 10:1 11:1 12:1 14:1 15:1 16:1 19:1 22:1 25:1 26:1 27:1 28:1 29:1 31:1 33:1 
1.518441920274554 1:1 2:1 6:1 7:1 9:1 11:1 12:1 14:1 15:1 16:1 19:1 22:1 26:1 27:1 28:1 30:1 33:1 34:1 
1.122650739488063 1:1 2:1 3:1 4:1 7:1 8:1 9:1 11:1 12:1 13:1 14:1 15:1 16:1 17:1 19:1 26:1 27:1 31:1 34:1 36:1 
1.543958184930979 1:1 2:1 3:1 4:1 5:1 7:1 8:1 11:1 12:1 13:1 15:1 20:1 21:1 26:1 27:1 31:1 34:1 35:1 
1.39757739503146 1:1 2:1 3:1 6:1 7:1 9:1 10:1 11:1 12:1 13:1 14:1 19:1 20:1 22:1 25:1 27:1 28:1 29:1 31:1 32:1 34:1 35:1 
1.514373737281793 1:1 3:1 7:1 8:1 9:1 11:1 12:1 13:1 14:1 15:1 16:1 19:1 20:1 21:1 34:1 
1.449582998040208 2:1 3:1 4:1 6:1 7:1 8:1 9:1 12:1 14:1 15:1 19:1 22:1 26:1 27:1 28:1 30:1 
1.560583564740706 1:1 3:1 4:1 6:1 7:1 9:1 11:1 12:1 13:1 16:1 19:1 21:1 22:1 25:1 26:1 27:1 28:1 29:1 30:1 32:1 33:1 35:1 
1.463806335843548 2:1 3:1 4:1 7:1 8:1 11:1 12:1 14:1 15:1 16:1 19:1 22:1 23:1 25:1 26:1 27:1 31:1 35:1 
1.433570923730339 1:1 2:1 3:1 4:1 5:1 7:1 9:1 10:1 11:1 12:1 14:1 16:1 17:1 19:1 22:1 24:1 25:1 26:1 28:1 29:1 31:1 34:1 35:1 
1.429358950795313 1:1 2:1 3:1 6:1 7:1 8:1 10:1 11:1 12:1 15:1 16:1 17:1 19:1 22:1 24:1 25:1 26:1 27:1 28:1 29:1 30:1 31:1 32:1 34:1 
1.380827565677881 1:1 2:1 3:1 7:1 8:1 9:1 10:1 11:1 13:1 14:1 15:1 19:1 21:1 22:1 24:1 25:1 27:1 28:1 30:1 31:1 34:1 36:1 
1.473931857699725 3:1 4:1 7:1 9:1 10:1 11:1 12:1 13:1 15:1 16:1 17:1 22:1 24:1 25:1 27:1 30:1 34:1 
1.506759493011395 3:1 4:1 7:1 8:1 9:1 10:1 11:1 13:1 14:1 24:1 27:1 28:1 30:1 31:1 34:1 36:1 
1.456459587293285 1:1 3:1 4:1 8:1 9:1 10:1 11:1 12:1 13:1 14:1 15:1 22:1 24:1 26:1 27:1 29:1 30:1 31:1 32:1 34:1 
1.030346550368044 1:1 2:1 3:1 7:1 8:1 9:1 10:1 11:1 12:1 13:1 14:1 15:1 16:1 22:1 23:1 26:1 27:1 28:1 29:1 31:1 34:1 35:1 
0.7271834356387846 1:1 2:1 3:1 4:1 7:1 8:1 9:1 11:1 12:1 13:1 14:1 15:1 16:1 17:1 22:1 25:1 26:1 27:1 28:1 29:1 32:1 34:1 
1.506757151797493 1:1 2:1 3:1 7:1 8:1 9:1 12:1 13:1 14:1 15:1 16:1 17:1 19:1 21:1 26:1 28:1 29:1 30:1 35:1 
1.499817416152063 1:1 2:1 4:1 5:1 7:1 8:1 9:1 10:1 11:1 13:1 14:1 15:1 19:1 21:1 22:1 23:1 28:1 30:1 31:1 34:1 
1.445676172245152 1:1 2:1 3:1 7:1 8:1 9:1 10:1 12:1 13:1 14:1 15:1 16:1 19:1 20:1 24:1 26:1 27:1 31:1 
1.333015511605103 1:1 2:1 3:1 7:1 8:1 9:1 10:1 11:1 12:1 13:1 14:1 15:1 16:1 21:1 22:1 26:1 27:1 28:1 29:1 
1.572040283617665 1:1 2:1 3:1 4:1 5:1 7:1 8:1 9:1 11:1 13:1 14:1 15:1 17:1 20:1 24:1 26:1 27:1 30:1 31:1 
1.042898145933546 1:1 2:1 3:1 4:1 7:1 9:1 10:1 11:1 12:1 13:1 14:1 15:1 16:1 19:1 22:1 23:1 24:1 26:1 27:1 28:1 30:1 31:1 34:1 
1.43285452981775 1:1 2:1 4:1 7:1 8:1 9:1 11:1 12:1 13:1 14:1 15:1 16:1 22:1 24:1 25:1 26:1 28:1 30:1 31:1 35:1 
1.620555164668175 2:1 3:1 4:1 8:1 9:1 10:1 11:1 12:1 13:1 14:1 15:1 18:1 19:1 22:1 24:1 29:1 30:1 34:1 35:1 
1.506855532547697 2:1 3:1 4:1 7:1 8:1 10:1 13:1 15:1 16:1 17:1 19:1 22:1 24:1 25:1 26:1 27:1 29:1 30:1 31:1 33:1 34:1 35:1 
1.521324521678136 2:1 4:1 6:1 7:1 8:1 9:1 10:1 11:1 12:1 14:1 15:1 16:1 19:1 21:1 26:1 27:1 31:1 
1.545071171458053 1:1 2:1 3:1 4:1 8:1 11:1 13:1 14:1 15:1 19:1 20:1 22:1 23:1 25:1 26:1 28:1 30:1 34:1 35:1 
0.8315124111846447 1:1 2:1 3:1 4:1 8:1 9:1 12:1 13:1 14:1 15:1 16:1 19:1 25:1 26:1 27:1 28:1 31:1 34:1 
1.413191183074191 1:1 3:1 7:1 8:1 9:1 10:1 11:1 12:1 13:1 14:1 15:1 16:1 19:1 20:1 21:1 22:1 25:1 27:1 29:1 31:1 32:1 
1.246924715081503 1:1 2:1 3:1 4:1 8:1 9:1 12:1 13:1 14:1 16:1 19:1 22:1 25:1 26:1 27:1 30:1 31:1 32:1 34:1 35:1 
1.377710948219091 1:1 2:1 3:1 4:1 7:1 8:1 9:1 10:1 11:1 12:1 13:1 14:1 15:1 19:1 20:1 22:1 23:1 25:1 29:1 31:1 34:1 35:1 
1.560131533036075 1:1 3:1 4:1 5:1 6:1 7:1 8:1 10:1 11:1 13:1 14:1 21:1 22:1 23:1 25:1 26:1 27:1 28:1 29:1 32:1 34:1 36:1 
1.497659956484924 1:1 3:1 4:1 5:1 6:1 7:1 8:1 9:1 11:1 12:1 13:1 14:1 15:1 16:1 19:1 21:1 22:1 24:1 29:1 31:1 32:1 
1.547970250872891 2:1 3:1 6:1 7:1 8:1 9:1 10:1 11:1 13:1 14:1 15:1 19:1 21:1 22:1 24:1 28:1 31:1 35:1 
1.520533105924013 1:1 2:1 3:1 4:1 9:1 12:1 14:1 15:1 16:1 19:1 20:1 24:1 27:1 29:1 30:1 31:1 34:1 35:1 
1.566056100585581 1:1 2:1 7:1 8:1 9:1 10:1 11:1 12:1 13:1 14:1 15:1 16:1 17:1 19:1 23:1 24:1 25:1 26:1 27:1 29:1 30:1 33:1 
1.309277183776453 1:1 2:1 3:1 4:1 7:1 9:1 10:1 11:1 12:1 13:1 14:1 16:1 17:1 19:1 22:1 25:1 26:1 29:1 31:1 
1.515390561117513 1:1 2:1 3:1 4:1 7:1 8:1 10:1 11:1 13:1 14:1 16:1 19:1 22:1 24:1 28:1 29:1 30:1 31:1 32:1 33:1 35:1 
1.540558172305 1:1 2:1 4:1 6:1 8:1 9:1 10:1 11:1 12:1 13:1 14:1 15:1 17:1 19:1 20:1 22:1 26:1 27:1 28:1 34:1 
1.496517936444766 3:1 7:1 9:1 11:1 12:1 13:1 14:1 15:1 22:1 27:1 28:1 29:1 30:1 31:1 34:1 36:1 
1.665791789911814 2:1 3:1 4:1 5:1 7:1 8:1 9:1 11:1 12:1 13:1 14:1 16:1 19:1 20:1 21:1 22:1 23:1 25:1 26:1 27:1 28:1 29:1 30:1 34:1 
1.461144148889541 2:1 3:1 4:1 7:1 8:1 9:1 10:1 11:1 13:1 15:1 16:1 18:1 19:1 22:1 25:1 26:1 27:1 30:1 32:1 33:1 34:1 
1.568543188041701 1:1 3:1 5:1 9:1 10:1 11:1 12:1 13:1 14:1 15:1 22:1 25:1 26:1 27:1 28:1 34:1 36:1 
1.465003525131439 1:1 2:1 3:1 4:1 7:1 9:1 10:1 11:1 12:1 13:1 14:1 15:1 16:1 19:1 20:1 21:1 26:1 31:1 32:1 
1.579395603947476 1:1 3:1 7:1 8:1 9:1 10:1 13:1 14:1 19:1 21:1 22:1 24:1 25:1 26:1 27:1 28:1 29:1 30:1 
1.480700645668037 2:1 3:1 4:1 7:1 8:1 9:1 10:1 11:1 12:1 13:1 14:1 15:1 16:1 17:1 22:1 25:1 26:1 27:1 28:1 31:1 32:1 34:1 
1.348158088976701 3:1 4:1 7:1 8:1 9:1 12:1 13:1 14:1 15:1 16:1 17:1 19:1 21:1 22:1 25:1 26:1 27:1 29:1 31:1 
1.432247760750501 1:1 2:1 3:1 4:1 6:1 7:1 8:1 9:1 11:1 12:1 14:1 15:1 19:1 23:1 25:1 26:1 27:1 29:1 30:1 34:1 35:1 
1.494316398779858 2:1 4:1 7:1 8:1 9:1 11:1 12:1 14:1 16:1 22:1 23:1 26:1 27:1 28:1 31:1 34:1 36:1 
1.386126282962998 1:1 3:1 7:1 10:1 11:1 12:1 13:1 19:1 22:1 26:1 27:1 28:1 29:1 34:1 
1.549364327379683 1:1 2:1 4:1 7:1 8:1 9:1 10:1 13:1 14:1 15:1 16:1 18:1 19:1 21:1 22:1 24:1 25:1 26:1 27:1 33:1 36:1 
1.52556582292662 1:1 3:1 4:1 5:1 6:1 7:1 13:1 14:1 16:1 17:1 19:1 20:1 22:1 24:1 26:1 29:1 30:1 34:1 
1.517342629655341 1:1 2:1 3:1 6:1 7:1 11:1 12:1 13:1 14:1 15:1 19:1 20:1 34:1 
1.228348740039993 1:1 2:1 3:1 4:1 7:1 8:1 9:1 10:1 11:1 12:1 13:1 14:1 19:1 24:1 26:1 27:1 28:1 30:1 31:1 32:1 34:1 35:1 
1.513806882598843 1:1 2:1 3:1 4:1 6:1 7:1 8:1 10:1 11:1 12:1 13:1 16:1 25:1 26:1 29:1 30:1 31:1 34:1 
0.9575506560667846 2:1 3:1 4:1 8:1 9:1 10:1 11:1 12:1 13:1 14:1 15:1 16:1 19:1 20:1 22:1 25:1 26:1 27:1 28:1 29:1 34:1 35:1 
1.398356222436686 1:1 2:1 4:1 7:1 8:1 9:1 10:1 11:1 13:1 15:1 19:1 22:1 23:1 25:1 26:1 27:1 28:1 34:1 
1.393817695452954 1:1 2:1 4:1 6:1 7:1 8:1 9:1 11:1 12:1 14:1 16:1 18:1 19:1 22:1 25:1 26:1 27:1 28:1 29:1 34:1 
1.536054302958266 2:1 3:1 4:1 7:1 8:1 10:1 11:1 12:1 13:1 14:1 19:1 23:1 25:1 27:1 29:1 30:1 34:1 35:1 
1.548055783848396 1:1 2:1 6:1 7:1 8:1 10:1 11:1 12:1 13:1 16:1 21:1 22:1 26:1 27:1 31:1 32:1 33:1 35:1 
1.462202971574731 1:1 3:1 4:1 6:1 7:1 8:1 9:1 10:1 11:1 14:1 15:1 16:1 17:1 19:1 20:1 22:1 29:1 31:1 34:1 
1.477866393600027 1:1 3:1 8:1 9:1 10:1 11:1 12:1 13:1 14:1 15:1 19:1 22:1 24:1 27:1 28:1 29:1 34:1 35:1 
1.442818621825365 1:1 2:1 3:1 4:1 8:1 9:1 11:1 12:1 15:1 17:1 19:1 22:1 24:1 26:1 27:1 34:1 
1.475123360275261 1:1 2:1 3:1 4:1 8:1 9:1 11:1 12:1 13:1 15:1 19:1 22:1 23:1 25:1 27:1 28:1 31:1 32:1 33:1 34:1 
1.67671229073014 1:1 2:1 3:1 4:1 7:1 9:1 11:1 12:1 13:1 15:1 22:1 23:1 24:1 25:1 26:1 27:1 28:1 29:1 30:1 31:1 
1.453570438002977 1:1 2:1 4:1 7:1 8:1 10:1 11:1 12:1 14:1 15:1 16:1 17:1 19:1 22:1 24:1 25:1 27:1 28:1 29:1 30:1 31:1 32:1 34:1 36:1 
1.551861065682982 2:1 7:1 8:1 9:1 13:1 19:1 20:1 22:1 24:1 25:1 27:1 28:1 30:1 34:1 36:1 
1.391293418680765 1:1 2:1 3:1 7:1 8:1 9:1 10:1 11:1 12:1 13:1 14:1 15:1 16:1 17:1 22:1 24:1 25:1 26:1 27:1 28:1 29:1 30:1 32:1 36:1 
1.294854557713309 1:1 2:1 3:1 4:1 7:1 8:1 9:1 11:1 12:1 13:1 15:1 16:1 22:1 24:1 25:1 26:1 27:1 28:1 29:1 30:1 34:1 
1.539144740322189 1:1 2:1 3:1 4:1 9:1 10:1 11:1 12:1 13:1 14:1 15:1 19:1 22:1 25:1 26:1 27:1 28:1 29:1 30:1 36:1 
1.477997270713462 1:1 2:1 3:1 4:1 5:1 10:1 11:1 12:1 13:1 15:1 16:1 19:1 22:1 26:1 27:1 28:1 29:1 31:1 35:1 
1.402501802889901 1:1 2:1 4:1 7:1 8:1 9:1 10:1 11:1 12:1 13:1 14:1 16:1 19:1 22:1 23:1 24:1 25:1 26:1 27:1 28:1 29:1 34:1 
1.477878892435911 1:1 2:1 3:1 4:1 8:1 9:1 11:1 12:1 15:1 16:1 24:1 25:1 26:1 30:1 31:1 34:1 
1.190302521237051 1:1 2:1 4:1 7:1 8:1 9:1 11:1 12:1 13:1 15:1 16:1 17:1 19:1 22:1 25:1 26:1 27:1 28:1 30:1 31:1 34:1 
1.517245218683947 1:1 2:1 4:1 6:1 7:1 9:1 10:1 11:1 12:1 13:1 14:1 15:1 16:1 22:1 24:1 27:1 28:1 29:1 30:1 31:1 35:1 
1.553938661810075 1:1 5:1 6:1 7:1 8:1 10:1 11:1 12:1 13:1 15:1 22:1 26:1 27:1 31:1 
1.100641527318828 1:1 2:1 3:1 4:1 7:1 8:1 9:1 11:1 12:1 13:1 14:1 19:1 22:1 24:1 26:1 27:1 28:1 29:1 31:1 34:1 35:1 
1.324121298524071 1:1 2:1 3:1 4:1 7:1 8:1 9:1 12:1 13:1 15:1 16:1 19:1 21:1 22:1 27:1 29:1 30:1 31:1 
1.562861929579803 1:1 2:1 7:1 8:1 9:1 11:1 12:1 13:1 14:1 15:1 16:1 17:1 18:1 19:1 20:1 21:1 22:1 24:1 29:1 30:1 34:1 35:1 
1.534278849749143 1:1 3:1 4:1 5:1 6:1 7:1 8:1 9:1 10:1 11:1 13:1 14:1 15:1 16:1 19:1 21:1 22:1 25:1 28:1 29:1 30:1 31:1 32:1 33:1 34:1 
1.402496677620519 1:1 2:1 3:1 4:1 7:1 8:1 9:1 10:1 11:1 13:1 14:1 15:1 16:1 17:1 19:1 20:1 21:1 22:1 25:1 27:1 30:1 31:1 32:1 
1.224561524343608 3:1 7:1 8:1 9:1 13:1 14:1 15:1 16:1 19:1 22:1 25:1 26:1 27:1 28:1 29:1 34:1 35:1 
1.123779295254737 1:1 3:1 4:1 7:1 8:1 9:1 10:1 11:1 12:1 13:1 14:1 16:1 19:1 22:1 25:1 28:1 30:1 31:1 34:1 
1.513756877636239 2:1 6:1 8:1 9:1 11:1 12:1 13:1 15:1 19:1 22:1 26:1 27:1 28:1 30:1 31:1 34:1 35:1 
1.592525233173038 1:1 2:1 3:1 4:1 6:1 7:1 8:1 9:1 10:1 11:1 12:1 14:1 15:1 16:1 20:1 21:1 22:1 24:1 26:1 27:1 28:1 35:1 36:1 
1.402696279692246 1:1 2:1 3:1 7:1 9:1 11:1 12:1 13:1 14:1 15:1 17:1 19:1 26:1 27:1 28:1 29:1 30:1 34:1 
1.006023332589676 1:1 2:1 3:1 7:1 8:1 9:1 10:1 12:1 13:1 14:1 15:1 21:1 22:1 25:1 28:1 31:1 32:1 34:1 
1.439249712979916 1:1 2:1 3:1 4:1 7:1 8:1 9:1 10:1 13:1 14:1 15:1 16:1 17:1 19:1 21:1 26:1 28:1 29:1 34:1 35:1 
1.23731614681119 1:1 2:1 3:1 7:1 8:1 9:1 10:1 11:1 12:1 13:1 15:1 21:1 22:1 26:1 27:1 28:1 30:1 31:1 34:1 
1.466881980859214 1:1 2:1 3:1 6:1 7:1 8:1 9:1 10:1 11:1 12:1 13:1 14:1 15:1 19:1 20:1 22:1 27:1 29:1 31:1 32:1 
1.524292814809954 1:1 2:1 4:1 5:1 8:1 9:1 12:1 14:1 15:1 16:1 19:1 23:1 25:1 26:1 27:1 28:1 29:1 34:1 35:1 
1.372807596343412 1:1 2:1 3:1 4:1 7:1 9:1 10:1 13:1 14:1 15:1 16:1 19:1 22:1 28:1 29:1 32:1 34:1 35:1 
1.554909732595482 3:1 5:1 6:1 7:1 8:1 9:1 11:1 13:1 14:1 15:1 19:1 20:1 22:1 23:1 25:1 26:1 27:1 28:1 31:1 32:1 34:1 
1.47840732635885 1:1 3:1 7:1 8:1 11:1 14:1 15:1 16:1 19:1 22:1 24:1 26:1 27:1 28:1 29:1 30:1 31:1 32:1 34:1 
