svm_type c_svc
kernel_type rbf
gamma 1
nr_class 2
total_sv 3626
rho 0.0806483
label 1 0
nr_sv 1721 1905
SV
1.036169817277064 1:1 2:1 3:1 4:1 8:1 11:1 12:1 13:1 14:1 16:1 17:1 18:1 22:1 24:1 25:1 26:1 27:1 28:1 31:1 34:1 
0.9697853169282973 1:1 2:1 3:1 4:1 6:1 7:1 9:1 10:1 11:1 12:1 14:1 15:1 16:1 17:1 19:1 22:1 26:1 27:1 28:1 29:1 31:1 32:1 34:1 35:1 
1.092298671184883 2:1 4:1 7:1 8:1 9:1 11:1 13:1 19:1 20:1 25:1 26:1 27:1 
1.054843387814497 1:1 2:1 3:1 8:1 9:1 10:1 11:1 12:1 13:1 14:1 15:1 16:1 19:1 22:1 24:1 25:1 27:1 32:1 33:1 34:1 
1.039789969678348 2:1 3:1 4:1 7:1 8:1 9:1 11:1 12:1 13:1 14:1 15:1 16:1 19:1 26:1 27:1 30:1 31:1 32:1 34:1 36:1 
1.057223390392417 2:1 3:1 4:1 6:1 7:1 8:1 9:1 12:1 13:1 14:1 15:1 16:1 22:1 23:1 25:1 26:1 29:1 31:1 
1.074404458212849 1:1 2:1 3:1 4:1 9:1 10:1 11:1 12:1 13:1 14:1 15:1 16:1 17:1 22:1 24:1 25:1 27:1 29:1 35:1 
1.06645256246418 1:1 3:1 4:1 7:1 9:1 10:1 11:1 12:1 13:1 15:1 16:1 17:1 19:1 22:1 23:1 25:1 27:1 30:1 31:1 35:1 
0.991857448392278 1:1 2:1 3:1 8:1 9:1 12:1 13:1 14:1 15:1 16:1 19:1 22:1 24:1 27:1 28:1 29:1 34:1 
1.013532443693013 1:1 3:1 4:1 7:1 8:1 10:1 11:1 12:1 14:1 15:1 16:1 22:1 23:1 25:1 26:1 27:1 28:1 29:1 30:1 34:1 
1.079126233989617 3:1 7:1 8:1 11:1 13:1 14:1 17:1 19:1 23:1 24:1 25:1 26:1 27:1 29:1 30:1 32:1 34:1 35:1 
1.069135882475224 2:1 3:1 4:1 7:1 8:1 10:1 12:1 13:1 14:1 15:1 16:1 17:1 19:1 22:1 23:1 24:1 26:1 27:1 28:1 29:1 34:1 35:1 
1.064738144826227 1:1 3:1 4:1 7:1 8:1 11:1 12:1 14:1 15:1 19:1 20:1 22:1 27:1 28:1 30:1 34:1 
1.064938581014319 2:1 6:1 8:1 9:1 11:1 12:1 13:1 15:1 19:1 22:1 26:1 27:1 28:1 30:1 31:1 34:1 35:1 
0.9984334616405014 1:1 2:1 3:1 4:1 6:1 7:1 8:1 9:1 10:1 11:1 13:1 14:1 15:1 22:1 26:1 28:1 31:1 34:1 
1.076941385071881 1:1 2:1 4:1 5:1 6:1 10:1 11:1 12:1 14:1 15:1 16:1 25:1 27:1 28:1 29:1 31:1 34:1 35:1 
1.080992322550407 1:1 4:1 7:1 8:1 9:1 10:1 11:1 12:1 13:1 15:1 16:1 19:1 21:1 22:1 26:1 27:1 33:1 
1.070558152454939 1:1 2:1 3:1 4:1 7:1 8:1 9:1 10:1 12:1 14:1 15:1 16:1 17:1 18:1 19:1 20:1 21:1 22:1 23:1 24:1 25:1 26:1 28:1 29:1 31:1 34:1 35:1 
1.077563076541356 1:1 2:1 3:1 4:1 7:1 11:1 12:1 14:1 19:1 21:1 26:1 27:1 31:1 
1.076396557270097 1:1 2:1 6:1 8:1 9:1 10:1 11:1 12:1 14:1 16:1 17:1 18:1 19:1 22:1 26:1 27:1 29:1 31:1 32:1 35:1 
1.041917639858381 1:1 4:1 8:1 9:1 10:1 11:1 12:1 13:1 14:1 15:1 16:1 19:1 22:1 24:1 25:1 27:1 28:1 29:1 30:1 31:1 34:1 36:1 
0.8832232664179601 1:1 2:1 3:1 4:1 8:1 9:1 10:1 11:1 12:1 13:1 14:1 19:1 22:1 24:1 25:1 26:1 27:1 28:1 30:1 31:1 34:1 
1.066627293905893 1:1 2:1 3:1 5:1 6:1 8:1 9:1 10:1 11:1 12:1 14:1 15:1 19:1 21:1 22:1 25:1 26:1 27:1 28:1 29:1 31:1 34:1 36:1 
1.057012997689138 1:1 2:1 3:1 4:1 7:1 9:1 14:1 15:1 19:1 20:1 22:1 23:1 26:1 27:1 28:1 29:1 31:1 32:1 34:1 35:1 
1.070956593008429 1:1 3:1 4:1 8:1 9:1 10:1 11:1 12:1 14:1 15:1 16:1 20:1 23:1 26:1 27:1 28:1 29:1 34:1 
1.091009471049363 1:1 2:1 3:1 4:1 7:1 8:1 9:1 10:1 11:1 12:1 13:1 14:1 15:1 24:1 29:1 30:1 35:1 
1.069981494793358 1:1 2:1 4:1 11:1 14:1 15:1 16:1 17:1 19:1 22:1 25:1 26:1 27:1 29:1 30:1 31:1 
1.065311277293854 1:1 2:1 3:1 4:1 7:1 8:1 9:1 10:1 12:1 13:1 14:1 22:1 23:1 24:1 25:1 26:1 27:1 28:1 30:1 31:1 32:1 33:1 
0.9212445599216527 1:1 3:1 4:1 7:1 8:1 9:1 10:1 11:1 12:1 13:1 14:1 15:1 19:1 21:1 22:1 34:1 
1.086514528060146 1:1 5:1 6:1 7:1 8:1 10:1 11:1 12:1 13:1 15:1 22:1 26:1 27:1 31:1 
1.060463131952694 1:1 2:1 3:1 7:1 8:1 9:1 10:1 11:1 13:1 14:1 15:1 19:1 20:1 21:1 22:1 26:1 27:1 28:1 30:1 34:1 
1.076669350265153 1:1 2:1 3:1 9:1 10:1 13:1 14:1 16:1 17:1 19:1 22:1 27:1 28:1 30:1 34:1 35:1 36:1 
1.051408611212758 1:1 2:1 3:1 7:1 8:1 9:1 11:1 12:1 13:1 15:1 25:1 26:1 28:1 29:1 30:1 31:1 32:1 34:1 35:1 
0.988863890971194 1:1 2:1 3:1 4:1 8:1 9:1 10:1 11:1 13:1 14:1 15:1 16:1 17:1 18:1 19:1 22:1 24:1 25:1 26:1 27:1 28:1 31:1 34:1 
1.058288216086911 1:1 3:1 8:1 11:1 13:1 14:1 15:1 16:1 22:1 25:1 26:1 27:1 28:1 29:1 31:1 32:1 34:1 
1.050989022836589 1:1 4:1 5:1 7:1 9:1 11:1 13:1 14:1 15:1 22:1 26:1 27:1 28:1 34:1 35:1 
1.017545562990826 1:1 2:1 4:1 6:1 7:1 8:1 9:1 10:1 12:1 13:1 14:1 15:1 16:1 19:1 20:1 22:1 24:1 25:1 26:1 27:1 29:1 31:1 34:1 35:1 
1.077498070821604 1:1 3:1 4:1 7:1 8:1 12:1 14:1 15:1 16:1 19:1 22:1 28:1 29:1 30:1 31:1 32:1 35:1 36:1 
0.9948071045757221 1:1 2:1 3:1 4:1 7:1 10:1 12:1 13:1 14:1 15:1 16:1 19:1 20:1 22:1 25:1 26:1 27:1 28:1 29:1 30:1 31:1 34:1 35:1 
1.052432338697944 1:1 2:1 3:1 7:1 8:1 9:1 11:1 12:1 13:1 14:1 16:1 17:1 18:1 19:1 25:1 26:1 27:1 
1.048204293130504 1:1 2:1 3:1 4:1 5:1 7:1 9:1 11:1 12:1 13:1 14:1 15:1 18:1 19:1 22:1 27:1 28:1 29:1 30:1 34:1 
1.064134306981566 1:1 2:1 3:1 4:1 5:1 7:1 8:1 11:1 14:1 15:1 16:1 19:1 22:1 26:1 27:1 29:1 32:1 34:1 35:1 
1.063788856823236 2:1 3:1 4:1 7:1 8:1 10:1 11:1 12:1 13:1 14:1 15:1 17:1 19:1 20:1 21:1 25:1 26:1 27:1 28:1 29:1 31:1 32:1 34:1 
1.062443879518464 1:1 2:1 3:1 7:1 8:1 11:1 12:1 13:1 15:1 19:1 20:1 22:1 24:1 25:1 26:1 27:1 28:1 29:1 
1.077959382539777 2:1 3:1 4:1 6:1 7:1 8:1 9:1 11:1 12:1 14:1 15:1 16:1 18:1 23:1 25:1 26:1 27:1 28:1 29:1 34:1 
1.068214942157466 1:1 2:1 3:1 4:1 7:1 8:1 9:1 11:1 12:1 13:1 14:1 16:1 19:1 26:1 27:1 29:1 30:1 32:1 33:1 34:1 35:1 36:1 
1.054489181743293 2:1 3:1 4:1 7:1 8:1 9:1 10:1 11:1 12:1 14:1 15:1 16:1 18:1 22:1 25:1 26:1 28:1 29:1 31:1 32:1 
0.9029700729186465 1:1 2:1 3:1 4:1 7:1 8:1 9:1 11:1 12:1 13:1 14:1 15:1 16:1 17:1 19:1 20:1 22:1 25:1 26:1 27:1 34:1 
0.9954842335569011 1:1 2:1 3:1 4:1 6:1 7:1 8:1 9:1 10:1 11:1 12:1 14:1 15:1 16:1 17:1 22:1 23:1 26:1 27:1 28:1 29:1 30:1 31:1 34:1 35:1 36:1 
1.068763195223514 1:1 2:1 7:1 8:1 9:1 11:1 12:1 13:1 15:1 21:1 22:1 24:1 25:1 26:1 28:1 29:1 30:1 31:1 34:1 
1.084935100548565 1:1 2:1 3:1 4:1 5:1 6:1 7:1 10:1 11:1 13:1 15:1 19:1 22:1 25:1 26:1 29:1 30:1 32:1 35:1 36:1 
1.069224467041133 1:1 3:1 7:1 8:1 11:1 12:1 13:1 14:1 19:1 22:1 23:1 26:1 27:1 28:1 31:1 32:1 34:1 
1.081021287026665 1:1 2:1 3:1 5:1 7:1 8:1 11:1 13:1 14:1 15:1 16:1 17:1 19:1 20:1 22:1 24:1 25:1 27:1 29:1 31:1 32:1 33:1 35:1 
1.079301617701864 3:1 4:1 7:1 8:1 9:1 11:1 12:1 14:1 15:1 16:1 17:1 19:1 23:1 24:1 25:1 26:1 28:1 29:1 30:1 34:1 35:1 36:1 
1.079276153279554 1:1 2:1 3:1 6:1 7:1 8:1 9:1 10:1 11:1 12:1 13:1 14:1 16:1 19:1 20:1 22:1 29:1 30:1 31:1 32:1 33:1 
1.040763653861837 1:1 2:1 3:1 4:1 8:1 9:1 10:1 11:1 13:1 14:1 15:1 23:1 26:1 27:1 29:1 30:1 34:1 35:1 
0.8780762131909547 1:1 2:1 3:1 4:1 7:1 8:1 11:1 12:1 13:1 14:1 15:1 16:1 17:1 19:1 20:1 22:1 24:1 26:1 27:1 28:1 30:1 34:1 
0.9891478329691695 1:1 2:1 3:1 4:1 7:1 8:1 10:1 11:1 13:1 14:1 15:1 16:1 17:1 22:1 27:1 28:1 29:1 30:1 34:1 
1.076693360350835 1:1 4:1 7:1 8:1 10:1 13:1 14:1 15:1 16:1 19:1 22:1 26:1 28:1 31:1 32:1 33:1 34:1 36:1 
1.029954692115404 3:1 4:1 7:1 8:1 9:1 10:1 11:1 12:1 13:1 14:1 15:1 19:1 22:1 25:1 26:1 27:1 31:1 32:1 34:1 
1.032682479226622 1:1 2:1 3:1 4:1 7:1 9:1 10:1 11:1 13:1 14:1 15:1 16:1 17:1 22:1 25:1 26:1 27:1 28:1 29:1 32:1 34:1 36:1 
1.058548920320724 1:1 2:1 4:1 7:1 8:1 9:1 10:1 12:1 13:1 14:1 15:1 16:1 18:1 19:1 22:1 25:1 26:1 27:1 31:1 33:1 
1.06503898369073 1:1 2:1 3:1 4:1 7:1 8:1 10:1 11:1 12:1 15:1 19:1 22:1 25:1 26:1 27:1 29:1 31:1 35:1 
1.029099583725938 1:1 3:1 4:1 7:1 8:1 9:1 10:1 11:1 12:1 13:1 14:1 15:1 16:1 17:1 18:1 22:1 25:1 26:1 27:1 28:1 29:1 32:1 34:1 35:1 
0.9823615179129327 1:1 2:1 3:1 4:1 8:1 9:1 10:1 11:1 12:1 13:1 15:1 16:1 19:1 22:1 23:1 25:1 26:1 27:1 29:1 30:1 34:1 35:1 
1.074160643073365 1:1 3:1 8:1 9:1 13:1 15:1 16:1 22:1 26:1 27:1 29:1 30:1 34:1 35:1 
1.046268355566485 3:1 7:1 8:1 9:1 11:1 12:1 13:1 14:1 22:1 24:1 26:1 27:1 31:1 34:1 
1.077682464183397 1:1 2:1 3:1 4:1 8:1 12:1 13:1 16:1 17:1 19:1 22:1 25:1 28:1 30:1 34:1 
1.045626733734069 3:1 4:1 7:1 8:1 9:1 10:1 11:1 12:1 13:1 14:1 16:1 17:1 19:1 22:1 23:1 24:1 26:1 27:1 28:1 29:1 30:1 31:1 34:1 
1.039705643965653 1:1 2:1 3:1 4:1 7:1 8:1 9:1 10:1 11:1 13:1 14:1 15:1 16:1 19:1 22:1 23:1 24:1 25:1 26:1 27:1 29:1 30:1 31:1 34:1 
1.042083377026727 2:1 4:1 7:1 8:1 9:1 12:1 13:1 14:1 15:1 19:1 22:1 25:1 28:1 29:1 30:1 31:1 34:1 35:1 
0.88358854936207 1:1 2:1 4:1 7:1 8:1 9:1 11:1 12:1 13:1 15:1 16:1 17:1 19:1 22:1 25:1 26:1 27:1 28:1 30:1 31:1 34:1 
1.089540738288878 2:1 4:1 7:1 8:1 9:1 15:1 19:1 22:1 23:1 24:1 26:1 27:1 30:1 31:1 36:1 
0.7780887091671098 1:1 2:1 3:1 4:1 8:1 9:1 10:1 11:1 12:1 13:1 14:1 15:1 16:1 17:1 19:1 22:1 23:1 25:1 26:1 27:1 28:1 29:1 30:1 31:1 34:1 
1.071448243050826 2:1 3:1 7:1 8:1 9:1 10:1 11:1 12:1 14:1 15:1 16:1 17:1 19:1 20:1 23:1 26:1 29:1 30:1 31:1 32:1 34:1 35:1 
1.061552076658222 1:1 3:1 7:1 8:1 10:1 13:1 14:1 15:1 16:1 19:1 25:1 26:1 27:1 31:1 32:1 
0.6727041160312894 1:1 2:1 3:1 4:1 7:1 8:1 9:1 11:1 12:1 13:1 14:1 15:1 16:1 17:1 19:1 20:1 22:1 25:1 26:1 27:1 28:1 30:1 31:1 34:1 
1.12418832851093 1:1 2:1 3:1 4:1 5:1 7:1 8:1 9:1 11:1 12:1 15:1 16:1 22:1 24:1 25:1 26:1 27:1 30:1 34:1 35:1 36:1 
1.067763574001094 2:1 3:1 4:1 7:1 8:1 10:1 11:1 13:1 14:1 15:1 16:1 17:1 18:1 19:1 23:1 26:1 27:1 29:1 31:1 34:1 35:1 
1.03405184387082 2:1 3:1 4:1 7:1 8:1 11:1 12:1 13:1 14:1 15:1 16:1 19:1 21:1 22:1 23:1 24:1 25:1 26:1 27:1 28:1 29:1 31:1 34:1 35:1 
1.080855902496571 1:1 2:1 3:1 4:1 6:1 8:1 11:1 12:1 13:1 16:1 17:1 19:1 20:1 21:1 22:1 26:1 27:1 28:1 34:1 
1.049972344194059 1:1 2:1 4:1 5:1 6:1 8:1 9:1 10:1 11:1 12:1 13:1 15:1 16:1 19:1 22:1 24:1 25:1 26:1 27:1 29:1 31:1 34:1 
1.081160199904404 2:1 4:1 9:1 13:1 14:1 15:1 17:1 18:1 19:1 21:1 22:1 23:1 27:1 29:1 30:1 36:1 
1.027575522797862 1:1 2:1 3:1 4:1 7:1 9:1 10:1 11:1 12:1 13:1 14:1 15:1 16:1 19:1 22:1 24:1 27:1 28:1 29:1 30:1 34:1 36:1 
0.9043692607877629 1:1 2:1 3:1 4:1 7:1 8:1 9:1 10:1 11:1 13:1 14:1 15:1 19:1 21:1 22:1 34:1 
1.085293854691526 3:1 4:1 5:1 6:1 7:1 9:1 10:1 11:1 12:1 13:1 14:1 15:1 19:1 24:1 25:1 26:1 27:1 28:1 30:1 33:1 
1.046834917805132 1:1 2:1 3:1 4:1 7:1 8:1 10:1 11:1 13:1 14:1 15:1 18:1 19:1 23:1 25:1 26:1 27:1 28:1 29:1 31:1 32:1 34:1 35:1 
0.9669786248249259 1:1 2:1 3:1 4:1 7:1 9:1 11:1 12:1 13:1 14:1 15:1 19:1 20:1 22:1 26:1 27:1 29:1 31:1 34:1 35:1 
1.048174836738453 1:1 2:1 3:1 4:1 8:1 9:1 10:1 11:1 12:1 13:1 14:1 15:1 19:1 22:1 26:1 27:1 28:1 29:1 30:1 35:1 
0.9896648145405947 1:1 2:1 3:1 4:1 8:1 10:1 11:1 12:1 13:1 15:1 16:1 19:1 22:1 23:1 26:1 27:1 29:1 31:1 34:1 
1.09506181172392 1:1 3:1 9:1 10:1 11:1 13:1 14:1 15:1 16:1 19:1 20:1 21:1 22:1 25:1 26:1 27:1 28:1 31:1 34:1 
1.066052880472868 2:1 3:1 7:1 8:1 9:1 11:1 12:1 13:1 14:1 15:1 16:1 17:1 18:1 22:1 25:1 26:1 27:1 29:1 30:1 32:1 34:1 36:1 
1.080475821702823 2:1 7:1 9:1 11:1 12:1 13:1 15:1 16:1 20:1 21:1 22:1 25:1 26:1 27:1 31:1 32:1 34:1 35:1 
1.082122285820084 1:1 3:1 7:1 8:1 10:1 14:1 19:1 20:1 22:1 24:1 25:1 26:1 27:1 28:1 30:1 31:1 34:1 
1.013901660553387 2:1 3:1 4:1 5:1 6:1 7:1 8:1 9:1 10:1 11:1 13:1 14:1 15:1 19:1 22:1 24:1 25:1 26:1 27:1 28:1 31:1 34:1 
1.044722019479813 2:1 3:1 4:1 6:1 7:1 8:1 9:1 10:1 11:1 12:1 13:1 14:1 15:1 22:1 23:1 25:1 27:1 28:1 29:1 30:1 31:1 34:1 
1.045867544668325 1:1 2:1 3:1 4:1 7:1 8:1 9:1 10:1 11:1 12:1 13:1 14:1 16:1 19:1 24:1 27:1 29:1 34:1 35:1 
1.07900230771678 1:1 2:1 3:1 6:1 7:1 8:1 9:1 12:1 13:1 14:1 16:1 19:1 21:1 22:1 23:1 25:1 26:1 27:1 28:1 33:1 34:1 
1.043055116633196 1:1 2:1 4:1 7:1 8:1 12:1 13:1 14:1 16:1 17:1 19:1 22:1 24:1 26:1 27:1 29:1 30:1 31:1 34:1 
0.99283453276476 2:1 4:1 7:1 8:1 9:1 10:1 11:1 12:1 13:1 14:1 15:1 17:1 22:1 25:1 26:1 27:1 29:1 31:1 34:1 
1.077441205460459 1:1 2:1 3:1 7:1 8:1 9:1 11:1 14:1 15:1 16:1 19:1 20:1 22:1 23:1 26:1 27:1 28:1 29:1 30:1 31:1 32:1 33:1 34:1 35:1 
1.126026082541178 1:1 2:1 3:1 4:1 5:1 7:1 8:1 9:1 10:1 11:1 12:1 13:1 14:1 15:1 16:1 24:1 25:1 26:1 27:1 29:1 30:1 31:1 34:1 35:1 36:1 
1.023426764755067 1:1 2:1 3:1 4:1 6:1 7:1 8:1 9:1 11:1 12:1 13:1 14:1 15:1 16:1 17:1 19:1 22:1 24:1 25:1 27:1 29:1 
0.7338825032346803 1:1 2:1 3:1 4:1 7:1 8:1 9:1 10:1 11:1 12:1 13:1 14:1 15:1 16:1 19:1 22:1 24:1 28:1 29:1 30:1 31:1 34:1 
1.034786567876178 1:1 2:1 3:1 7:1 8:1 9:1 10:1 11:1 12:1 13:1 14:1 15:1 16:1 17:1 19:1 22:1 26:1 29:1 30:1 31:1 34:1 
1.070469004797511 1:1 2:1 4:1 7:1 8:1 10:1 11:1 12:1 13:1 14:1 15:1 16:1 19:1 20:1 25:1 27:1 29:1 31:1 32:1 35:1 
0.9889203751628276 1:1 2:1 3:1 4:1 7:1 8:1 9:1 11:1 12:1 13:1 14:1 15:1 19:1 26:1 29:1 30:1 31:1 
0.9610686098838962 1:1 3:1 4:1 7:1 8:1 9:1 10:1 11:1 13:1 14:1 15:1 16:1 19:1 22:1 26:1 27:1 29:1 34:1 35:1 
0.9738788664956294 1:1 2:1 3:1 4:1 7:1 8:1 9:1 10:1 11:1 13:1 14:1 15:1 16:1 19:1 20:1 25:1 26:1 27:1 28:1 29:1 31:1 32:1 34:1 
1.064322322604819 1:1 2:1 3:1 4:1 5:1 7:1 9:1 10:1 12:1 14:1 15:1 16:1 19:1 22:1 24:1 25:1 28:1 29:1 31:1 32:1 34:1 
0.9443759463253335 1:1 2:1 3:1 8:1 9:1 10:1 11:1 12:1 13:1 14:1 15:1 16:1 19:1 22:1 26:1 28:1 29:1 30:1 31:1 32:1 34:1 
1.063234873155811 1:1 2:1 6:1 7:1 8:1 9:1 10:1 11:1 13:1 14:1 15:1 22:1 25:1 26:1 27:1 30:1 35:1 
1.077943410492892 1:1 2:1 3:1 4:1 5:1 8:1 12:1 13:1 14:1 15:1 16:1 20:1 23:1 24:1 25:1 26:1 27:1 28:1 29:1 30:1 32:1 34:1 
1.065229283313385 1:1 2:1 4:1 7:1 8:1 12:1 13:1 14:1 16:1 19:1 29:1 31:1 33:1 
1.064133446775126 1:1 2:1 4:1 6:1 7:1 11:1 13:1 14:1 15:1 16:1 25:1 26:1 27:1 28:1 30:1 34:1 
1.075885598383733 1:1 2:1 3:1 8:1 9:1 10:1 11:1 13:1 15:1 19:1 20:1 23:1 26:1 27:1 28:1 29:1 30:1 34:1 
1.091497531489762 3:1 4:1 7:1 11:1 12:1 13:1 14:1 19:1 26:1 27:1 28:1 29:1 33:1 
1.078698884043757 1:1 2:1 3:1 4:1 5:1 6:1 7:1 8:1 9:1 10:1 13:1 15:1 16:1 17:1 19:1 22:1 23:1 25:1 26:1 35:1 
0.7938536280241849 1:1 2:1 3:1 4:1 7:1 9:1 11:1 12:1 13:1 14:1 15:1 16:1 17:1 18:1 19:1 22:1 23:1 27:1 28:1 29:1 30:1 31:1 35:1 
1.089871766391954 1:1 2:1 3:1 4:1 5:1 6:1 7:1 8:1 9:1 10:1 11:1 12:1 14:1 15:1 16:1 19:1 22:1 24:1 25:1 26:1 27:1 28:1 30:1 33:1 36:1 
1.083932641640896 2:1 3:1 4:1 6:1 7:1 9:1 10:1 11:1 13:1 14:1 19:1 22:1 24:1 28:1 29:1 30:1 34:1 
1.005634569736809 1:1 2:1 3:1 5:1 7:1 8:1 9:1 10:1 11:1 12:1 13:1 14:1 15:1 19:1 22:1 26:1 27:1 29:1 31:1 34:1 36:1 
1.066393287290466 2:1 7:1 8:1 9:1 10:1 11:1 13:1 17:1 19:1 22:1 26:1 28:1 29:1 30:1 31:1 34:1 
1.002390825796071 1:1 2:1 3:1 4:1 7:1 8:1 9:1 11:1 12:1 14:1 15:1 19:1 22:1 25:1 27:1 29:1 30:1 31:1 32:1 35:1 
0.9708154489015597 1:1 2:1 3:1 4:1 7:1 8:1 9:1 10:1 11:1 12:1 13:1 15:1 16:1 19:1 22:1 24:1 25:1 26:1 27:1 28:1 29:1 32:1 34:1 
1.03156188266065 1:1 3:1 6:1 7:1 8:1 9:1 11:1 12:1 13:1 14:1 15:1 19:1 22:1 25:1 26:1 28:1 29:1 31:1 32:1 
1.072030395140164 1:1 2:1 3:1 7:1 8:1 9:1 10:1 11:1 13:1 15:1 22:1 23:1 25:1 26:1 27:1 29:1 32:1 
1.028282986927252 1:1 2:1 3:1 4:1 7:1 8:1 13:1 14:1 19:1 22:1 27:1 31:1 34:1 
1.033121072913141 1:1 4:1 5:1 7:1 8:1 9:1 10:1 11:1 12:1 14:1 15:1 16:1 17:1 19:1 22:1 26:1 27:1 28:1 30:1 34:1 
1.04553720764956 1:1 2:1 3:1 7:1 9:1 10:1 11:1 12:1 13:1 14:1 15:1 20:1 22:1 25:1 26:1 27:1 28:1 29:1 31:1 33:1 34:1 
1.080049868171354 1:1 2:1 4:1 7:1 8:1 9:1 12:1 13:1 19:1 20:1 22:1 23:1 24:1 25:1 26:1 27:1 29:1 30:1 34:1 
1.008032005842023 1:1 2:1 3:1 4:1 5:1 7:1 11:1 12:1 13:1 14:1 15:1 16:1 19:1 20:1 22:1 24:1 25:1 26:1 27:1 28:1 30:1 31:1 32:1 34:1 
1.066327627123757 1:1 2:1 3:1 4:1 6:1 7:1 8:1 10:1 12:1 13:1 14:1 15:1 16:1 18:1 22:1 23:1 27:1 28:1 29:1 30:1 31:1 34:1 
1.081308645138322 1:1 2:1 3:1 8:1 11:1 12:1 13:1 14:1 16:1 18:1 19:1 21:1 24:1 26:1 28:1 30:1 32:1 34:1 
1.084094179934433 1:1 4:1 6:1 9:1 10:1 11:1 14:1 19:1 22:1 23:1 24:1 25:1 26:1 27:1 28:1 29:1 34:1 35:1 
0.8950577302999925 1:1 2:1 3:1 4:1 7:1 8:1 9:1 12:1 13:1 14:1 15:1 16:1 17:1 19:1 22:1 24:1 26:1 28:1 29:1 30:1 31:1 34:1 35:1 
1.177093798771561 1:1 2:1 3:1 7:1 8:1 9:1 10:1 11:1 12:1 13:1 14:1 15:1 19:1 20:1 21:1 22:1 26:1 27:1 28:1 29:1 30:1 31:1 34:1 35:1 
0.3622836483762117 1:1 2:1 3:1 4:1 7:1 8:1 9:1 10:1 11:1 12:1 13:1 14:1 15:1 16:1 19:1 26:1 27:1 28:1 30:1 31:1 34:1 
1.048934708798387 1:1 2:1 8:1 9:1 10:1 12:1 13:1 14:1 15:1 19:1 24:1 25:1 26:1 27:1 28:1 29:1 30:1 31:1 32:1 34:1 
1.099587283837359 1:1 3:1 4:1 5:1 6:1 7:1 9:1 10:1 11:1 13:1 14:1 15:1 19:1 20:1 22:1 25:1 26:1 30:1 31:1 
1.077096575479531 1:1 2:1 7:1 8:1 11:1 12:1 13:1 14:1 15:1 19:1 22:1 24:1 25:1 26:1 27:1 29:1 30:1 36:1 
0.8786497988086827 1:1 2:1 3:1 4:1 5:1 7:1 8:1 9:1 11:1 12:1 13:1 14:1 15:1 19:1 22:1 26:1 27:1 28:1 29:1 30:1 34:1 
1.071125723969097 1:1 2:1 4:1 6:1 7:1 8:1 9:1 10:1 11:1 12:1 13:1 15:1 18:1 19:1 20:1 22:1 23:1 26:1 28:1 29:1 31:1 34:1 35:1 
1.077848842898721 1:1 2:1 3:1 4:1 6:1 7:1 9:1 11:1 12:1 13:1 14:1 15:1 16:1 17:1 19:1 20:1 21:1 26:1 27:1 28:1 29:1 32:1 35:1 
1.069409905621846 1:1 2:1 3:1 4:1 8:1 9:1 11:1 13:1 14:1 15:1 16:1 19:1 21:1 22:1 23:1 25:1 27:1 29:1 30:1 31:1 36:1 
1.031133442028476 1:1 2:1 3:1 4:1 7:1 13:1 14:1 15:1 16:1 19:1 22:1 25:1 26:1 27:1 28:1 29:1 34:1 35:1 36:1 
1.082509603961864 2:1 3:1 5:1 7:1 8:1 9:1 11:1 13:1 14:1 15:1 18:1 19:1 21:1 22:1 23:1 25:1 26:1 27:1 28:1 29:1 34:1 
0.9904560495117571 1:1 2:1 3:1 4:1 7:1 8:1 9:1 10:1 11:1 12:1 13:1 14:1 15:1 16:1 18:1 19:1 20:1 22:1 25:1 26:1 27:1 28:1 29:1 30:1 35:1 
1.070275189308311 1:1 4:1 8:1 9:1 12:1 13:1 14:1 15:1 16:1 18:1 19:1 22:1 25:1 26:1 27:1 29:1 31:1 32:1 33:1 34:1 35:1 
1.056230882936716 1:1 2:1 3:1 5:1 6:1 7:1 8:1 9:1 10:1 11:1 13:1 14:1 15:1 19:1 22:1 25:1 26:1 27:1 29:1 31:1 35:1 
0.9888760282942126 1:1 2:1 4:1 8:1 9:1 10:1 11:1 12:1 13:1 14:1 15:1 16:1 19:1 22:1 24:1 27:1 30:1 31:1 34:1 
1.079803234432123 2:1 3:1 6:1 8:1 9:1 10:1 11:1 12:1 13:1 16:1 17:1 25:1 26:1 27:1 28:1 29:1 30:1 34:1 35:1 36:1 
1.076408499570086 1:1 2:1 4:1 8:1 9:1 10:1 11:1 12:1 13:1 14:1 15:1 16:1 19:1 28:1 31:1 32:1 
1.077461668905943 1:1 2:1 3:1 4:1 8:1 9:1 11:1 12:1 13:1 14:1 19:1 22:1 24:1 26:1 27:1 30:1 31:1 32:1 33:1 34:1 36:1 
1.087457522879863 3:1 4:1 7:1 8:1 9:1 10:1 11:1 13:1 14:1 18:1 19:1 20:1 22:1 23:1 24:1 27:1 28:1 29:1 30:1 34:1 
1.070656934989364 1:1 2:1 7:1 8:1 9:1 10:1 11:1 12:1 13:1 14:1 16:1 17:1 21:1 24:1 25:1 26:1 27:1 28:1 30:1 31:1 34:1 35:1 
1.072818384455593 1:1 3:1 7:1 9:1 10:1 11:1 12:1 13:1 14:1 15:1 16:1 17:1 18:1 19:1 22:1 23:1 25:1 26:1 29:1 34:1 35:1 
1.064233990339119 1:1 2:1 3:1 4:1 5:1 7:1 8:1 10:1 11:1 12:1 13:1 15:1 22:1 26:1 27:1 28:1 30:1 31:1 32:1 
1.07718473960563 2:1 3:1 6:1 7:1 10:1 11:1 12:1 14:1 15:1 19:1 22:1 24:1 30:1 31:1 34:1 35:1 
1.08295224643751 1:1 2:1 3:1 7:1 9:1 11:1 12:1 13:1 16:1 18:1 19:1 20:1 21:1 22:1 25:1 26:1 28:1 29:1 34:1 35:1 
0.9599198636287239 1:1 2:1 3:1 4:1 7:1 8:1 9:1 10:1 11:1 12:1 14:1 15:1 16:1 18:1 19:1 20:1 21:1 22:1 23:1 26:1 27:1 28:1 29:1 31:1 34:1 
1.034043293281004 1:1 2:1 3:1 4:1 7:1 8:1 9:1 11:1 12:1 15:1 19:1 24:1 25:1 26:1 27:1 29:1 30:1 35:1 
1.062254090514307 1:1 2:1 3:1 4:1 9:1 13:1 14:1 16:1 19:1 22:1 23:1 25:1 26:1 27:1 28:1 31:1 32:1 34:1 
1.080596071809818 1:1 3:1 4:1 5:1 9:1 10:1 11:1 12:1 13:1 14:1 15:1 16:1 22:1 28:1 29:1 30:1 32:1 33:1 34:1 35:1 
0.9860827685160397 1:1 2:1 3:1 4:1 7:1 8:1 9:1 12:1 14:1 15:1 16:1 19:1 22:1 23:1 26:1 27:1 28:1 29:1 35:1 
1.03924039807457 1:1 2:1 3:1 4:1 9:1 10:1 11:1 12:1 15:1 19:1 22:1 24:1 25:1 27:1 28:1 31:1 34:1 
0.6259372853842281 1:1 2:1 3:1 4:1 7:1 8:1 9:1 10:1 11:1 12:1 13:1 14:1 15:1 16:1 17:1 22:1 23:1 26:1 27:1 28:1 29:1 31:1 34:1 35:1 
1.088585813918751 1:1 2:1 3:1 4:1 5:1 6:1 7:1 8:1 9:1 11:1 14:1 15:1 16:1 17:1 18:1 19:1 20:1 22:1 25:1 26:1 27:1 29:1 34:1 
1.069837140748889 1:1 3:1 4:1 9:1 10:1 11:1 12:1 13:1 14:1 16:1 17:1 18:1 19:1 22:1 25:1 26:1 27:1 28:1 29:1 30:1 31:1 32:1 34:1 35:1 36:1 
0.8219011393694232 1:1 2:1 3:1 4:1 7:1 8:1 9:1 10:1 11:1 12:1 14:1 15:1 16:1 19:1 22:1 26:1 27:1 28:1 30:1 31:1 34:1 35:1 36:1 
1.045705441215097 1:1 3:1 4:1 5:1 7:1 8:1 9:1 11:1 12:1 13:1 14:1 15:1 16:1 19:1 21:1 26:1 27:1 28:1 30:1 31:1 34:1 35:1 
1.077131513552432 1:1 2:1 3:1 4:1 6:1 8:1 9:1 10:1 11:1 12:1 13:1 14:1 22:1 26:1 27:1 28:1 29:1 30:1 
1.036394462308954 2:1 3:1 4:1 7:1 8:1 9:1 13:1 14:1 15:1 16:1 18:1 19:1 22:1 23:1 25:1 26:1 28:1 31:1 34:1 35:1 
1.068290401819871 1:1 3:1 7:1 8:1 9:1 10:1 11:1 13:1 14:1 15:1 19:1 21:1 24:1 25:1 27:1 31:1 32:1 34:1 
1.078421812058666 1:1 2:1 4:1 5:1 6:1 8:1 9:1 10:1 11:1 12:1 14:1 15:1 16:1 17:1 22:1 25:1 27:1 28:1 29:1 30:1 34:1 36:1 
1.126625397240526 2:1 3:1 4:1 5:1 7:1 8:1 9:1 10:1 11:1 12:1 14:1 15:1 19:1 20:1 22:1 24:1 25:1 26:1 27:1 28:1 30:1 34:1 36:1 
1.111776030486752 1:1 3:1 4:1 5:1 6:1 7:1 8:1 9:1 10:1 11:1 14:1 15:1 16:1 19:1 22:1 23:1 24:1 25:1 26:1 27:1 28:1 29:1 30:1 34:1 
0.9517246703752569 1:1 2:1 3:1 4:1 7:1 9:1 10:1 14:1 15:1 16:1 22:1 25:1 26:1 27:1 28:1 31:1 34:1 
1.07963453005598 2:1 4:1 7:1 8:1 10:1 14:1 15:1 17:1 22:1 24:1 25:1 26:1 27:1 28:1 29:1 34:1 
1.092530613207011 1:1 2:1 3:1 4:1 5:1 6:1 7:1 9:1 11:1 12:1 13:1 14:1 16:1 19:1 22:1 25:1 26:1 27:1 29:1 30:1 34:1 35:1 
1.085665504826326 1:1 2:1 3:1 4:1 5:1 6:1 7:1 8:1 9:1 11:1 12:1 13:1 14:1 15:1 18:1 19:1 20:1 21:1 25:1 26:1 27:1 28:1 29:1 31:1 33:1 34:1 35:1 
1.094870433105331 3:1 4:1 7:1 8:1 10:1 11:1 12:1 13:1 14:1 15:1 16:1 17:1 19:1 21:1 22:1 23:1 26:1 27:1 29:1 30:1 31:1 32:1 33:1 36:1 
1.077002779831527 2:1 3:1 4:1 5:1 6:1 8:1 9:1 10:1 11:1 12:1 14:1 15:1 16:1 17:1 19:1 21:1 22:1 26:1 30:1 34:1 
1.083210471964109 1:1 2:1 3:1 6:1 7:1 8:1 9:1 13:1 14:1 15:1 17:1 21:1 22:1 23:1 24:1 25:1 26:1 27:1 36:1 
1.020562793865615 1:1 2:1 3:1 4:1 7:1 8:1 9:1 11:1 12:1 13:1 14:1 15:1 22:1 24:1 25:1 26:1 27:1 29:1 30:1 32:1 
1.072298120471729 1:1 4:1 6:1 8:1 10:1 11:1 12:1 13:1 14:1 15:1 16:1 21:1 25:1 26:1 27:1 29:1 31:1 34:1 
1.01256087295357 1:1 2:1 3:1 4:1 6:1 7:1 8:1 9:1 12:1 14:1 15:1 16:1 22:1 29:1 31:1 34:1 
0.8841865399255054 1:1 2:1 3:1 4:1 7:1 9:1 10:1 11:1 12:1 13:1 14:1 15:1 19:1 21:1 22:1 25:1 26:1 27:1 28:1 29:1 31:1 34:1 35:1 
1.073994811290903 1:1 2:1 3:1 4:1 5:1 6:1 8:1 9:1 14:1 15:1 19:1 27:1 
1.070882220335512 1:1 2:1 3:1 8:1 9:1 10:1 11:1 12:1 13:1 14:1 15:1 17:1 18:1 19:1 22:1 24:1 25:1 28:1 29:1 30:1 34:1 35:1 
1.105143184875505 1:1 2:1 3:1 7:1 8:1 9:1 10:1 11:1 12:1 13:1 14:1 15:1 19:1 22:1 25:1 26:1 27:1 28:1 35:1 
1.055518549048159 1:1 4:1 7:1 8:1 9:1 12:1 13:1 14:1 16:1 19:1 22:1 25:1 26:1 27:1 28:1 29:1 31:1 36:1 
0.9886561795935253 1:1 3:1 4:1 7:1 8:1 9:1 11:1 13:1 14:1 15:1 16:1 19:1 20:1 22:1 25:1 26:1 27:1 28:1 30:1 34:1 
1.080081198856657 1:1 2:1 3:1 6:1 7:1 9:1 10:1 11:1 13:1 14:1 15:1 16:1 17:1 18:1 19:1 20:1 22:1 23:1 24:1 25:1 26:1 27:1 28:1 29:1 30:1 34:1 35:1 36:1 
1.093025734347442 1:1 2:1 3:1 4:1 5:1 6:1 7:1 9:1 12:1 13:1 14:1 15:1 16:1 17:1 18:1 19:1 20:1 22:1 24:1 26:1 27:1 30:1 31:1 34:1 
1.042900471355417 1:1 3:1 4:1 5:1 7:1 9:1 10:1 11:1 12:1 13:1 14:1 16:1 17:1 19:1 22:1 23:1 24:1 26:1 27:1 29:1 31:1 34:1 
1.051205275505017 2:1 4:1 8:1 9:1 11:1 13:1 14:1 15:1 16:1 17:1 19:1 22:1 25:1 26:1 28:1 29:1 34:1 35:1 
1.080187084162359 1:1 2:1 3:1 4:1 5:1 6:1 7:1 9:1 11:1 12:1 13:1 14:1 16:1 17:1 18:1 19:1 20:1 21:1 22:1 25:1 26:1 27:1 29:1 31:1 34:1 
1.048150250284143 1:1 2:1 3:1 4:1 8:1 9:1 11:1 12:1 14:1 16:1 19:1 24:1 25:1 26:1 29:1 30:1 
1.057541265534529 1:1 2:1 3:1 4:1 5:1 7:1 9:1 11:1 14:1 16:1 17:1 22:1 25:1 26:1 28:1 29:1 31:1 34:1 
1.077841488228105 2:1 3:1 4:1 7:1 8:1 9:1 12:1 15:1 19:1 20:1 22:1 24:1 26:1 27:1 28:1 30:1 36:1 
1.07169127549172 1:1 2:1 3:1 4:1 6:1 7:1 8:1 10:1 11:1 14:1 15:1 16:1 19:1 23:1 27:1 28:1 29:1 31:1 32:1 34:1 
1.0473706353744 2:1 3:1 4:1 5:1 7:1 8:1 9:1 12:1 13:1 14:1 15:1 22:1 24:1 25:1 26:1 27:1 28:1 30:1 31:1 34:1 36:1 
0.9563372728966549 1:1 2:1 3:1 4:1 7:1 8:1 9:1 10:1 11:1 12:1 15:1 22:1 27:1 28:1 29:1 30:1 31:1 34:1 
0.9831863868625803 1:1 2:1 3:1 4:1 7:1 8:1 9:1 12:1 14:1 15:1 19:1 22:1 25:1 26:1 27:1 29:1 31:1 32:1 
0.9837012580059712 1:1 2:1 3:1 4:1 7:1 8:1 11:1 12:1 14:1 15:1 16:1 22:1 23:1 25:1 26:1 27:1 28:1 29:1 34:1 35:1 
1.082667656290359 1:1 2:1 3:1 4:1 11:1 13:1 14:1 15:1 20:1 21:1 22:1 23:1 24:1 26:1 28:1 30:1 31:1 34:1 
0.9842573206271513 1:1 2:1 3:1 6:1 7:1 8:1 9:1 11:1 12:1 15:1 16:1 19:1 22:1 24:1 26:1 27:1 28:1 30:1 31:1 32:1 34:1 
1.032726899608278 1:1 2:1 3:1 7:1 9:1 10:1 11:1 12:1 13:1 14:1 15:1 16:1 17:1 19:1 22:1 26:1 27:1 28:1 30:1 31:1 32:1 33:1 34:1 
1.066483138207647 1:1 2:1 3:1 7:1 8:1 9:1 10:1 11:1 12:1 13:1 15:1 19:1 21:1 22:1 24:1 26:1 27:1 28:1 29:1 31:1 34:1 35:1 
1.061562462341303 1:1 2:1 3:1 7:1 9:1 10:1 11:1 12:1 13:1 14:1 15:1 16:1 18:1 19:1 21:1 22:1 26:1 27:1 31:1 32:1 34:1 
0.9521243606859308 1:1 2:1 3:1 4:1 5:1 7:1 8:1 9:1 10:1 11:1 12:1 13:1 14:1 15:1 16:1 22:1 25:1 26:1 27:1 29:1 34:1 35:1 
1.070458261854017 1:1 3:1 4:1 5:1 7:1 8:1 9:1 10:1 11:1 12:1 14:1 15:1 16:1 18:1 19:1 20:1 27:1 28:1 30:1 34:1 
1.081325943173162 1:1 6:1 7:1 8:1 9:1 10:1 11:1 12:1 13:1 14:1 15:1 19:1 20:1 21:1 26:1 30:1 31:1 
0.9302835153015246 1:1 3:1 4:1 7:1 8:1 9:1 11:1 12:1 13:1 14:1 16:1 17:1 18:1 19:1 22:1 25:1 26:1 27:1 28:1 29:1 31:1 34:1 
1.069030201723694 2:1 3:1 4:1 5:1 7:1 8:1 9:1 11:1 12:1 13:1 14:1 16:1 19:1 20:1 21:1 22:1 23:1 25:1 26:1 27:1 28:1 29:1 30:1 34:1 
1.049296096615564 1:1 3:1 4:1 7:1 8:1 9:1 10:1 11:1 12:1 14:1 15:1 16:1 17:1 22:1 24:1 26:1 28:1 31:1 
1.079909436311625 1:1 2:1 3:1 7:1 8:1 9:1 10:1 12:1 14:1 15:1 21:1 22:1 25:1 28:1 31:1 32:1 34:1 
1.018089006093956 1:1 2:1 3:1 4:1 5:1 7:1 8:1 10:1 12:1 13:1 14:1 15:1 16:1 19:1 22:1 25:1 26:1 28:1 29:1 31:1 34:1 
1.067204545394522 1:1 2:1 3:1 4:1 7:1 8:1 9:1 12:1 13:1 14:1 15:1 18:1 19:1 21:1 22:1 28:1 29:1 30:1 31:1 34:1 35:1 36:1 
1.018246347251274 1:1 2:1 3:1 4:1 6:1 7:1 8:1 12:1 13:1 14:1 15:1 16:1 18:1 22:1 26:1 27:1 28:1 29:1 31:1 34:1 
1.08045775145312 1:1 2:1 3:1 4:1 7:1 9:1 13:1 14:1 16:1 17:1 19:1 20:1 21:1 22:1 24:1 25:1 26:1 28:1 29:1 31:1 35:1 
1.074223585800692 1:1 2:1 3:1 6:1 7:1 8:1 9:1 10:1 11:1 12:1 15:1 17:1 19:1 21:1 22:1 25:1 26:1 27:1 28:1 29:1 30:1 31:1 32:1 34:1 
1.056258200939113 1:1 4:1 7:1 8:1 9:1 12:1 14:1 15:1 16:1 19:1 22:1 25:1 26:1 27:1 28:1 30:1 34:1 35:1 36:1 
1.072390317832935 1:1 2:1 3:1 4:1 6:1 7:1 8:1 9:1 13:1 14:1 15:1 19:1 22:1 24:1 25:1 26:1 27:1 29:1 30:1 31:1 35:1 
1.040305222501573 1:1 3:1 4:1 7:1 9:1 10:1 11:1 12:1 13:1 14:1 15:1 16:1 17:1 19:1 22:1 25:1 26:1 30:1 35:1 
1.075517877421178 1:1 2:1 3:1 4:1 5:1 7:1 8:1 9:1 10:1 11:1 12:1 13:1 19:1 22:1 23:1 24:1 26:1 27:1 28:1 29:1 31:1 32:1 34:1 
1.084126090871934 3:1 4:1 6:1 8:1 9:1 10:1 11:1 12:1 14:1 15:1 19:1 20:1 21:1 22:1 24:1 25:1 26:1 27:1 29:1 30:1 34:1 
1.004039028024624 1:1 2:1 3:1 4:1 7:1 8:1 9:1 11:1 13:1 15:1 19:1 22:1 23:1 25:1 27:1 28:1 29:1 34:1 35:1 
1.085437983081217 1:1 2:1 5:1 6:1 7:1 8:1 9:1 11:1 12:1 13:1 14:1 16:1 19:1 21:1 22:1 23:1 26:1 27:1 28:1 29:1 30:1 32:1 
1.013724574280758 1:1 3:1 7:1 8:1 9:1 11:1 12:1 14:1 16:1 22:1 25:1 26:1 27:1 29:1 31:1 34:1 
1.086257377253494 2:1 3:1 8:1 9:1 10:1 11:1 12:1 13:1 14:1 15:1 19:1 21:1 22:1 23:1 25:1 26:1 28:1 30:1 31:1 34:1 36:1 
0.9233466908627593 1:1 2:1 3:1 7:1 8:1 9:1 13:1 15:1 16:1 19:1 22:1 26:1 27:1 28:1 30:1 31:1 32:1 34:1 
1.068764353942878 1:1 2:1 3:1 4:1 5:1 6:1 7:1 9:1 11:1 12:1 14:1 15:1 16:1 17:1 19:1 26:1 29:1 31:1 32:1 35:1 
0.9722992009092337 2:1 3:1 4:1 7:1 8:1 9:1 10:1 11:1 12:1 13:1 14:1 15:1 16:1 22:1 24:1 25:1 26:1 27:1 30:1 31:1 32:1 
1.032476539459964 1:1 2:1 3:1 4:1 7:1 8:1 9:1 10:1 11:1 12:1 13:1 15:1 19:1 25:1 26:1 27:1 29:1 30:1 31:1 32:1 36:1 
1.063553747754699 1:1 2:1 3:1 4:1 5:1 8:1 12:1 13:1 14:1 15:1 21:1 22:1 23:1 26:1 27:1 28:1 34:1 
1.06263394621765 1:1 4:1 7:1 9:1 10:1 11:1 12:1 13:1 14:1 15:1 16:1 21:1 22:1 25:1 26:1 27:1 29:1 31:1 35:1 
1.032006176143617 1:1 2:1 3:1 6:1 7:1 8:1 9:1 11:1 12:1 13:1 14:1 15:1 16:1 19:1 22:1 24:1 25:1 26:1 29:1 30:1 
1.077759342850758 2:1 3:1 4:1 5:1 6:1 7:1 9:1 10:1 13:1 14:1 15:1 16:1 17:1 19:1 25:1 27:1 28:1 30:1 33:1 
1.080481943565106 1:1 2:1 3:1 4:1 5:1 6:1 7:1 9:1 11:1 12:1 13:1 14:1 15:1 16:1 17:1 19:1 24:1 26:1 29:1 30:1 32:1 33:1 34:1 36:1 
0.6669111201235925 1:1 2:1 3:1 4:1 7:1 8:1 9:1 12:1 13:1 14:1 15:1 16:1 19:1 22:1 26:1 27:1 28:1 29:1 31:1 34:1 35:1 
1.061888326556392 1:1 2:1 3:1 4:1 8:1 9:1 10:1 11:1 12:1 13:1 15:1 16:1 17:1 19:1 21:1 22:1 23:1 24:1 25:1 26:1 27:1 29:1 30:1 31:1 32:1 36:1 
1.058805878019008 1:1 2:1 3:1 4:1 7:1 8:1 9:1 12:1 14:1 15:1 19:1 21:1 22:1 26:1 27:1 28:1 30:1 31:1 32:1 34:1 35:1 
1.080827615988174 1:1 2:1 4:1 5:1 7:1 8:1 10:1 12:1 13:1 19:1 21:1 22:1 26:1 27:1 28:1 30:1 32:1 34:1 
1.068683566749452 1:1 2:1 4:1 5:1 6:1 7:1 9:1 10:1 11:1 12:1 13:1 16:1 22:1 24:1 25:1 26:1 27:1 28:1 30:1 31:1 32:1 34:1 
1.09458713363764 1:1 3:1 7:1 9:1 12:1 14:1 15:1 16:1 17:1 19:1 25:1 26:1 28:1 29:1 
1.082712700514304 3:1 4:1 7:1 9:1 10:1 11:1 12:1 13:1 14:1 15:1 16:1 19:1 20:1 26:1 27:1 30:1 31:1 35:1 36:1 
0.9841814837972744 2:1 3:1 4:1 7:1 8:1 9:1 10:1 11:1 12:1 13:1 14:1 16:1 17:1 22:1 26:1 27:1 28:1 31:1 32:1 34:1 
0.9611510164947621 1:1 2:1 3:1 4:1 8:1 9:1 10:1 11:1 12:1 13:1 14:1 15:1 19:1 21:1 22:1 25:1 26:1 27:1 28:1 29:1 34:1 
1.094412554086595 1:1 3:1 4:1 7:1 8:1 9:1 10:1 13:1 14:1 15:1 16:1 17:1 21:1 22:1 26:1 29:1 
1.07355000299566 1:1 2:1 5:1 6:1 7:1 8:1 9:1 10:1 11:1 13:1 14:1 15:1 16:1 17:1 21:1 22:1 26:1 27:1 28:1 29:1 34:1 
1.076728607261074 1:1 4:1 5:1 8:1 9:1 10:1 11:1 12:1 13:1 14:1 15:1 21:1 26:1 27:1 34:1 35:1 36:1 
1.081763630404486 1:1 3:1 6:1 7:1 10:1 12:1 13:1 14:1 15:1 16:1 19:1 20:1 21:1 22:1 23:1 24:1 25:1 26:1 27:1 31:1 32:1 
0.9977899939149379 2:1 3:1 7:1 9:1 10:1 11:1 12:1 13:1 14:1 15:1 16:1 22:1 25:1 26:1 30:1 31:1 34:1 
1.072261275947912 1:1 2:1 3:1 5:1 7:1 8:1 11:1 14:1 15:1 16:1 19:1 21:1 22:1 27:1 28:1 30:1 31:1 
0.9354471935803051 2:1 3:1 4:1 7:1 8:1 9:1 10:1 12:1 13:1 14:1 15:1 16:1 19:1 22:1 25:1 26:1 28:1 31:1 34:1 
1.064263374597377 1:1 7:1 8:1 10:1 11:1 12:1 13:1 14:1 19:1 26:1 27:1 28:1 31:1 
0.9633680661176541 1:1 3:1 4:1 7:1 8:1 9:1 10:1 11:1 12:1 14:1 15:1 19:1 22:1 26:1 27:1 28:1 29:1 30:1 31:1 34:1 35:1 36:1 
1.07671760497278 1:1 2:1 3:1 4:1 5:1 8:1 9:1 11:1 12:1 13:1 14:1 16:1 17:1 19:1 22:1 23:1 24:1 25:1 26:1 27:1 28:1 30:1 31:1 33:1 34:1 35:1 36:1 
1.079359307797198 1:1 2:1 3:1 4:1 7:1 8:1 9:1 10:1 11:1 12:1 13:1 14:1 15:1 16:1 19:1 20:1 21:1 22:1 24:1 25:1 26:1 27:1 29:1 31:1 
1.073036646191619 1:1 2:1 3:1 10:1 11:1 12:1 14:1 15:1 19:1 24:1 25:1 26:1 28:1 29:1 31:1 34:1 35:1 
1.066919063383916 1:1 3:1 4:1 9:1 10:1 11:1 12:1 13:1 14:1 15:1 16:1 17:1 18:1 19:1 20:1 22:1 24:1 25:1 26:1 27:1 28:1 29:1 30:1 34:1 
0.9487386616614056 1:1 2:1 3:1 8:1 9:1 10:1 11:1 12:1 14:1 15:1 16:1 17:1 19:1 22:1 24:1 25:1 26:1 28:1 31:1 32:1 34:1 
0.844174479728303 1:1 2:1 3:1 4:1 7:1 8:1 9:1 11:1 12:1 14:1 15:1 16:1 22:1 26:1 27:1 28:1 31:1 
1.030681225881352 1:1 2:1 3:1 7:1 8:1 9:1 11:1 12:1 13:1 14:1 15:1 22:1 25:1 29:1 30:1 31:1 32:1 34:1 35:1 36:1 
1.025811702982335 1:1 2:1 3:1 4:1 7:1 8:1 9:1 10:1 11:1 13:1 14:1 15:1 19:1 21:1 22:1 24:1 25:1 27:1 28:1 30:1 31:1 32:1 
0.9272418485394163 1:1 2:1 3:1 4:1 7:1 8:1 10:1 11:1 12:1 13:1 14:1 15:1 16:1 19:1 22:1 28:1 29:1 34:1 
1.030192496026996 1:1 2:1 3:1 6:1 7:1 8:1 9:1 11:1 12:1 13:1 14:1 15:1 17:1 18:1 22:1 26:1 27:1 28:1 30:1 34:1 
0.9719242424293081 1:1 2:1 3:1 4:1 7:1 8:1 9:1 13:1 14:1 15:1 22:1 24:1 25:1 27:1 28:1 30:1 31:1 32:1 
1.014253385871452 1:1 2:1 3:1 6:1 7:1 8:1 9:1 10:1 11:1 12:1 13:1 14:1 15:1 16:1 19:1 22:1 23:1 26:1 27:1 29:1 31:1 
0.9835800480546782 1:1 2:1 3:1 4:1 7:1 8:1 9:1 10:1 11:1 12:1 13:1 14:1 19:1 22:1 27:1 28:1 34:1 35:1 
1.080333830353324 1:1 2:1 4:1 5:1 8:1 9:1 11:1 12:1 15:1 18:1 19:1 21:1 22:1 25:1 26:1 27:1 29:1 34:1 35:1 
1.082494182496031 1:1 3:1 4:1 5:1 8:1 11:1 13:1 14:1 19:1 20:1 22:1 26:1 27:1 30:1 31:1 36:1 
1.094879284030625 1:1 2:1 3:1 4:1 5:1 6:1 7:1 8:1 9:1 11:1 12:1 15:1 19:1 21:1 25:1 26:1 27:1 29:1 30:1 
1.04356435438045 1:1 3:1 4:1 7:1 8:1 9:1 11:1 12:1 13:1 14:1 15:1 16:1 19:1 20:1 21:1 22:1 24:1 25:1 26:1 27:1 28:1 29:1 31:1 34:1 35:1 36:1 
1.065205471447556 1:1 2:1 4:1 6:1 7:1 9:1 11:1 13:1 14:1 15:1 19:1 22:1 24:1 25:1 26:1 28:1 31:1 32:1 34:1 35:1 
1.042019557268882 2:1 3:1 4:1 7:1 9:1 10:1 11:1 12:1 13:1 15:1 16:1 22:1 26:1 27:1 28:1 30:1 34:1 36:1 
0.9918301677428282 1:1 2:1 3:1 5:1 7:1 8:1 9:1 11:1 12:1 13:1 14:1 15:1 22:1 25:1 26:1 28:1 30:1 31:1 34:1 
1.03816800158681 1:1 2:1 3:1 4:1 7:1 8:1 13:1 14:1 15:1 19:1 26:1 27:1 
1.072840818609313 1:1 3:1 4:1 8:1 9:1 10:1 11:1 13:1 14:1 15:1 16:1 18:1 19:1 20:1 21:1 22:1 25:1 27:1 29:1 34:1 35:1 
1.067688575530923 1:1 3:1 7:1 9:1 10:1 11:1 12:1 14:1 15:1 17:1 19:1 22:1 28:1 31:1 32:1 34:1 35:1 
1.031144426118871 1:1 2:1 3:1 4:1 7:1 8:1 11:1 12:1 13:1 14:1 15:1 17:1 19:1 22:1 25:1 26:1 28:1 29:1 30:1 31:1 33:1 34:1 35:1 
1.074566242392156 1:1 3:1 4:1 5:1 7:1 9:1 10:1 12:1 14:1 19:1 20:1 22:1 25:1 27:1 28:1 29:1 31:1 34:1 
1.06272417012831 1:1 2:1 3:1 4:1 7:1 8:1 9:1 10:1 15:1 16:1 17:1 22:1 26:1 28:1 29:1 30:1 31:1 32:1 34:1 35:1 
1.088429875469522 1:1 2:1 3:1 4:1 7:1 8:1 9:1 10:1 12:1 13:1 14:1 15:1 22:1 24:1 25:1 26:1 29:1 30:1 34:1 
1.080749106457041 1:1 2:1 3:1 7:1 9:1 13:1 14:1 15:1 18:1 19:1 21:1 22:1 23:1 24:1 26:1 27:1 28:1 29:1 31:1 34:1 35:1 
1.036412443897256 1:1 3:1 4:1 8:1 10:1 11:1 12:1 13:1 14:1 19:1 20:1 22:1 25:1 26:1 27:1 28:1 29:1 31:1 34:1 
1.100337175458407 1:1 3:1 4:1 7:1 9:1 10:1 13:1 14:1 15:1 21:1 22:1 24:1 25:1 26:1 27:1 28:1 29:1 30:1 31:1 34:1 
1.058927335095823 1:1 2:1 3:1 4:1 8:1 9:1 10:1 11:1 12:1 13:1 14:1 15:1 16:1 17:1 19:1 22:1 24:1 26:1 27:1 30:1 32:1 33:1 34:1 
1.071153652579779 2:1 3:1 4:1 7:1 8:1 9:1 10:1 11:1 12:1 13:1 14:1 15:1 16:1 17:1 18:1 19:1 25:1 26:1 27:1 29:1 30:1 31:1 36:1 
1.056301972899509 1:1 2:1 3:1 7:1 8:1 9:1 12:1 13:1 14:1 15:1 16:1 19:1 20:1 21:1 22:1 24:1 27:1 28:1 30:1 31:1 32:1 
0.8960152949109078 1:1 2:1 3:1 4:1 7:1 8:1 9:1 10:1 11:1 13:1 14:1 15:1 19:1 22:1 23:1 26:1 27:1 28:1 29:1 30:1 31:1 34:1 35:1 
1.076908725377342 1:1 2:1 3:1 4:1 5:1 7:1 11:1 14:1 15:1 16:1 17:1 19:1 20:1 22:1 27:1 29:1 30:1 32:1 
1.056155884908869 1:1 2:1 3:1 4:1 6:1 7:1 8:1 9:1 10:1 13:1 14:1 19:1 21:1 22:1 24:1 25:1 26:1 27:1 28:1 29:1 30:1 31:1 34:1 35:1 
1.08283243308223 1:1 2:1 3:1 4:1 9:1 13:1 15:1 16:1 17:1 19:1 20:1 21:1 22:1 23:1 26:1 27:1 28:1 30:1 34:1 36:1 
1.042865530234049 1:1 2:1 3:1 4:1 5:1 6:1 7:1 8:1 9:1 11:1 12:1 13:1 14:1 15:1 16:1 17:1 18:1 19:1 22:1 27:1 28:1 30:1 31:1 34:1 36:1 
0.7919731379369038 1:1 2:1 3:1 4:1 7:1 8:1 9:1 11:1 12:1 13:1 14:1 15:1 16:1 22:1 24:1 25:1 26:1 27:1 28:1 29:1 31:1 32:1 34:1 
1.081659097927436 2:1 3:1 4:1 5:1 7:1 8:1 10:1 11:1 12:1 14:1 15:1 16:1 17:1 19:1 20:1 22:1 24:1 28:1 30:1 
1.049462003756022 1:1 2:1 4:1 7:1 8:1 13:1 14:1 16:1 24:1 26:1 27:1 28:1 29:1 30:1 31:1 34:1 
0.9904449527553261 1:1 2:1 3:1 6:1 7:1 8:1 11:1 12:1 13:1 14:1 15:1 22:1 24:1 25:1 26:1 27:1 28:1 29:1 30:1 34:1 35:1 
1.135992828815958 1:1 3:1 4:1 7:1 8:1 9:1 10:1 11:1 12:1 13:1 14:1 15:1 16:1 17:1 22:1 24:1 25:1 26:1 27:1 28:1 30:1 34:1 
1.052474760784063 1:1 2:1 3:1 4:1 5:1 7:1 8:1 9:1 11:1 12:1 13:1 14:1 15:1 16:1 22:1 23:1 27:1 28:1 30:1 31:1 32:1 33:1 
1.073964960656643 1:1 2:1 3:1 4:1 6:1 7:1 11:1 12:1 13:1 14:1 15:1 17:1 19:1 23:1 24:1 25:1 26:1 27:1 29:1 34:1 
0.9762452404070127 1:1 3:1 4:1 7:1 8:1 9:1 11:1 12:1 14:1 15:1 16:1 17:1 19:1 22:1 25:1 26:1 27:1 28:1 29:1 31:1 35:1 
1.067182492707341 1:1 2:1 3:1 4:1 8:1 9:1 10:1 11:1 12:1 13:1 14:1 18:1 22:1 25:1 28:1 29:1 34:1 35:1 
0.9609260096051868 1:1 3:1 7:1 8:1 9:1 10:1 11:1 12:1 13:1 14:1 15:1 16:1 17:1 19:1 22:1 25:1 26:1 27:1 29:1 30:1 35:1 
1.084922001279523 1:1 2:1 3:1 5:1 6:1 8:1 9:1 10:1 11:1 12:1 13:1 19:1 20:1 22:1 24:1 28:1 29:1 30:1 34:1 35:1 
1.105616255925697 1:1 2:1 3:1 4:1 7:1 8:1 9:1 10:1 11:1 12:1 13:1 14:1 15:1 19:1 20:1 21:1 22:1 24:1 26:1 27:1 28:1 29:1 30:1 31:1 34:1 36:1 
0.953998926342434 1:1 3:1 4:1 7:1 8:1 10:1 11:1 12:1 13:1 14:1 16:1 17:1 19:1 22:1 23:1 25:1 26:1 27:1 28:1 29:1 31:1 34:1 
1.078998297535015 1:1 2:1 3:1 7:1 9:1 13:1 14:1 22:1 24:1 25:1 26:1 29:1 32:1 33:1 
1.153417866695137 1:1 2:1 3:1 4:1 7:1 8:1 9:1 11:1 12:1 14:1 15:1 16:1 17:1 19:1 22:1 24:1 26:1 27:1 28:1 30:1 34:1 36:1 
1.079154741704951 2:1 3:1 4:1 6:1 8:1 10:1 11:1 12:1 13:1 15:1 17:1 19:1 20:1 22:1 25:1 26:1 28:1 34:1 35:1 
1.086773248354018 1:1 2:1 7:1 8:1 9:1 11:1 12:1 13:1 15:1 16:1 19:1 24:1 26:1 27:1 29:1 30:1 
1.044558025127817 1:1 2:1 4:1 7:1 9:1 10:1 12:1 13:1 14:1 16:1 22:1 23:1 25:1 26:1 27:1 28:1 29:1 30:1 34:1 35:1 
1.070683213246898 2:1 3:1 4:1 6:1 7:1 8:1 10:1 11:1 12:1 13:1 14:1 15:1 16:1 22:1 23:1 25:1 26:1 27:1 29:1 30:1 35:1 
1.081297505625788 1:1 2:1 3:1 4:1 5:1 8:1 10:1 11:1 12:1 13:1 14:1 15:1 17:1 18:1 19:1 20:1 21:1 22:1 26:1 28:1 29:1 31:1 34:1 35:1 
1.073393848402468 2:1 3:1 4:1 5:1 8:1 10:1 11:1 12:1 13:1 14:1 15:1 16:1 19:1 20:1 22:1 23:1 25:1 26:1 28:1 29:1 30:1 31:1 32:1 34:1 
1.077375540579532 1:1 3:1 4:1 5:1 6:1 8:1 9:1 10:1 13:1 14:1 15:1 16:1 17:1 19:1 24:1 27:1 28:1 29:1 31:1 32:1 
1.059230268985682 1:1 2:1 3:1 4:1 5:1 7:1 8:1 9:1 11:1 12:1 14:1 16:1 19:1 22:1 23:1 24:1 26:1 27:1 30:1 31:1 
1.079796492636089 1:1 4:1 6:1 7:1 8:1 9:1 10:1 11:1 15:1 16:1 19:1 20:1 25:1 26:1 29:1 31:1 32:1 34:1 
1.018024207048315 1:1 2:1 3:1 8:1 9:1 10:1 11:1 12:1 13:1 15:1 16:1 22:1 24:1 27:1 30:1 31:1 
1.046444953597898 1:1 2:1 3:1 4:1 7:1 8:1 9:1 11:1 13:1 14:1 15:1 17:1 19:1 22:1 24:1 25:1 26:1 27:1 28:1 29:1 30:1 33:1 34:1 35:1 36:1 
1.0522322954143 2:1 3:1 4:1 5:1 6:1 7:1 8:1 9:1 11:1 12:1 13:1 14:1 15:1 16:1 17:1 22:1 26:1 27:1 28:1 34:1 
1.046527735033415 1:1 2:1 3:1 5:1 7:1 8:1 9:1 10:1 11:1 12:1 14:1 15:1 16:1 19:1 24:1 25:1 27:1 28:1 29:1 31:1 34:1 35:1 
1.06509103333713 1:1 2:1 3:1 4:1 7:1 8:1 9:1 13:1 15:1 16:1 17:1 21:1 22:1 25:1 26:1 27:1 28:1 29:1 
0.9676079203687284 1:1 3:1 4:1 7:1 8:1 10:1 11:1 12:1 13:1 14:1 16:1 17:1 22:1 24:1 25:1 26:1 27:1 28:1 29:1 30:1 31:1 34:1 
0.8916594469734214 1:1 2:1 3:1 7:1 8:1 9:1 12:1 13:1 15:1 16:1 19:1 22:1 24:1 25:1 26:1 27:1 28:1 29:1 34:1 
1.054010224340622 1:1 2:1 3:1 4:1 7:1 8:1 9:1 10:1 13:1 14:1 15:1 19:1 22:1 31:1 32:1 36:1 
1.083913764022954 1:1 2:1 3:1 4:1 5:1 6:1 7:1 8:1 9:1 10:1 11:1 12:1 14:1 15:1 16:1 18:1 19:1 21:1 22:1 24:1 25:1 26:1 27:1 28:1 29:1 35:1 
1.086365285577316 1:1 2:1 3:1 4:1 5:1 6:1 7:1 9:1 10:1 11:1 12:1 14:1 15:1 19:1 23:1 24:1 25:1 26:1 27:1 28:1 30:1 31:1 33:1 34:1 
1.054298365281845 1:1 2:1 7:1 8:1 10:1 11:1 12:1 13:1 16:1 19:1 22:1 23:1 24:1 26:1 27:1 28:1 29:1 34:1 35:1 
1.088309396763327 1:1 2:1 3:1 4:1 7:1 8:1 9:1 10:1 11:1 12:1 13:1 14:1 16:1 17:1 20:1 21:1 22:1 24:1 26:1 27:1 28:1 29:1 30:1 34:1 35:1 36:1 
1.018463787947057 1:1 2:1 3:1 4:1 5:1 7:1 8:1 9:1 11:1 12:1 13:1 14:1 15:1 16:1 19:1 20:1 22:1 23:1 24:1 25:1 26:1 27:1 28:1 29:1 30:1 31:1 32:1 34:1 
1.066714632789353 2:1 3:1 4:1 7:1 9:1 11:1 12:1 14:1 15:1 16:1 19:1 20:1 21:1 25:1 26:1 27:1 29:1 31:1 34:1 35:1 
0.6947367511159471 1:1 2:1 3:1 4:1 7:1 8:1 9:1 10:1 11:1 12:1 13:1 14:1 15:1 16:1 19:1 22:1 23:1 25:1 26:1 28:1 29:1 31:1 34:1 35:1 
1.06348794392372 1:1 2:1 3:1 4:1 5:1 7:1 8:1 13:1 14:1 22:1 23:1 24:1 25:1 26:1 27:1 28:1 30:1 31:1 
1.013953126914372 1:1 2:1 3:1 7:1 8:1 9:1 12:1 13:1 14:1 19:1 22:1 25:1 26:1 28:1 29:1 34:1 35:1 
1.061171329997116 1:1 2:1 7:1 11:1 12:1 13:1 14:1 15:1 16:1 18:1 22:1 24:1 26:1 28:1 29:1 30:1 31:1 34:1 
0.9687705564217231 1:1 2:1 3:1 4:1 6:1 7:1 8:1 9:1 10:1 13:1 14:1 15:1 19:1 22:1 24:1 25:1 26:1 27:1 28:1 30:1 34:1 35:1 
1.081182178743818 1:1 3:1 4:1 6:1 8:1 10:1 13:1 14:1 15:1 20:1 21:1 22:1 23:1 27:1 28:1 30:1 31:1 34:1 
0.9761630423887897 1:1 2:1 4:1 7:1 9:1 10:1 11:1 12:1 13:1 14:1 15:1 19:1 25:1 26:1 27:1 28:1 29:1 34:1 35:1 
1.079620488870408 1:1 2:1 3:1 4:1 5:1 7:1 13:1 18:1 19:1 22:1 24:1 25:1 26:1 29:1 
0.8423795587921332 1:1 2:1 3:1 4:1 5:1 7:1 8:1 11:1 12:1 13:1 14:1 15:1 19:1 22:1 24:1 25:1 26:1 27:1 28:1 30:1 31:1 34:1 
1.086664919023425 1:1 3:1 11:1 12:1 13:1 15:1 16:1 17:1 21:1 22:1 26:1 27:1 31:1 
0.8612119665526512 1:1 2:1 3:1 4:1 7:1 9:1 11:1 12:1 13:1 14:1 15:1 16:1 19:1 22:1 24:1 25:1 26:1 27:1 28:1 31:1 
1.079291523328382 2:1 3:1 6:1 8:1 9:1 10:1 11:1 12:1 16:1 19:1 20:1 22:1 28:1 29:1 30:1 31:1 33:1 34:1 
1.071219305296898 1:1 2:1 3:1 7:1 8:1 11:1 12:1 13:1 14:1 15:1 18:1 20:1 22:1 24:1 25:1 27:1 28:1 31:1 32:1 34:1 
1.055502903694667 1:1 2:1 3:1 4:1 5:1 7:1 10:1 11:1 12:1 13:1 14:1 15:1 16:1 18:1 19:1 22:1 25:1 26:1 27:1 30:1 31:1 
1.028753620692113 1:1 2:1 3:1 4:1 6:1 7:1 8:1 9:1 10:1 11:1 13:1 15:1 16:1 19:1 22:1 23:1 25:1 26:1 27:1 28:1 29:1 30:1 34:1 
1.035498854131864 1:1 2:1 3:1 4:1 8:1 9:1 10:1 13:1 14:1 15:1 19:1 22:1 24:1 28:1 29:1 30:1 31:1 33:1 34:1 35:1 
1.077446827273532 3:1 6:1 8:1 9:1 11:1 12:1 13:1 14:1 15:1 16:1 21:1 22:1 24:1 25:1 26:1 27:1 28:1 29:1 30:1 34:1 
1.07876303149193 1:1 2:1 4:1 7:1 9:1 10:1 11:1 12:1 13:1 22:1 24:1 25:1 26:1 27:1 28:1 30:1 
0.8817733216558467 1:1 2:1 3:1 4:1 7:1 8:1 9:1 10:1 11:1 12:1 13:1 14:1 15:1 22:1 27:1 28:1 30:1 34:1 
1.077153362299594 2:1 4:1 6:1 7:1 8:1 11:1 12:1 13:1 14:1 15:1 17:1 19:1 21:1 22:1 23:1 24:1 25:1 26:1 27:1 28:1 29:1 30:1 34:1 
0.9516461387912274 1:1 2:1 3:1 4:1 7:1 8:1 9:1 10:1 14:1 15:1 16:1 19:1 22:1 26:1 27:1 28:1 30:1 31:1 
1.066400925108501 2:1 3:1 7:1 8:1 9:1 10:1 11:1 12:1 13:1 17:1 22:1 24:1 26:1 27:1 28:1 29:1 30:1 31:1 32:1 34:1 
1.087660058127359 1:1 3:1 7:1 8:1 9:1 10:1 11:1 12:1 13:1 19:1 20:1 23:1 24:1 26:1 27:1 28:1 29:1 30:1 31:1 34:1 
1.060298209062659 1:1 3:1 4:1 7:1 9:1 10:1 11:1 12:1 13:1 14:1 15:1 16:1 18:1 19:1 23:1 24:1 26:1 27:1 28:1 29:1 30:1 31:1 34:1 
1.074616954146002 1:1 2:1 4:1 5:1 7:1 8:1 9:1 12:1 13:1 14:1 15:1 16:1 17:1 19:1 20:1 24:1 26:1 27:1 28:1 29:1 30:1 33:1 34:1 
1.014900340328731 1:1 2:1 3:1 7:1 8:1 9:1 10:1 11:1 12:1 13:1 14:1 15:1 16:1 17:1 19:1 22:1 23:1 24:1 26:1 27:1 28:1 29:1 30:1 34:1 36:1 
1.053719704336278 1:1 4:1 7:1 8:1 9:1 11:1 13:1 14:1 15:1 16:1 19:1 25:1 28:1 31:1 
1.050111613544231 1:1 3:1 6:1 7:1 8:1 9:1 13:1 14:1 15:1 19:1 21:1 22:1 26:1 27:1 28:1 29:1 
1.060619191965374 2:1 3:1 4:1 7:1 8:1 9:1 11:1 12:1 13:1 14:1 15:1 16:1 19:1 23:1 24:1 25:1 29:1 31:1 34:1 35:1 
1.076234697898105 1:1 2:1 3:1 4:1 5:1 7:1 8:1 9:1 11:1 14:1 16:1 18:1 21:1 22:1 24:1 25:1 26:1 27:1 28:1 30:1 31:1 34:1 
1.055822770718969 2:1 3:1 7:1 9:1 10:1 11:1 12:1 13:1 14:1 15:1 16:1 17:1 19:1 22:1 23:1 25:1 26:1 27:1 29:1 30:1 35:1 36:1 
1.078263817825241 2:1 3:1 4:1 7:1 8:1 9:1 11:1 12:1 13:1 14:1 15:1 17:1 18:1 19:1 21:1 22:1 24:1 25:1 26:1 27:1 28:1 32:1 
1.061275811334162 2:1 3:1 4:1 5:1 6:1 7:1 13:1 14:1 15:1 16:1 19:1 22:1 24:1 25:1 26:1 27:1 28:1 29:1 31:1 34:1 36:1 
1.023494512333852 1:1 2:1 3:1 4:1 7:1 8:1 9:1 12:1 13:1 15:1 16:1 22:1 25:1 26:1 27:1 31:1 34:1 36:1 
1.064137957713898 1:1 2:1 4:1 7:1 8:1 9:1 10:1 11:1 12:1 13:1 15:1 16:1 19:1 23:1 24:1 25:1 26:1 27:1 28:1 29:1 30:1 32:1 34:1 
1.080962088008448 1:1 3:1 4:1 5:1 7:1 8:1 9:1 14:1 15:1 16:1 19:1 24:1 25:1 29:1 30:1 31:1 32:1 33:1 
0.9937731712277184 2:1 3:1 4:1 7:1 8:1 10:1 11:1 12:1 13:1 14:1 15:1 16:1 19:1 22:1 25:1 27:1 29:1 34:1 35:1 
0.9556123896823246 1:1 2:1 3:1 4:1 7:1 8:1 9:1 11:1 12:1 13:1 14:1 15:1 16:1 17:1 19:1 22:1 24:1 26:1 27:1 28:1 31:1 33:1 34:1 35:1 
1.086697476506745 1:1 2:1 3:1 4:1 6:1 9:1 10:1 11:1 12:1 13:1 14:1 15:1 18:1 19:1 20:1 22:1 24:1 25:1 26:1 27:1 30:1 34:1 35:1 
1.050414409561912 1:1 2:1 3:1 4:1 6:1 7:1 8:1 9:1 10:1 11:1 14:1 15:1 16:1 19:1 23:1 25:1 26:1 27:1 29:1 30:1 31:1 33:1 34:1 
1.088827710771656 1:1 2:1 4:1 5:1 6:1 7:1 8:1 9:1 11:1 12:1 13:1 14:1 15:1 16:1 19:1 20:1 21:1 22:1 24:1 25:1 26:1 27:1 29:1 30:1 31:1 34:1 35:1 36:1 
1.081476878031883 3:1 4:1 8:1 9:1 11:1 12:1 13:1 14:1 15:1 19:1 20:1 21:1 22:1 23:1 24:1 25:1 26:1 28:1 29:1 30:1 34:1 
1.079684558295071 1:1 2:1 3:1 7:1 11:1 14:1 15:1 17:1 20:1 24:1 25:1 26:1 30:1 31:1 34:1 
1.054778649167179 1:1 3:1 7:1 9:1 12:1 13:1 14:1 15:1 16:1 19:1 22:1 24:1 25:1 27:1 28:1 30:1 31:1 34:1 36:1 
1.078704482958581 2:1 3:1 4:1 5:1 6:1 8:1 9:1 12:1 13:1 14:1 15:1 16:1 17:1 20:1 22:1 23:1 25:1 26:1 27:1 28:1 34:1 36:1 
1.068858170110683 2:1 3:1 4:1 5:1 8:1 9:1 11:1 12:1 13:1 14:1 22:1 27:1 28:1 29:1 30:1 31:1 34:1 
1.009275189846068 1:1 2:1 3:1 4:1 7:1 8:1 9:1 10:1 11:1 12:1 14:1 15:1 16:1 20:1 22:1 24:1 27:1 28:1 30:1 31:1 34:1 
1.026281047315671 1:1 3:1 7:1 8:1 9:1 10:1 11:1 12:1 13:1 14:1 15:1 19:1 22:1 26:1 29:1 35:1 
1.069786539275443 1:1 2:1 3:1 4:1 7:1 8:1 9:1 10:1 11:1 12:1 13:1 15:1 18:1 19:1 20:1 21:1 22:1 28:1 29:1 31:1 33:1 34:1 
1.080903138432598 1:1 2:1 4:1 5:1 6:1 7:1 8:1 9:1 10:1 11:1 12:1 13:1 14:1 15:1 16:1 17:1 18:1 20:1 26:1 27:1 31:1 34:1 
1.080956917323481 1:1 2:1 3:1 4:1 5:1 6:1 7:1 8:1 10:1 11:1 13:1 14:1 15:1 16:1 18:1 19:1 21:1 22:1 25:1 27:1 29:1 30:1 34:1 
1.040826639662594 1:1 2:1 3:1 7:1 8:1 9:1 11:1 13:1 14:1 15:1 16:1 17:1 19:1 22:1 26:1 27:1 30:1 33:1 34:1 35:1 
1.052746132904618 1:1 2:1 3:1 4:1 7:1 8:1 10:1 13:1 14:1 15:1 19:1 21:1 26:1 27:1 31:1 33:1 34:1 
1.134051812062547 1:1 3:1 4:1 5:1 6:1 7:1 8:1 9:1 11:1 12:1 13:1 14:1 15:1 16:1 19:1 20:1 21:1 22:1 26:1 27:1 28:1 
1.074732316923437 2:1 4:1 5:1 6:1 7:1 8:1 10:1 11:1 12:1 13:1 15:1 16:1 22:1 24:1 25:1 26:1 27:1 28:1 29:1 30:1 34:1 35:1 
1.066250298992543 1:1 2:1 3:1 8:1 9:1 10:1 13:1 14:1 15:1 19:1 22:1 23:1 24:1 26:1 27:1 28:1 31:1 
0.9969885059925986 1:1 3:1 7:1 8:1 9:1 10:1 11:1 13:1 14:1 15:1 16:1 19:1 21:1 22:1 26:1 27:1 29:1 31:1 
1.049658249255746 2:1 3:1 4:1 6:1 7:1 8:1 11:1 12:1 13:1 14:1 15:1 16:1 19:1 22:1 24:1 25:1 26:1 29:1 30:1 34:1 
0.9991113611370841 1:1 2:1 3:1 4:1 5:1 6:1 7:1 9:1 10:1 11:1 12:1 13:1 14:1 15:1 16:1 22:1 26:1 27:1 28:1 34:1 
1.036345068607194 1:1 2:1 3:1 4:1 7:1 8:1 9:1 10:1 11:1 12:1 13:1 14:1 15:1 19:1 22:1 24:1 25:1 26:1 28:1 30:1 32:1 33:1 34:1 
1.008045292782745 1:1 2:1 3:1 4:1 8:1 9:1 10:1 11:1 12:1 14:1 15:1 16:1 17:1 21:1 22:1 24:1 25:1 26:1 28:1 31:1 32:1 34:1 
1.071471212481848 1:1 2:1 3:1 4:1 8:1 9:1 11:1 12:1 13:1 14:1 15:1 16:1 21:1 24:1 26:1 27:1 28:1 29:1 30:1 31:1 35:1 
1.053887276880602 1:1 2:1 3:1 4:1 5:1 6:1 7:1 8:1 9:1 10:1 12:1 14:1 15:1 16:1 19:1 21:1 22:1 23:1 26:1 27:1 28:1 29:1 31:1 34:1 35:1 
1.037801383411429 1:1 2:1 3:1 8:1 9:1 10:1 11:1 12:1 13:1 15:1 16:1 18:1 19:1 22:1 23:1 25:1 26:1 27:1 29:1 34:1 
0.9600964341146191 1:1 2:1 3:1 4:1 7:1 8:1 9:1 12:1 13:1 14:1 15:1 22:1 24:1 26:1 27:1 28:1 29:1 34:1 
1.056593910291318 1:1 2:1 3:1 7:1 9:1 10:1 11:1 12:1 13:1 14:1 19:1 25:1 26:1 27:1 29:1 
0.9763932654411843 1:1 2:1 3:1 4:1 9:1 11:1 12:1 13:1 14:1 15:1 19:1 22:1 24:1 25:1 26:1 27:1 28:1 34:1 
1.077403599569701 1:1 2:1 3:1 4:1 8:1 9:1 11:1 12:1 13:1 14:1 15:1 16:1 17:1 22:1 28:1 29:1 30:1 32:1 35:1 36:1 
1.047814089924695 1:1 2:1 3:1 4:1 6:1 7:1 9:1 11:1 13:1 14:1 15:1 16:1 19:1 22:1 25:1 26:1 27:1 30:1 35:1 
0.9138243845697432 1:1 2:1 3:1 4:1 7:1 8:1 10:1 11:1 12:1 13:1 14:1 15:1 16:1 17:1 22:1 24:1 25:1 26:1 27:1 28:1 29:1 30:1 34:1 35:1 
1.080218976107234 1:1 3:1 7:1 8:1 9:1 10:1 11:1 13:1 15:1 20:1 21:1 22:1 24:1 25:1 26:1 27:1 29:1 30:1 31:1 32:1 33:1 34:1 
0.9945378441149035 1:1 2:1 3:1 4:1 7:1 8:1 9:1 10:1 11:1 12:1 14:1 15:1 16:1 17:1 19:1 22:1 24:1 26:1 27:1 28:1 29:1 30:1 31:1 32:1 34:1 35:1 36:1 
1.076784727356829 1:1 2:1 3:1 4:1 6:1 7:1 9:1 11:1 13:1 14:1 16:1 19:1 20:1 21:1 22:1 26:1 30:1 31:1 32:1 35:1 
1.080384324912551 1:1 2:1 4:1 7:1 11:1 12:1 15:1 19:1 21:1 22:1 25:1 27:1 34:1 35:1 
1.074034024567496 1:1 2:1 3:1 4:1 7:1 8:1 9:1 12:1 13:1 14:1 15:1 16:1 19:1 20:1 22:1 26:1 32:1 33:1 34:1 35:1 36:1 
1.069459961634131 1:1 2:1 3:1 7:1 8:1 9:1 10:1 11:1 12:1 14:1 15:1 18:1 19:1 21:1 22:1 23:1 27:1 28:1 30:1 31:1 34:1 35:1 
0.9546260719421915 1:1 2:1 3:1 4:1 7:1 8:1 9:1 10:1 11:1 12:1 13:1 15:1 16:1 17:1 19:1 25:1 26:1 27:1 29:1 30:1 31:1 
1.056238270685094 1:1 2:1 3:1 4:1 7:1 8:1 9:1 10:1 11:1 12:1 13:1 15:1 16:1 19:1 23:1 28:1 30:1 31:1 33:1 34:1 
1.077932556041492 1:1 2:1 3:1 6:1 7:1 8:1 9:1 10:1 15:1 17:1 19:1 20:1 22:1 26:1 27:1 28:1 32:1 
1.034178177249695 1:1 2:1 3:1 7:1 8:1 9:1 10:1 11:1 12:1 15:1 16:1 19:1 22:1 24:1 26:1 27:1 28:1 30:1 31:1 32:1 33:1 
1.07887295114559 1:1 7:1 8:1 10:1 11:1 12:1 14:1 16:1 19:1 21:1 22:1 24:1 27:1 28:1 29:1 30:1 31:1 35:1 
1.035264987558293 1:1 2:1 3:1 7:1 8:1 12:1 15:1 16:1 19:1 22:1 26:1 27:1 31:1 34:1 
1.07167514520999 1:1 3:1 4:1 7:1 8:1 11:1 12:1 13:1 14:1 15:1 16:1 21:1 26:1 27:1 29:1 30:1 31:1 33:1 34:1 
0.7399801345268326 1:1 2:1 4:1 7:1 8:1 9:1 11:1 12:1 14:1 15:1 16:1 19:1 22:1 26:1 27:1 28:1 31:1 34:1 
1.069832913135369 1:1 2:1 4:1 7:1 8:1 11:1 12:1 14:1 15:1 19:1 20:1 22:1 24:1 27:1 28:1 34:1 35:1 
1.067226361855684 1:1 2:1 3:1 4:1 5:1 6:1 7:1 8:1 9:1 13:1 14:1 15:1 19:1 20:1 22:1 24:1 27:1 28:1 29:1 30:1 34:1 35:1 
1.074790220247474 2:1 4:1 6:1 7:1 8:1 9:1 10:1 11:1 12:1 14:1 16:1 27:1 29:1 30:1 
1.064930419636151 1:1 3:1 4:1 5:1 7:1 9:1 11:1 14:1 15:1 16:1 18:1 19:1 20:1 22:1 23:1 25:1 26:1 27:1 28:1 30:1 34:1 
1.080293762746231 1:1 6:1 7:1 10:1 11:1 12:1 13:1 14:1 19:1 22:1 23:1 25:1 26:1 28:1 29:1 31:1 32:1 36:1 
1.064295068530459 1:1 2:1 3:1 4:1 7:1 8:1 9:1 11:1 12:1 14:1 15:1 16:1 17:1 19:1 20:1 22:1 24:1 25:1 26:1 30:1 31:1 33:1 
1.079497066096573 1:1 2:1 3:1 4:1 5:1 6:1 7:1 8:1 10:1 11:1 13:1 14:1 15:1 16:1 17:1 19:1 22:1 27:1 29:1 30:1 31:1 34:1 36:1 
1.06706264314977 1:1 2:1 3:1 4:1 5:1 7:1 8:1 9:1 11:1 14:1 15:1 16:1 17:1 18:1 19:1 22:1 24:1 25:1 26:1 27:1 30:1 31:1 35:1 
1.053816071566264 1:1 2:1 4:1 7:1 8:1 9:1 10:1 11:1 14:1 15:1 16:1 17:1 18:1 19:1 25:1 26:1 27:1 29:1 30:1 31:1 34:1 
1.011659223660266 1:1 2:1 3:1 4:1 7:1 8:1 9:1 13:1 15:1 16:1 19:1 22:1 23:1 27:1 28:1 29:1 35:1 
0.8290578146053125 1:1 2:1 3:1 4:1 6:1 7:1 8:1 9:1 10:1 11:1 12:1 13:1 14:1 15:1 16:1 22:1 25:1 26:1 27:1 28:1 30:1 
1.02568029627934 2:1 3:1 4:1 7:1 8:1 9:1 12:1 13:1 14:1 15:1 16:1 19:1 24:1 25:1 26:1 28:1 30:1 34:1 35:1 
1.078428878365078 1:1 2:1 3:1 7:1 8:1 9:1 12:1 15:1 16:1 19:1 20:1 26:1 27:1 29:1 31:1 32:1 33:1 34:1 
1.031152897354539 1:1 2:1 3:1 4:1 8:1 9:1 11:1 12:1 13:1 14:1 15:1 16:1 17:1 18:1 22:1 23:1 25:1 27:1 28:1 29:1 30:1 31:1 
1.035031121106938 1:1 4:1 8:1 9:1 11:1 13:1 14:1 15:1 16:1 19:1 21:1 22:1 26:1 27:1 29:1 31:1 34:1 35:1 
1.055093394000182 1:1 2:1 3:1 4:1 7:1 8:1 9:1 13:1 14:1 16:1 18:1 21:1 22:1 25:1 26:1 27:1 28:1 34:1 35:1 
0.9722609643550461 1:1 2:1 3:1 4:1 5:1 6:1 7:1 8:1 9:1 11:1 12:1 13:1 14:1 15:1 19:1 22:1 26:1 27:1 28:1 29:1 31:1 34:1 35:1 
1.059804690954058 2:1 3:1 4:1 7:1 8:1 9:1 10:1 13:1 14:1 15:1 16:1 17:1 22:1 25:1 27:1 31:1 32:1 
0.957647171660621 1:1 2:1 3:1 4:1 6:1 8:1 9:1 10:1 11:1 12:1 13:1 14:1 15:1 16:1 17:1 19:1 22:1 23:1 25:1 26:1 28:1 29:1 31:1 34:1 
1.087432893082662 1:1 2:1 3:1 4:1 7:1 8:1 12:1 14:1 15:1 16:1 20:1 21:1 22:1 24:1 25:1 28:1 29:1 30:1 34:1 
1.056022314700441 1:1 2:1 3:1 7:1 8:1 9:1 11:1 12:1 15:1 17:1 19:1 20:1 22:1 23:1 24:1 27:1 28:1 29:1 30:1 31:1 34:1 
1.068001915597673 1:1 2:1 3:1 4:1 7:1 9:1 10:1 11:1 13:1 14:1 15:1 18:1 29:1 30:1 31:1 34:1 35:1 
1.073839750080902 1:1 3:1 7:1 8:1 9:1 10:1 11:1 12:1 14:1 15:1 16:1 18:1 21:1 25:1 26:1 27:1 29:1 31:1 32:1 36:1 
1.060344746465899 1:1 9:1 11:1 12:1 13:1 14:1 15:1 16:1 19:1 22:1 24:1 25:1 26:1 27:1 30:1 34:1 
0.8669487694644162 1:1 2:1 3:1 4:1 7:1 8:1 9:1 10:1 12:1 15:1 16:1 19:1 20:1 22:1 25:1 26:1 27:1 28:1 31:1 34:1 
1.070518006449567 1:1 2:1 4:1 5:1 7:1 8:1 9:1 11:1 12:1 13:1 14:1 15:1 16:1 17:1 19:1 22:1 23:1 24:1 25:1 27:1 28:1 29:1 30:1 31:1 33:1 
1.079238333414162 3:1 4:1 5:1 6:1 8:1 10:1 12:1 13:1 14:1 15:1 16:1 19:1 22:1 24:1 25:1 27:1 28:1 29:1 30:1 
1.020045267260326 1:1 2:1 3:1 4:1 5:1 8:1 9:1 10:1 11:1 13:1 14:1 15:1 16:1 19:1 24:1 25:1 26:1 27:1 29:1 30:1 31:1 32:1 36:1 
1.066397023868546 1:1 2:1 3:1 7:1 8:1 9:1 11:1 12:1 13:1 15:1 16:1 17:1 19:1 21:1 26:1 27:1 28:1 30:1 31:1 32:1 34:1 35:1 36:1 
1.052752405440653 1:1 2:1 3:1 7:1 8:1 10:1 12:1 13:1 14:1 15:1 19:1 22:1 24:1 25:1 27:1 28:1 31:1 35:1 
1.091484365811809 1:1 2:1 3:1 7:1 11:1 12:1 13:1 14:1 19:1 20:1 23:1 25:1 26:1 27:1 28:1 29:1 30:1 34:1 35:1 
1.069707003286619 1:1 2:1 3:1 4:1 6:1 7:1 8:1 9:1 10:1 11:1 12:1 15:1 16:1 19:1 25:1 27:1 
1.07601998966815 2:1 3:1 4:1 7:1 9:1 11:1 12:1 13:1 14:1 15:1 16:1 19:1 22:1 23:1 25:1 26:1 27:1 28:1 30:1 31:1 32:1 33:1 
1.00543731660696 1:1 2:1 3:1 7:1 8:1 9:1 12:1 13:1 15:1 16:1 17:1 19:1 22:1 24:1 25:1 26:1 27:1 28:1 30:1 34:1 35:1 
1.080370574355226 2:1 3:1 4:1 6:1 7:1 8:1 9:1 11:1 12:1 13:1 14:1 15:1 16:1 20:1 21:1 22:1 24:1 25:1 27:1 28:1 32:1 33:1 34:1 35:1 
1.016025834467588 1:1 2:1 3:1 4:1 5:1 7:1 8:1 9:1 10:1 11:1 12:1 14:1 16:1 19:1 22:1 23:1 24:1 25:1 26:1 27:1 28:1 29:1 31:1 34:1 
1.023897080799871 1:1 2:1 3:1 4:1 6:1 7:1 8:1 9:1 12:1 13:1 14:1 15:1 19:1 22:1 34:1 
1.050697422643909 1:1 2:1 4:1 6:1 7:1 8:1 11:1 12:1 13:1 15:1 16:1 19:1 22:1 23:1 25:1 26:1 27:1 28:1 29:1 34:1 
1.088635122603355 1:1 2:1 3:1 4:1 5:1 6:1 7:1 8:1 9:1 10:1 12:1 13:1 15:1 19:1 20:1 22:1 23:1 25:1 26:1 27:1 28:1 35:1 
1.049117081283969 1:1 2:1 3:1 4:1 5:1 7:1 8:1 9:1 11:1 13:1 14:1 15:1 16:1 19:1 22:1 23:1 25:1 26:1 28:1 31:1 
1.065308653870774 2:1 3:1 5:1 7:1 9:1 10:1 11:1 12:1 13:1 14:1 15:1 16:1 19:1 22:1 24:1 25:1 27:1 30:1 31:1 35:1 36:1 
1.079530697594782 1:1 3:1 4:1 7:1 8:1 9:1 11:1 12:1 13:1 14:1 15:1 17:1 22:1 24:1 25:1 26:1 29:1 30:1 31:1 32:1 34:1 36:1 
1.076721755062238 3:1 4:1 7:1 8:1 9:1 10:1 12:1 13:1 14:1 15:1 16:1 19:1 22:1 23:1 26:1 27:1 28:1 29:1 30:1 31:1 33:1 
1.052070073827699 1:1 2:1 4:1 6:1 7:1 8:1 10:1 11:1 12:1 13:1 14:1 15:1 19:1 22:1 23:1 26:1 28:1 29:1 30:1 34:1 
1.092093644171459 1:1 2:1 3:1 8:1 9:1 10:1 12:1 13:1 15:1 21:1 22:1 25:1 26:1 29:1 35:1 
1.023832803111576 1:1 2:1 3:1 4:1 7:1 8:1 11:1 12:1 13:1 14:1 15:1 16:1 19:1 22:1 23:1 24:1 28:1 29:1 34:1 
1.066987335400363 2:1 4:1 6:1 7:1 8:1 9:1 10:1 11:1 12:1 14:1 15:1 16:1 19:1 21:1 26:1 27:1 31:1 
1.072528242588461 1:1 2:1 3:1 4:1 8:1 10:1 11:1 12:1 14:1 15:1 16:1 19:1 21:1 22:1 25:1 28:1 29:1 31:1 32:1 33:1 35:1 
0.9614304318566101 2:1 3:1 4:1 7:1 8:1 9:1 11:1 12:1 13:1 14:1 15:1 17:1 22:1 25:1 27:1 28:1 29:1 31:1 34:1 
1.05533109364481 1:1 2:1 3:1 4:1 5:1 7:1 9:1 10:1 11:1 12:1 13:1 14:1 15:1 16:1 19:1 24:1 28:1 31:1 32:1 34:1 35:1 
1.034620299492708 1:1 2:1 3:1 4:1 7:1 8:1 9:1 11:1 12:1 13:1 14:1 15:1 22:1 23:1 28:1 29:1 30:1 31:1 32:1 34:1 35:1 
1.069921433057758 1:1 2:1 3:1 7:1 8:1 11:1 13:1 14:1 15:1 16:1 19:1 21:1 22:1 24:1 25:1 28:1 29:1 34:1 35:1 36:1 
0.971976098629349 2:1 3:1 4:1 7:1 8:1 9:1 10:1 11:1 12:1 13:1 14:1 19:1 26:1 27:1 30:1 31:1 34:1 
1.081016601184458 3:1 4:1 6:1 7:1 8:1 9:1 15:1 16:1 19:1 23:1 24:1 25:1 26:1 29:1 30:1 31:1 33:1 35:1 
1.059273856232646 2:1 4:1 6:1 7:1 8:1 9:1 10:1 11:1 12:1 13:1 16:1 17:1 22:1 24:1 25:1 26:1 27:1 28:1 30:1 31:1 34:1 
0.9988669128352895 1:1 2:1 3:1 4:1 7:1 8:1 9:1 11:1 13:1 14:1 15:1 19:1 22:1 23:1 24:1 25:1 26:1 27:1 28:1 29:1 30:1 34:1 
1.006210893425564 1:1 2:1 3:1 4:1 7:1 8:1 10:1 11:1 13:1 14:1 15:1 19:1 22:1 26:1 31:1 
1.078839064063277 1:1 2:1 3:1 7:1 10:1 11:1 13:1 14:1 15:1 17:1 18:1 19:1 20:1 22:1 24:1 25:1 26:1 27:1 28:1 29:1 30:1 32:1 35:1 
1.066232613230929 2:1 3:1 4:1 6:1 7:1 8:1 9:1 11:1 12:1 13:1 14:1 15:1 16:1 17:1 19:1 25:1 26:1 27:1 30:1 35:1 36:1 
1.077958392243281 1:1 2:1 3:1 4:1 5:1 6:1 7:1 8:1 9:1 12:1 14:1 15:1 22:1 23:1 26:1 28:1 29:1 30:1 31:1 32:1 35:1 36:1 
1.079808799425649 1:1 2:1 3:1 4:1 5:1 8:1 9:1 13:1 14:1 19:1 21:1 22:1 23:1 26:1 27:1 28:1 29:1 31:1 32:1 34:1 
1.049640701622769 1:1 2:1 3:1 4:1 7:1 8:1 9:1 10:1 11:1 12:1 15:1 16:1 17:1 18:1 19:1 22:1 24:1 29:1 30:1 31:1 34:1 
1.062348367104902 1:1 2:1 3:1 4:1 7:1 8:1 9:1 10:1 11:1 12:1 13:1 14:1 15:1 16:1 21:1 24:1 25:1 26:1 27:1 29:1 30:1 31:1 32:1 34:1 
1.063840789271112 1:1 2:1 4:1 5:1 7:1 8:1 9:1 10:1 11:1 12:1 13:1 15:1 16:1 19:1 22:1 27:1 34:1 
1.055061443011021 1:1 2:1 4:1 7:1 8:1 11:1 13:1 15:1 16:1 19:1 22:1 24:1 27:1 28:1 34:1 
1.059402479439934 1:1 2:1 3:1 4:1 7:1 11:1 13:1 14:1 15:1 16:1 17:1 22:1 25:1 26:1 27:1 29:1 31:1 32:1 
1.067344986322644 1:1 2:1 3:1 4:1 6:1 7:1 8:1 9:1 11:1 13:1 15:1 19:1 22:1 23:1 25:1 26:1 27:1 28:1 30:1 36:1 
0.97089169653845 1:1 2:1 3:1 7:1 8:1 9:1 11:1 12:1 14:1 16:1 17:1 19:1 22:1 26:1 27:1 31:1 34:1 
1.070505324607914 1:1 2:1 3:1 4:1 5:1 7:1 9:1 10:1 11:1 12:1 13:1 14:1 22:1 24:1 25:1 26:1 27:1 28:1 30:1 31:1 32:1 36:1 
1.080000268972204 7:1 8:1 9:1 10:1 11:1 12:1 14:1 15:1 17:1 18:1 19:1 20:1 21:1 22:1 26:1 27:1 28:1 30:1 31:1 34:1 
0.8746141299795543 2:1 4:1 7:1 8:1 9:1 13:1 14:1 15:1 16:1 19:1 22:1 25:1 26:1 27:1 28:1 29:1 31:1 34:1 35:1 
1.061981583033512 1:1 2:1 3:1 7:1 8:1 9:1 10:1 11:1 13:1 14:1 15:1 19:1 21:1 22:1 25:1 26:1 27:1 29:1 30:1 31:1 32:1 34:1 35:1 36:1 
0.8671897223822381 1:1 2:1 3:1 4:1 8:1 9:1 10:1 11:1 12:1 14:1 15:1 16:1 19:1 22:1 25:1 26:1 27:1 28:1 31:1 
1.143497651980107 1:1 2:1 3:1 5:1 7:1 8:1 9:1 11:1 12:1 13:1 14:1 15:1 16:1 19:1 20:1 21:1 22:1 24:1 25:1 26:1 27:1 28:1 30:1 36:1 
0.9658081839863862 1:1 2:1 3:1 7:1 8:1 10:1 11:1 12:1 13:1 14:1 15:1 16:1 18:1 22:1 24:1 25:1 26:1 27:1 28:1 29:1 30:1 31:1 34:1 
1.080754628792867 2:1 4:1 5:1 6:1 8:1 9:1 11:1 12:1 13:1 15:1 16:1 17:1 27:1 29:1 34:1 35:1 
1.065739870835189 2:1 4:1 5:1 6:1 7:1 8:1 11:1 12:1 13:1 15:1 16:1 22:1 24:1 26:1 27:1 28:1 31:1 34:1 
1.074272885812371 3:1 5:1 6:1 7:1 8:1 9:1 10:1 11:1 12:1 14:1 15:1 16:1 19:1 22:1 26:1 27:1 28:1 29:1 31:1 36:1 
0.9150978826885398 1:1 2:1 4:1 7:1 8:1 9:1 11:1 12:1 13:1 14:1 15:1 22:1 26:1 28:1 29:1 31:1 34:1 
1.09010045623155 3:1 4:1 7:1 8:1 9:1 10:1 11:1 13:1 14:1 19:1 20:1 24:1 25:1 26:1 27:1 29:1 35:1 
1.06028058404172 1:1 2:1 7:1 8:1 9:1 10:1 11:1 13:1 15:1 16:1 17:1 19:1 22:1 23:1 25:1 26:1 27:1 28:1 30:1 31:1 34:1 36:1 
0.964376387911317 1:1 2:1 3:1 4:1 7:1 8:1 9:1 13:1 14:1 15:1 19:1 21:1 22:1 25:1 26:1 27:1 28:1 29:1 34:1 35:1 
1.091161226084817 2:1 3:1 4:1 9:1 10:1 11:1 12:1 13:1 14:1 15:1 16:1 17:1 19:1 20:1 21:1 22:1 23:1 24:1 25:1 26:1 29:1 30:1 31:1 35:1 
1.065595202561221 1:1 2:1 3:1 4:1 6:1 7:1 8:1 10:1 11:1 12:1 14:1 15:1 16:1 17:1 19:1 21:1 25:1 26:1 27:1 28:1 34:1 35:1 
1.028766141989932 1:1 3:1 4:1 8:1 9:1 10:1 11:1 12:1 13:1 14:1 15:1 16:1 25:1 27:1 28:1 31:1 34:1 35:1 
0.8398399900954501 1:1 2:1 4:1 7:1 8:1 9:1 10:1 12:1 13:1 14:1 15:1 16:1 19:1 20:1 22:1 25:1 26:1 27:1 28:1 29:1 31:1 34:1 35:1 
1.075966725128415 1:1 7:1 8:1 9:1 10:1 11:1 12:1 14:1 15:1 16:1 19:1 20:1 22:1 28:1 30:1 31:1 32:1 34:1 35:1 
1.081026463468518 1:1 2:1 3:1 6:1 7:1 8:1 9:1 12:1 13:1 14:1 16:1 17:1 18:1 23:1 24:1 25:1 26:1 27:1 29:1 30:1 34:1 35:1 36:1 
1.079020431010697 4:1 6:1 7:1 8:1 9:1 12:1 13:1 14:1 15:1 19:1 21:1 26:1 27:1 34:1 35:1 
1.075993333667827 2:1 3:1 4:1 5:1 7:1 8:1 9:1 10:1 13:1 14:1 15:1 16:1 21:1 22:1 24:1 25:1 26:1 28:1 29:1 31:1 32:1 33:1 34:1 
1.000426647492164 2:1 3:1 6:1 7:1 9:1 10:1 11:1 12:1 13:1 14:1 15:1 16:1 22:1 25:1 26:1 28:1 30:1 31:1 32:1 34:1 
1.076825151239346 2:1 3:1 4:1 5:1 6:1 8:1 9:1 10:1 11:1 12:1 14:1 15:1 16:1 19:1 22:1 24:1 25:1 26:1 28:1 31:1 32:1 
1.077367468636089 1:1 2:1 3:1 4:1 6:1 8:1 10:1 13:1 14:1 15:1 16:1 17:1 20:1 22:1 25:1 26:1 28:1 29:1 30:1 31:1 33:1 34:1 35:1 
1.056190625587774 1:1 2:1 4:1 8:1 10:1 11:1 12:1 13:1 14:1 16:1 19:1 22:1 23:1 25:1 26:1 28:1 29:1 31:1 35:1 
0.8685262976350872 1:1 2:1 3:1 4:1 5:1 7:1 8:1 9:1 10:1 11:1 13:1 14:1 15:1 16:1 19:1 22:1 23:1 26:1 27:1 28:1 29:1 30:1 31:1 33:1 34:1 
0.9572337119982826 1:1 2:1 3:1 4:1 7:1 8:1 9:1 10:1 12:1 13:1 14:1 15:1 16:1 20:1 22:1 25:1 26:1 27:1 28:1 29:1 35:1 
1.012721431210955 1:1 3:1 6:1 7:1 8:1 9:1 10:1 11:1 12:1 13:1 14:1 15:1 19:1 22:1 25:1 26:1 27:1 30:1 31:1 
1.082097604271431 2:1 3:1 4:1 6:1 7:1 8:1 13:1 15:1 19:1 20:1 21:1 24:1 25:1 26:1 27:1 29:1 30:1 31:1 32:1 
1.059058516715341 3:1 4:1 7:1 11:1 12:1 13:1 14:1 15:1 17:1 19:1 20:1 22:1 26:1 27:1 28:1 30:1 31:1 34:1 
0.8980532704564508 1:1 2:1 3:1 4:1 7:1 8:1 9:1 11:1 12:1 13:1 14:1 15:1 16:1 17:1 19:1 21:1 22:1 23:1 25:1 26:1 27:1 28:1 29:1 30:1 31:1 34:1 
1.024509357486367 1:1 3:1 4:1 7:1 8:1 9:1 14:1 15:1 19:1 22:1 23:1 26:1 27:1 29:1 31:1 32:1 
1.082625475925418 1:1 2:1 3:1 4:1 6:1 7:1 8:1 9:1 14:1 16:1 19:1 20:1 21:1 22:1 27:1 28:1 29:1 30:1 31:1 34:1 
1.055915642567792 2:1 3:1 4:1 5:1 6:1 7:1 8:1 9:1 10:1 11:1 12:1 13:1 14:1 16:1 19:1 21:1 22:1 25:1 26:1 27:1 28:1 31:1 34:1 
1.017854240361283 1:1 2:1 4:1 8:1 9:1 10:1 11:1 12:1 13:1 14:1 15:1 16:1 17:1 19:1 22:1 28:1 31:1 34:1 35:1 
1.067172547939317 2:1 3:1 4:1 7:1 8:1 9:1 12:1 13:1 14:1 15:1 16:1 18:1 19:1 24:1 25:1 26:1 27:1 29:1 30:1 34:1 35:1 
1.075438179417415 1:1 2:1 3:1 4:1 5:1 6:1 7:1 8:1 9:1 10:1 13:1 14:1 15:1 16:1 18:1 19:1 22:1 25:1 26:1 27:1 28:1 29:1 31:1 32:1 33:1 35:1 
1.0639315208417 2:1 3:1 7:1 8:1 9:1 10:1 11:1 12:1 13:1 14:1 15:1 19:1 21:1 23:1 24:1 26:1 29:1 30:1 31:1 
1.046082043546227 1:1 2:1 7:1 8:1 9:1 10:1 12:1 13:1 14:1 15:1 17:1 18:1 19:1 22:1 27:1 28:1 34:1 
1.042355460310504 1:1 2:1 3:1 7:1 8:1 10:1 11:1 12:1 13:1 14:1 15:1 16:1 19:1 21:1 25:1 26:1 27:1 29:1 30:1 31:1 
1.069128255699683 1:1 4:1 7:1 8:1 9:1 10:1 11:1 12:1 13:1 14:1 15:1 16:1 17:1 19:1 20:1 22:1 25:1 27:1 28:1 29:1 30:1 31:1 
1.054500516893523 1:1 3:1 7:1 8:1 9:1 10:1 11:1 12:1 13:1 14:1 15:1 16:1 22:1 25:1 26:1 29:1 30:1 31:1 32:1 35:1 36:1 
1.065480366387493 1:1 2:1 7:1 8:1 9:1 13:1 14:1 15:1 16:1 20:1 21:1 22:1 23:1 25:1 26:1 27:1 28:1 29:1 34:1 35:1 
1.022163118924864 2:1 3:1 4:1 7:1 8:1 9:1 11:1 12:1 13:1 14:1 16:1 19:1 21:1 22:1 25:1 26:1 27:1 29:1 30:1 31:1 
1.082267627697149 1:1 6:1 7:1 8:1 9:1 12:1 13:1 15:1 16:1 17:1 19:1 20:1 22:1 23:1 24:1 25:1 26:1 27:1 28:1 29:1 33:1 
1.070756228279214 1:1 3:1 4:1 8:1 9:1 10:1 11:1 12:1 13:1 14:1 15:1 17:1 21:1 22:1 25:1 28:1 29:1 31:1 32:1 
0.6638248968461898 1:1 2:1 3:1 4:1 7:1 8:1 9:1 10:1 11:1 12:1 13:1 14:1 15:1 19:1 22:1 24:1 25:1 26:1 27:1 28:1 30:1 31:1 
1.035016247844358 2:1 3:1 4:1 7:1 8:1 11:1 12:1 14:1 15:1 16:1 19:1 22:1 23:1 25:1 26:1 27:1 31:1 35:1 
1.024044565482835 1:1 7:1 8:1 9:1 10:1 11:1 12:1 13:1 14:1 15:1 16:1 19:1 22:1 29:1 31:1 35:1 
1.07315695789752 1:1 3:1 4:1 7:1 8:1 9:1 10:1 11:1 12:1 14:1 16:1 17:1 18:1 19:1 22:1 27:1 28:1 30:1 34:1 35:1 36:1 
1.080802417547225 1:1 2:1 3:1 4:1 7:1 11:1 12:1 13:1 14:1 15:1 16:1 19:1 20:1 21:1 22:1 24:1 30:1 35:1 
1.03046468255612 1:1 2:1 3:1 4:1 6:1 8:1 9:1 10:1 11:1 12:1 14:1 15:1 16:1 19:1 21:1 22:1 26:1 27:1 28:1 29:1 34:1 35:1 
1.044992340898343 1:1 2:1 3:1 4:1 5:1 7:1 9:1 10:1 11:1 13:1 14:1 19:1 25:1 26:1 27:1 29:1 31:1 34:1 35:1 
0.8656321882327713 1:1 2:1 3:1 4:1 6:1 7:1 8:1 9:1 11:1 13:1 14:1 15:1 16:1 19:1 22:1 26:1 27:1 29:1 30:1 31:1 34:1 35:1 
1.068536482536637 3:1 7:1 8:1 11:1 13:1 14:1 18:1 19:1 26:1 27:1 31:1 34:1 
1.064888554545366 1:1 2:1 3:1 6:1 7:1 8:1 9:1 10:1 11:1 12:1 13:1 14:1 15:1 18:1 19:1 22:1 24:1 25:1 31:1 32:1 34:1 
1.066708199563322 1:1 2:1 3:1 4:1 8:1 9:1 12:1 14:1 15:1 16:1 17:1 19:1 22:1 25:1 28:1 29:1 30:1 31:1 
1.048340679052918 1:1 2:1 3:1 4:1 7:1 8:1 9:1 11:1 12:1 15:1 17:1 19:1 20:1 22:1 23:1 24:1 26:1 27:1 28:1 30:1 31:1 
1.029055392699802 1:1 2:1 3:1 4:1 7:1 10:1 11:1 12:1 13:1 14:1 15:1 16:1 17:1 26:1 27:1 28:1 29:1 31:1 34:1 35:1 
0.8465392992248459 1:1 2:1 4:1 7:1 8:1 9:1 13:1 14:1 15:1 16:1 19:1 22:1 24:1 26:1 27:1 28:1 29:1 30:1 31:1 34:1 35:1 
1.083358591881913 2:1 3:1 4:1 5:1 7:1 8:1 9:1 11:1 12:1 13:1 15:1 20:1 21:1 22:1 24:1 27:1 28:1 29:1 32:1 33:1 
0.9015217363714317 1:1 2:1 3:1 4:1 8:1 11:1 12:1 13:1 14:1 15:1 16:1 19:1 22:1 25:1 26:1 27:1 28:1 29:1 34:1 35:1 
1.067840389733973 1:1 2:1 3:1 7:1 9:1 10:1 13:1 14:1 15:1 16:1 19:1 22:1 24:1 30:1 34:1 35:1 
1.067707903389933 2:1 4:1 5:1 6:1 7:1 8:1 9:1 10:1 11:1 12:1 13:1 14:1 15:1 16:1 22:1 23:1 24:1 25:1 27:1 28:1 29:1 30:1 31:1 34:1 35:1 
0.9852953003568498 1:1 2:1 3:1 4:1 5:1 6:1 7:1 8:1 9:1 10:1 11:1 12:1 13:1 14:1 15:1 16:1 17:1 19:1 22:1 25:1 26:1 27:1 28:1 29:1 31:1 33:1 34:1 
1.016579239475407 1:1 2:1 4:1 7:1 8:1 9:1 12:1 13:1 14:1 15:1 19:1 22:1 24:1 25:1 26:1 27:1 28:1 29:1 30:1 35:1 
1.048735942520861 1:1 2:1 3:1 4:1 5:1 6:1 7:1 8:1 10:1 13:1 14:1 15:1 19:1 22:1 24:1 25:1 26:1 27:1 28:1 29:1 30:1 35:1 
1.027985367292682 1:1 2:1 4:1 7:1 9:1 10:1 11:1 13:1 14:1 16:1 17:1 19:1 22:1 23:1 25:1 26:1 27:1 28:1 29:1 30:1 34:1 
1.067378491510984 1:1 3:1 4:1 6:1 7:1 9:1 10:1 11:1 12:1 13:1 14:1 15:1 18:1 19:1 22:1 25:1 26:1 28:1 29:1 30:1 
1.000377222791677 1:1 2:1 7:1 8:1 9:1 11:1 12:1 13:1 14:1 15:1 16:1 17:1 26:1 27:1 30:1 31:1 34:1 
1.082037975982662 2:1 3:1 4:1 6:1 8:1 9:1 10:1 11:1 12:1 18:1 21:1 22:1 26:1 27:1 30:1 31:1 36:1 
1.08264880671402 2:1 6:1 7:1 8:1 9:1 11:1 12:1 13:1 14:1 16:1 19:1 20:1 21:1 22:1 28:1 29:1 30:1 34:1 
1.090635035566093 1:1 2:1 3:1 4:1 7:1 9:1 11:1 12:1 13:1 16:1 19:1 22:1 24:1 26:1 27:1 29:1 30:1 35:1 
1.075233659421138 1:1 2:1 6:1 8:1 9:1 11:1 12:1 14:1 15:1 17:1 18:1 22:1 25:1 27:1 28:1 29:1 31:1 32:1 34:1 
1.05305544731717 1:1 2:1 3:1 7:1 8:1 9:1 12:1 14:1 15:1 16:1 19:1 22:1 24:1 26:1 27:1 28:1 29:1 30:1 31:1 36:1 
1.076170722588853 1:1 2:1 4:1 7:1 9:1 10:1 12:1 15:1 18:1 22:1 24:1 26:1 27:1 28:1 31:1 33:1 34:1 
1.070708895324815 7:1 8:1 9:1 10:1 11:1 14:1 15:1 19:1 21:1 26:1 31:1 
1.008912505797274 1:1 2:1 3:1 4:1 6:1 8:1 10:1 11:1 12:1 13:1 14:1 15:1 16:1 19:1 21:1 22:1 25:1 26:1 27:1 28:1 29:1 30:1 34:1 
0.9679199800912284 1:1 2:1 3:1 7:1 8:1 9:1 13:1 14:1 15:1 17:1 19:1 22:1 25:1 26:1 27:1 28:1 30:1 31:1 34:1 35:1 
1.081284254244266 1:1 2:1 3:1 4:1 5:1 9:1 12:1 13:1 14:1 15:1 16:1 22:1 23:1 25:1 26:1 30:1 31:1 32:1 
1.061991770239838 1:1 2:1 3:1 4:1 5:1 6:1 7:1 8:1 9:1 10:1 11:1 12:1 14:1 16:1 19:1 22:1 25:1 27:1 29:1 34:1 
1.078981876285898 1:1 3:1 7:1 9:1 10:1 11:1 14:1 15:1 16:1 17:1 21:1 26:1 27:1 28:1 30:1 32:1 35:1 
1.090930837517253 1:1 2:1 3:1 4:1 7:1 9:1 11:1 12:1 13:1 14:1 15:1 19:1 21:1 22:1 23:1 24:1 25:1 26:1 27:1 29:1 30:1 34:1 
1.046605226578268 1:1 2:1 3:1 7:1 11:1 12:1 13:1 14:1 15:1 19:1 22:1 24:1 25:1 26:1 27:1 28:1 30:1 34:1 35:1 36:1 
1.047345798470515 1:1 2:1 3:1 4:1 5:1 7:1 8:1 10:1 13:1 14:1 15:1 16:1 19:1 22:1 24:1 25:1 26:1 27:1 28:1 30:1 31:1 32:1 35:1 
1.080448454236105 1:1 3:1 4:1 7:1 9:1 10:1 11:1 13:1 14:1 15:1 20:1 21:1 22:1 24:1 28:1 30:1 33:1 34:1 
1.068307439233706 1:1 2:1 3:1 9:1 11:1 12:1 13:1 15:1 16:1 19:1 21:1 25:1 26:1 27:1 29:1 35:1 
0.7907882012852232 1:1 2:1 3:1 4:1 7:1 8:1 9:1 11:1 12:1 13:1 14:1 15:1 16:1 17:1 22:1 24:1 26:1 27:1 28:1 29:1 30:1 31:1 34:1 
1.067334315652293 1:1 3:1 4:1 6:1 7:1 8:1 9:1 11:1 12:1 13:1 15:1 16:1 17:1 22:1 24:1 25:1 26:1 30:1 34:1 
1.044440901652989 1:1 2:1 3:1 4:1 7:1 8:1 9:1 11:1 13:1 14:1 15:1 16:1 25:1 27:1 28:1 30:1 31:1 33:1 
1.080624396262871 1:1 2:1 5:1 7:1 9:1 10:1 11:1 12:1 13:1 14:1 15:1 16:1 21:1 22:1 27:1 28:1 29:1 31:1 34:1 35:1 36:1 
1.082103643900279 2:1 3:1 8:1 9:1 11:1 12:1 14:1 19:1 22:1 25:1 26:1 27:1 28:1 29:1 30:1 32:1 35:1 36:1 
1.072474233982817 2:1 3:1 7:1 8:1 9:1 12:1 13:1 14:1 15:1 19:1 20:1 21:1 22:1 28:1 30:1 31:1 
1.055327647728453 1:1 2:1 3:1 4:1 5:1 6:1 7:1 8:1 9:1 10:1 11:1 12:1 13:1 14:1 15:1 16:1 19:1 20:1 22:1 23:1 25:1 26:1 29:1 31:1 35:1 
1.002345751438345 1:1 2:1 3:1 7:1 8:1 9:1 11:1 13:1 14:1 15:1 19:1 22:1 24:1 25:1 26:1 27:1 28:1 29:1 30:1 31:1 32:1 33:1 34:1 
1.065357559695219 1:1 3:1 7:1 8:1 9:1 10:1 12:1 13:1 14:1 15:1 16:1 17:1 18:1 21:1 22:1 25:1 26:1 
0.9913219246656245 1:1 2:1 3:1 6:1 7:1 8:1 9:1 13:1 14:1 15:1 16:1 19:1 20:1 22:1 24:1 25:1 26:1 27:1 28:1 30:1 31:1 34:1 
0.9997493654909506 1:1 2:1 3:1 4:1 8:1 9:1 11:1 12:1 13:1 14:1 15:1 16:1 17:1 18:1 22:1 24:1 25:1 26:1 27:1 28:1 29:1 31:1 
1.04630131563149 1:1 2:1 3:1 4:1 7:1 8:1 9:1 11:1 13:1 15:1 16:1 19:1 20:1 21:1 26:1 27:1 28:1 31:1 34:1 
1.032673262067583 1:1 2:1 4:1 7:1 8:1 9:1 10:1 11:1 12:1 13:1 14:1 15:1 16:1 17:1 19:1 22:1 23:1 26:1 28:1 30:1 31:1 33:1 34:1 36:1 
0.867069279674232 1:1 2:1 3:1 4:1 7:1 8:1 9:1 11:1 13:1 14:1 15:1 16:1 17:1 19:1 22:1 25:1 27:1 30:1 31:1 34:1 
1.007628809049364 1:1 2:1 3:1 4:1 10:1 11:1 12:1 13:1 14:1 15:1 16:1 19:1 22:1 25:1 26:1 27:1 28:1 29:1 30:1 34:1 35:1 36:1 
1.081548789086975 1:1 2:1 3:1 4:1 6:1 7:1 8:1 9:1 13:1 14:1 15:1 16:1 19:1 21:1 22:1 23:1 24:1 25:1 26:1 27:1 28:1 30:1 31:1 34:1 
1.049219198724026 1:1 2:1 3:1 4:1 7:1 8:1 9:1 11:1 12:1 13:1 14:1 16:1 17:1 18:1 19:1 22:1 24:1 26:1 29:1 30:1 
1.084777954355717 2:1 4:1 5:1 7:1 9:1 13:1 14:1 15:1 19:1 20:1 21:1 22:1 23:1 27:1 28:1 29:1 34:1 
1.08082578575543 1:1 2:1 3:1 5:1 7:1 9:1 11:1 12:1 15:1 16:1 19:1 21:1 22:1 23:1 26:1 31:1 32:1 34:1 35:1 
1.044007547924533 1:1 2:1 4:1 5:1 7:1 8:1 9:1 10:1 11:1 12:1 13:1 14:1 15:1 16:1 18:1 19:1 21:1 22:1 24:1 26:1 28:1 29:1 31:1 34:1 35:1 
1.081304786480616 2:1 4:1 7:1 8:1 9:1 11:1 12:1 13:1 14:1 15:1 19:1 25:1 26:1 27:1 28:1 29:1 31:1 32:1 33:1 36:1 
1.019492226637551 1:1 2:1 3:1 4:1 7:1 9:1 10:1 11:1 12:1 13:1 14:1 15:1 16:1 17:1 21:1 22:1 23:1 27:1 28:1 30:1 34:1 
1.091968536694277 1:1 2:1 3:1 4:1 7:1 8:1 9:1 12:1 13:1 14:1 15:1 18:1 22:1 27:1 29:1 30:1 31:1 
1.051734752785434 2:1 4:1 7:1 8:1 9:1 13:1 19:1 22:1 26:1 28:1 30:1 31:1 34:1 
1.036776163836009 1:1 7:1 8:1 9:1 10:1 11:1 12:1 14:1 15:1 19:1 22:1 24:1 25:1 26:1 28:1 29:1 30:1 34:1 
1.069535565404776 1:1 2:1 7:1 8:1 9:1 11:1 12:1 14:1 15:1 16:1 19:1 20:1 21:1 22:1 25:1 26:1 29:1 31:1 32:1 35:1 
0.8710368034460857 1:1 2:1 3:1 4:1 7:1 9:1 11:1 13:1 14:1 15:1 16:1 17:1 19:1 22:1 24:1 25:1 26:1 27:1 28:1 30:1 31:1 34:1 
1.079185151376787 2:1 3:1 7:1 9:1 10:1 11:1 12:1 13:1 14:1 15:1 22:1 28:1 29:1 30:1 33:1 34:1 
1.075778646634615 2:1 3:1 7:1 8:1 9:1 11:1 13:1 14:1 15:1 19:1 22:1 23:1 25:1 26:1 27:1 30:1 
1.061428255961329 1:1 3:1 8:1 9:1 11:1 12:1 13:1 14:1 15:1 18:1 19:1 22:1 23:1 24:1 27:1 29:1 30:1 34:1 
1.071680085599507 1:1 2:1 3:1 7:1 10:1 11:1 13:1 14:1 15:1 16:1 17:1 19:1 24:1 26:1 30:1 32:1 
1.074482352949478 1:1 3:1 8:1 9:1 11:1 12:1 13:1 14:1 15:1 16:1 18:1 19:1 25:1 27:1 28:1 33:1 34:1 
1.077780060053338 1:1 2:1 3:1 7:1 8:1 10:1 11:1 13:1 14:1 15:1 16:1 19:1 23:1 24:1 25:1 26:1 27:1 28:1 29:1 30:1 31:1 32:1 35:1 36:1 
0.3374340955762218 1:1 2:1 3:1 4:1 7:1 8:1 9:1 11:1 12:1 13:1 14:1 15:1 16:1 17:1 19:1 22:1 26:1 27:1 28:1 31:1 34:1 
1.081695085221603 2:1 6:1 8:1 9:1 11:1 12:1 15:1 21:1 22:1 25:1 26:1 30:1 34:1 36:1 
0.9207972106109951 1:1 4:1 7:1 8:1 9:1 10:1 11:1 12:1 13:1 14:1 15:1 16:1 17:1 19:1 20:1 22:1 25:1 26:1 28:1 29:1 30:1 34:1 
1.042938276838399 1:1 2:1 3:1 4:1 5:1 7:1 8:1 9:1 12:1 13:1 14:1 22:1 23:1 26:1 27:1 31:1 35:1 
1.066893739513832 1:1 3:1 5:1 6:1 7:1 8:1 9:1 10:1 12:1 13:1 14:1 16:1 19:1 22:1 24:1 25:1 27:1 28:1 30:1 31:1 32:1 34:1 
0.9783870886268142 1:1 2:1 6:1 7:1 8:1 9:1 11:1 12:1 13:1 14:1 15:1 16:1 17:1 22:1 24:1 25:1 26:1 27:1 28:1 30:1 34:1 
1.103631474186343 2:1 3:1 4:1 6:1 7:1 8:1 9:1 10:1 11:1 12:1 13:1 14:1 15:1 16:1 17:1 18:1 19:1 20:1 21:1 22:1 25:1 26:1 27:1 30:1 31:1 34:1 
0.9990623109066767 1:1 2:1 4:1 7:1 9:1 12:1 13:1 14:1 15:1 16:1 18:1 22:1 25:1 26:1 27:1 28:1 29:1 31:1 34:1 
0.9619843883935434 1:1 3:1 7:1 8:1 9:1 11:1 12:1 14:1 15:1 16:1 19:1 22:1 24:1 25:1 26:1 27:1 30:1 31:1 
1.065600535231163 1:1 2:1 3:1 4:1 5:1 6:1 8:1 9:1 10:1 11:1 12:1 13:1 14:1 16:1 18:1 19:1 22:1 24:1 26:1 27:1 29:1 31:1 34:1 
1.036127224080765 1:1 2:1 3:1 4:1 5:1 7:1 8:1 10:1 11:1 12:1 13:1 14:1 15:1 19:1 22:1 23:1 25:1 26:1 27:1 29:1 31:1 34:1 35:1 
1.082513599367651 2:1 3:1 4:1 6:1 7:1 8:1 9:1 11:1 13:1 14:1 18:1 19:1 21:1 22:1 23:1 24:1 25:1 26:1 27:1 28:1 29:1 30:1 31:1 34:1 35:1 36:1 
1.077001911094823 3:1 4:1 7:1 8:1 11:1 12:1 13:1 14:1 15:1 16:1 19:1 20:1 21:1 22:1 28:1 35:1 
0.671553394155164 2:1 3:1 4:1 7:1 8:1 9:1 10:1 11:1 12:1 14:1 15:1 16:1 19:1 22:1 25:1 26:1 27:1 28:1 29:1 30:1 31:1 34:1 35:1 
1.053265457310758 1:1 2:1 3:1 4:1 6:1 7:1 8:1 9:1 13:1 14:1 15:1 19:1 25:1 27:1 30:1 34:1 35:1 
0.9270449148895654 1:1 3:1 4:1 7:1 8:1 9:1 10:1 11:1 12:1 13:1 14:1 15:1 16:1 19:1 20:1 22:1 24:1 25:1 26:1 27:1 28:1 29:1 31:1 34:1 
1.056139385602459 1:1 2:1 3:1 4:1 6:1 7:1 8:1 9:1 10:1 11:1 12:1 13:1 14:1 16:1 17:1 22:1 23:1 24:1 25:1 26:1 28:1 31:1 32:1 34:1 
1.074116752150647 1:1 2:1 3:1 7:1 8:1 9:1 11:1 12:1 14:1 15:1 16:1 27:1 30:1 
1.18986700917972 1:1 2:1 3:1 7:1 8:1 9:1 10:1 11:1 12:1 13:1 14:1 15:1 19:1 20:1 21:1 22:1 26:1 27:1 28:1 29:1 31:1 32:1 
1.072835573950271 2:1 3:1 6:1 7:1 8:1 9:1 14:1 15:1 16:1 19:1 24:1 26:1 28:1 30:1 31:1 34:1 
1.046950253006022 1:1 2:1 3:1 7:1 8:1 9:1 10:1 11:1 12:1 13:1 14:1 15:1 19:1 22:1 25:1 26:1 27:1 28:1 29:1 31:1 32:1 
1.08446809647896 4:1 8:1 9:1 10:1 11:1 12:1 13:1 14:1 15:1 19:1 20:1 22:1 24:1 25:1 27:1 30:1 31:1 33:1 35:1 
1.08014053242212 1:1 2:1 3:1 4:1 6:1 7:1 8:1 10:1 11:1 13:1 14:1 15:1 19:1 20:1 21:1 22:1 25:1 26:1 27:1 28:1 34:1 36:1 
1.082011479856724 1:1 2:1 3:1 7:1 8:1 9:1 10:1 11:1 12:1 14:1 16:1 22:1 23:1 24:1 25:1 26:1 28:1 29:1 30:1 
1.105155783073537 2:1 3:1 6:1 7:1 8:1 9:1 10:1 11:1 12:1 13:1 14:1 15:1 16:1 19:1 22:1 23:1 26:1 29:1 30:1 35:1 
1.004314774291689 1:1 2:1 3:1 4:1 5:1 8:1 9:1 11:1 12:1 13:1 15:1 16:1 19:1 22:1 25:1 26:1 27:1 28:1 30:1 31:1 34:1 
1.078763467634726 2:1 3:1 4:1 9:1 10:1 11:1 12:1 14:1 15:1 16:1 17:1 18:1 19:1 22:1 30:1 31:1 32:1 34:1 35:1 36:1 
1.064575667191719 3:1 4:1 8:1 9:1 10:1 11:1 12:1 14:1 15:1 16:1 19:1 23:1 24:1 26:1 27:1 28:1 29:1 30:1 31:1 34:1 35:1 
1.088128633062659 1:1 2:1 3:1 4:1 7:1 8:1 11:1 12:1 14:1 15:1 19:1 21:1 22:1 23:1 25:1 26:1 27:1 28:1 29:1 30:1 31:1 34:1 
1.063753495780308 1:1 2:1 3:1 6:1 9:1 10:1 11:1 12:1 14:1 15:1 16:1 19:1 21:1 22:1 24:1 25:1 26:1 27:1 28:1 30:1 
0.7953457048498133 1:1 2:1 3:1 7:1 8:1 9:1 10:1 11:1 12:1 13:1 14:1 15:1 16:1 18:1 19:1 22:1 24:1 26:1 27:1 28:1 29:1 31:1 34:1 35:1 
1.073262304931617 1:1 2:1 3:1 4:1 8:1 9:1 10:1 11:1 12:1 15:1 16:1 19:1 24:1 25:1 26:1 27:1 29:1 30:1 33:1 
1.049825290397542 1:1 2:1 3:1 4:1 7:1 8:1 10:1 11:1 12:1 13:1 14:1 15:1 16:1 19:1 20:1 22:1 24:1 25:1 26:1 27:1 30:1 
1.07377447551037 3:1 4:1 5:1 7:1 9:1 10:1 11:1 12:1 13:1 14:1 16:1 18:1 19:1 22:1 25:1 26:1 28:1 29:1 30:1 34:1 
1.073424522727323 1:1 2:1 3:1 4:1 6:1 7:1 8:1 9:1 11:1 12:1 14:1 15:1 16:1 17:1 21:1 26:1 27:1 32:1 
1.035176934318307 1:1 3:1 4:1 7:1 8:1 9:1 10:1 14:1 15:1 16:1 17:1 19:1 22:1 23:1 25:1 26:1 27:1 28:1 29:1 30:1 34:1 35:1 
0.9101976985413447 2:1 3:1 4:1 7:1 8:1 9:1 10:1 11:1 13:1 14:1 15:1 19:1 22:1 24:1 25:1 26:1 27:1 28:1 30:1 31:1 34:1 35:1 
1.063985552620169 2:1 3:1 4:1 7:1 8:1 9:1 10:1 13:1 14:1 25:1 26:1 27:1 
1.071989814748725 1:1 2:1 3:1 4:1 7:1 8:1 10:1 13:1 14:1 22:1 24:1 26:1 29:1 30:1 31:1 
1.081031923249954 1:1 3:1 4:1 5:1 6:1 8:1 9:1 10:1 11:1 12:1 13:1 14:1 22:1 24:1 25:1 27:1 29:1 31:1 32:1 
1.073391385655055 1:1 3:1 7:1 8:1 11:1 12:1 13:1 14:1 15:1 16:1 22:1 23:1 24:1 25:1 27:1 28:1 29:1 31:1 34:1 36:1 
1.076902867316458 1:1 3:1 6:1 8:1 9:1 11:1 12:1 14:1 15:1 16:1 19:1 21:1 22:1 23:1 24:1 25:1 26:1 27:1 28:1 31:1 33:1 34:1 
1.089761078957763 1:1 2:1 3:1 4:1 7:1 8:1 9:1 11:1 12:1 13:1 15:1 16:1 17:1 18:1 19:1 20:1 22:1 24:1 26:1 27:1 28:1 29:1 33:1 
1.084872198234938 1:1 2:1 3:1 7:1 8:1 10:1 11:1 12:1 13:1 15:1 23:1 24:1 27:1 28:1 29:1 30:1 31:1 33:1 34:1 35:1 
1.08226331644484 1:1 3:1 7:1 8:1 9:1 10:1 11:1 12:1 13:1 14:1 16:1 17:1 19:1 20:1 22:1 25:1 28:1 30:1 32:1 33:1 
1.063450604052335 1:1 2:1 3:1 4:1 7:1 8:1 10:1 11:1 12:1 13:1 14:1 16:1 18:1 19:1 25:1 26:1 34:1 
0.9791627087851517 2:1 3:1 7:1 8:1 9:1 11:1 12:1 13:1 14:1 15:1 16:1 22:1 24:1 26:1 27:1 30:1 31:1 32:1 34:1 
1.072942117552107 1:1 2:1 8:1 9:1 11:1 12:1 13:1 14:1 16:1 18:1 19:1 22:1 26:1 27:1 28:1 
1.079410724178798 2:1 3:1 7:1 9:1 10:1 11:1 12:1 13:1 14:1 15:1 16:1 20:1 21:1 25:1 26:1 27:1 28:1 29:1 31:1 32:1 33:1 34:1 35:1 36:1 
1.069427737853366 2:1 4:1 7:1 8:1 9:1 13:1 15:1 16:1 19:1 22:1 23:1 25:1 26:1 28:1 29:1 30:1 31:1 
1.122353328067473 1:1 2:1 3:1 4:1 7:1 8:1 9:1 10:1 11:1 12:1 13:1 20:1 27:1 28:1 29:1 30:1 34:1 35:1 
0.976732102590233 1:1 2:1 3:1 7:1 8:1 9:1 11:1 12:1 13:1 14:1 15:1 17:1 19:1 20:1 22:1 25:1 26:1 27:1 28:1 31:1 
1.080655870510503 1:1 3:1 5:1 6:1 8:1 9:1 13:1 14:1 15:1 18:1 19:1 20:1 22:1 25:1 26:1 28:1 32:1 34:1 
1.035640568420153 1:1 2:1 3:1 4:1 7:1 8:1 9:1 13:1 14:1 15:1 21:1 22:1 24:1 25:1 26:1 27:1 28:1 30:1 32:1 34:1 
1.043671867310588 2:1 4:1 8:1 9:1 11:1 12:1 13:1 14:1 15:1 19:1 22:1 24:1 26:1 27:1 28:1 29:1 30:1 31:1 
1.057092320125199 1:1 2:1 3:1 4:1 8:1 10:1 11:1 12:1 13:1 14:1 15:1 16:1 17:1 19:1 22:1 24:1 28:1 29:1 30:1 31:1 32:1 33:1 34:1 
0.9324510987494424 1:1 3:1 4:1 7:1 8:1 9:1 10:1 11:1 12:1 13:1 15:1 16:1 19:1 22:1 25:1 27:1 28:1 31:1 34:1 
1.061722685219031 1:1 3:1 4:1 6:1 8:1 9:1 13:1 14:1 15:1 19:1 21:1 22:1 26:1 27:1 28:1 29:1 32:1 36:1 
0.6429418379847157 1:1 2:1 3:1 4:1 7:1 8:1 9:1 11:1 12:1 13:1 14:1 15:1 16:1 17:1 19:1 22:1 23:1 25:1 26:1 27:1 28:1 31:1 34:1 
1.045562181805427 2:1 3:1 6:1 7:1 8:1 9:1 10:1 11:1 12:1 14:1 15:1 16:1 18:1 22:1 26:1 27:1 30:1 31:1 32:1 34:1 
1.012352576500817 1:1 2:1 3:1 4:1 5:1 7:1 8:1 9:1 10:1 11:1 12:1 13:1 14:1 15:1 16:1 19:1 20:1 22:1 24:1 25:1 27:1 31:1 
1.042301069529449 1:1 2:1 3:1 4:1 7:1 8:1 9:1 11:1 14:1 15:1 19:1 21:1 22:1 26:1 27:1 29:1 30:1 31:1 32:1 
1.047877632099079 1:1 3:1 7:1 10:1 11:1 12:1 13:1 15:1 19:1 22:1 24:1 25:1 26:1 27:1 28:1 29:1 34:1 
1.146376541040488 1:1 2:1 3:1 4:1 7:1 8:1 9:1 10:1 11:1 12:1 13:1 15:1 19:1 26:1 27:1 29:1 30:1 34:1 35:1 
1.035107051784189 1:1 2:1 3:1 6:1 7:1 8:1 9:1 11:1 12:1 13:1 14:1 22:1 24:1 26:1 27:1 28:1 30:1 34:1 35:1 
1.074749711397662 1:1 2:1 3:1 7:1 8:1 10:1 12:1 13:1 14:1 15:1 16:1 17:1 21:1 22:1 23:1 25:1 26:1 27:1 29:1 32:1 
1.067691726312755 1:1 2:1 3:1 4:1 5:1 7:1 10:1 11:1 13:1 14:1 15:1 16:1 19:1 20:1 22:1 24:1 26:1 27:1 29:1 30:1 34:1 
1.066575256782927 2:1 3:1 7:1 9:1 11:1 13:1 14:1 15:1 16:1 19:1 20:1 22:1 25:1 26:1 28:1 29:1 30:1 31:1 34:1 35:1 36:1 
1.063321175903267 1:1 2:1 3:1 4:1 7:1 8:1 10:1 11:1 12:1 13:1 15:1 16:1 17:1 19:1 22:1 25:1 26:1 27:1 28:1 29:1 30:1 31:1 32:1 33:1 36:1 
1.076362536080228 2:1 7:1 8:1 9:1 12:1 13:1 14:1 15:1 20:1 21:1 22:1 23:1 25:1 26:1 28:1 34:1 35:1 36:1 
0.9028630126515425 1:1 2:1 3:1 4:1 7:1 8:1 9:1 10:1 11:1 13:1 14:1 16:1 17:1 19:1 22:1 26:1 27:1 28:1 29:1 34:1 
1.040118462827803 1:1 2:1 3:1 4:1 7:1 8:1 9:1 11:1 13:1 14:1 16:1 19:1 25:1 28:1 30:1 31:1 34:1 36:1 
0.9319425873935323 2:1 3:1 7:1 8:1 9:1 11:1 12:1 13:1 14:1 15:1 16:1 19:1 22:1 27:1 28:1 29:1 30:1 34:1 35:1 
1.081489716353569 2:1 3:1 4:1 5:1 7:1 8:1 11:1 12:1 13:1 14:1 15:1 18:1 20:1 22:1 26:1 30:1 34:1 36:1 
1.062657075524975 1:1 2:1 3:1 4:1 7:1 8:1 9:1 10:1 11:1 12:1 15:1 17:1 18:1 25:1 26:1 27:1 29:1 30:1 31:1 32:1 36:1 
1.076886881278594 1:1 3:1 4:1 6:1 8:1 9:1 13:1 14:1 15:1 19:1 23:1 28:1 29:1 31:1 34:1 
1.080251055639883 1:1 4:1 7:1 8:1 9:1 12:1 13:1 14:1 15:1 18:1 21:1 22:1 25:1 27:1 29:1 30:1 31:1 33:1 35:1 36:1 
1.069642782622101 2:1 3:1 7:1 8:1 9:1 13:1 14:1 15:1 16:1 19:1 20:1 21:1 22:1 25:1 28:1 30:1 31:1 33:1 34:1 35:1 
1.076824993754791 1:1 3:1 4:1 5:1 9:1 11:1 14:1 15:1 17:1 19:1 22:1 24:1 26:1 27:1 30:1 31:1 34:1 
1.070946500246804 1:1 2:1 3:1 4:1 7:1 8:1 9:1 11:1 12:1 14:1 15:1 16:1 18:1 20:1 25:1 27:1 30:1 31:1 34:1 35:1 
1.066598324880433 1:1 3:1 4:1 5:1 7:1 8:1 10:1 11:1 12:1 13:1 14:1 19:1 22:1 26:1 28:1 30:1 34:1 35:1 
1.015292003717933 1:1 2:1 3:1 4:1 8:1 9:1 10:1 11:1 12:1 13:1 15:1 16:1 19:1 21:1 22:1 25:1 26:1 27:1 29:1 30:1 31:1 32:1 34:1 
1.064649227234831 2:1 3:1 4:1 7:1 8:1 9:1 11:1 12:1 13:1 14:1 16:1 19:1 20:1 21:1 22:1 23:1 25:1 26:1 27:1 28:1 29:1 31:1 32:1 33:1 34:1 35:1 
1.036508245511404 1:1 2:1 3:1 6:1 7:1 8:1 9:1 11:1 12:1 13:1 14:1 15:1 22:1 26:1 27:1 29:1 31:1 35:1 36:1 
1.0514908186663 1:1 2:1 3:1 4:1 5:1 8:1 10:1 11:1 13:1 14:1 16:1 19:1 25:1 26:1 27:1 29:1 31:1 36:1 
1.04868902790885 1:1 2:1 3:1 4:1 6:1 7:1 8:1 9:1 10:1 11:1 12:1 14:1 15:1 16:1 17:1 22:1 23:1 24:1 26:1 27:1 29:1 34:1 35:1 
1.0798415434888 1:1 3:1 4:1 6:1 7:1 8:1 9:1 12:1 14:1 22:1 24:1 26:1 27:1 28:1 30:1 31:1 34:1 
0.7905804340821075 1:1 2:1 3:1 4:1 7:1 8:1 9:1 10:1 11:1 12:1 13:1 14:1 15:1 19:1 22:1 24:1 25:1 26:1 27:1 28:1 29:1 30:1 31:1 32:1 34:1 
1.07216991010026 1:1 4:1 7:1 8:1 13:1 14:1 15:1 16:1 17:1 21:1 22:1 25:1 26:1 27:1 29:1 30:1 34:1 35:1 
1.064250211938223 1:1 2:1 3:1 4:1 5:1 8:1 10:1 11:1 12:1 13:1 15:1 16:1 17:1 19:1 20:1 21:1 22:1 24:1 25:1 26:1 27:1 28:1 30:1 34:1 35:1 
1.075978197068854 2:1 3:1 4:1 7:1 8:1 9:1 10:1 12:1 13:1 14:1 15:1 20:1 23:1 25:1 26:1 27:1 28:1 29:1 34:1 
0.8836126853906832 1:1 2:1 3:1 4:1 7:1 8:1 9:1 10:1 11:1 12:1 14:1 15:1 16:1 17:1 19:1 20:1 21:1 22:1 25:1 27:1 28:1 34:1 
1.036360567693659 1:1 2:1 3:1 4:1 7:1 8:1 9:1 11:1 12:1 13:1 14:1 15:1 16:1 19:1 20:1 22:1 25:1 26:1 31:1 32:1 
0.9655440392256275 2:1 3:1 7:1 8:1 9:1 12:1 13:1 14:1 15:1 16:1 19:1 22:1 26:1 28:1 34:1 35:1 
1.076108460019128 1:1 2:1 3:1 4:1 5:1 8:1 9:1 11:1 13:1 15:1 19:1 22:1 24:1 25:1 26:1 29:1 30:1 31:1 32:1 35:1 36:1 
1.078604117516579 2:1 3:1 4:1 5:1 7:1 8:1 12:1 14:1 15:1 16:1 17:1 19:1 21:1 22:1 26:1 27:1 28:1 29:1 30:1 34:1 35:1 
1.07676947126027 2:1 3:1 4:1 6:1 7:1 8:1 13:1 14:1 16:1 17:1 18:1 19:1 22:1 25:1 28:1 29:1 31:1 34:1 
1.070381241444004 1:1 3:1 5:1 6:1 7:1 8:1 9:1 10:1 11:1 12:1 13:1 14:1 19:1 25:1 27:1 30:1 31:1 32:1 34:1 
1.063303270657993 1:1 3:1 6:1 7:1 8:1 9:1 11:1 12:1 13:1 14:1 15:1 17:1 25:1 26:1 27:1 
1.090115194042776 2:1 4:1 8:1 9:1 10:1 11:1 12:1 13:1 14:1 15:1 19:1 21:1 22:1 23:1 27:1 28:1 29:1 30:1 31:1 32:1 35:1 
1.084281488605387 1:1 2:1 6:1 7:1 8:1 9:1 10:1 13:1 14:1 15:1 16:1 17:1 19:1 20:1 21:1 25:1 26:1 27:1 29:1 30:1 31:1 36:1 
1.068078185220256 1:1 2:1 3:1 7:1 8:1 9:1 11:1 13:1 14:1 15:1 16:1 19:1 20:1 21:1 22:1 27:1 29:1 
1.078721645843989 1:1 2:1 3:1 7:1 8:1 10:1 11:1 12:1 15:1 16:1 17:1 18:1 19:1 20:1 22:1 23:1 24:1 30:1 31:1 34:1 36:1 
1.039620022317858 1:1 2:1 3:1 6:1 7:1 8:1 9:1 11:1 12:1 13:1 14:1 15:1 19:1 21:1 22:1 26:1 27:1 29:1 30:1 31:1 
1.078125874429857 1:1 2:1 3:1 5:1 8:1 11:1 14:1 15:1 17:1 19:1 22:1 24:1 25:1 26:1 27:1 29:1 30:1 31:1 32:1 34:1 35:1 36:1 
1.092537254526774 1:1 2:1 3:1 7:1 8:1 9:1 12:1 13:1 15:1 19:1 21:1 22:1 23:1 26:1 27:1 31:1 35:1 
1.080864127973565 1:1 2:1 3:1 4:1 5:1 6:1 7:1 8:1 9:1 10:1 11:1 12:1 15:1 16:1 17:1 19:1 21:1 22:1 25:1 26:1 27:1 28:1 29:1 31:1 36:1 
1.063105103722498 2:1 3:1 4:1 7:1 8:1 12:1 13:1 14:1 15:1 16:1 17:1 26:1 27:1 28:1 30:1 31:1 33:1 34:1 
1.00350519290388 1:1 2:1 3:1 4:1 7:1 8:1 9:1 10:1 11:1 12:1 13:1 14:1 15:1 22:1 24:1 25:1 26:1 27:1 30:1 34:1 35:1 
1.059952171533258 1:1 2:1 4:1 7:1 8:1 9:1 13:1 14:1 19:1 22:1 24:1 28:1 29:1 30:1 31:1 34:1 36:1 
1.053535496583449 1:1 2:1 3:1 4:1 5:1 7:1 8:1 9:1 10:1 11:1 12:1 13:1 14:1 15:1 16:1 17:1 19:1 24:1 25:1 26:1 27:1 28:1 29:1 34:1 36:1 
1.078115397894212 1:1 4:1 5:1 8:1 9:1 10:1 11:1 12:1 14:1 15:1 19:1 20:1 21:1 22:1 24:1 25:1 26:1 27:1 28:1 29:1 31:1 34:1 
1.07910731817779 3:1 4:1 5:1 8:1 9:1 10:1 12:1 13:1 14:1 15:1 17:1 19:1 22:1 23:1 24:1 28:1 29:1 30:1 31:1 34:1 
1.078104829795761 1:1 2:1 4:1 8:1 9:1 11:1 12:1 14:1 15:1 16:1 17:1 19:1 20:1 21:1 22:1 23:1 24:1 25:1 27:1 28:1 29:1 30:1 31:1 35:1 
1.092568302372781 2:1 3:1 4:1 7:1 8:1 9:1 11:1 12:1 14:1 15:1 19:1 24:1 26:1 27:1 28:1 30:1 31:1 33:1 
1.062924628582932 3:1 4:1 7:1 8:1 11:1 12:1 14:1 15:1 16:1 22:1 26:1 29:1 31:1 
1.038037177826314 1:1 2:1 4:1 7:1 8:1 9:1 12:1 13:1 14:1 15:1 16:1 17:1 18:1 19:1 22:1 23:1 24:1 25:1 26:1 27:1 28:1 29:1 34:1 
1.070397996630845 2:1 3:1 4:1 6:1 7:1 8:1 9:1 10:1 12:1 13:1 14:1 15:1 22:1 25:1 27:1 29:1 35:1 
1.077176677034832 2:1 3:1 4:1 6:1 7:1 8:1 9:1 10:1 11:1 13:1 15:1 16:1 21:1 24:1 26:1 27:1 29:1 30:1 31:1 34:1 
1.079286758216698 1:1 3:1 4:1 7:1 8:1 9:1 10:1 12:1 14:1 15:1 22:1 23:1 24:1 25:1 26:1 27:1 29:1 30:1 35:1 
1.087380209371307 1:1 4:1 7:1 8:1 12:1 13:1 14:1 15:1 16:1 19:1 21:1 22:1 25:1 26:1 27:1 29:1 30:1 
1.064514413893592 1:1 3:1 4:1 8:1 9:1 10:1 11:1 12:1 13:1 14:1 15:1 16:1 17:1 19:1 22:1 27:1 29:1 30:1 31:1 32:1 33:1 34:1 36:1 
0.9185668867334302 1:1 2:1 3:1 4:1 6:1 7:1 9:1 10:1 11:1 12:1 13:1 14:1 15:1 16:1 17:1 22:1 25:1 26:1 27:1 28:1 29:1 31:1 34:1 35:1 
1.615199124464104 1:1 2:1 3:1 7:1 8:1 9:1 10:1 11:1 12:1 13:1 14:1 22:1 25:1 27:1 28:1 29:1 30:1 31:1 34:1 35:1 
1.067646030419646 1:1 2:1 3:1 4:1 5:1 7:1 8:1 9:1 11:1 12:1 13:1 14:1 15:1 16:1 19:1 20:1 21:1 22:1 28:1 29:1 34:1 
1.02691980314173 1:1 2:1 3:1 4:1 5:1 7:1 8:1 9:1 10:1 11:1 12:1 15:1 16:1 19:1 20:1 22:1 23:1 26:1 27:1 28:1 29:1 31:1 34:1 
1.057844159205405 1:1 2:1 3:1 4:1 5:1 7:1 8:1 9:1 12:1 13:1 14:1 15:1 16:1 21:1 22:1 24:1 25:1 26:1 27:1 28:1 29:1 30:1 35:1 
1.064930994809744 1:1 2:1 3:1 4:1 5:1 7:1 8:1 9:1 10:1 11:1 13:1 14:1 16:1 19:1 21:1 22:1 24:1 25:1 26:1 29:1 30:1 31:1 34:1 
1.06911736520118 2:1 3:1 6:1 7:1 8:1 9:1 11:1 12:1 13:1 14:1 15:1 19:1 22:1 23:1 24:1 25:1 26:1 27:1 29:1 30:1 31:1 34:1 
1.076464303147469 1:1 3:1 6:1 7:1 8:1 9:1 10:1 11:1 12:1 13:1 14:1 15:1 16:1 17:1 19:1 20:1 23:1 26:1 27:1 29:1 31:1 32:1 34:1 35:1 
1.056073515108052 1:1 2:1 3:1 8:1 9:1 10:1 11:1 12:1 14:1 15:1 16:1 17:1 18:1 22:1 26:1 27:1 30:1 31:1 34:1 35:1 
1.070722786571382 1:1 2:1 3:1 4:1 6:1 7:1 8:1 9:1 10:1 11:1 12:1 13:1 14:1 15:1 16:1 17:1 19:1 21:1 22:1 27:1 29:1 30:1 32:1 35:1 
1.038169982524133 1:1 2:1 3:1 4:1 8:1 9:1 10:1 11:1 12:1 13:1 14:1 15:1 22:1 23:1 25:1 27:1 34:1 
0.7040331966419558 1:1 2:1 3:1 7:1 8:1 9:1 10:1 11:1 12:1 13:1 14:1 15:1 16:1 19:1 22:1 25:1 26:1 27:1 31:1 
1.053817174095641 1:1 2:1 3:1 4:1 5:1 7:1 8:1 9:1 11:1 12:1 13:1 14:1 21:1 22:1 23:1 27:1 31:1 
1.081924065381211 2:1 3:1 5:1 6:1 9:1 11:1 12:1 13:1 14:1 15:1 21:1 22:1 28:1 29:1 30:1 31:1 34:1 35:1 
1.054494105590276 1:1 2:1 3:1 4:1 7:1 8:1 9:1 12:1 13:1 14:1 16:1 18:1 19:1 24:1 25:1 26:1 27:1 30:1 
0.8865609449825806 2:1 3:1 4:1 7:1 8:1 9:1 10:1 11:1 13:1 14:1 15:1 16:1 17:1 19:1 22:1 25:1 26:1 27:1 30:1 31:1 34:1 
0.8453109870249927 1:1 2:1 3:1 4:1 7:1 8:1 9:1 13:1 15:1 16:1 19:1 22:1 27:1 28:1 30:1 31:1 34:1 
1.049426144300374 1:1 3:1 9:1 10:1 11:1 12:1 13:1 14:1 15:1 19:1 22:1 24:1 25:1 26:1 27:1 29:1 30:1 34:1 35:1 
1.075117766913437 1:1 3:1 4:1 6:1 7:1 9:1 12:1 13:1 14:1 15:1 16:1 19:1 26:1 27:1 29:1 31:1 32:1 33:1 
1.048024257960312 1:1 2:1 3:1 4:1 6:1 7:1 8:1 9:1 10:1 11:1 13:1 14:1 15:1 16:1 17:1 19:1 22:1 27:1 28:1 29:1 34:1 35:1 
1.083137770539797 1:1 3:1 4:1 7:1 8:1 11:1 12:1 14:1 15:1 18:1 19:1 20:1 21:1 22:1 24:1 25:1 26:1 27:1 29:1 30:1 31:1 34:1 36:1 
0.5000626405042392 1:1 2:1 3:1 4:1 7:1 8:1 9:1 10:1 11:1 12:1 13:1 14:1 16:1 19:1 22:1 25:1 26:1 27:1 28:1 29:1 31:1 34:1 
1.058725166228066 2:1 4:1 11:1 12:1 13:1 14:1 15:1 16:1 19:1 22:1 23:1 26:1 27:1 28:1 29:1 31:1 34:1 35:1 
0.933103489937759 1:1 2:1 3:1 4:1 7:1 8:1 9:1 10:1 11:1 12:1 13:1 14:1 15:1 16:1 17:1 21:1 22:1 23:1 26:1 27:1 28:1 29:1 34:1 
1.060699312750758 1:1 2:1 3:1 4:1 7:1 8:1 9:1 12:1 13:1 14:1 15:1 17:1 19:1 24:1 26:1 27:1 28:1 31:1 32:1 33:1 34:1 
1.05857097657393 1:1 3:1 4:1 7:1 9:1 11:1 12:1 13:1 14:1 15:1 16:1 22:1 24:1 25:1 26:1 27:1 28:1 30:1 32:1 34:1 36:1 
1.079841592963592 1:1 2:1 3:1 4:1 5:1 7:1 8:1 9:1 10:1 12:1 14:1 16:1 19:1 20:1 21:1 22:1 23:1 24:1 25:1 26:1 27:1 30:1 31:1 35:1 
1.050938095927288 1:1 3:1 4:1 5:1 8:1 9:1 11:1 15:1 19:1 22:1 25:1 26:1 27:1 28:1 34:1 35:1 
1.030133330130301 1:1 2:1 3:1 4:1 7:1 9:1 10:1 13:1 14:1 15:1 19:1 22:1 26:1 27:1 28:1 30:1 36:1 
1.079063264097382 1:1 2:1 3:1 7:1 8:1 11:1 12:1 13:1 14:1 17:1 18:1 19:1 20:1 22:1 25:1 27:1 30:1 31:1 34:1 36:1 
1.036417906106726 1:1 2:1 3:1 4:1 6:1 7:1 8:1 9:1 10:1 11:1 13:1 15:1 16:1 19:1 22:1 26:1 27:1 28:1 30:1 31:1 34:1 35:1 36:1 
1.095618292531289 1:1 2:1 3:1 4:1 5:1 6:1 7:1 8:1 9:1 10:1 12:1 13:1 14:1 15:1 22:1 24:1 26:1 27:1 28:1 30:1 35:1 
0.9751300804349821 1:1 2:1 3:1 6:1 8:1 9:1 10:1 11:1 12:1 13:1 14:1 15:1 16:1 19:1 22:1 24:1 25:1 26:1 27:1 28:1 29:1 30:1 34:1 35:1 
1.056963144730708 1:1 2:1 3:1 4:1 7:1 8:1 9:1 10:1 11:1 12:1 13:1 14:1 15:1 19:1 20:1 21:1 22:1 26:1 33:1 
1.078681866058859 1:1 3:1 4:1 5:1 8:1 9:1 11:1 12:1 13:1 14:1 15:1 19:1 22:1 24:1 25:1 26:1 27:1 29:1 30:1 
1.080863108381199 1:1 2:1 3:1 4:1 6:1 7:1 8:1 9:1 10:1 11:1 12:1 13:1 14:1 15:1 17:1 18:1 22:1 24:1 25:1 26:1 27:1 29:1 30:1 31:1 35:1 
1.06669718685565 3:1 4:1 7:1 8:1 9:1 12:1 13:1 14:1 19:1 22:1 26:1 27:1 28:1 30:1 31:1 32:1 33:1 34:1 
1.071846722659317 2:1 3:1 4:1 6:1 7:1 8:1 9:1 13:1 14:1 15:1 17:1 18:1 19:1 20:1 24:1 25:1 26:1 27:1 29:1 30:1 34:1 35:1 
1.081734238708627 2:1 3:1 4:1 7:1 10:1 11:1 12:1 13:1 14:1 15:1 18:1 19:1 22:1 23:1 25:1 26:1 27:1 30:1 32:1 35:1 
0.7653671347063229 1:1 2:1 3:1 4:1 7:1 8:1 9:1 10:1 11:1 12:1 13:1 14:1 15:1 16:1 19:1 22:1 24:1 25:1 28:1 31:1 34:1 35:1 
1.048278309677134 2:1 3:1 4:1 8:1 11:1 13:1 14:1 15:1 16:1 19:1 21:1 22:1 24:1 25:1 26:1 28:1 29:1 30:1 31:1 34:1 35:1 
0.918373350304884 1:1 2:1 3:1 4:1 6:1 7:1 9:1 11:1 14:1 15:1 16:1 19:1 22:1 26:1 27:1 28:1 29:1 30:1 31:1 34:1 35:1 
1.081975183065454 1:1 2:1 3:1 4:1 5:1 6:1 8:1 9:1 10:1 12:1 13:1 14:1 15:1 16:1 19:1 21:1 22:1 23:1 25:1 27:1 28:1 29:1 30:1 31:1 33:1 35:1 36:1 
1.075382324086434 1:1 2:1 3:1 4:1 5:1 7:1 10:1 11:1 14:1 22:1 23:1 25:1 26:1 27:1 28:1 29:1 
0.9382756600876412 1:1 2:1 3:1 9:1 10:1 11:1 12:1 13:1 14:1 15:1 16:1 17:1 19:1 22:1 26:1 27:1 28:1 29:1 30:1 34:1 
1.068702759703425 1:1 4:1 8:1 9:1 10:1 11:1 12:1 14:1 19:1 22:1 26:1 28:1 34:1 
1.054849057205801 1:1 2:1 3:1 4:1 7:1 8:1 11:1 12:1 13:1 14:1 15:1 19:1 21:1 22:1 25:1 26:1 27:1 28:1 29:1 30:1 34:1 35:1 36:1 
1.008771647363833 1:1 2:1 3:1 4:1 8:1 9:1 10:1 11:1 12:1 13:1 14:1 16:1 17:1 19:1 20:1 21:1 22:1 28:1 30:1 34:1 
1.003387614882712 1:1 2:1 3:1 6:1 7:1 8:1 9:1 13:1 14:1 15:1 22:1 25:1 26:1 27:1 28:1 29:1 31:1 34:1 35:1 
1.043757721947363 1:1 2:1 3:1 7:1 8:1 9:1 10:1 11:1 12:1 13:1 14:1 15:1 16:1 17:1 18:1 19:1 20:1 22:1 25:1 26:1 28:1 30:1 31:1 32:1 34:1 
1.042634850973268 1:1 2:1 3:1 7:1 8:1 9:1 10:1 11:1 12:1 13:1 14:1 16:1 17:1 19:1 20:1 21:1 22:1 25:1 26:1 27:1 29:1 30:1 31:1 35:1 
0.9069057725994087 1:1 2:1 3:1 4:1 7:1 8:1 9:1 10:1 11:1 12:1 13:1 14:1 16:1 19:1 22:1 24:1 25:1 28:1 31:1 34:1 
1.031738000819488 1:1 3:1 7:1 8:1 9:1 10:1 11:1 12:1 13:1 14:1 15:1 16:1 27:1 28:1 29:1 30:1 31:1 34:1 35:1 
0.9710942608395466 1:1 2:1 3:1 7:1 9:1 10:1 11:1 12:1 14:1 15:1 16:1 17:1 19:1 22:1 25:1 26:1 27:1 29:1 30:1 34:1 35:1 
1.073057568083381 1:1 2:1 3:1 4:1 5:1 6:1 9:1 10:1 12:1 14:1 15:1 16:1 19:1 22:1 25:1 26:1 27:1 30:1 31:1 36:1 
1.032649522047905 1:1 2:1 3:1 7:1 8:1 9:1 10:1 11:1 13:1 14:1 16:1 19:1 22:1 28:1 30:1 31:1 
1.082463848884897 1:1 2:1 4:1 5:1 6:1 7:1 9:1 10:1 11:1 12:1 13:1 14:1 15:1 19:1 22:1 25:1 26:1 27:1 28:1 29:1 30:1 31:1 32:1 34:1 35:1 
1.001546596749719 1:1 2:1 3:1 7:1 8:1 9:1 10:1 11:1 12:1 13:1 14:1 15:1 16:1 21:1 22:1 26:1 27:1 28:1 29:1 
1.025296434325652 1:1 2:1 3:1 7:1 8:1 9:1 13:1 14:1 15:1 17:1 22:1 25:1 27:1 31:1 
0.9430256524449627 1:1 2:1 3:1 7:1 8:1 9:1 11:1 12:1 13:1 14:1 15:1 16:1 19:1 21:1 22:1 25:1 26:1 27:1 28:1 34:1 
1.026284958420864 1:1 2:1 3:1 7:1 8:1 9:1 12:1 13:1 14:1 15:1 16:1 17:1 18:1 19:1 21:1 22:1 25:1 26:1 27:1 28:1 31:1 
1.044103165312013 1:1 3:1 6:1 8:1 9:1 11:1 13:1 14:1 15:1 16:1 19:1 23:1 25:1 26:1 27:1 29:1 30:1 31:1 34:1 
1.08514334614966 1:1 2:1 3:1 6:1 7:1 10:1 11:1 12:1 14:1 15:1 19:1 20:1 21:1 26:1 27:1 28:1 31:1 34:1 
1.065888634880799 1:1 2:1 3:1 4:1 6:1 7:1 8:1 9:1 13:1 14:1 15:1 16:1 17:1 25:1 26:1 27:1 29:1 33:1 
0.8123466794600057 1:1 2:1 4:1 7:1 8:1 9:1 10:1 11:1 12:1 13:1 14:1 15:1 25:1 26:1 27:1 28:1 31:1 34:1 35:1 
1.07565771210887 2:1 3:1 4:1 8:1 9:1 10:1 14:1 16:1 17:1 22:1 24:1 25:1 26:1 27:1 28:1 30:1 31:1 32:1 33:1 34:1 
1.067090528655708 1:1 2:1 3:1 4:1 7:1 8:1 10:1 11:1 12:1 13:1 14:1 15:1 19:1 22:1 24:1 26:1 27:1 30:1 31:1 32:1 
1.081835951710713 1:1 2:1 4:1 7:1 9:1 10:1 11:1 13:1 15:1 19:1 20:1 21:1 24:1 27:1 29:1 30:1 31:1 32:1 33:1 34:1 
1.040787998898716 2:1 3:1 4:1 7:1 8:1 9:1 10:1 11:1 12:1 14:1 15:1 16:1 25:1 26:1 27:1 29:1 30:1 31:1 32:1 33:1 34:1 35:1 
1.004921740311779 1:1 3:1 7:1 8:1 9:1 12:1 13:1 14:1 15:1 16:1 19:1 21:1 22:1 25:1 26:1 27:1 28:1 29:1 34:1 
1.082800312522247 1:1 2:1 3:1 4:1 6:1 8:1 9:1 10:1 11:1 12:1 15:1 19:1 23:1 26:1 27:1 28:1 29:1 30:1 31:1 32:1 34:1 36:1 
1.065317604010122 1:1 2:1 3:1 4:1 7:1 9:1 13:1 14:1 15:1 16:1 19:1 24:1 25:1 26:1 27:1 32:1 34:1 
1.079082173510676 1:1 2:1 3:1 6:1 7:1 8:1 9:1 11:1 12:1 14:1 15:1 16:1 17:1 18:1 21:1 22:1 24:1 25:1 28:1 29:1 34:1 
1.065950590467751 1:1 3:1 4:1 8:1 9:1 11:1 12:1 13:1 15:1 16:1 17:1 19:1 23:1 25:1 26:1 27:1 29:1 35:1 
1.078623055975178 2:1 3:1 4:1 6:1 7:1 8:1 9:1 10:1 11:1 13:1 17:1 19:1 20:1 22:1 28:1 30:1 34:1 
1.070987908523834 3:1 7:1 8:1 10:1 11:1 12:1 13:1 14:1 16:1 18:1 19:1 22:1 27:1 29:1 34:1 
1.075423155729587 2:1 3:1 4:1 7:1 8:1 9:1 10:1 11:1 14:1 15:1 16:1 19:1 20:1 21:1 22:1 24:1 26:1 27:1 29:1 31:1 32:1 34:1 35:1 36:1 
1.012357466353319 1:1 2:1 3:1 4:1 7:1 8:1 9:1 10:1 11:1 12:1 15:1 19:1 22:1 24:1 25:1 27:1 28:1 29:1 30:1 31:1 34:1 36:1 
1.086231868804912 1:1 2:1 3:1 4:1 5:1 7:1 8:1 9:1 12:1 14:1 15:1 20:1 23:1 25:1 26:1 27:1 29:1 30:1 31:1 32:1 34:1 35:1 36:1 
0.8877413510404268 1:1 2:1 3:1 4:1 7:1 8:1 9:1 10:1 13:1 14:1 15:1 16:1 17:1 19:1 20:1 25:1 26:1 27:1 28:1 29:1 34:1 
0.9532488484691191 1:1 2:1 3:1 4:1 6:1 7:1 8:1 9:1 11:1 12:1 13:1 14:1 15:1 16:1 19:1 22:1 24:1 26:1 27:1 29:1 30:1 31:1 32:1 34:1 35:1 
0.9891761108928815 2:1 3:1 4:1 8:1 9:1 10:1 11:1 12:1 13:1 14:1 15:1 16:1 22:1 26:1 27:1 30:1 34:1 
1.070611575420106 1:1 3:1 4:1 7:1 8:1 11:1 12:1 13:1 14:1 19:1 22:1 23:1 25:1 28:1 29:1 30:1 31:1 
1.079228942546638 1:1 2:1 3:1 4:1 7:1 9:1 12:1 13:1 16:1 19:1 20:1 22:1 23:1 25:1 26:1 27:1 28:1 29:1 31:1 32:1 
1.077308369889551 1:1 2:1 3:1 6:1 9:1 10:1 12:1 14:1 15:1 17:1 19:1 22:1 24:1 25:1 26:1 27:1 28:1 33:1 34:1 35:1 
1.017017223243691 1:1 2:1 3:1 4:1 7:1 9:1 10:1 11:1 12:1 13:1 14:1 15:1 16:1 18:1 19:1 22:1 25:1 26:1 28:1 31:1 33:1 34:1 35:1 
1.084009469195441 1:1 2:1 5:1 7:1 8:1 9:1 12:1 13:1 14:1 15:1 19:1 22:1 23:1 29:1 30:1 
1.065881380760064 1:1 3:1 4:1 7:1 8:1 9:1 10:1 11:1 13:1 14:1 15:1 16:1 18:1 26:1 27:1 30:1 35:1 
1.072520971343341 2:1 3:1 4:1 5:1 6:1 7:1 8:1 9:1 10:1 14:1 15:1 16:1 22:1 26:1 27:1 28:1 30:1 31:1 33:1 34:1 
1.081682336065964 1:1 2:1 3:1 4:1 6:1 7:1 8:1 10:1 14:1 15:1 16:1 18:1 24:1 26:1 27:1 28:1 30:1 34:1 36:1 
0.9680022392564003 2:1 3:1 4:1 7:1 8:1 10:1 11:1 13:1 14:1 15:1 16:1 19:1 22:1 25:1 26:1 27:1 28:1 29:1 31:1 33:1 34:1 35:1 
1.084086718099638 1:1 3:1 4:1 5:1 8:1 9:1 13:1 14:1 15:1 19:1 23:1 24:1 25:1 26:1 27:1 30:1 
1.067379687856744 1:1 3:1 4:1 7:1 8:1 9:1 10:1 11:1 12:1 14:1 15:1 16:1 17:1 18:1 19:1 22:1 24:1 27:1 28:1 31:1 32:1 33:1 34:1 
1.076031882299374 2:1 4:1 5:1 6:1 7:1 12:1 15:1 16:1 19:1 22:1 25:1 28:1 30:1 34:1 
1.045167053893715 2:1 3:1 4:1 7:1 8:1 9:1 13:1 15:1 16:1 22:1 27:1 28:1 29:1 31:1 35:1 
0.9289123948833701 1:1 2:1 3:1 7:1 8:1 9:1 10:1 11:1 12:1 13:1 15:1 16:1 19:1 22:1 25:1 26:1 27:1 28:1 29:1 
1.069784993846322 1:1 2:1 4:1 7:1 8:1 10:1 11:1 12:1 14:1 15:1 19:1 20:1 22:1 26:1 28:1 29:1 30:1 31:1 33:1 34:1 36:1 
1.077407549885807 1:1 3:1 4:1 6:1 7:1 8:1 12:1 13:1 15:1 16:1 17:1 19:1 25:1 26:1 27:1 29:1 31:1 34:1 35:1 
0.9423858750328071 1:1 2:1 3:1 4:1 7:1 8:1 9:1 10:1 11:1 12:1 13:1 14:1 15:1 17:1 19:1 22:1 25:1 26:1 27:1 31:1 34:1 36:1 
1.035835573768624 1:1 2:1 4:1 7:1 8:1 9:1 12:1 14:1 15:1 16:1 19:1 21:1 22:1 23:1 25:1 26:1 27:1 29:1 30:1 31:1 34:1 
1.19036427264688 1:1 2:1 3:1 4:1 6:1 7:1 8:1 9:1 10:1 11:1 12:1 13:1 14:1 15:1 17:1 19:1 20:1 24:1 25:1 26:1 27:1 28:1 29:1 30:1 
1.079386062812675 1:1 2:1 3:1 8:1 9:1 13:1 14:1 15:1 16:1 17:1 18:1 19:1 20:1 21:1 23:1 25:1 26:1 27:1 28:1 29:1 31:1 34:1 35:1 36:1 
1.079440941438606 1:1 3:1 4:1 7:1 8:1 9:1 11:1 12:1 13:1 14:1 15:1 16:1 18:1 19:1 20:1 22:1 25:1 26:1 29:1 30:1 31:1 32:1 33:1 35:1 36:1 
1.05534102411595 1:1 2:1 4:1 6:1 7:1 8:1 9:1 10:1 12:1 14:1 15:1 17:1 18:1 19:1 22:1 28:1 34:1 
1.074211394747687 2:1 3:1 8:1 9:1 11:1 12:1 13:1 15:1 17:1 19:1 22:1 27:1 29:1 35:1 
1.078174987462994 1:1 2:1 3:1 4:1 5:1 7:1 9:1 10:1 11:1 12:1 13:1 14:1 15:1 19:1 27:1 29:1 31:1 32:1 33:1 35:1 
1.025210950141572 1:1 2:1 3:1 7:1 9:1 10:1 11:1 12:1 14:1 15:1 16:1 17:1 19:1 22:1 24:1 25:1 26:1 27:1 31:1 35:1 
0.7996513896649607 1:1 2:1 3:1 7:1 8:1 9:1 10:1 11:1 12:1 13:1 14:1 15:1 16:1 22:1 23:1 26:1 27:1 28:1 29:1 31:1 34:1 35:1 
1.075125768161162 1:1 2:1 3:1 4:1 5:1 6:1 7:1 8:1 9:1 10:1 11:1 13:1 14:1 15:1 25:1 26:1 27:1 28:1 31:1 36:1 
1.040298659335998 1:1 2:1 3:1 8:1 9:1 10:1 11:1 12:1 13:1 14:1 16:1 19:1 26:1 31:1 
1.068765277154306 1:1 2:1 3:1 4:1 6:1 7:1 8:1 9:1 10:1 12:1 13:1 15:1 17:1 22:1 25:1 26:1 28:1 31:1 33:1 34:1 
1.048668439815699 1:1 7:1 9:1 10:1 11:1 12:1 13:1 14:1 15:1 16:1 17:1 19:1 20:1 22:1 25:1 26:1 27:1 29:1 31:1 34:1 
1.053498434147441 1:1 2:1 3:1 6:1 7:1 8:1 9:1 11:1 13:1 14:1 15:1 19:1 20:1 21:1 22:1 25:1 26:1 27:1 29:1 31:1 35:1 
1.033791660234788 1:1 3:1 4:1 5:1 7:1 8:1 9:1 10:1 11:1 12:1 15:1 16:1 17:1 19:1 22:1 26:1 28:1 30:1 31:1 34:1 
1.061355326132394 1:1 2:1 3:1 7:1 10:1 11:1 12:1 13:1 14:1 16:1 17:1 19:1 20:1 22:1 24:1 25:1 26:1 27:1 28:1 29:1 30:1 31:1 32:1 34:1 
1.055557533577724 1:1 2:1 3:1 4:1 7:1 8:1 9:1 11:1 12:1 19:1 24:1 25:1 26:1 28:1 29:1 30:1 31:1 34:1 
1.060005376208732 1:1 2:1 4:1 5:1 7:1 8:1 9:1 13:1 14:1 16:1 19:1 20:1 22:1 25:1 26:1 27:1 28:1 34:1 
0.9509744927288025 2:1 3:1 4:1 7:1 8:1 11:1 12:1 13:1 14:1 15:1 16:1 22:1 25:1 26:1 27:1 31:1 34:1 
1.106342704798533 1:1 2:1 3:1 4:1 7:1 8:1 9:1 10:1 12:1 13:1 15:1 19:1 22:1 24:1 25:1 26:1 27:1 29:1 30:1 35:1 36:1 
1.042528812838592 1:1 3:1 4:1 7:1 8:1 9:1 10:1 11:1 13:1 14:1 16:1 17:1 22:1 26:1 27:1 28:1 31:1 32:1 33:1 34:1 
1.05559193109071 1:1 2:1 3:1 4:1 5:1 7:1 9:1 11:1 13:1 14:1 16:1 19:1 22:1 29:1 30:1 31:1 34:1 
1.037006368818827 1:1 3:1 4:1 6:1 7:1 8:1 10:1 11:1 12:1 13:1 14:1 15:1 19:1 22:1 25:1 26:1 28:1 29:1 30:1 31:1 
1.07675183257596 2:1 3:1 4:1 5:1 7:1 8:1 9:1 11:1 12:1 14:1 15:1 19:1 21:1 22:1 26:1 31:1 33:1 34:1 
1.062640884219239 1:1 3:1 4:1 5:1 6:1 8:1 9:1 10:1 11:1 12:1 13:1 14:1 15:1 16:1 17:1 19:1 21:1 22:1 27:1 29:1 31:1 32:1 35:1 
1.074958737597834 1:1 2:1 3:1 4:1 5:1 8:1 9:1 13:1 14:1 15:1 21:1 22:1 23:1 24:1 25:1 26:1 27:1 28:1 29:1 30:1 31:1 33:1 34:1 
1.072142891131292 1:1 2:1 5:1 6:1 7:1 8:1 13:1 14:1 15:1 17:1 19:1 22:1 25:1 26:1 28:1 29:1 34:1 35:1 
1.062337122665785 2:1 3:1 7:1 8:1 9:1 11:1 12:1 13:1 14:1 15:1 16:1 17:1 22:1 23:1 24:1 25:1 26:1 27:1 28:1 29:1 30:1 31:1 32:1 33:1 34:1 
1.001317309574081 1:1 2:1 3:1 4:1 6:1 8:1 11:1 12:1 13:1 14:1 19:1 22:1 24:1 25:1 26:1 27:1 28:1 30:1 31:1 34:1 
1.058311894801962 4:1 7:1 8:1 9:1 10:1 11:1 12:1 13:1 15:1 17:1 19:1 22:1 25:1 26:1 27:1 28:1 30:1 34:1 
1.020684595175934 1:1 2:1 3:1 4:1 7:1 8:1 9:1 11:1 12:1 13:1 14:1 15:1 16:1 18:1 19:1 22:1 24:1 26:1 27:1 29:1 30:1 35:1 
0.6229548838109783 1:1 2:1 3:1 4:1 7:1 8:1 9:1 10:1 11:1 12:1 13:1 14:1 15:1 16:1 17:1 19:1 21:1 22:1 26:1 27:1 28:1 30:1 31:1 34:1 
1.081872593234099 1:1 3:1 4:1 5:1 6:1 7:1 8:1 9:1 10:1 11:1 12:1 13:1 14:1 15:1 16:1 17:1 19:1 20:1 22:1 25:1 26:1 27:1 28:1 29:1 34:1 35:1 
1.081804822437616 1:1 3:1 4:1 8:1 9:1 10:1 11:1 13:1 15:1 21:1 22:1 23:1 25:1 27:1 28:1 29:1 30:1 32:1 34:1 
1.077730926873133 1:1 7:1 8:1 9:1 12:1 13:1 14:1 15:1 19:1 22:1 25:1 26:1 28:1 30:1 33:1 36:1 
1.074795788160613 1:1 2:1 3:1 4:1 5:1 7:1 10:1 12:1 13:1 14:1 15:1 22:1 25:1 29:1 31:1 33:1 34:1 35:1 
1.054946147483302 1:1 2:1 4:1 7:1 8:1 11:1 12:1 13:1 14:1 16:1 17:1 19:1 22:1 26:1 27:1 28:1 29:1 30:1 31:1 32:1 33:1 36:1 
0.859012663322462 1:1 3:1 8:1 9:1 10:1 11:1 12:1 13:1 14:1 15:1 16:1 19:1 25:1 26:1 27:1 29:1 30:1 31:1 35:1 
1.060680624316569 1:1 2:1 3:1 4:1 7:1 8:1 9:1 13:1 15:1 19:1 23:1 26:1 27:1 29:1 30:1 31:1 34:1 35:1 
1.100599702398665 1:1 3:1 4:1 7:1 8:1 10:1 13:1 14:1 19:1 22:1 24:1 26:1 27:1 29:1 30:1 31:1 32:1 33:1 34:1 35:1 
0.9750679721591728 1:1 2:1 3:1 4:1 7:1 8:1 9:1 11:1 12:1 13:1 14:1 15:1 16:1 20:1 22:1 25:1 27:1 28:1 29:1 34:1 
1.030044768239463 1:1 2:1 3:1 7:1 8:1 9:1 10:1 12:1 13:1 14:1 15:1 19:1 24:1 25:1 26:1 27:1 29:1 31:1 
1.057647143396805 1:1 4:1 7:1 9:1 12:1 13:1 14:1 15:1 16:1 17:1 19:1 22:1 25:1 26:1 27:1 30:1 31:1 34:1 35:1 36:1 
1.051552114453581 1:1 2:1 7:1 8:1 9:1 12:1 13:1 14:1 15:1 16:1 19:1 20:1 22:1 24:1 26:1 27:1 28:1 30:1 
1.021418048124075 1:1 3:1 7:1 9:1 10:1 11:1 12:1 13:1 14:1 22:1 25:1 26:1 27:1 28:1 29:1 31:1 34:1 
1.057359758476899 1:1 2:1 3:1 7:1 9:1 13:1 14:1 15:1 19:1 22:1 24:1 25:1 26:1 28:1 30:1 34:1 
1.078004549733115 1:1 2:1 3:1 4:1 6:1 7:1 8:1 9:1 10:1 12:1 13:1 14:1 15:1 16:1 17:1 21:1 25:1 26:1 27:1 30:1 33:1 
0.8714557194906922 1:1 2:1 3:1 4:1 7:1 8:1 9:1 10:1 11:1 12:1 13:1 14:1 15:1 16:1 19:1 21:1 22:1 25:1 26:1 27:1 28:1 29:1 31:1 35:1 
1.070379650977093 1:1 2:1 3:1 4:1 6:1 7:1 8:1 9:1 10:1 13:1 14:1 15:1 16:1 18:1 19:1 22:1 24:1 26:1 27:1 28:1 29:1 30:1 34:1 
1.077065781896468 2:1 3:1 4:1 6:1 7:1 8:1 13:1 14:1 15:1 19:1 21:1 22:1 24:1 25:1 30:1 31:1 34:1 36:1 
1.050674878031975 2:1 3:1 7:1 8:1 11:1 12:1 13:1 14:1 15:1 22:1 23:1 25:1 26:1 27:1 28:1 30:1 31:1 32:1 34:1 
0.9492927515257336 1:1 3:1 4:1 7:1 8:1 9:1 10:1 11:1 12:1 13:1 14:1 16:1 19:1 22:1 25:1 26:1 27:1 29:1 30:1 34:1 
1.077951018174136 1:1 2:1 3:1 4:1 5:1 6:1 7:1 8:1 9:1 14:1 16:1 17:1 19:1 20:1 21:1 22:1 23:1 24:1 25:1 26:1 27:1 30:1 31:1 34:1 36:1 
